tree
version=v4
num_class=1
num_tree_per_iteration=1
label_index=0
max_feature_idx=130
objective=regression
feature_names=all_correlation_best_percentile25_ratio all_correlation_best_percentile50_ratio all_correlation_best_percentile75_ratio all_correlation_kurtosis all_correlation_percentile5_percentile25_ratio all_correlation_skew all_correlation_stddev_best_ratio all_correlation_stddev_median_ratio all_loss_best_percentile25_ratio all_loss_best_percentile50_ratio all_loss_best_percentile75_ratio all_loss_kurtosis all_loss_percentile5_percentile25_ratio all_loss_skew all_loss_stddev_best_ratio all_loss_stddev_median_ratio log10_cardinality recent_10_correlation_best_percentile25_ratio recent_10_correlation_best_percentile50_ratio recent_10_correlation_best_percentile75_ratio recent_10_correlation_kurtosis recent_10_correlation_percentile5_percentile25_ratio recent_10_correlation_skew recent_10_correlation_stddev_best_ratio recent_10_correlation_stddev_median_ratio recent_10_loss_best_percentile25_ratio recent_10_loss_best_percentile50_ratio recent_10_loss_best_percentile75_ratio recent_10_loss_kurtosis recent_10_loss_percentile5_percentile25_ratio recent_10_loss_skew recent_10_loss_stddev_best_ratio recent_10_loss_stddev_median_ratio recent_15%_correlation_best_percentile25_ratio recent_15%_correlation_best_percentile50_ratio recent_15%_correlation_best_percentile75_ratio recent_15%_correlation_kurtosis recent_15%_correlation_percentile5_percentile25_ratio recent_15%_correlation_skew recent_15%_correlation_stddev_best_ratio recent_15%_correlation_stddev_median_ratio recent_15%_loss_best_percentile25_ratio recent_15%_loss_best_percentile50_ratio recent_15%_loss_best_percentile75_ratio recent_15%_loss_kurtosis recent_15%_loss_percentile5_percentile25_ratio recent_15%_loss_skew recent_15%_loss_stddev_best_ratio recent_15%_loss_stddev_median_ratio recent_25_correlation_best_percentile25_ratio recent_25_correlation_best_percentile50_ratio recent_25_correlation_best_percentile75_ratio recent_25_correlation_kurtosis recent_25_correlation_percentile5_percentile25_ratio recent_25_correlation_skew recent_25_correlation_stddev_best_ratio recent_25_correlation_stddev_median_ratio recent_25_loss_best_percentile25_ratio recent_25_loss_best_percentile50_ratio recent_25_loss_best_percentile75_ratio recent_25_loss_kurtosis recent_25_loss_percentile5_percentile25_ratio recent_25_loss_skew recent_25_loss_stddev_best_ratio recent_25_loss_stddev_median_ratio top_10%_correlation_best_percentile25_ratio top_10%_correlation_best_percentile50_ratio top_10%_correlation_best_percentile75_ratio top_10%_correlation_kurtosis top_10%_correlation_percentile5_percentile25_ratio top_10%_correlation_skew top_10%_correlation_stddev_best_ratio top_10%_correlation_stddev_median_ratio top_10%_loss_best_percentile25_ratio top_10%_loss_best_percentile50_ratio top_10%_loss_best_percentile75_ratio top_10%_loss_kurtosis top_10%_loss_percentile5_percentile25_ratio top_10%_loss_skew top_10%_loss_stddev_best_ratio top_10%_loss_stddev_median_ratio top_20%_correlation_best_percentile25_ratio top_20%_correlation_best_percentile50_ratio top_20%_correlation_best_percentile75_ratio top_20%_correlation_kurtosis top_20%_correlation_percentile5_percentile25_ratio top_20%_correlation_skew top_20%_correlation_stddev_best_ratio top_20%_correlation_stddev_median_ratio top_20%_loss_best_percentile25_ratio top_20%_loss_best_percentile50_ratio top_20%_loss_best_percentile75_ratio top_20%_loss_kurtosis top_20%_loss_percentile5_percentile25_ratio top_20%_loss_skew top_20%_loss_stddev_best_ratio top_20%_loss_stddev_median_ratio top_30%_correlation_best_percentile25_ratio top_30%_correlation_best_percentile50_ratio top_30%_correlation_best_percentile75_ratio top_30%_correlation_kurtosis top_30%_correlation_percentile5_percentile25_ratio top_30%_correlation_skew top_30%_correlation_stddev_best_ratio top_30%_correlation_stddev_median_ratio top_30%_loss_best_percentile25_ratio top_30%_loss_best_percentile50_ratio top_30%_loss_best_percentile75_ratio top_30%_loss_kurtosis top_30%_loss_percentile5_percentile25_ratio top_30%_loss_skew top_30%_loss_stddev_best_ratio top_30%_loss_stddev_median_ratio resultFilteringMode_age resultFilteringMode_loss_rank resultFilteringMode_none resultFilteringMode_random resultFilteringMode_zscore secondaryProbabilityMode_correlation secondaryProbabilityMode_fixed secondaryLockingMode_random secondaryLockingMode_top resultFilteringAgeMultiplier resultFilteringLossRankMultiplier resultFilteringRandomProbability zscoreThreshold secondaryTopLockingPercentile secondaryCorrelationExponent secondaryCorrelationMultiplier secondaryFixedProbability secondaryCutoff
feature_infos=[-2.4369000000000001:24.036000000000001] [-2.5036:21.358000000000001] [-3.5531000000000001:154.86000000000001] [-3.6453000000000002:14.465] [-2.4540999999999999:24.484000000000002] [-6.8068999999999997:6.6510999999999996] [-9.1274999999999995:5.3723999999999998] [-4.3174999999999999:22.431999999999999] [-23812:490.06999999999999] [-350.76999999999998:691.17999999999995] [-668.07000000000005:2463.3000000000002] [-4.3609:20.048999999999999] [-29352:453.97000000000003] [-12.154999999999999:10.747999999999999] [-5565.3999999999996:70.739000000000004] [-311.45999999999998:135.58000000000001] [-2.0857000000000001:3.1073] [-4.9265999999999996:1725.2] [-3.1505999999999998:370.75] [-1.8580000000000001:175.59999999999999] [-2.8125:19.670999999999999] [-5.9444999999999997:1067] [-6.0997000000000003:6.9995000000000003] [-11.852:6.1654999999999998] [-2.9542000000000002:371.73000000000002] [-296.87:3737.5] [-1274.9000000000001:475.93000000000001] [-714.02999999999997:195.58000000000001] [-2.1116999999999999:2.0192000000000001] [-296.49000000000001:4457.8999999999996] [-5.7491000000000003:1.9677] [-110.33:809.63999999999999] [-156.47:1140.3] [-5.0629999999999997:329.44999999999999] [-3.5225:110.34] [-2.3738999999999999:1656.7] [-2.7488000000000001:19.879999999999999] [-6.3052000000000001:318.25] [-6.3205:7.2946] [-9.8634000000000004:5.5928000000000004] [-3.3704000000000001:122.2] [-67.754999999999995:1012] [-241.91:302.79000000000002] [-1217.7:536.24000000000001] [-1.7388999999999999:14.298] [-72.736999999999995:1077.3] [-5.1489000000000003:6.8114999999999997] [-7208.5:195.13999999999999] [-127.28:40.521999999999998] [-5.7134:1869.5999999999999] [-3.9287999999999998:2785.8000000000002] [-2.6880999999999999:533.00999999999999] [-3.0124:21.812999999999999] [-7.1954000000000002:1821.7] [-6.0408999999999997:8.0638000000000005] [-11.795999999999999:6.9744999999999999] [-3.4984999999999999:2636.4000000000001] [-490.95999999999998:226.03999999999999] [-289.41000000000003:1278.0999999999999] [-1286.4000000000001:872.04999999999995] [-2.5478000000000001:6.2981999999999996] [-602.50999999999999:280.10000000000002] [-7.2958999999999996:4.7473000000000001] [-5771:180.09] [-459.75999999999999:83.087000000000003] [-4.0186999999999999:301.73000000000002] [-2.5922000000000001:251.47] [-1.7357:149.52000000000001] [-2.2233000000000001:14.555] [-4.8287000000000004:393.81999999999999] [-6.9291:6.0297999999999998] [-16.062999999999999:5.8040000000000003] [-2.5865999999999998:225.68000000000001] [-1803.4000000000001:735.75999999999999] [-938.11000000000001:67.903999999999996] [-179.59:111.23] [-3.4792999999999998:43.048999999999999] [-2314.1999999999998:793.05999999999995] [-11.151999999999999:9.8718000000000004] [-4999.5:190.53] [-74.522999999999996:781.51999999999998] [-5.0312000000000001:621.75999999999999] [-3.1566000000000001:379.76999999999998] [-1.7352000000000001:759.52999999999997] [-2.6225000000000001:18.971] [-6.0110999999999999:764.72000000000003] [-9.5698000000000008:7.2789000000000001] [-15.291:5.8116000000000003] [-3.1179999999999999:452.06999999999999] [-729.85000000000002:68.497] [-151.41:134.44] [-579.60000000000002:2064.0999999999999] [-3.8058000000000001:27.905999999999999] [-749.03999999999996:77.513999999999996] [-7.7359999999999998:8.6153999999999993] [-6760.5:263.13999999999999] [-117.66:2193.5] [-4.9116:855.61000000000001] [-3.7989000000000002:137.11000000000001] [-1.6677999999999999:696.63999999999999] [-2.9215:21.244] [-5.8402000000000003:707.25] [-7.2865000000000002:7.2605000000000004] [-13.013999999999999:6.3464999999999998] [-3.5796000000000001:152.56] [-179.77000000000001:110.38] [-566.97000000000003:2100.5] [-258.92000000000002:770.02999999999997] [-3.5779999999999998:23.859999999999999] [-243.33000000000001:121.63] [-10.314:10.305999999999999] [-6739.3999999999996:172.05000000000001] [-1577.4000000000001:552.88] [0:1] [0:1] [0:1] [0:1] [0:1] [0:1] [0:1] [0:1] [0:1] [-3:4] [-3:4] [-3:0.90000000000000002] [-3:3] [-3:10] [1:3] [-3:1.8] [-3:0.75] [-1:1]
tree_sizes=2612 2792 2798 2800 2804 2815 2813 2823 2802 2827 2827 2819 2837 2804 2826 2835 2819 2817 2819 2841 2843 2837

Tree=0
num_leaves=31
num_cat=0
split_feature=92 26 0 32 92 44 9 56 108 82 60 74 0 44 33 13 14 83 14 2 64 64 68 85 14 83 30 19 23 68
split_gain=11.918 4.24257 3.25663 3.07131 2.98809 3.118 4.00451 2.43579 1.90126 1.97105 1.67818 2.02236 1.67806 1.77339 1.45335 1.37928 1.89672 1.37855 1.74402 1.52835 1.24291 0.843987 0.841 0.798549 0.793525 0.732976 0.627519 0.458903 0.442041 0.425692
threshold=-3.6528999999999994 2.0275000000000003 4.6269000000000009 0.98298500000000011 -0.30395499999999992 -0.15167499999999998 -0.76850999999999992 -0.54804499999999989 -0.38583999999999996 -1.6870499999999999 2.3489000000000004 -1.8535499999999998 -0.24980499999999997 4.9388000000000014 -0.7443749999999999 -1.5510999999999997 -1.9666999999999997 -1.3285499999999997 3.6602500000000004 0.42264500000000005 0.47951000000000005 2.1762000000000001 -0.55845999999999985 1.2267000000000003 -0.16073999999999997 -1.3342999999999998 -0.010971649999999998 -0.36990999999999996 -0.085885999999999976 -0.18395499999999998
decision_type=2 2 2 2 2 2 2 2 2 2 2 2 2 2 2 2 2 2 2 2 2 2 2 2 2 2 2 2 2 2
left_child=-1 2 4 -4 5 6 14 15 9 -8 17 -12 13 24 -2 -3 -17 18 19 -6 -13 29 -11 27 -7 -26 -14 28 -9 -19
right_child=1 7 3 -5 10 12 8 23 -10 22 11 20 26 -15 -16 16 -18 21 -20 -21 -22 -23 -24 -25 25 -27 -28 -29 -30 -31
leaf_value=1.4877520372044721 1.5063068151981993 1.5243674202974546 1.4924715881690975 1.5164253922760957 1.5040340880736369 1.5158340873311866 1.4923674219404852 1.52153408713921 1.4890340886949622 1.5040340874682774 1.4985340889323164 1.5085795426063917 1.5155340878817845 1.5071293265675698 1.5224551403547446 1.5003384356604146 1.5202340876649727 1.5297483729005052 1.5249864684756507 1.518777677145003 1.5245896432473502 1.5173099494653062 1.5185340873304416 1.5185340878892351 1.5309785317968239 1.5198340877484191 1.5038489030529856 1.5336494720378122 1.5310340869765391 1.5223674207519402
leaf_weight=39 22 30 32 23 32 25 21 24 28 20 20 22 20 21 38 23 25 56 42 39 27 29 20 20 36 25 27 39 25 30
leaf_count=39 22 30 32 23 32 25 21 24 28 20 20 22 20 21 38 23 25 56 42 39 27 29 20 20 36 25 27 39 25 30
internal_value=1.51477 1.51603 1.51413 1.50249 1.5152 1.51171 1.50655 1.52269 1.49982 1.50477 1.51876 1.51193 1.5167 1.52016 1.51653 1.51596 1.5107 1.52083 1.51691 1.51213 1.5174 1.52469 1.51128 1.52755 1.52334 1.52641 1.50882 1.5296 1.52638 1.52717
internal_weight=0 841 655 55 600 303 149 186 89 61 297 69 154 107 60 78 48 228 113 71 49 115 40 108 86 61 47 88 49 86
internal_count=880 841 655 55 600 303 149 186 89 61 297 69 154 107 60 78 48 228 113 71 49 115 40 108 86 61 47 88 49 86
is_linear=0
shrinkage=1


Tree=1
num_leaves=31
num_cat=0
split_feature=77 76 59 1 6 38 25 107 19 9 35 59 13 104 14 112 70 75 14 39 39 35 58 9 86 23 108 0 69 64
split_gain=11.0106 5.23984 5.39881 2.47989 2.29104 2.1942 2.18804 2.409 1.83805 1.67921 2.48857 2.10374 1.61968 1.46213 1.42558 1.18109 1.15589 1.33525 1.04361 1.02043 0.857834 1.0647 0.913857 0.833144 0.788646 0.957362 0.661749 0.706761 0.649771 0.6461
threshold=-48.676999999999992 -3.4167999999999994 -0.84518999999999989 2.6913000000000005 0.14634000000000003 -0.20959999999999998 1.9779500000000001 5.9709000000000012 -0.51040499999999989 -1.1739499999999998 -1.8179999999999998 1.2454500000000002 0.42395500000000003 -1.0153499999999998 -1.8631999999999997 0.61177500000000007 0.45819000000000004 -4.0291499999999987 -0.45263999999999999 -1.5049499999999998 2.6246000000000005 -0.32323499999999994 0.65910000000000013 -0.38879499999999995 0.020745500000000004 1.0994000000000004 0.47285000000000005 -0.3028499999999999 2.5779500000000004 0.78727000000000003
decision_type=2 2 2 2 2 2 2 2 2 2 2 2 2 2 2 2 2 2 2 2 2 2 2 2 2 2 2 2 2 2
left_child=8 2 4 6 -2 13 9 26 -1 16 11 12 15 -5 -12 -11 17 -3 -16 -7 21 24 23 -23 25 -20 27 -8 -18 -26
right_child=1 3 -4 5 -6 19 7 -9 -10 10 14 -13 -14 -15 18 -17 28 -19 20 -21 -22 22 -24 -25 29 -27 -28 -29 -30 -31
leaf_value=-0.014208922421802645 0.008190312422811985 -0.00826749473810196 -0.029505069238635214 -0.021433231218353565 -0.011861156723622618 0.010682248572508496 0.014795561755696933 -0.0024091413244605067 -0.034424184364351358 0.002377828971847244 -0.0092216157947074291 0.0065949046741361206 -0.022447877536926952 -0.0036047306073748553 0.013151511869260245 -0.01332210370898247 0.016453548244067601 0.0089166557129759065 -0.0039598993684460482 -0.0022419401377971686 0.0118597654470553 0.00013545470622678598 0.0055491230365904897 -0.012668015449135393 0.0045305498968809844 0.0086139182094484568 0.015936160460114479 0.0022353413825233776 0.0066741148969440755 0.014777076587080957
leaf_weight=23 28 20 26 23 29 21 21 34 22 23 22 23 21 23 28 25 35 26 41 56 24 24 22 27 40 24 67 24 33 25
leaf_count=23 28 20 26 23 29 21 21 34 22 23 22 23 21 23 28 25 35 26 41 56 24 24 22 27 40 24 67 24 33 25
internal_value=0 0.00129837 -0.0106238 0.00261425 -0.00201131 -0.00387882 0.00388396 0.00924772 -0.0240919 0.00226261 0.000623952 -0.00650093 -0.0108662 -0.012519 0.00299034 -0.00579922 0.00756669 0.00144529 0.00404392 0.00128284 0.00292051 0.00186366 -0.00296856 -0.00664285 0.00457713 0.000682741 0.0127864 0.00809678 0.0117076 0.00847152
internal_weight=0 835 83 752 57 123 629 146 45 483 369 92 69 46 277 48 114 46 255 77 227 203 73 51 130 65 112 45 68 65
internal_count=880 835 83 752 57 123 629 146 45 483 369 92 69 46 277 48 114 46 255 77 227 203 73 51 130 65 112 45 68 65
is_linear=0
shrinkage=0.05


Tree=2
num_leaves=31
num_cat=0
split_feature=77 76 10 99 0 64 6 103 11 100 106 37 16 29 48 10 17 27 76 37 130 22 76 86 45 69 34 31 67 72
split_gain=9.93709 4.72896 4.87243 2.28081 2.23645 2.14812 2.06767 2.02379 2.00408 1.80547 2.14403 1.76154 1.72636 1.48752 1.41896 1.2763 1.38116 1.35739 1.24285 1.06821 0.901794 0.898334 0.825503 0.725345 0.629814 0.612158 0.555713 0.684637 0.532416 0.594692
threshold=-48.676999999999992 -3.4167999999999994 0.80238000000000009 -0.86449999999999994 1.8230500000000001 0.52659000000000011 0.14634000000000003 0.58918000000000015 -1.2460499999999997 2.9229500000000006 0.1736 -1.0087499999999998 1.0000000180025095e-35 -3.9958999999999993 -3.4239999999999995 -0.37994999999999995 2.1479000000000004 1.1499000000000004 0.32784000000000008 1.6358000000000004 -0.14999999999999999 -0.35090999999999994 -0.5224049999999999 -1.6850499999999997 0.54191000000000011 -0.6129699999999999 -0.070121999999999976 3.5120500000000008 -0.81184999999999985 -0.37849499999999997
decision_type=2 2 2 2 2 2 2 2 2 2 2 2 2 2 2 2 2 2 2 2 2 2 2 2 2 2 2 2 2 2
left_child=11 2 6 4 5 7 -2 12 23 10 21 -1 20 -10 -15 19 17 28 22 25 -3 -6 -9 -5 26 -16 -7 -28 -17 -30
right_child=1 3 -4 8 9 24 -8 18 13 -11 -12 -13 -14 14 15 16 -18 -19 -20 -21 -22 -23 -24 -25 -26 -27 27 -29 29 -31
leaf_value=-0.012311728387361482 0.007780796688582216 -0.010261856988072396 -0.028029815895626177 0.0047658883608304543 -0.010586759950965644 0.011377636419578655 -0.011268098729437796 0.0052720126956701287 -0.0087116636646290616 0.0042748582214117052 0.00073508310901082086 -0.032141004541578394 -0.019548432122577321 -0.0072978560347110033 0.018700999137945474 0.005098079378776094 -0.0088205763308162044 0.01227587306099694 0.012392042949795724 0.0013032458236683971 0.0023277050279306645 -0.025228317166593947 -0.0078534887374743165 0.014692030007403996 -0.00071364394389092931 0.0085776709086660824 0.0099393004861970738 -0.0022720076990398494 -0.0089506680332124243 0.0025174838419143972
leaf_weight=21 28 25 26 26 20 61 29 25 24 25 23 24 22 24 32 47 22 41 27 23 33 22 23 63 24 28 24 22 20 26
leaf_count=21 28 25 26 26 20 61 29 25 24 25 23 24 22 24 32 47 22 41 27 23 33 22 23 63 24 28 24 22 20 26
internal_value=0 0.00123345 -0.0100926 0.00248353 -0.000270093 0.00189309 -0.00191075 -0.0020906 0.00523716 -0.00714422 -0.0115362 -0.0228873 -0.00762247 0.0032044 0.00429179 0.00545561 0.00279044 0.00469673 0.00381007 0.0104648 -0.00309883 -0.0182561 -0.00101729 0.0117923 0.00660662 0.0139768 0.00824855 0.00409911 0.00135539 -0.00246867
internal_weight=0 835 83 752 376 286 57 155 376 90 65 45 80 287 263 239 156 134 75 83 58 42 48 89 131 60 107 46 93 46
internal_count=880 835 83 752 376 286 57 155 376 90 65 45 80 287 263 239 156 134 75 83 58 42 48 89 131 60 107 46 93 46
is_linear=0
shrinkage=0.05


Tree=3
num_leaves=31
num_cat=0
split_feature=77 76 59 4 99 15 44 36 59 108 16 30 29 4 11 16 99 32 29 24 77 68 101 5 21 48 97 32 70 66
split_gain=8.96823 4.26788 4.39737 2.14032 1.9588 1.88053 1.9901 1.85897 1.79057 1.5452 1.54107 1.52207 1.40889 1.32157 1.83653 1.38843 1.15503 1.0565 1.46883 1.04858 1.01428 0.996496 0.97497 1.31955 1.09136 0.961689 0.547553 0.843565 0.536563 0.441886
threshold=-48.676999999999992 -3.4167999999999994 -0.84518999999999989 4.9089000000000009 -0.98499999999999988 -0.81528999999999985 -0.98537999999999981 -0.90147499999999992 -1.0751999999999997 0.22228500000000004 -0.39273499999999989 -0.41156999999999994 1.9598500000000001 1.1705500000000002 0.11211500000000001 1.0000000180025095e-35 -1.1870499999999999 3.6352000000000007 -3.0153999999999996 2.1450000000000005 3.1579500000000005 -0.7279199999999999 -0.88771999999999984 -0.064806499999999975 -1.1267999999999996 -3.0098999999999996 0.21662000000000001 8.4011000000000013 -0.36296499999999993 -0.93582999999999983
decision_type=2 2 2 2 2 2 2 2 2 2 2 2 2 2 2 2 2 2 2 2 2 2 2 2 2 2 2 2 2 2
left_child=7 2 4 5 -2 9 8 -1 21 11 -5 28 -13 17 -15 -16 -10 18 -8 22 -11 -7 29 24 -24 -22 27 -19 -3 -20
right_child=1 3 -4 10 -6 6 13 -9 16 20 -12 12 -14 14 15 -17 -18 26 19 -21 25 -23 23 -25 -26 -27 -28 -29 -30 -31
leaf_value=-0.010380970449186863 -0.010608458667993545 0.0029611663002034896 -0.026628324625870361 -0.016478504993021489 0.0079550676047801978 0.0099936082160898623 -0.0097176973877305343 -0.030832580685615542 -0.019901755986654241 0.014812744958908297 0.0018945139256261645 -0.014595050197094679 0.0032094804272055628 0.0098923951946198949 -0.00067327909171581272 -0.016808050218969584 -0.0046539951598754637 -0.0025605073943734172 0.010281960661277961 0.011247513519647794 -0.0020081448135897519 -0.004112880496728805 0.00034385101291640053 0.0057258423510938884 -0.013911648944020272 0.010434415538541297 0.012621428309163699 0.011961589977145196 0.013883398998190057 0.0019161448641507714
leaf_weight=20 30 23 26 25 27 21 22 25 23 64 21 20 25 20 30 24 27 20 38 39 24 31 29 40 25 44 48 20 22 27
leaf_count=20 30 23 26 25 27 21 22 25 23 64 21 20 25 20 30 24 27 20 38 39 24 31 29 40 25 44 48 20 22 27
internal_value=0 0.00117178 -0.00958799 0.00235936 -0.00181521 0.00304025 0.00129257 -0.021743 -0.00491208 0.0068505 -0.00809082 0.00179864 -0.00470364 0.00294931 -0.00305059 -0.00784429 -0.011668 0.00439084 0.00253876 0.00390059 0.010295 0.00158397 0.00209852 -0.0011573 -0.00625592 0.00604292 0.00902103 0.00470054 0.00830092 0.00680693
internal_weight=0 835 83 752 57 706 484 45 102 222 46 90 45 382 74 54 50 308 220 198 132 52 159 94 54 68 88 40 45 65
internal_count=880 835 83 752 57 706 484 45 102 222 46 90 45 382 74 54 50 308 220 198 132 52 159 94 54 68 88 40 45 65
is_linear=0
shrinkage=0.05


Tree=4
num_leaves=31
num_cat=0
split_feature=92 10 44 66 4 96 31 63 34 39 62 44 15 61 107 29 87 23 36 28 32 39 33 92 17 39 107 103 56 35
split_gain=8.09775 3.23322 4.18507 4.25858 2.26855 2.0821 2.04691 1.75045 1.72375 1.60411 1.27078 1.335 1.12867 1.31032 1.05626 0.931156 0.911235 1.34645 1.20392 1.15369 1.29442 1.03749 0.94131 0.864822 0.810606 0.735956 0.647363 0.763232 0.951116 0.364998
threshold=-3.6528999999999994 -0.74874499999999988 -0.8533099999999999 -1.7351499999999997 1.1926000000000003 -0.23775499999999997 -0.16596999999999998 -2.6521999999999997 0.49980500000000005 1.1025500000000001 1.1069500000000001 -1.1354999999999997 5.9266000000000014 -4.936799999999999 -0.11889999999999999 2.0198500000000004 1.0128000000000001 1.3736000000000002 -0.05825049999999999 -0.72114999999999985 1.7680500000000003 1.8054000000000003 0.74994000000000016 -0.26817499999999994 -1.6588999999999998 -0.47735999999999995 3.7548000000000004 0.89476500000000014 -0.026687999999999993 0.6863800000000001
decision_type=2 2 2 2 2 2 2 2 2 2 2 2 2 2 2 2 2 2 2 2 2 2 2 2 2 2 2 2 2 2
left_child=-1 7 3 6 15 -6 -3 8 -2 -8 11 23 13 -9 25 16 17 19 21 -4 -21 -18 -20 -5 -15 -7 29 28 -28 -26
right_child=1 2 4 10 5 14 9 12 -10 -11 -12 -13 -14 24 -16 -17 18 -19 22 20 -22 -23 -24 -25 26 -27 27 -29 -30 -31
leaf_value=-0.022272893596583836 0.0056311081784466907 -0.024623633145957308 0.010572574871281784 0.00010948523879051209 0.006372496026257674 0.0010856368133555288 -0.0023939381007637298 -0.0007031622517388314 -0.013984313132684856 -0.019177109429923199 -0.010649078963324428 -0.007221080483868718 -0.0021407894790172579 0.00087925942614674568 -0.019082632688805463 0.01276328193156847 -0.010446254743470086 0.012486196328334663 0.013134381628002635 -0.0079460344995771134 0.0056523805058428219 0.0031485261921973332 -0.00079850817996042749 0.013624530381940562 0.017501988455963634 -0.011085611995723513 -0.0012890935210244996 0.015910086481143598 0.012275403489669164 0.010146295580153283
leaf_weight=39 24 34 30 20 30 23 35 32 21 24 20 20 28 20 20 28 36 49 22 35 35 23 27 29 48 27 28 23 24 26
leaf_count=39 24 34 30 20 30 23 35 32 21 24 20 20 28 20 20 28 36 49 22 35 35 23 27 29 48 27 28 23 24 26
internal_value=0 0.00103287 -0.00112226 -0.00737002 0.00183123 -0.0046482 -0.0148521 0.00549257 -0.00352276 -0.00922099 0.000448291 0.00366492 0.00726414 0.00857428 -0.00937135 0.00410471 0.00316136 0.00569613 -0.00033567 0.00236899 -0.00114683 -0.00514659 0.00545707 0.00810819 0.010331 -0.00548684 0.0115996 0.00832596 0.00497144 0.0149176
internal_weight=0 841 567 182 385 100 93 274 45 59 89 69 229 201 70 285 257 149 108 100 70 59 49 49 169 50 149 75 52 74
internal_count=880 841 567 182 385 100 93 274 45 59 89 69 229 201 70 285 257 149 108 100 70 59 49 49 169 50 149 75 52 74
is_linear=0
shrinkage=0.05


Tree=5
num_leaves=31
num_cat=0
split_feature=92 76 10 11 1 44 6 38 47 2 63 38 10 21 37 25 36 39 87 8 130 16 7 56 56 60 56 130 57 39
split_gain=7.30822 3.42438 3.69621 1.91335 2.00404 2.02353 1.72021 1.68971 1.68727 1.60208 1.51132 1.15597 1.1094 1.88307 1.38756 1.02499 0.967096 0.900055 0.842294 0.787288 0.771188 0.827287 0.711597 0.707862 0.806202 0.641041 0.570823 0.551048 0.731422 0.340259
threshold=-3.6528999999999994 -3.4167999999999994 0.80238000000000009 -1.2693999999999999 2.6913000000000005 -0.98324999999999985 0.14634000000000003 1.0970000000000002 -2.1570999999999994 2.9140500000000005 -0.39601499999999995 0.12928500000000001 -0.37994999999999995 1.9407000000000003 -0.60816999999999999 -2.9949999999999997 -0.17929499999999995 0.8814550000000001 -0.066020999999999982 6.0369500000000009 -0.14999999999999999 -0.24103499999999997 0.32542000000000004 -1.2888999999999997 0.14929000000000003 1.0380500000000004 -0.6247299999999999 0.15000000000000005 -0.16208999999999998 0.42124500000000004
decision_type=2 2 2 2 2 2 2 2 2 2 2 2 2 2 2 2 2 2 2 2 2 2 2 2 2 2 2 2 2 2
left_child=-1 2 6 10 5 7 -2 17 -7 11 19 -6 15 20 -15 -10 -12 -5 -11 -3 21 25 -18 -22 26 -14 -25 28 -17 -26
right_child=1 3 -4 4 9 8 -8 -9 12 18 16 -13 13 14 -16 27 22 -19 -20 -21 23 -23 -24 24 29 -27 -28 -29 -30 -31
leaf_value=-0.021159249357879162 0.0073054521078509951 0.013422886537362453 -0.024283435184042901 0.0070844676420092588 -0.018488870291360492 -0.0086187117577840883 -0.010069374457515519 -0.01482344382153503 0.00015599521284457297 0.0055464663542807106 -0.0081373315490782267 -0.0030853386968374254 -0.0098033380295549123 0.0040409596078097819 -0.012851198798706455 0.014611903605982662 0.011426620794968173 -0.0059680247346737556 -0.0075337094813585281 0.0024371385219551268 0.015122557782822036 0.0074816522670203243 -0.001604611803777516 0.0058570656832307583 0.0045454045184529744 0.0015108644061030882 -0.0059458178955884211 0.014315542652426908 0.0026255679183772637 0.012096659453319652
leaf_weight=39 28 73 26 25 29 27 29 29 32 32 20 21 21 20 31 20 22 28 20 21 22 29 20 20 26 31 21 48 35 35
leaf_count=39 28 73 26 25 29 27 29 29 32 32 20 21 21 20 31 20 22 28 20 21 22 29 20 20 26 31 21 48 35 35
internal_value=0 0.000981226 -0.00866058 0.00203699 0.000758209 0.0020612 -0.00153437 -0.0051204 0.00347003 -0.00562899 0.00697178 -0.0120194 0.0043048 0.00237073 -0.00622682 0.00797238 0.000912045 0.000188811 0.000515629 0.0109686 0.00450963 0.000715242 0.00522127 0.00698822 0.00523375 -0.00305833 -0.000188314 0.0104008 0.00698424 0.00887809
internal_weight=0 841 83 758 602 500 57 82 418 102 156 50 391 256 51 135 62 53 52 94 205 81 42 124 102 52 41 103 55 61
internal_count=880 841 83 758 602 500 57 82 418 102 156 50 391 256 51 135 62 53 52 94 205 81 42 124 102 52 41 103 55 61
is_linear=0
shrinkage=0.05


Tree=6
num_leaves=31
num_cat=0
split_feature=92 76 10 11 1 44 99 99 47 2 63 24 38 17 130 37 92 73 82 82 10 87 107 44 56 78 76 24 11 2
split_gain=6.59567 3.0905 3.33583 1.7268 1.80865 1.82624 2.16758 1.69829 1.52276 1.44587 1.36396 1.32641 1.04327 1.02089 0.921678 1.27562 0.893652 0.77312 0.956832 0.775924 0.886471 0.76017 0.725188 0.663074 0.657909 0.979908 0.626894 0.30307 0.292514 0.345642
threshold=-3.6528999999999994 -3.4167999999999994 0.80238000000000009 -1.2693999999999999 2.6913000000000005 -0.98324999999999985 -0.93912999999999991 -0.98499999999999988 -2.1570999999999994 2.9140500000000005 -0.39601499999999995 -1.0103499999999996 0.12928500000000001 9.6980500000000003 -0.14999999999999999 -1.3581999999999999 -0.92506499999999992 1.7316500000000001 -0.69235499999999994 0.54003000000000012 1.5276500000000002 -0.066020999999999982 5.1119000000000012 4.7218500000000008 -0.46051999999999998 0.59552000000000016 0.13064500000000004 -0.21738999999999997 -1.7708999999999999 -0.40908499999999998
decision_type=2 2 2 2 2 2 2 2 2 2 2 2 2 2 2 2 2 2 2 2 2 2 2 2 2 2 2 2 2 2
left_child=-1 2 7 10 5 6 -5 -2 -7 12 22 -8 -6 14 15 -10 -12 18 23 -20 -21 -11 28 -16 26 27 -17 -26 29 -3
right_child=1 3 -4 4 9 8 11 -9 13 21 16 -13 -14 -15 17 24 -18 -19 19 20 -22 -23 -24 -25 25 -27 -28 -29 -30 -31
leaf_value=-0.020101286178956238 -0.0096453037050863114 0.01518381712553294 -0.023069263389334085 -0.013829505433504648 -0.017564426914885127 -0.0081877761925743132 0.011683899563338075 0.0076397361026869885 -0.0081841389890070313 0.0052691432007122788 -0.0061971061504804172 -0.0055228923990701638 -0.0029310716138709163 -0.0047730811343838775 0.011212366482269177 0.0027435080636115301 0.005967894747542838 0.012627102030027244 -0.0044237009164961897 0.0098761605098843588 -0.0027979060928125612 -0.0071570239216089257 0.0035020915248120824 0.00090547766536474238 0.00082159707322716725 -0.0077499237927523531 0.014960727574569838 0.009325920900499279 0.017933074520392854 0.0064175544687631453
leaf_weight=39 30 23 26 37 29 27 21 27 27 32 26 24 21 30 71 21 36 45 33 37 22 20 27 20 20 22 21 22 22 22
leaf_count=39 30 23 26 37 29 27 21 27 27 32 26 24 21 30 71 21 36 45 33 37 22 20 27 20 20 22 21 22 22 22
internal_value=0 0.000932164 -0.00822756 0.00193514 0.000720299 0.00195814 -0.00486438 -0.00145765 0.00329653 -0.00534754 0.00662319 0.00250694 -0.0114184 0.00408956 0.00482607 0.0015182 0.000866443 0.00675565 0.00531185 0.00171611 0.00515024 0.000489848 0.0104202 0.00894712 0.00398955 0.000798498 0.00885212 0.00527624 0.0132081 0.0108981
internal_weight=0 841 83 758 602 500 82 57 418 102 156 45 50 391 361 133 62 228 183 92 59 52 94 91 106 64 42 42 67 45
internal_count=880 841 83 758 602 500 82 57 418 102 156 45 50 391 361 133 62 228 183 92 59 52 94 91 106 64 42 42 67 45
is_linear=0
shrinkage=0.05


Tree=7
num_leaves=31
num_cat=0
split_feature=77 10 44 66 44 4 36 75 55 103 102 11 54 94 13 126 63 77 7 93 92 4 48 109 83 6 115 12 51 40
split_gain=5.99298 2.7701 3.06004 3.47428 1.87127 1.77208 1.72743 1.54508 1.23811 1.22208 2.13084 1.38158 1.28684 1.17425 1.43403 1.08105 0.887129 0.784706 0.848953 0.841602 0.651803 0.769454 0.803423 0.639379 0.621966 0.594502 0.54663 0.533918 0.417442 0.384907
threshold=-48.676999999999992 -0.77026499999999987 -0.8533099999999999 -1.7351499999999997 -1.3316499999999998 1.1926000000000003 -0.90147499999999992 0.28591000000000005 -0.53610499999999994 -0.36727999999999994 0.21799500000000002 -1.1596999999999997 1.3677500000000002 -0.99648999999999988 0.17894000000000002 1.0000000180025095e-35 -0.017334499999999996 2.2323500000000007 -2.1903499999999996 -2.2046499999999996 -0.30395499999999992 -0.66431499999999988 1.7355000000000003 -1.0351499999999998 -0.62539999999999984 0.057126500000000004 1.0000000180025095e-35 -2.7056499999999994 -1.6158499999999998 -1.0730999999999999
decision_type=2 2 2 2 2 2 2 2 2 2 2 2 2 2 2 2 2 2 2 2 2 2 2 2 2 2 2 2 2 2
left_child=6 9 3 4 15 17 -1 8 -7 10 11 -2 -12 -5 -15 -3 -6 18 -4 -20 21 22 26 -10 27 -26 29 -11 -22 -21
right_child=1 2 5 13 16 7 -8 -9 23 24 12 -13 -14 14 -16 -17 -18 -19 19 20 28 -23 -24 -25 25 -27 -28 -29 -30 -31
leaf_value=-0.006821434693410993 0.0015131220118039185 -0.012009842870756985 -0.0047126150266690696 0.0081759515980427914 -0.014490921497344973 0.0027247448638081551 -0.026536181150935589 0.0062667307014075612 -0.0047445823904126889 0.0045790630223398864 0.01270371283469505 -0.014974431972950697 -0.0001095512299798429 0.002155108568636147 -0.014462579572573304 -0.027749609543631478 -0.00080268880801981899 0.013063274007290602 -0.0052283710638142151 0.010238421708345415 0.0024087366913445297 -0.0037292241170588467 0.013752760393545033 -0.016011146116344369 0.0084146986749009094 -0.0025100790150463584 -0.0045720493234694005 0.013685059055375558 0.0099498856650746398 0.000546382931061089
leaf_weight=20 27 20 33 33 20 20 25 26 20 22 43 24 36 37 20 24 29 20 23 21 25 36 20 34 33 20 20 60 69 20
leaf_count=20 27 20 33 33 20 20 25 26 20 22 43 24 36 37 20 24 29 20 23 21 25 36 20 34 33 20 20 60 69 20
internal_value=0 0.000957884 -0.00100575 -0.00633328 -0.0131106 0.00151347 -0.0177741 -0.00421841 -0.00790237 0.00518155 0.00172141 -0.00624573 0.00686476 0.000669931 -0.00367566 -0.0205952 -0.00638972 0.00351064 0.00279509 0.00385387 0.00484387 0.00235296 0.00505616 -0.0118383 0.00851353 0.00429214 0.00220481 0.011242 0.00794426 0.0055106
internal_weight=0 835 570 183 93 387 45 100 74 265 130 51 79 90 57 44 49 287 267 234 211 117 81 54 135 53 61 82 94 41
internal_count=880 835 570 183 93 387 45 100 74 265 130 51 79 90 57 44 49 287 267 234 211 117 81 54 135 53 61 82 94 41
is_linear=0
shrinkage=0.05


Tree=8
num_leaves=31
num_cat=0
split_feature=92 76 10 11 88 8 57 0 110 14 87 32 33 106 14 30 76 78 76 43 94 108 23 76 27 99 54 9 39 30
split_gain=5.43651 2.57433 2.79727 1.56105 1.50354 1.40338 2.26789 1.74731 1.98685 1.76589 1.14276 1.15849 1.85206 1.4071 1.2779 1.02619 1.15276 0.965653 1.44736 0.730868 0.730684 0.652205 0.604155 0.527871 0.554361 0.508132 0.441581 0.390796 0.384882 0.357311
threshold=-3.6528999999999994 -3.4167999999999994 0.80238000000000009 -2.0527999999999995 -1.8731999999999998 6.6187500000000012 2.0258000000000007 1.7708000000000002 -1.8405999999999998 -1.8659999999999999 -3.0603999999999996 7.3777000000000008 -0.30707999999999996 0.32705000000000006 0.52864000000000011 1.5870500000000003 1.6116500000000002 -0.94536999999999993 -0.78185499999999986 9.3990500000000008 0.66858000000000006 2.0491500000000005 -1.3777499999999998 3.2920000000000003 3.1507000000000005 -0.7425449999999999 -1.8947999999999998 7.8052500000000009 1.1824000000000001 -0.25318999999999997
decision_type=2 2 2 2 2 2 2 2 2 2 2 2 2 2 2 2 2 2 2 2 2 2 2 2 2 2 2 2 2 2
left_child=-1 2 4 26 -2 6 7 9 -9 -5 -11 12 21 14 -14 16 -16 -10 -19 23 -15 22 -12 24 -8 28 -3 -26 -24 -13
right_child=1 3 -4 5 -6 -7 19 8 17 10 11 29 13 20 15 -17 -18 18 -20 -21 -22 -23 25 -25 27 -27 -28 -29 -30 -31
leaf_value=-0.018249644195804229 -0.012359459288418292 0.0027475942112505439 -0.02110450607366287 -0.012335179204290565 0.004656191336343418 -0.010346063033032878 0.016671685249574724 0.0053576222588789871 -0.018859649508852851 0.010233903618063778 -0.0049613844254054133 0.0037358132237568496 -0.014598172204568983 -0.0022392180748283864 0.0062224982333753042 -0.012406365502448309 -0.0089054985693655924 -0.016206615003333851 0.00056228879238328624 0.0006096541796190044 0.010965618873015046 0.0097252508993512284 0.0043546627781220846 0.0028813815078414656 0.0034252876274125732 0.007728834386835708 0.011590478117189681 0.012746580584313383 -0.0035101943316736394 0.012625177344307304
leaf_weight=39 20 20 26 22 37 26 31 29 22 40 24 20 35 22 34 21 20 22 31 30 20 37 35 23 23 47 48 22 28 26
leaf_count=39 20 20 26 22 37 26 31 29 22 40 24 20 35 22 34 21 20 22 31 30 20 37 35 23 23 47 48 22 28 26
internal_value=0 0.000846297 -0.00751358 0.00176169 -0.00131421 0.00104937 0.00149558 6.0703e-05 -0.00575631 0.00146434 0.00220662 0.00133645 0.000279192 -0.00373661 -0.00670922 -0.00302772 0.000619536 -0.0100537 -0.00639839 0.00744643 0.0040488 0.0038488 0.00222619 0.00951819 0.0115267 0.00379439 0.00898963 0.00798236 0.000859171 0.00876024
internal_weight=0 841 83 758 57 690 664 535 104 431 409 369 323 152 110 75 54 75 53 129 42 171 134 99 76 110 68 45 63 46
internal_count=880 841 83 758 57 690 664 535 104 431 409 369 323 152 110 75 54 75 53 129 42 171 134 99 76 110 68 45 63 46
is_linear=0
shrinkage=0.05


Tree=9
num_leaves=31
num_cat=0
split_feature=92 10 44 99 92 31 4 96 63 121 44 13 67 50 107 87 91 20 74 21 130 39 56 44 42 35 94 55 30 79
split_gain=4.90645 2.14644 2.59619 2.9404 1.94992 1.56297 1.47575 1.57902 1.294 1.13726 1.13998 1.0905 0.941533 1.33087 0.838801 0.727056 1.35583 0.811877 0.706709 0.702938 0.607371 0.534804 0.528812 0.525838 0.525801 0.514596 0.509499 0.461445 0.429669 0.413232
threshold=-3.6528999999999994 -0.77026499999999987 -0.8533099999999999 -1.3095999999999999 0.19624000000000003 -0.043297999999999996 1.1926000000000003 -0.23775499999999997 -2.6521999999999997 1.0000000180025095e-35 -1.1856999999999998 -1.1742499999999996 -1.3355999999999997 -0.57100499999999987 -0.11889999999999999 1.0128000000000001 -0.22774499999999998 -0.81982499999999991 -9.4464999999999986 1.7649000000000001 -0.14999999999999999 -0.47735999999999995 -0.044737499999999993 -1.2699499999999999 0.13612500000000002 4.1082500000000008 -0.89756999999999987 1.1203500000000002 -1.4844499999999998 -0.20935499999999999
decision_type=2 2 2 2 2 2 2 2 2 2 2 2 2 2 2 2 2 2 2 2 2 2 2 2 2 2 2 2 2 2
left_child=-1 8 3 5 9 -3 15 -8 11 -5 -11 -2 18 -14 21 16 17 -4 -10 20 22 -9 -17 -6 -18 28 -15 -22 -20 -26
right_child=1 2 6 4 23 -7 7 14 12 10 -12 -13 13 26 -16 19 24 -19 25 -21 27 -23 -24 -25 29 -27 -28 -29 -30 -31
leaf_value=-0.017337161703751641 0.0046829991350684644 -0.024301583624444904 0.0074844874301925298 0.0022535145903627078 0.012935704187977883 -0.008204251108691097 0.0057493533535550043 0.0011031850281616917 0.00028210618660192598 -0.017734472467922247 -0.0026228720477471752 -0.01088788777427829 -0.0056253694516739672 0.011382112387118155 -0.016615251014009121 0.0036867103228966393 0.0024119818601757289 -0.0049061514437198639 0.0059952384559437636 -0.0082924688467755914 0.01135330603435813 -0.0092722535995697544 -0.0069810471551206253 0.0018743247217075391 0.0083209044703315676 0.0027215283364057543 0.001155823420378424 0.0019265487605212806 0.013480495327241618 0.016052077859640121
leaf_weight=39 22 25 20 27 21 38 30 23 22 26 24 23 35 29 20 21 25 39 26 20 21 27 26 22 56 20 21 34 73 25
leaf_count=39 22 25 20 27 21 38 30 23 22 26 24 23 35 29 20 21 25 39 26 20 21 27 26 22 56 20 21 34 73 25
internal_value=0 0.000803983 -0.000937737 -0.0058449 -0.00125263 -0.0145921 0.0013827 -0.00384802 0.00446738 -0.00601559 -0.0104809 -0.00327545 0.00600909 0.00185254 -0.00796118 0.00320526 0.00536922 -0.000705935 0.00851482 0.000278577 0.00195917 -0.00449955 -0.0022146 0.00727639 0.00875068 0.0100368 0.00708707 0.00552586 0.0115147 0.0107071
internal_weight=0 841 570 183 120 63 387 100 271 77 50 45 226 85 70 287 165 59 141 122 102 50 47 43 106 119 50 55 99 81
internal_count=880 841 570 183 120 63 387 100 271 77 50 45 226 85 70 287 165 59 141 122 102 50 47 43 106 119 50 55 99 81
is_linear=0
shrinkage=0.05


Tree=10
num_leaves=31
num_cat=0
split_feature=92 76 10 11 103 6 44 6 15 65 6 15 62 76 45 71 40 10 103 50 14 37 61 94 23 87 71 40 39 92
split_gain=4.42807 2.17433 2.39612 1.36344 1.33042 2.10451 1.72142 1.31316 1.12961 1.23499 1.18867 1.19696 1.09874 1.21862 1.26406 1.01552 0.980459 0.855075 1.04032 0.751917 0.747894 0.633062 0.58336 0.48589 0.464296 0.452157 0.479677 0.416981 0.43688 0.413107
threshold=-3.6528999999999994 -3.4167999999999994 0.80238000000000009 -2.0527999999999995 0.58918000000000015 -3.1246999999999994 -0.15939499999999998 0.14634000000000003 4.964900000000001 0.33629500000000007 0.14634000000000003 -0.051508999999999992 -1.6091499999999999 -0.34033999999999992 -0.13123499999999996 -0.84583999999999981 -1.8886999999999998 -0.32033499999999993 1.3075500000000002 -1.5962499999999997 -1.8631999999999997 -0.66720499999999994 -0.75132999999999994 -0.17124499999999998 -1.7469499999999998 1.1175000000000004 -0.36365499999999995 -0.66464499999999982 0.62990500000000005 -0.4817749999999999
decision_type=2 2 2 2 2 2 2 2 2 2 2 2 2 2 2 2 2 2 2 2 2 2 2 2 2 2 2 2 2 2
left_child=-1 2 7 27 5 -5 12 -2 9 21 11 -11 -7 14 -14 -15 19 18 23 -6 -19 -8 -22 -18 -23 26 -24 -3 -29 -27
right_child=1 3 -4 4 16 6 8 -9 -10 10 -12 -13 13 15 -16 -17 17 20 -20 -21 22 24 25 -25 -26 29 -28 28 -30 -31
leaf_value=-0.016470304088523756 0.0065418845874124351 0.013661465048789978 -0.019497908064379142 0.0099288099617842827 0.0027507785125635564 0.0024038111734962851 0.00049339947240103208 -0.0086386765321267069 -0.010492183126154402 -0.01707856539814245 0.0036922621981878034 -0.0010290540110033293 -0.012274192087352276 -0.0069589522555470462 0.0030102009764842452 -0.020823408812949702 0.0076477070874534552 -0.0066318500228226196 0.013307860756621643 -0.010204475364159971 -0.0036779703149064022 0.0016056607151404023 0.0024479998089373114 -0.0026689324649937806 0.010619641821831465 -0.0020287331097341818 0.012261189846321942 0.010926094233291224 0.0009201798156330673 0.0065656443902601799
leaf_weight=39 28 24 26 40 24 27 46 29 21 21 38 26 24 25 31 28 25 20 51 21 22 20 20 21 50 29 33 20 24 27
leaf_count=39 28 24 26 40 24 27 46 29 21 21 38 26 24 25 31 28 25 20 51 21 22 20 20 21 50 29 33 20 24 27
internal_value=0 0.000763783 -0.00691921 0.00160506 0.000939355 -0.000946806 -0.00216536 -0.00118156 0.000542146 0.00169499 -0.00288352 -0.00820011 -0.00661771 -0.00887309 -0.00365935 -0.0142836 0.00349501 0.00472706 0.00839016 -0.00329501 0.00237395 0.00504993 0.00374888 0.00293794 0.00804422 0.00524788 0.0085581 0.00836002 0.00546832 0.00211498
internal_weight=0 841 83 758 690 397 357 57 222 201 85 47 135 108 55 53 293 248 97 45 151 116 131 46 70 109 53 68 44 56
internal_count=880 841 83 758 690 397 357 57 222 201 85 47 135 108 55 53 293 248 97 45 151 116 131 46 70 109 53 68 44 56
is_linear=0
shrinkage=0.05


Tree=11
num_leaves=31
num_cat=0
split_feature=92 99 44 59 58 0 39 29 64 29 58 92 56 35 39 100 6 65 45 40 44 32 77 66 21 38 84 39 82 15
split_gain=3.99633 1.87506 2.75858 2.02244 1.774 1.32217 1.33487 1.01829 0.972079 0.940996 0.781083 1.39085 1.83305 1.60806 1.15364 1.12579 0.660148 0.81282 0.579033 0.596991 0.569489 0.487426 0.456972 0.433877 0.324252 0.724764 0.351115 0.301275 0.286126 0.27718
threshold=-3.6528999999999994 -0.86449999999999994 -1.3146499999999997 -2.0112999999999999 -0.95961999999999992 2.0497500000000008 -0.36804999999999993 -4.4468499999999986 0.2541750000000001 -0.049270999999999988 -1.2909499999999998 -1.3340499999999997 -0.35896499999999992 -0.94008499999999995 -0.39511999999999997 -1.0530999999999999 -1.3485499999999997 0.58594000000000002 0.50803000000000009 -0.052784499999999991 1.0864500000000001 0.19676500000000005 -1.7423999999999997 -1.0362999999999998 -0.61020999999999992 0.10095500000000002 -0.86864999999999992 -0.87556999999999985 2.1338500000000002 -4.6759999999999993
decision_type=2 2 2 2 2 2 2 2 2 2 2 2 2 2 2 2 2 2 2 2 2 2 2 2 2 2 2 2 2 2
left_child=-1 2 3 -2 -5 8 -7 -3 9 -4 21 13 14 -12 -13 -16 -11 23 19 27 -21 -9 -14 -18 25 26 -24 -10 29 -26
right_child=1 7 5 4 -6 6 -8 10 18 16 11 12 22 -15 15 -17 17 -19 -20 20 -22 -23 24 -25 28 -27 -28 -29 -30 -31
leaf_value=-0.015646788506553724 0.0020967375868084759 -0.0047034115996211767 -0.0080384595596508408 -0.026299360232508701 -0.0074026325510607831 0.0011664940124111517 -0.012454890480541901 0.013711767990527483 0.0052675081631885128 -0.0045205641410906213 0.0046492924448102713 0.0041938354433686646 0.0019547653236171051 -0.014940034247807821 0.0021324822203377665 -0.012570756680021684 0.012949794077354929 -0.0030712070949375629 -0.0014771706859270733 -0.0028863063422389906 0.008336200891062618 0.0049461703667683264 0.0053361721418332311 0.00288027331000194 0.016588813353043335 -0.0010117838705849388 0.014592992159582319 0.012215978159861736 0.0059011693575303078 0.0092878693602800096
leaf_weight=39 22 38 37 23 27 35 37 29 26 33 20 54 31 22 23 30 23 25 30 26 20 35 20 20 26 23 21 39 20 26
leaf_count=39 22 38 37 23 27 35 37 29 26 33 20 54 31 22 23 30 23 25 30 26 20 35 20 20 26 23 21 39 20 26
internal_value=0 0.000725594 -0.00162132 -0.0105365 -0.0160951 0.000207432 -0.00583338 0.00310058 0.00176635 -0.00121689 0.00388098 0.00286081 0.00415953 -0.00561178 -0.000949612 -0.00619011 0.0012821 0.0040981 0.00468612 0.00635188 0.00199304 0.00891808 0.00743305 0.0082663 0.00868178 0.00609227 0.0100775 0.00943659 0.0109836 0.0129383
internal_weight=0 841 423 72 50 351 72 418 279 138 380 316 274 42 107 53 101 68 141 111 46 64 167 43 136 64 41 65 72 52
internal_count=880 841 423 72 50 351 72 418 279 138 380 316 274 42 107 53 101 68 141 111 46 64 167 43 136 64 41 65 72 52
is_linear=0
shrinkage=0.05


Tree=12
num_leaves=31
num_cat=0
split_feature=108 87 87 99 44 34 0 100 17 13 20 102 130 19 68 26 109 59 25 28 104 99 46 68 100 108 127 10 51 64
split_gain=3.67693 2.73997 2.26283 1.46994 1.63486 2.09493 1.15169 1.11359 1.43228 1.07319 1.12168 1.02946 0.942874 0.92424 1.02584 0.909261 0.876411 0.742702 0.738409 0.737382 0.647123 0.924575 0.72868 0.643492 0.830869 0.60121 0.557036 0.66393 0.457287 0.404144
threshold=-2.3233499999999991 -0.79745499999999991 1.1998500000000003 -0.88103999999999993 -1.2864499999999996 0.06094150000000001 1.9088500000000002 2.8220500000000004 0.22393000000000002 0.24734000000000003 1.1641000000000001 -2.0421499999999995 0.75000000000000011 -1.2501499999999999 -0.56470999999999993 -0.76673499999999983 2.9369500000000004 0.22399000000000005 -3.0811499999999996 0.57634500000000011 -0.41521499999999995 -0.093373999999999985 2.3437500000000004 -0.65786999999999984 -0.44450499999999998 0.78861000000000014 2.7500000000000004 -0.016616999999999996 1.0000000180025095e-35 0.2541750000000001
decision_type=2 2 2 2 2 2 2 2 2 2 2 2 2 2 2 2 2 2 2 2 2 2 2 2 2 2 2 2 2 2
left_child=1 -1 -3 4 5 -2 11 8 -8 13 18 19 23 28 25 -16 -17 -12 -11 -6 21 -20 -22 24 -13 -15 27 -25 -5 -29
right_child=3 2 -4 9 6 -7 7 -9 -10 10 17 12 -14 14 15 16 -18 -19 20 -21 22 -23 -24 26 -26 -27 -28 29 -30 -31
leaf_value=-0.020707381767672763 -0.015712057044239423 0.0089379788065950087 -0.010995442425566061 0.014984929809967677 0.00066004470680598856 0.0042802103795111183 -0.0024423158872101842 0.0042203807227668309 -0.019835053700953724 -0.0058623569594188178 0.00021058829235179083 0.0046971170219114507 -0.0062611341273979011 0.0029049508111913588 0.0076627990297440975 -0.012738597393035889 0.001303929638117552 -0.012935320550406521 0.0051792156529323809 -0.011832337223348165 0.010064430357041685 -0.0087949243979528555 0.00015571803918906622 0.012281612682621927 -0.0075730384285138414 0.01181148064089939 0.00042803559452295306 -2.293454276190864e-05 0.0061185423264620252 0.0088944117431916919
leaf_weight=34 38 24 35 33 27 20 29 21 20 22 21 37 23 36 21 20 25 22 29 21 55 20 28 50 22 40 30 27 26 24
leaf_count=34 38 24 35 33 27 20 29 21 20 22 21 37 23 36 21 20 25 22 29 21 55 20 28 50 22 40 30 27 26 24
internal_value=0 -0.00940194 -0.00288693 0.00111103 -0.00107471 -0.00881817 0.000282147 -0.00541286 -0.00954139 0.00324734 0.000624751 0.00180954 0.00330023 0.00581775 0.00363227 -0.000928105 -0.00493719 -0.00651523 0.00261838 -0.00480537 0.00403184 -0.000524515 0.00672173 0.00445766 0.000121805 0.0075926 0.00641045 0.0081874 0.0110777 0.00417346
internal_weight=0 93 59 787 389 58 331 70 49 398 197 261 213 201 142 66 45 43 154 48 132 49 83 190 59 76 131 101 59 51
internal_count=880 93 59 787 389 58 331 70 49 398 197 261 213 201 142 66 45 43 154 48 132 49 83 190 59 76 131 101 59 51
is_linear=0
shrinkage=0.05


Tree=13
num_leaves=31
num_cat=0
split_feature=87 4 48 105 4 87 100 97 9 6 17 62 101 9 56 46 108 23 40 31 7 56 108 108 120 49 65 108 69 17
split_gain=3.33886 1.67446 2.46696 1.455 1.4381 1.49152 1.0368 1.38805 1.69731 1.86762 1.54127 1.60024 1.3126 1.15394 0.968812 0.961004 1.53107 0.884972 0.879557 0.705026 0.674392 0.627294 0.569687 0.565417 0.56041 0.57213 0.508498 0.47782 0.633316 0.649466
threshold=-7.3454999999999986 4.6731000000000007 0.28704500000000005 -0.26557999999999993 -2.3387499999999997 3.8461500000000006 -1.095 0.15568500000000005 -0.13151999999999997 -1.4027999999999998 -1.321 -0.024558499999999997 1.1205500000000004 -1.3439499999999998 -1.0524999999999998 0.44064000000000009 -0.046916999999999993 0.77065000000000017 -1.4795499999999999 1.1932500000000001 0.41453500000000004 0.41242000000000006 -1.8818999999999997 -0.16607499999999997 1.0000000180025095e-35 0.054061500000000005 -0.97183499999999989 1.1153000000000002 -0.62656499999999993 -0.29130999999999996
decision_type=2 2 2 2 2 2 2 2 2 2 2 2 2 2 2 2 2 2 2 2 2 2 2 2 2 2 2 2 2 2
left_child=-1 4 3 -3 -2 6 18 8 9 -8 -11 -12 14 20 -9 16 19 21 23 -15 -14 26 -20 -6 25 -17 -10 28 29 -24
right_child=1 2 -4 -5 5 -7 7 12 17 10 11 -13 13 15 -16 24 -18 -19 22 -21 -22 -23 27 -25 -26 -27 -28 -29 -30 -31
leaf_value=-0.018799836148062479 -0.0094131144124173366 -0.022160408024986589 0.0070039008458566282 -0.0041388527412588401 -0.0078413146454840901 -0.010692693494881195 0.0033739807598035911 -0.00053502637892961509 0.0063972500726007494 -0.023442363669164482 0.0030030127318406651 -0.015319485281809018 0.0019996290046133494 0.0064509096954550073 0.010998876619416832 0.0039340933192182678 -0.015293575928511997 -0.0041932205908382552 0.012993619425429238 -0.0063572255968624217 0.012334599463200127 0.011758300107612741 0.0044509721704973628 0.0040479313442483549 0.0090748271616619258 -0.0059833482839167125 -0.004207289749756456 0.0090407448345034107 0.0068534540418874138 -0.0070834407420909927
leaf_weight=23 31 24 21 21 20 24 29 25 26 20 22 26 38 21 67 33 27 39 27 22 27 24 26 20 21 26 20 52 55 23
leaf_count=23 31 24 21 21 20 24 29 25 26 20 22 26 38 21 67 33 27 39 27 22 27 24 26 20 21 26 20 52 55 23
internal_value=0 0.000504546 -0.00714672 -0.0137503 0.00114296 0.00157353 0.00197352 0.000736231 -0.00243881 -0.00724992 -0.0117807 -0.00692167 0.00286672 0.000728061 0.00786466 -0.00168325 -0.00596166 0.00184263 0.00481984 -0.00010209 0.00629262 0.00520546 0.00628794 -0.00189669 0.00206037 -0.000436305 0.00178658 0.00512734 0.00317064 -0.00096314
internal_weight=0 857 66 45 791 760 736 513 206 97 68 48 307 215 92 150 70 109 223 43 65 70 183 40 80 59 46 156 104 49
internal_count=880 857 66 45 791 760 736 513 206 97 68 48 307 215 92 150 70 109 223 43 65 70 183 40 80 59 46 156 104 49
is_linear=0
shrinkage=0.05


Tree=14
num_leaves=31
num_cat=0
split_feature=108 87 87 1 71 63 13 100 101 3 48 35 63 58 101 36 108 101 27 1 107 84 77 45 129 0 108 86 32 19
split_gain=3.16665 2.31585 1.97561 1.28415 1.79364 1.48639 1.22343 1.4556 1.11921 1.09663 1.01212 1.01048 0.890823 1.00256 0.902535 0.887626 0.774318 0.766247 0.7527 0.644175 0.579707 0.515762 0.476877 0.449348 0.416091 0.618285 0.709831 0.823725 0.728054 0.421995
threshold=-2.3233499999999991 -0.79745499999999991 1.1998500000000003 0.86799500000000018 2.8048000000000006 -0.39601499999999995 0.60552000000000017 4.1130500000000003 -0.010940699999999998 0.60086000000000006 0.35887500000000006 -1.3107999999999997 0.49401 0.62579000000000018 -0.88771999999999984 -0.62231499999999984 0.19637000000000002 -1.3401999999999998 -1.9380499999999998 -0.93869499999999995 3.1278000000000001 -1.0629999999999997 -0.33242499999999992 2.6602500000000004 0.67500000000000016 0.20354000000000003 -1.2579999999999998 0.66664000000000001 -0.62258999999999987 -0.91070499999999988
decision_type=2 2 2 2 2 2 2 2 2 2 2 2 2 2 2 2 2 2 2 2 2 2 2 2 2 2 2 2 2 2
left_child=1 -1 -3 6 5 8 17 11 16 18 -11 19 14 21 -13 -16 -5 20 -7 -8 -2 -14 -20 -18 25 26 -19 28 29 -28
right_child=3 2 -4 4 -6 9 7 -9 -10 10 -12 12 13 -15 15 -17 23 24 22 -21 -22 -23 -24 -25 -26 -27 27 -29 -30 -31
leaf_value=-0.019118884101729183 -0.0052560457152624925 0.0083134061501671866 -0.010312067547014782 -0.0070887305921959604 -0.014634474692866207 -0.0079748206101357948 0.0011511661298573017 -0.012661141370024002 0.012081369382118987 -0.017598985807727213 -0.0025981196667999029 0.0058176823350931375 -0.0037467142029310621 0.01385897672414009 0.0021900185636089492 -0.010809235875334207 0.00988914504647255 0.012712471007641094 0.0071345002469440401 -0.0096361885538264625 0.0057335961889475586 0.0055636361652218252 -0.0016770143709008527 -0.00070976444520056249 0.00070226348470896487 0.011021316897307265 -0.0013335592071102426 0.0084724385079673736 -0.0077830257090020245 0.0087015472631901507
leaf_weight=34 30 24 35 22 25 25 25 21 31 23 22 31 21 29 24 29 20 24 28 31 20 51 34 20 32 61 22 44 22 20
leaf_count=34 30 24 35 22 25 25 25 21 31 23 22 31 21 29 24 29 20 24 28 31 20 51 34 20 32 61 22 44 22 20
internal_value=0 -0.00872519 -0.0027356 0.00103106 -0.00192905 -0.000517335 0.00240913 -3.59204e-05 0.00432428 -0.00392847 -0.0102652 0.0010642 0.00284549 0.00600965 -0.000959039 -0.00492278 0.000445734 0.0047386 -0.000650839 -0.00482041 -0.000860189 0.00284812 0.00230238 0.00458969 0.00598278 0.00685831 0.00493449 0.00320605 -0.000414593 0.00344506
internal_weight=0 93 59 787 250 225 537 262 93 132 45 241 185 101 84 53 62 275 87 56 50 72 62 40 225 193 132 108 64 42
internal_count=880 93 59 787 250 225 537 262 93 132 45 241 185 101 84 53 62 275 87 56 50 72 62 40 225 193 132 108 64 42
is_linear=0
shrinkage=0.05


Tree=15
num_leaves=31
num_cat=0
split_feature=77 1 36 10 76 84 97 27 52 5 8 61 75 14 14 63 41 4 14 120 82 38 20 45 41 3 76 30 66 34
split_gain=2.9028 1.60135 1.54598 1.46042 1.58973 1.17672 1.13884 2.0777 0.886 0.950391 0.865373 1.12464 0.938058 0.849502 1.44167 0.775204 0.754456 0.749356 0.813194 0.796793 0.534957 0.541994 0.888019 0.51333 0.456931 0.373642 0.396968 0.337384 0.327473 0.325857
threshold=-48.676999999999992 6.7322000000000006 -0.90147499999999992 -0.77026499999999987 -3.4167999999999994 -0.36822499999999997 4.3889000000000005 -0.31981999999999994 2.6887000000000003 2.0252000000000003 6.0369500000000009 8.0863500000000013 -8.0513999999999974 -1.8659999999999999 -0.45263999999999999 -2.6664499999999998 0.38937000000000005 -0.089392499999999986 -0.22458999999999998 1.0000000180025095e-35 2.2525500000000007 -0.30294499999999996 -0.30559999999999993 0.44383500000000004 -0.64158999999999988 -1.8172499999999998 2.1651000000000002 0.69934500000000011 -1.3627999999999998 -1.4163999999999997
decision_type=2 2 2 2 2 2 2 2 2 2 2 2 2 2 2 2 2 2 2 2 2 2 2 2 2 2 2 2 2 2
left_child=2 3 -1 10 5 -5 8 -8 9 13 12 -12 -2 -6 -15 -14 -9 18 -16 24 21 29 28 -10 -19 -17 -27 -28 -23 -20
right_child=1 -3 -4 4 6 -7 7 16 23 -11 11 -13 15 14 17 25 -18 19 20 -21 -22 22 -24 -25 -26 26 27 -29 -30 -31
leaf_value=-0.0020086801238358024 -0.0021993843489326536 -0.0098017447867563799 -0.020659276463091375 -0.0012533953033939558 -0.008356122579425574 -0.016156445128413348 -0.015032009775149485 -0.0043560482791773136 0.0031718362905931749 -0.0066042021872141426 -0.0080150725737471017 0.0073969591199420405 -0.0021454914472997188 0.010351715179437653 -0.0067871325139311107 0.0019430910609662532 0.0090618743235245363 -0.0021302166103851052 0.00044334413552725763 0.0026574408577289435 0.0095832985615538022 0.0075428325310349462 -0.0098848458589054639 0.014239775545429441 -0.012363172501015167 0.011172330091552189 0.0011937233396684347 0.0099593934913476314 -0.0015052745922002942 0.0071305803189586322
leaf_weight=20 32 35 25 27 20 26 31 22 22 39 29 20 20 47 21 20 20 20 27 32 31 20 20 20 24 90 23 21 20 56
leaf_count=20 32 35 25 27 20 26 31 22 22 39 29 20 20 47 21 20 20 20 27 32 31 20 20 20 24 90 23 21 20 56
internal_value=0 0.000666653 -0.0123701 0.00112465 -0.000336642 -0.00856433 0.000549674 -0.00521353 0.00155376 0.000786343 0.00424779 -0.00172445 0.00566837 0.0016391 0.00226773 0.00711531 0.00203344 0.000865709 0.00250713 -0.00334582 0.00362885 0.00233802 -0.00128243 0.00844228 -0.00771183 0.00831802 0.0092695 0.00537734 0.00301878 0.00495521
internal_weight=0 835 45 800 545 53 492 73 419 377 255 49 206 338 318 174 42 271 195 76 174 143 60 42 44 154 134 44 40 83
internal_count=880 835 45 800 545 53 492 73 419 377 255 49 206 338 318 174 42 271 195 76 174 143 60 42 44 154 134 44 40 83
is_linear=0
shrinkage=0.05


Tree=16
num_leaves=31
num_cat=0
split_feature=108 4 17 87 99 71 108 4 100 91 64 103 103 10 100 108 51 51 55 39 110 87 36 60 56 76 86 38 27 27
split_gain=2.65045 2.22297 2.40305 2.43279 1.0673 1.10638 0.878367 0.787322 1.27112 1.28593 0.975394 1.12859 1.36939 0.792477 0.769654 0.830458 1.01268 0.955826 1.09569 0.893087 0.74689 0.592848 0.51966 0.5854 0.808841 0.484324 0.564879 0.482111 0.426701 0.394703
threshold=-2.3233499999999991 3.5249000000000006 -1.4321499999999998 -0.31551499999999993 -0.88103999999999993 3.6502000000000003 0.84667500000000007 1.1926000000000003 2.9229500000000006 0.18256000000000003 0.38876500000000008 0.58918000000000015 -2.3876499999999994 2.1294000000000004 3.3190000000000004 -1.0276999999999996 1.2431000000000003 0.58696500000000007 -0.58435999999999988 1.0678000000000003 -4.3787999999999991 0.66343500000000011 -1.5335999999999996 -0.72968999999999984 -0.026687999999999993 0.97740000000000016 0.15839 0.69494500000000015 1.0000000180025095e-35 0.88241500000000006
decision_type=2 2 2 2 2 2 2 2 2 2 2 2 2 2 2 2 2 2 2 2 2 2 2 2 2 2 2 2 2 2
left_child=1 2 -1 -4 5 7 14 10 9 21 11 12 -2 -13 15 16 28 18 29 -20 -8 -9 -22 -24 -25 26 -12 -27 -6 -17
right_child=4 -3 3 -5 6 -7 20 8 -10 -11 25 13 -14 -15 -16 17 -18 -19 19 -21 22 -23 23 24 -26 27 -28 -29 -30 -31
leaf_value=-0.018211394603852005 0.0023931727314797733 -0.022751114568673077 -0.011311102339199611 0.01073000121621355 0.013347511860774831 -0.012081725930883773 -0.0034475523047149182 -0.016255954099113065 0.0046784354944623286 0.0017372541613160418 0.00059625635711619499 0.0082777318650517958 -0.012420814895094971 -0.0025223430751689846 -0.008318783367230069 -0.0023884993356962998 -0.0034722246835008266 0.0048318268994818319 -0.014284255586821457 -0.00055013249249896039 0.01271717043593526 -0.0052143777639139452 0.010782545550918099 -0.0028713584155090812 0.007396576642482118 0.0055913851257752287 0.0095400587511672227 -0.0046558210587439438 0.004037645924836397 0.0074260997399687766
leaf_weight=21 26 20 21 31 32 21 20 31 31 26 26 33 39 35 21 21 20 53 29 20 30 20 34 34 44 22 55 24 20 20
leaf_count=21 26 20 21 31 32 21 20 31 31 26 26 33 39 35 21 21 20 53 29 20 30 20 34 34 44 22 55 24 20 20
internal_value=0 -0.00798242 -0.0039362 0.00182879 0.000943284 -0.000919197 0.00276365 -0.000282205 -0.00387057 -0.00731238 0.00120835 -0.00178426 -0.00649522 0.00271887 0.000817537 0.00170992 0.00608929 -0.000495075 -0.00363203 -0.00867849 0.00559873 -0.0119259 0.00687285 0.00530741 0.00292081 0.00434234 0.00666921 0.000245017 0.00976679 0.00239911
internal_weight=0 93 73 52 787 389 398 368 108 77 260 133 65 68 236 215 72 143 90 49 162 51 142 112 78 127 81 46 52 41
internal_count=880 93 73 52 787 389 398 368 108 77 260 133 65 68 236 215 72 143 90 49 162 51 142 112 78 127 81 46 52 41
is_linear=0
shrinkage=0.05


Tree=17
num_leaves=31
num_cat=0
split_feature=87 10 58 56 34 40 52 78 8 75 87 58 0 14 100 25 55 56 58 75 35 69 97 27 14 36 99 3 94 93
split_gain=2.44272 1.5598 1.66408 1.55566 1.75997 0.974368 0.90732 0.969039 0.842164 0.75314 0.6886 0.927433 1.361 0.810065 1.02441 0.990251 0.686734 0.990081 0.599444 0.587689 0.522564 0.494217 0.497128 0.442331 0.366054 0.335477 0.359486 0.324563 0.347791 0.186052
threshold=-7.3454999999999986 -0.77026499999999987 -0.28782499999999994 1.9319000000000004 -1.7524 0.88412500000000016 -1.7443499999999998 2.2977000000000003 6.0369500000000009 -8.0513999999999974 0.14916500000000002 1.2467500000000002 2.6106000000000003 -1.8659999999999999 0.48975000000000007 0.26174500000000006 0.14378500000000002 -0.32634999999999992 0.65910000000000013 -0.41575999999999996 -1.2850999999999997 0.85161000000000009 -0.63409499999999985 -0.36480999999999991 -2.5183999999999993 0.44277000000000005 -1.1790999999999998 -0.91083499999999995 -1.4689499999999998 2.5850000000000004
decision_type=2 2 2 2 2 2 2 2 2 2 2 2 2 2 2 2 2 2 2 2 2 2 2 2 2 2 2 2 2 2
left_child=-1 6 3 4 -3 16 -2 8 9 -8 11 12 21 -12 18 -16 20 -18 19 -15 -6 22 -4 -22 -11 26 -20 -26 -29 -30
right_child=1 2 10 -5 5 -7 7 -9 -10 24 13 -13 -14 14 15 -17 17 -19 25 -21 23 -23 -24 -25 27 -27 -28 28 29 -31
leaf_value=-0.016080208098434884 0.012449293024837972 -0.012258035518849891 0.0099936062197496251 -0.015019499274591605 0.01121607692912221 -0.007968319794445327 -0.0016801886842586101 -0.0054870103493158242 -0.0031266553353311286 0.00085454516282135792 -0.0096790507921706084 0.011154119861748768 -0.0085661288422460742 0.0043631091794889909 -0.014078431625273967 7.8117980932195983e-05 -0.011479207621887326 0.0040651469460412743 -0.0017882992047816516 -0.0063393208936884486 -0.0012786152659336459 -0.0019568548072129489 0.0018164291917962734 0.0078068485660921965 0.0037017077645834758 0.010383312795412443 0.0063243439928757864 0.0060627738999134706 0.015319208562374115 0.0090879788564052436
leaf_weight=23 26 39 41 30 21 33 32 32 36 22 23 32 26 23 21 30 20 21 22 29 37 24 34 21 34 23 36 41 25 23
leaf_count=23 26 39 41 30 21 33 32 32 36 22 23 32 26 23 21 30 20 21 22 29 37 24 34 21 34 23 36 41 25 23
internal_value=0 0.000431558 -0.00101905 -0.00443084 -0.00277636 -0.000359464 0.00356829 0.00262582 0.00384465 0.00526254 0.00106177 0.00355888 0.0016145 -0.000832176 0.000273683 -0.00575105 0.00173297 -0.00351747 0.00258392 -0.00160555 0.00445788 0.0042882 0.00628662 0.00201095 0.00679473 0.00527346 0.00324713 0.0078572 0.00944469 0.0123334
internal_weight=0 857 586 222 192 153 271 245 213 177 364 157 125 207 184 51 120 41 133 52 79 99 75 58 145 81 58 123 89 48
internal_count=880 857 586 222 192 153 271 245 213 177 364 157 125 207 184 51 120 41 133 52 79 99 75 58 145 81 58 123 89 48
is_linear=0
shrinkage=0.05


Tree=18
num_leaves=31
num_cat=0
split_feature=77 37 76 59 11 48 99 46 46 64 4 11 12 59 29 35 64 102 6 34 6 87 6 0 19 37 11 99 97 3
split_gain=2.25905 1.39499 1.27343 1.67529 1.00652 1.19365 0.950028 0.873903 1.39171 0.751605 0.639882 0.910741 0.997286 0.986729 0.699271 0.616565 0.692701 0.602723 0.706091 0.564572 0.510811 0.510424 0.616399 0.498848 0.496 0.48054 0.474521 0.673381 0.360411 0.358869
threshold=-48.676999999999992 -1.0087499999999998 -3.4167999999999994 -0.84518999999999989 -1.2693999999999999 -3.4958999999999993 -0.98499999999999988 -1.2510999999999999 -1.9398499999999996 -0.25485999999999992 1.2079500000000001 -0.196545 0.40374000000000004 -0.46042999999999995 -4.4468499999999986 4.651250000000001 1.6697000000000004 1.1463500000000002 1.0961500000000002 -0.070121999999999976 -2.4553999999999996 0.90495000000000003 -0.66662499999999991 2.6237500000000007 -1.1022499999999997 -0.85475999999999985 -2.0527999999999995 -0.80762499999999993 -0.96366499999999988 -2.3518499999999993
decision_type=2 2 2 2 2 2 2 2 2 2 2 2 2 2 2 2 2 2 2 2 2 2 2 2 2 2 2 2 2 2
left_child=1 -1 3 6 20 -6 -2 8 9 -7 14 -12 13 -13 -9 16 17 21 -19 25 -4 24 -23 -15 -16 -18 -22 -28 -26 -24
right_child=2 -3 4 -5 5 7 -8 10 -10 -11 11 12 -14 23 15 -17 19 18 -20 -21 26 22 29 -25 28 -27 27 -29 -30 -31
leaf_value=-0.0015014088047402246 -0.0066154808131007785 -0.019147425629974655 0.0099433777545503282 -0.015807119362915938 -0.0094183129925901696 0.0081133257364854224 0.0063125702414523676 -0.0051571504557850192 -0.01384312228485942 -0.0044000447494909169 0.0057043446573398771 0.0013902167683805932 0.005489352457225323 -0.0062548119828782292 0.010244208233479154 0.0086565995361242033 0.0031843529143573152 0.0020314788656486645 -0.010786325370215557 0.0010066818276017503 0.0069259530324488885 -0.0069526643635561842 -0.0025907677436328453 -0.016902555176056922 0.0061178629733622076 0.012387694313971175 -0.003932164624137314 0.0059979049068304806 -0.0025548632002186343 0.0054047965276468966
leaf_weight=21 30 24 37 26 30 20 27 27 25 30 31 22 20 22 29 45 23 21 22 37 50 26 23 22 25 37 38 31 23 36
leaf_count=21 30 24 37 26 30 20 27 27 25 30 31 22 20 22 29 45 23 21 22 37 50 26 23 22 25 37 38 31 23 36
internal_value=0 -0.0109126 0.000588105 -0.00528928 0.00123681 0.000300944 -0.000491667 0.000816099 -0.00421084 0.000605303 0.00158396 -0.00164321 -0.00429175 -0.00725572 0.00259353 0.00319661 0.00238303 0.000735826 -0.00452647 0.00586425 0.00481228 0.00213261 -0.000538638 -0.0115787 0.00508139 0.00885975 0.00321689 0.000529171 0.00196218 0.00228788
internal_weight=0 45 835 83 752 596 57 566 75 50 491 117 86 66 374 347 302 205 43 97 156 162 85 44 77 60 119 69 48 59
internal_count=880 45 835 83 752 596 57 566 75 50 491 117 86 66 374 347 302 205 43 97 156 162 85 44 77 60 119 69 48 59
is_linear=0
shrinkage=0.05


Tree=19
num_leaves=31
num_cat=0
split_feature=87 10 29 92 21 21 62 92 25 108 46 37 68 52 64 75 87 108 41 91 34 2 68 8 61 13 130 129 92 6
split_gain=2.10105 1.34522 1.80446 1.29083 1.17445 1.82682 1.41024 1.26134 1.21333 1.06328 1.02446 0.909972 0.892241 0.821858 1.06138 0.873706 0.704914 0.869525 0.932171 0.705667 0.664802 0.664399 0.520128 0.38132 0.413447 0.368421 0.3362 0.310149 0.253235 0.228735
threshold=-7.3454999999999986 -0.77026499999999987 -4.343399999999999 -0.30395499999999992 -1.5832499999999998 0.039568500000000006 -0.57314999999999994 -2.2655499999999997 -0.99033499999999985 -1.6070999999999998 2.6281500000000002 0.69467000000000012 4.3828000000000005 -1.7443499999999998 -4.3878999999999992 -8.0513999999999974 0.17560000000000003 0.47285000000000005 -0.22482499999999997 -0.22774499999999998 0.81302000000000019 -0.88274499999999989 -0.80263999999999991 6.0369500000000009 -4.936799999999999 -0.063601499999999991 -0.14999999999999999 0.22500000000000001 4.0008500000000007 0.20039500000000002
decision_type=2 2 2 2 2 2 2 2 2 2 2 2 2 2 2 2 2 2 2 2 2 2 2 2 2 2 2 2 2 2
left_child=-1 13 -3 4 6 7 -4 -6 -7 -9 12 21 16 -2 -15 -16 19 22 -19 27 -13 -10 -18 24 -17 -21 -11 -5 -26 -12
right_child=1 2 3 10 5 8 -8 9 11 26 29 20 -14 14 15 23 17 18 -20 25 -22 -23 -24 -25 28 -27 -28 -29 -30 -31
leaf_value=-0.014913283667081726 0.011765637191442344 -0.012126468515078374 -0.019452194754211678 -0.0034964556979199795 0.014485639732863223 -0.016788808974670246 -0.0027770600485382602 -0.0089718207339977932 -0.0054311162617523227 -0.00017749506594805882 0.0050569484289735558 -0.01483907342134487 -0.0083280781361584864 -0.0053865877798179515 -0.003162308456376195 0.00034323804235706729 -0.00057889635715147731 -0.010993682509288193 0.00079647900726597168 0.014049414953305609 -0.00225789168117834 0.0065008282262299742 0.010304840698483446 -0.00014112380988619947 0.0087993257151380098 0.0054720554147816951 0.0069312328227962823 0.0047225107126657598 0.0033687050836826008 0.012230881500989201
leaf_weight=23 26 34 21 24 21 20 32 21 20 29 20 21 24 37 37 24 23 30 38 21 21 28 21 27 92 31 39 22 28 25
leaf_count=23 26 34 21 24 21 20 32 21 20 29 20 21 24 37 37 24 23 30 38 21 21 28 21 27 92 31 39 22 28 25
internal_value=0 0.00040024 -0.000946896 -0.000258299 -0.00270261 -0.00109296 -0.00938419 0.00346328 -0.0056492 0.0008625 0.00213345 -0.00317373 0.000804789 0.00331323 0.00241624 0.00380425 0.00184855 -0.000861225 -0.00440506 0.00494543 -0.00854848 0.00152918 0.00461561 0.00531163 0.00633402 0.00893599 0.00389957 0.000434354 0.00753218 0.00904247
internal_weight=0 857 586 552 273 220 53 110 110 89 279 90 234 271 245 208 210 112 68 98 42 48 44 171 144 52 68 46 120 45
internal_count=880 857 586 552 273 220 53 110 110 89 279 90 234 271 245 208 210 112 68 98 42 48 44 171 144 52 68 46 120 45
is_linear=0
shrinkage=0.05


Tree=20
num_leaves=31
num_cat=0
split_feature=108 87 87 92 92 62 102 94 13 128 46 77 32 28 81 67 36 19 103 103 97 23 14 29 111 56 104 2 94 84
split_gain=1.92278 1.69931 1.5116 0.890132 0.978138 1.10591 1.47018 1.54024 1.41605 0.999832 1.01466 0.825413 1.96582 0.684089 0.632446 0.566018 0.788154 0.512474 0.484924 0.463955 0.74012 0.556041 0.590492 0.541559 0.417727 0.678096 0.601667 0.503324 0.363143 0.312798
threshold=-2.3233499999999991 -0.79745499999999991 1.1998500000000003 -2.3040499999999997 -0.30395499999999992 -0.85876499999999989 1.4269500000000002 1.9261000000000001 -0.77869499999999992 1.7000000000000004 2.6281500000000002 -1.7423999999999997 -0.58957999999999988 -0.013547949999999998 2.1251500000000001 -1.2414499999999997 1.3698000000000004 4.1975500000000006 -0.6265949999999999 0.31398000000000004 -1.4836499999999997 -1.0994499999999998 0.79447500000000015 0.6362850000000001 0.23306000000000002 -0.54804499999999989 -1.0590499999999998 0.39244500000000004 1.4845000000000004 -1.5338499999999997
decision_type=2 2 2 2 2 2 2 2 2 2 2 2 2 2 2 2 2 2 2 2 2 2 2 2 2 2 2 2 2 2
left_child=1 -1 -3 -2 5 6 7 13 -7 10 11 12 -6 -5 17 16 -14 24 -16 21 -21 -10 -23 28 25 27 -27 -13 -22 -28
right_child=3 2 -4 4 9 8 -8 -9 19 -11 -12 14 15 -15 18 -17 -18 -19 -20 20 23 22 -24 -25 -26 26 29 -29 -30 -31
leaf_value=-0.015702220501706884 0.0094004003282893329 0.0079965564461114517 -0.0082954391092061996 -0.0028714455026858606 -0.015790623630441369 0.011826461533685991 -0.017746139468536492 0.009140870431438089 -0.011315609170123935 -0.0081991321670458386 0.0091959084095433359 0.0022129004806213616 -0.0065954810775378167 -0.013898200727999211 0.0029703528410755099 0.0066707151938199764 0.0052388673687043287 0.011586650833487512 -0.0079082774220123175 0.0091375769962641334 -0.0012530418069218287 -0.0063549834769219167 0.0044573415192249027 -0.0075209919324455161 0.008121558414514814 -0.0023694366945520694 0.0013444300717674197 -0.0067810625303536655 0.0068726007454097265 0.008535573705129567
leaf_weight=34 29 24 35 39 21 24 21 20 20 23 50 35 34 22 20 31 24 21 21 22 44 28 23 24 38 23 20 28 20 62
leaf_count=34 29 24 35 39 21 24 21 20 20 23 50 35 34 22 20 31 24 21 21 22 44 28 23 24 38 23 20 28 20 62
internal_value=0 -0.00679891 -0.00166819 0.000803429 0.000474521 -0.00170246 -0.00595685 -0.00290036 0.000414357 0.00195641 0.00250215 0.00161674 -0.00203022 -0.00684831 0.00311362 0.00121661 -0.00169851 0.00414589 -0.00260163 -0.00109885 0.000934919 -0.00424976 -0.00147884 -0.00111575 0.00338737 0.00231654 0.00477712 -0.00178442 0.00128622 0.00678164
internal_weight=0 93 59 787 758 307 102 81 205 451 428 378 110 61 268 89 58 227 41 181 110 71 51 88 206 168 105 63 64 82
internal_count=880 93 59 787 758 307 102 81 205 451 428 378 110 61 268 89 58 227 41 181 110 71 51 88 206 168 105 63 64 82
is_linear=0
shrinkage=0.05


Tree=21
num_leaves=31
num_cat=0
split_feature=87 4 48 1 4 87 13 3 29 3 59 128 104 60 34 101 82 87 4 44 59 23 100 52 53 33 12 130 78 92
split_gain=1.76552 0.983048 1.86797 1.27358 1.0691 0.962147 0.776931 1.19668 1.0011 0.780361 1.1751 1.29002 1.45384 0.742252 0.665513 0.722804 0.761907 0.589082 0.682232 0.4795 0.462462 0.507661 0.442597 0.43542 0.479309 0.411245 0.399479 0.35371 0.340201 0.404901
threshold=-7.3454999999999986 4.6731000000000007 0.28704500000000005 3.2813000000000003 -2.3387499999999997 3.8461500000000006 0.30860500000000007 2.7470500000000002 -3.7969999999999997 -0.84610499999999988 -0.41867499999999996 1.1000000000000003 -0.34526499999999999 0.12227500000000001 -0.8112999999999998 -1.3551999999999997 -1.3351499999999998 -2.6265999999999994 1.1705500000000002 -0.15167499999999998 0.63647500000000001 0.70465500000000014 1.8560000000000001 0.22984000000000002 -0.51098999999999994 -0.87869999999999993 4.1846500000000004 -0.44999999999999996 0.6287100000000001 -0.29813999999999996
decision_type=2 2 2 2 2 2 2 2 2 2 2 2 2 2 2 2 2 2 2 2 2 2 2 2 2 2 2 2 2 2
left_child=-1 4 3 -3 -2 6 9 8 -8 10 11 12 -6 23 15 -11 -17 -15 19 -19 -12 -22 27 24 -10 -16 -27 -21 29 -29
right_child=1 2 -4 -5 5 -7 7 -9 13 14 20 -13 -14 17 25 16 -18 18 -20 22 21 -23 -24 -25 -26 26 -28 28 -30 -31
leaf_value=-0.013670736213174203 -0.0082455362706828194 -0.0022495482937388476 0.0068178346291894011 -0.019110184593591841 -0.014869589022727628 -0.0086245337733998895 -0.007549143204232678 -0.0088212969745250624 0.0076836759732528169 -0.0054848303534806922 0.0096913057628885985 0.0062204911614701687 0.0022146252403035761 0.0083130084161530254 0.013647273965179922 0.0091794320970381565 -0.00083310917987929371 -0.0052308855514074199 -0.0082207798886184524 -0.004719722095372466 -0.0035363976217922758 0.0067477010850173734 0.0087229824857786298 0.010202315266018131 -0.0030112084833672273 0.0076062716056265259 0.001111347950063646 -0.0057448819678808964 0.0057882536723304337 0.0040737254766836052
leaf_weight=23 31 21 21 24 33 24 32 36 22 26 28 21 20 20 20 38 38 29 26 24 24 24 20 34 20 91 32 21 36 21
leaf_count=23 31 21 21 24 33 24 32 36 22 26 28 21 20 20 20 38 38 29 26 24 24 24 20 34 20 91 32 21 36 21
internal_value=0 0.000366893 -0.00549561 -0.0112419 0.000856052 0.0012273 0.00154856 -0.000199855 0.000817758 0.00305794 0.000217695 -0.00426721 -0.00842272 0.00179849 0.00479687 0.00171132 0.00417316 0.000179154 -0.000739925 0.000548169 0.00458458 0.00160565 0.00192188 0.00599599 0.00259087 0.00699776 0.00591654 0.000588329 0.00222157 -0.000835578
internal_weight=0 857 66 45 791 760 736 341 305 395 150 74 53 273 245 102 76 197 177 151 76 48 122 76 42 143 123 102 78 42
internal_count=880 857 66 45 791 760 736 341 305 395 150 74 53 273 245 102 76 197 177 151 76 48 122 76 42 143 123 102 78 42
is_linear=0
shrinkage=0.05


end of trees

feature_importances:
top_20%_correlation_stddev_best_ratio=24
top_20%_loss_kurtosis=21
top_30%_loss_kurtosis=19
recent_15%_loss_kurtosis=18
top_10%_loss_kurtosis=18
all_loss_best_percentile75_ratio=17
all_correlation_percentile5_percentile25_ratio=15
all_loss_stddev_best_ratio=14
recent_15%_correlation_stddev_best_ratio=14
recent_25_correlation_stddev_median_ratio=14
top_30%_correlation_best_percentile75_ratio=14
all_correlation_stddev_best_ratio=13
all_loss_kurtosis=11
top_10%_loss_percentile5_percentile25_ratio=11
all_correlation_best_percentile25_ratio=10
recent_10_loss_percentile5_percentile25_ratio=10
recent_25_loss_best_percentile75_ratio=10
recent_25_loss_stddev_median_ratio=10
top_30%_correlation_kurtosis=10
all_loss_skew=9
recent_15%_correlation_kurtosis=9
top_30%_correlation_stddev_best_ratio=9
recent_10_correlation_stddev_best_ratio=8
recent_10_loss_stddev_median_ratio=8
recent_15%_correlation_best_percentile50_ratio=8
recent_15%_correlation_best_percentile75_ratio=8
recent_15%_correlation_percentile5_percentile25_ratio=8
recent_25_loss_stddev_best_ratio=8
secondaryCutoff=8
all_correlation_best_percentile50_ratio=7
recent_10_correlation_best_percentile25_ratio=7
recent_10_loss_best_percentile75_ratio=7
recent_15%_correlation_skew=7
recent_15%_loss_stddev_median_ratio=7
recent_25_loss_best_percentile50_ratio=7
top_10%_correlation_kurtosis=7
top_20%_loss_skew=7
all_correlation_best_percentile75_ratio=6
all_correlation_kurtosis=6
all_loss_best_percentile50_ratio=6
recent_10_correlation_best_percentile75_ratio=6
recent_10_correlation_percentile5_percentile25_ratio=6
recent_10_loss_skew=6
recent_15%_correlation_stddev_median_ratio=6
recent_15%_loss_skew=6
top_10%_loss_best_percentile75_ratio=6
top_20%_correlation_best_percentile50_ratio=6
top_30%_correlation_best_percentile25_ratio=6
top_30%_correlation_percentile5_percentile25_ratio=6
top_30%_loss_best_percentile75_ratio=6
all_loss_best_percentile25_ratio=5
all_loss_stddev_median_ratio=5
recent_10_loss_best_percentile25_ratio=5
recent_15%_loss_percentile5_percentile25_ratio=5
recent_25_loss_skew=5
top_10%_correlation_best_percentile50_ratio=5
log10_cardinality=4
recent_10_loss_stddev_best_ratio=4
recent_15%_correlation_best_percentile25_ratio=4
recent_25_correlation_best_percentile75_ratio=4
recent_25_correlation_kurtosis=4
recent_25_correlation_stddev_best_ratio=4
recent_25_loss_kurtosis=4
recent_25_loss_percentile5_percentile25_ratio=4
top_10%_correlation_percentile5_percentile25_ratio=4
top_10%_correlation_stddev_best_ratio=4
top_10%_loss_skew=4
top_20%_correlation_kurtosis=4
top_20%_correlation_skew=4
top_30%_correlation_skew=4
top_30%_correlation_stddev_median_ratio=4
all_correlation_stddev_median_ratio=3
all_loss_percentile5_percentile25_ratio=3
recent_10_correlation_kurtosis=3
recent_10_correlation_stddev_median_ratio=3
recent_10_loss_kurtosis=3
recent_15%_loss_best_percentile25_ratio=3
top_10%_correlation_best_percentile25_ratio=3
top_10%_correlation_best_percentile75_ratio=3
top_20%_correlation_best_percentile75_ratio=3
top_20%_loss_best_percentile75_ratio=3
all_correlation_skew=2
recent_10_loss_best_percentile50_ratio=2
recent_15%_loss_stddev_best_ratio=2
recent_25_correlation_best_percentile50_ratio=2
recent_25_correlation_skew=2
recent_25_loss_best_percentile25_ratio=2
top_10%_correlation_skew=2
top_10%_loss_best_percentile50_ratio=2
top_20%_loss_percentile5_percentile25_ratio=2
top_20%_loss_stddev_median_ratio=2
top_30%_loss_best_percentile50_ratio=2
top_30%_loss_percentile5_percentile25_ratio=2
top_30%_loss_skew=2
secondaryLockingMode_random=2
secondaryCorrelationMultiplier=2
secondaryFixedProbability=2
recent_10_correlation_skew=1
recent_15%_loss_best_percentile50_ratio=1
recent_15%_loss_best_percentile75_ratio=1
recent_25_correlation_best_percentile25_ratio=1
recent_25_correlation_percentile5_percentile25_ratio=1
top_10%_correlation_stddev_median_ratio=1
top_10%_loss_best_percentile25_ratio=1
top_10%_loss_stddev_best_ratio=1
top_20%_correlation_best_percentile25_ratio=1
top_20%_correlation_percentile5_percentile25_ratio=1
top_20%_correlation_stddev_median_ratio=1
top_30%_loss_best_percentile25_ratio=1
top_30%_loss_stddev_best_ratio=1
top_30%_loss_stddev_median_ratio=1
resultFilteringMode_none=1
secondaryLockingMode_top=1
secondaryTopLockingPercentile=1
secondaryCorrelationExponent=1

parameters:
[boosting: gbdt]
[objective: regression]
[metric: l2]
[tree_learner: serial]
[device_type: cpu]
[data_sample_strategy: bagging]
[data: ]
[valid: ]
[num_iterations: 100]
[learning_rate: 0.05]
[num_leaves: 31]
[num_threads: 0]
[seed: 0]
[deterministic: 0]
[force_col_wise: 0]
[force_row_wise: 0]
[histogram_pool_size: -1]
[max_depth: -1]
[min_data_in_leaf: 20]
[min_sum_hessian_in_leaf: 0.001]
[bagging_fraction: 1]
[pos_bagging_fraction: 1]
[neg_bagging_fraction: 1]
[bagging_freq: 0]
[bagging_seed: 3]
[feature_fraction: 0.7]
[feature_fraction_bynode: 1]
[feature_fraction_seed: 2]
[extra_trees: 0]
[extra_seed: 6]
[early_stopping_round: 5]
[early_stopping_min_delta: 0]
[first_metric_only: 0]
[max_delta_step: 0]
[lambda_l1: 0]
[lambda_l2: 0]
[linear_lambda: 0]
[min_gain_to_split: 0]
[drop_rate: 0.1]
[max_drop: 50]
[skip_drop: 0.5]
[xgboost_dart_mode: 0]
[uniform_drop: 0]
[drop_seed: 4]
[top_rate: 0.2]
[other_rate: 0.1]
[min_data_per_group: 100]
[max_cat_threshold: 32]
[cat_l2: 10]
[cat_smooth: 10]
[max_cat_to_onehot: 4]
[top_k: 20]
[monotone_constraints: ]
[monotone_constraints_method: basic]
[monotone_penalty: 0]
[feature_contri: ]
[forcedsplits_filename: ]
[refit_decay_rate: 0.9]
[cegb_tradeoff: 1]
[cegb_penalty_split: 0]
[cegb_penalty_feature_lazy: ]
[cegb_penalty_feature_coupled: ]
[path_smooth: 0]
[interaction_constraints: ]
[verbosity: -1]
[saved_feature_importance_type: 0]
[use_quantized_grad: 0]
[num_grad_quant_bins: 4]
[quant_train_renew_leaf: 0]
[stochastic_rounding: 1]
[linear_tree: 0]
[max_bin: 255]
[max_bin_by_feature: ]
[min_data_in_bin: 3]
[bin_construct_sample_cnt: 200000]
[data_random_seed: 1]
[is_enable_sparse: 1]
[enable_bundle: 1]
[use_missing: 1]
[zero_as_missing: 0]
[feature_pre_filter: 1]
[pre_partition: 0]
[two_round: 0]
[header: 0]
[label_column: ]
[weight_column: ]
[group_column: ]
[ignore_column: ]
[categorical_feature: ]
[forcedbins_filename: ]
[precise_float_parser: 0]
[parser_config_file: ]
[objective_seed: 5]
[num_class: 1]
[is_unbalance: 0]
[scale_pos_weight: 1]
[sigmoid: 1]
[boost_from_average: 1]
[reg_sqrt: 0]
[alpha: 0.9]
[fair_c: 1]
[poisson_max_delta_step: 0.7]
[tweedie_variance_power: 1.5]
[lambdarank_truncation_level: 30]
[lambdarank_norm: 1]
[label_gain: ]
[lambdarank_position_bias_regularization: 0]
[eval_at: ]
[multi_error_top_k: 1]
[auc_mu_weights: ]
[num_machines: 1]
[local_listen_port: 12400]
[time_out: 120]
[machine_list_filename: ]
[machines: ]
[gpu_platform_id: -1]
[gpu_device_id: -1]
[gpu_use_dp: 0]
[num_gpu: 1]

end of parameters

pandas_categorical:null
