tree
version=v4
num_class=1
num_tree_per_iteration=1
label_index=0
max_feature_idx=124
objective=regression
feature_names=all_correlation_best_percentile25_ratio all_correlation_best_percentile50_ratio all_correlation_best_percentile75_ratio all_correlation_kurtosis all_correlation_percentile5_percentile25_ratio all_correlation_skew all_correlation_stddev_best_ratio all_correlation_stddev_median_ratio all_loss_best_percentile25_ratio all_loss_best_percentile50_ratio all_loss_best_percentile75_ratio all_loss_kurtosis all_loss_percentile5_percentile25_ratio all_loss_skew all_loss_stddev_best_ratio all_loss_stddev_median_ratio log10_cardinality recent_10_correlation_best_percentile25_ratio recent_10_correlation_best_percentile50_ratio recent_10_correlation_best_percentile75_ratio recent_10_correlation_kurtosis recent_10_correlation_percentile5_percentile25_ratio recent_10_correlation_skew recent_10_correlation_stddev_best_ratio recent_10_correlation_stddev_median_ratio recent_10_loss_best_percentile25_ratio recent_10_loss_best_percentile50_ratio recent_10_loss_best_percentile75_ratio recent_10_loss_kurtosis recent_10_loss_percentile5_percentile25_ratio recent_10_loss_skew recent_10_loss_stddev_best_ratio recent_10_loss_stddev_median_ratio recent_15%_correlation_best_percentile25_ratio recent_15%_correlation_best_percentile50_ratio recent_15%_correlation_best_percentile75_ratio recent_15%_correlation_kurtosis recent_15%_correlation_percentile5_percentile25_ratio recent_15%_correlation_skew recent_15%_correlation_stddev_best_ratio recent_15%_correlation_stddev_median_ratio recent_15%_loss_best_percentile25_ratio recent_15%_loss_best_percentile50_ratio recent_15%_loss_best_percentile75_ratio recent_15%_loss_kurtosis recent_15%_loss_percentile5_percentile25_ratio recent_15%_loss_skew recent_15%_loss_stddev_best_ratio recent_15%_loss_stddev_median_ratio recent_25_correlation_best_percentile25_ratio recent_25_correlation_best_percentile50_ratio recent_25_correlation_best_percentile75_ratio recent_25_correlation_kurtosis recent_25_correlation_percentile5_percentile25_ratio recent_25_correlation_skew recent_25_correlation_stddev_best_ratio recent_25_correlation_stddev_median_ratio recent_25_loss_best_percentile25_ratio recent_25_loss_best_percentile50_ratio recent_25_loss_best_percentile75_ratio recent_25_loss_kurtosis recent_25_loss_percentile5_percentile25_ratio recent_25_loss_skew recent_25_loss_stddev_best_ratio recent_25_loss_stddev_median_ratio top_10%_correlation_best_percentile25_ratio top_10%_correlation_best_percentile50_ratio top_10%_correlation_best_percentile75_ratio top_10%_correlation_kurtosis top_10%_correlation_percentile5_percentile25_ratio top_10%_correlation_skew top_10%_correlation_stddev_best_ratio top_10%_correlation_stddev_median_ratio top_10%_loss_best_percentile25_ratio top_10%_loss_best_percentile50_ratio top_10%_loss_best_percentile75_ratio top_10%_loss_kurtosis top_10%_loss_percentile5_percentile25_ratio top_10%_loss_skew top_10%_loss_stddev_best_ratio top_10%_loss_stddev_median_ratio top_20%_correlation_best_percentile25_ratio top_20%_correlation_best_percentile50_ratio top_20%_correlation_best_percentile75_ratio top_20%_correlation_kurtosis top_20%_correlation_percentile5_percentile25_ratio top_20%_correlation_skew top_20%_correlation_stddev_best_ratio top_20%_correlation_stddev_median_ratio top_20%_loss_best_percentile25_ratio top_20%_loss_best_percentile50_ratio top_20%_loss_best_percentile75_ratio top_20%_loss_kurtosis top_20%_loss_percentile5_percentile25_ratio top_20%_loss_skew top_20%_loss_stddev_best_ratio top_20%_loss_stddev_median_ratio top_30%_correlation_best_percentile25_ratio top_30%_correlation_best_percentile50_ratio top_30%_correlation_best_percentile75_ratio top_30%_correlation_kurtosis top_30%_correlation_percentile5_percentile25_ratio top_30%_correlation_skew top_30%_correlation_stddev_best_ratio top_30%_correlation_stddev_median_ratio top_30%_loss_best_percentile25_ratio top_30%_loss_best_percentile50_ratio top_30%_loss_best_percentile75_ratio top_30%_loss_kurtosis top_30%_loss_percentile5_percentile25_ratio top_30%_loss_skew top_30%_loss_stddev_best_ratio top_30%_loss_stddev_median_ratio resultFilteringMode_age resultFilteringMode_loss_rank resultFilteringMode_none resultFilteringMode_random resultFilteringMode_zscore secondaryProbabilityMode_correlation secondaryProbabilityMode_fixed secondaryLockingMode_random secondaryLockingMode_top resultFilteringAgeMultiplier resultFilteringLossRankMultiplier resultFilteringRandomProbability
feature_infos=[-2.3677999999999999:12.188000000000001] [-2.4325000000000001:21.358000000000001] [-2.3546999999999998:82.573999999999998] [-3.6453000000000002:10.451000000000001] [-2.3837999999999999:12.428000000000001] [-5.6197999999999997:4.6768000000000001] [-6.6993:4.9142000000000001] [-3.4340000000000002:22.431999999999999] [-37.218000000000004:12.952] [-80.236000000000004:139.81999999999999] [-73.692999999999998:2463.3000000000002] [-3.9756999999999998:12.180999999999999] [-43.232999999999997:15.257] [-9.0307999999999993:7.4043000000000001] [-1685.9000000000001:61.128999999999998] [-51.396999999999998:28.774999999999999] [-2.0857000000000001:3.1073] [-4.9265999999999996:132.19] [-3.1505999999999998:63.615000000000002] [-1.8580000000000001:95.052000000000007] [-2.7671999999999999:19.670999999999999] [-5.9444999999999997:90.001999999999995] [-4.3075999999999999:6.9995000000000003] [-8.0312999999999999:6.1654999999999998] [-2.9542000000000002:63.289000000000001] [-16.399999999999999:1175.8] [-12.426:11.199999999999999] [-58.640000000000001:99.905000000000001] [-1.8433999999999999:2.0192000000000001] [-19.907:1239] [-3.8334999999999999:1.9677] [-110.33:809.63999999999999] [-7.9808000000000003:22.698] [-1.8931:96.373999999999995] [-3.5225:32.186999999999998] [-2.3738999999999999:44.149000000000001] [-2.5185:16.347999999999999] [-1.9958:72.841999999999999] [-3.2385999999999999:6.4789000000000003] [-7.3319000000000001:5.343] [-3.3704000000000001:36.302] [-21.219000000000001:10.472] [-8.3688000000000002:19.010000000000002] [-72.501999999999995:91.262] [-1.7350000000000001:11.209] [-25.521999999999998:11.159000000000001] [-3.9333999999999998:5.6965000000000003] [-1654.9000000000001:80.631] [-10.746:20.765999999999998] [-1.9710000000000001:240.93000000000001] [-3.9287999999999998:38.917000000000002] [-2.6880999999999999:114.84999999999999] [-2.6526999999999998:12.888] [-2.0794999999999999:230.15000000000001] [-4.7378:5.8212000000000002] [-6.3037999999999998:6.0464000000000002] [-3.4984999999999999:39.476999999999997] [-22.109000000000002:18.103999999999999] [-32.292999999999999:33.747999999999998] [-26.559999999999999:116.17] [-2.5028999999999999:6.2613000000000003] [-27.638000000000002:21.303999999999998] [-5.5335000000000001:4.7171000000000003] [-466.05000000000001:20.847999999999999] [-8.9506999999999994:17.919] [-4.0186999999999999:132.66] [-2.5922000000000001:136] [-1.7357:35.68] [-2.2057000000000002:14.555] [-4.8287000000000004:88.421999999999997] [-6.9291:6.0297999999999998] [-16.062999999999999:5.5796999999999999] [-2.5865999999999998:140.77000000000001] [-55.048999999999999:13.002000000000001] [-30.173999999999999:8.6856000000000009] [-179.59:8.0633999999999997] [-3.4792999999999998:19.800999999999998] [-66.221999999999994:14.071999999999999] [-7.2192999999999996:7.0986000000000002] [-874.33000000000004:20.573] [-46.265000000000001:68.664000000000001] [-5.0312000000000001:621.75999999999999] [-3.1566000000000001:32.777999999999999] [-1.7352000000000001:64.606999999999999] [-2.5472000000000001:17.503] [-6.0110999999999999:764.72000000000003] [-9.5698000000000008:6.8278999999999996] [-15.291:5.4462000000000002] [-3.1179999999999999:35.066000000000003] [-30.381:39.637] [-25.895:9.6171000000000006] [-11.94:13.308999999999999] [-3.8058000000000001:12.67] [-36.587000000000003:53.299999999999997] [-7.4659000000000004:6.0353000000000003] [-1063.4000000000001:66.040000000000006] [-13.016999999999999:185.28] [-1.9422999999999999:209.05000000000001] [-3.7989000000000002:35.119] [-1.6677999999999999:50.688000000000002] [-2.6735000000000002:21.132000000000001] [-1.9739:125.95] [-5.9039000000000001:7.2276999999999996] [-8.2310999999999996:4.7451999999999996] [-3.5796000000000001:40.057000000000002] [-45.067:11.074999999999999] [-11.638999999999999:23.707000000000001] [-175.02000000000001:9.0383999999999993] [-3.4550999999999998:23.859999999999999] [-65.103999999999999:13.047000000000001] [-10.314:7.2881] [-1449:71.742999999999995] [-51.652999999999999:35.661000000000001] none none none none none [0:1] [0:1] [0:1] [0:1] none none none
tree_sizes=553 475

Tree=0
num_leaves=5
num_cat=0
split_feature=13 64 34 64
split_gain=19.5202 18.4663 5.92863 4.60329
threshold=0.41126500000000005 -0.24235499999999996 -0.058056999999999991 0.49813000000000002
decision_type=2 2 2 2
left_child=1 2 -1 -2
right_child=3 -3 -4 -5
leaf_value=0.70131159791946041 0.72580023378864911 0.66267523443549492 0.73892523392834752 0.75859914731479539
leaf_weight=22 20 22 20 23
leaf_count=22 20 22 20 23
internal_value=0.71729 0.699785 0.719223 0.743344
internal_weight=0 64 42 43
internal_count=107 64 42 43
is_linear=0
shrinkage=1


Tree=1
num_leaves=4
num_cat=0
split_feature=0 86 17
split_gain=15.9267 19.2233 4.88324
threshold=2.6465000000000005 0.42220000000000008 -0.50185499999999994
decision_type=2 2 2
left_child=1 2 -1
right_child=-2 -3 -4
leaf_value=0.047038631829554624 -0.034048453116646185 -0.020005537981107352 0.015686775795701477
leaf_weight=23 26 31 27
leaf_count=23 26 31 27
internal_value=0 0.0109291 0.0301086
internal_weight=0 81 50
internal_count=107 81 50
is_linear=0
shrinkage=0.05


end of trees

feature_importances:
recent_25_loss_stddev_median_ratio=2
all_correlation_best_percentile25_ratio=1
all_loss_skew=1
recent_10_correlation_best_percentile25_ratio=1
recent_15%_correlation_best_percentile50_ratio=1
top_20%_correlation_skew=1

parameters:
[boosting: gbdt]
[objective: regression]
[metric: l2]
[tree_learner: serial]
[device_type: cpu]
[data_sample_strategy: bagging]
[data: ]
[valid: ]
[num_iterations: 100]
[learning_rate: 0.05]
[num_leaves: 31]
[num_threads: 0]
[seed: 0]
[deterministic: 0]
[force_col_wise: 0]
[force_row_wise: 0]
[histogram_pool_size: -1]
[max_depth: -1]
[min_data_in_leaf: 20]
[min_sum_hessian_in_leaf: 0.001]
[bagging_fraction: 1]
[pos_bagging_fraction: 1]
[neg_bagging_fraction: 1]
[bagging_freq: 0]
[bagging_seed: 3]
[feature_fraction: 0.85]
[feature_fraction_bynode: 1]
[feature_fraction_seed: 2]
[extra_trees: 0]
[extra_seed: 6]
[early_stopping_round: 5]
[early_stopping_min_delta: 0]
[first_metric_only: 0]
[max_delta_step: 0]
[lambda_l1: 0]
[lambda_l2: 0]
[linear_lambda: 0]
[min_gain_to_split: 0]
[drop_rate: 0.1]
[max_drop: 50]
[skip_drop: 0.5]
[xgboost_dart_mode: 0]
[uniform_drop: 0]
[drop_seed: 4]
[top_rate: 0.2]
[other_rate: 0.1]
[min_data_per_group: 100]
[max_cat_threshold: 32]
[cat_l2: 10]
[cat_smooth: 10]
[max_cat_to_onehot: 4]
[top_k: 20]
[monotone_constraints: ]
[monotone_constraints_method: basic]
[monotone_penalty: 0]
[feature_contri: ]
[forcedsplits_filename: ]
[refit_decay_rate: 0.9]
[cegb_tradeoff: 1]
[cegb_penalty_split: 0]
[cegb_penalty_feature_lazy: ]
[cegb_penalty_feature_coupled: ]
[path_smooth: 0]
[interaction_constraints: ]
[verbosity: -1]
[saved_feature_importance_type: 0]
[use_quantized_grad: 0]
[num_grad_quant_bins: 4]
[quant_train_renew_leaf: 0]
[stochastic_rounding: 1]
[linear_tree: 0]
[max_bin: 255]
[max_bin_by_feature: ]
[min_data_in_bin: 3]
[bin_construct_sample_cnt: 200000]
[data_random_seed: 1]
[is_enable_sparse: 1]
[enable_bundle: 1]
[use_missing: 1]
[zero_as_missing: 0]
[feature_pre_filter: 1]
[pre_partition: 0]
[two_round: 0]
[header: 0]
[label_column: ]
[weight_column: ]
[group_column: ]
[ignore_column: ]
[categorical_feature: ]
[forcedbins_filename: ]
[precise_float_parser: 0]
[parser_config_file: ]
[objective_seed: 5]
[num_class: 1]
[is_unbalance: 0]
[scale_pos_weight: 1]
[sigmoid: 1]
[boost_from_average: 1]
[reg_sqrt: 0]
[alpha: 0.9]
[fair_c: 1]
[poisson_max_delta_step: 0.7]
[tweedie_variance_power: 1.5]
[lambdarank_truncation_level: 30]
[lambdarank_norm: 1]
[label_gain: ]
[lambdarank_position_bias_regularization: 0]
[eval_at: ]
[multi_error_top_k: 1]
[auc_mu_weights: ]
[num_machines: 1]
[local_listen_port: 12400]
[time_out: 120]
[machine_list_filename: ]
[machines: ]
[gpu_platform_id: -1]
[gpu_device_id: -1]
[gpu_use_dp: 0]
[num_gpu: 1]

end of parameters

pandas_categorical:null
