tree
version=v4
num_class=1
num_tree_per_iteration=1
label_index=0
max_feature_idx=126
objective=regression
feature_names=all_correlation_best_percentile25_ratio all_correlation_best_percentile50_ratio all_correlation_best_percentile75_ratio all_correlation_kurtosis all_correlation_percentile5_percentile25_ratio all_correlation_skew all_correlation_stddev_best_ratio all_correlation_stddev_median_ratio all_loss_best_percentile25_ratio all_loss_best_percentile50_ratio all_loss_best_percentile75_ratio all_loss_kurtosis all_loss_percentile5_percentile25_ratio all_loss_skew all_loss_stddev_best_ratio all_loss_stddev_median_ratio log10_cardinality recent_10_correlation_best_percentile25_ratio recent_10_correlation_best_percentile50_ratio recent_10_correlation_best_percentile75_ratio recent_10_correlation_kurtosis recent_10_correlation_percentile5_percentile25_ratio recent_10_correlation_skew recent_10_correlation_stddev_best_ratio recent_10_correlation_stddev_median_ratio recent_10_loss_best_percentile25_ratio recent_10_loss_best_percentile50_ratio recent_10_loss_best_percentile75_ratio recent_10_loss_kurtosis recent_10_loss_percentile5_percentile25_ratio recent_10_loss_skew recent_10_loss_stddev_best_ratio recent_10_loss_stddev_median_ratio recent_15%_correlation_best_percentile25_ratio recent_15%_correlation_best_percentile50_ratio recent_15%_correlation_best_percentile75_ratio recent_15%_correlation_kurtosis recent_15%_correlation_percentile5_percentile25_ratio recent_15%_correlation_skew recent_15%_correlation_stddev_best_ratio recent_15%_correlation_stddev_median_ratio recent_15%_loss_best_percentile25_ratio recent_15%_loss_best_percentile50_ratio recent_15%_loss_best_percentile75_ratio recent_15%_loss_kurtosis recent_15%_loss_percentile5_percentile25_ratio recent_15%_loss_skew recent_15%_loss_stddev_best_ratio recent_15%_loss_stddev_median_ratio recent_25_correlation_best_percentile25_ratio recent_25_correlation_best_percentile50_ratio recent_25_correlation_best_percentile75_ratio recent_25_correlation_kurtosis recent_25_correlation_percentile5_percentile25_ratio recent_25_correlation_skew recent_25_correlation_stddev_best_ratio recent_25_correlation_stddev_median_ratio recent_25_loss_best_percentile25_ratio recent_25_loss_best_percentile50_ratio recent_25_loss_best_percentile75_ratio recent_25_loss_kurtosis recent_25_loss_percentile5_percentile25_ratio recent_25_loss_skew recent_25_loss_stddev_best_ratio recent_25_loss_stddev_median_ratio top_10%_correlation_best_percentile25_ratio top_10%_correlation_best_percentile50_ratio top_10%_correlation_best_percentile75_ratio top_10%_correlation_kurtosis top_10%_correlation_percentile5_percentile25_ratio top_10%_correlation_skew top_10%_correlation_stddev_best_ratio top_10%_correlation_stddev_median_ratio top_10%_loss_best_percentile25_ratio top_10%_loss_best_percentile50_ratio top_10%_loss_best_percentile75_ratio top_10%_loss_kurtosis top_10%_loss_percentile5_percentile25_ratio top_10%_loss_skew top_10%_loss_stddev_best_ratio top_10%_loss_stddev_median_ratio top_20%_correlation_best_percentile25_ratio top_20%_correlation_best_percentile50_ratio top_20%_correlation_best_percentile75_ratio top_20%_correlation_kurtosis top_20%_correlation_percentile5_percentile25_ratio top_20%_correlation_skew top_20%_correlation_stddev_best_ratio top_20%_correlation_stddev_median_ratio top_20%_loss_best_percentile25_ratio top_20%_loss_best_percentile50_ratio top_20%_loss_best_percentile75_ratio top_20%_loss_kurtosis top_20%_loss_percentile5_percentile25_ratio top_20%_loss_skew top_20%_loss_stddev_best_ratio top_20%_loss_stddev_median_ratio top_30%_correlation_best_percentile25_ratio top_30%_correlation_best_percentile50_ratio top_30%_correlation_best_percentile75_ratio top_30%_correlation_kurtosis top_30%_correlation_percentile5_percentile25_ratio top_30%_correlation_skew top_30%_correlation_stddev_best_ratio top_30%_correlation_stddev_median_ratio top_30%_loss_best_percentile25_ratio top_30%_loss_best_percentile50_ratio top_30%_loss_best_percentile75_ratio top_30%_loss_kurtosis top_30%_loss_percentile5_percentile25_ratio top_30%_loss_skew top_30%_loss_stddev_best_ratio top_30%_loss_stddev_median_ratio resultFilteringMode_age resultFilteringMode_loss_rank resultFilteringMode_none resultFilteringMode_random resultFilteringMode_zscore secondaryProbabilityMode_correlation secondaryProbabilityMode_fixed secondaryLockingMode_random secondaryLockingMode_top resultFilteringAgeMultiplier resultFilteringLossRankMultiplier resultFilteringRandomProbability zscoreThreshold secondaryTopLockingPercentile
feature_infos=[-2.4369000000000001:24.036000000000001] [-2.5036:21.358000000000001] [-3.5531000000000001:154.86000000000001] [-3.6453000000000002:14.465] [-2.4540999999999999:24.484000000000002] [-6.8068999999999997:6.6510999999999996] [-9.1274999999999995:5.3723999999999998] [-4.3174999999999999:22.431999999999999] [-23812:490.06999999999999] [-350.76999999999998:691.17999999999995] [-668.07000000000005:2463.3000000000002] [-4.3609:20.048999999999999] [-29352:453.97000000000003] [-12.154999999999999:10.747999999999999] [-5565.3999999999996:70.739000000000004] [-311.45999999999998:135.58000000000001] [-2.0857000000000001:3.1073] [-4.9265999999999996:1725.2] [-3.1505999999999998:370.75] [-1.8580000000000001:175.59999999999999] [-2.8125:19.670999999999999] [-5.9444999999999997:1067] [-6.0997000000000003:6.9995000000000003] [-11.852:6.1654999999999998] [-2.9542000000000002:371.73000000000002] [-296.87:3737.5] [-1274.9000000000001:475.93000000000001] [-714.02999999999997:195.58000000000001] [-2.1116999999999999:2.0192000000000001] [-296.49000000000001:4457.8999999999996] [-5.7491000000000003:1.9677] [-110.33:809.63999999999999] [-156.47:1140.3] [-5.0629999999999997:329.44999999999999] [-3.5225:110.34] [-2.3738999999999999:1656.7] [-2.7488000000000001:19.879999999999999] [-6.3052000000000001:318.25] [-6.3205:7.2946] [-9.8634000000000004:5.5928000000000004] [-3.3704000000000001:122.2] [-67.754999999999995:1012] [-241.91:302.79000000000002] [-1217.7:536.24000000000001] [-1.7388999999999999:14.298] [-72.736999999999995:1077.3] [-5.1489000000000003:6.8114999999999997] [-7208.5:195.13999999999999] [-127.28:40.521999999999998] [-5.7134:1869.5999999999999] [-3.9287999999999998:2785.8000000000002] [-2.6880999999999999:533.00999999999999] [-3.0124:21.812999999999999] [-7.1954000000000002:1821.7] [-6.0408999999999997:8.0638000000000005] [-11.795999999999999:6.9744999999999999] [-3.4984999999999999:2636.4000000000001] [-490.95999999999998:226.03999999999999] [-289.41000000000003:1278.0999999999999] [-1286.4000000000001:872.04999999999995] [-2.5478000000000001:6.2981999999999996] [-602.50999999999999:280.10000000000002] [-7.2958999999999996:4.7473000000000001] [-5771:180.09] [-459.75999999999999:83.087000000000003] [-4.0186999999999999:301.73000000000002] [-2.5922000000000001:251.47] [-1.7357:149.52000000000001] [-2.2233000000000001:14.555] [-4.8287000000000004:393.81999999999999] [-6.9291:6.0297999999999998] [-16.062999999999999:5.8040000000000003] [-2.5865999999999998:225.68000000000001] [-1803.4000000000001:735.75999999999999] [-938.11000000000001:67.903999999999996] [-179.59:111.23] [-3.4792999999999998:43.048999999999999] [-2314.1999999999998:793.05999999999995] [-11.151999999999999:9.8718000000000004] [-4999.5:190.53] [-74.522999999999996:781.51999999999998] [-5.0312000000000001:621.75999999999999] [-3.1566000000000001:379.76999999999998] [-1.7352000000000001:759.52999999999997] [-2.6225000000000001:18.971] [-6.0110999999999999:764.72000000000003] [-9.5698000000000008:7.2789000000000001] [-15.291:5.8116000000000003] [-3.1179999999999999:452.06999999999999] [-729.85000000000002:68.497] [-151.41:134.44] [-579.60000000000002:2064.0999999999999] [-3.8058000000000001:27.905999999999999] [-749.03999999999996:77.513999999999996] [-7.7359999999999998:8.6153999999999993] [-6760.5:263.13999999999999] [-117.66:2193.5] [-4.9116:855.61000000000001] [-3.7989000000000002:137.11000000000001] [-1.6677999999999999:696.63999999999999] [-2.9215:21.244] [-5.8402000000000003:707.25] [-7.2865000000000002:7.2605000000000004] [-13.013999999999999:6.3464999999999998] [-3.5796000000000001:152.56] [-179.77000000000001:110.38] [-566.97000000000003:2100.5] [-258.92000000000002:770.02999999999997] [-3.5779999999999998:23.859999999999999] [-243.33000000000001:121.63] [-10.314:10.305999999999999] [-6739.3999999999996:172.05000000000001] [-1577.4000000000001:552.88] [0:1] [0:1] [0:1] [0:1] [0:1] [0:1] [0:1] [0:1] [0:1] [-3:4] [-3:4] [-3:0.90000000000000002] [-3:3] [-3:10]
tree_sizes=2592 2783 2763 2797 2780 2763 2770

Tree=0
num_leaves=31
num_cat=0
split_feature=54 18 32 78 107 25 3 103 3 60 24 23 65 29 26 89 23 2 56 92 6 3 102 12 21 32 49 28 17 92
split_gain=7.21245 4.56758 4.78957 4.84024 5.90395 5.00188 4.34282 4.34256 4.31568 3.8791 3.54579 3.52204 3.40543 3.22039 4.75427 4.22031 4.11801 5.14609 4.65197 3.68356 3.21716 2.89111 4.16984 3.39674 2.59629 2.58674 2.44331 2.99597 2.1393 1.74136
threshold=-2.4630999999999994 2.7964500000000005 4.2257500000000006 2.7802000000000002 5.413450000000001 2.5273500000000007 -1.8172499999999998 0.67767000000000011 -0.84289499999999984 -0.49183999999999994 -1.0103499999999996 -0.28899999999999998 0.29543000000000003 -3.3225999999999996 0.24818000000000001 0.19313000000000002 2.7153500000000004 2.9140500000000005 1.3419000000000001 2.5396000000000005 -0.14982499999999996 -1.19295 -0.96391499999999986 -0.45859499999999992 -0.89000999999999986 0.74623000000000006 -0.72624499999999992 0.45351000000000002 -0.55917499999999987 -0.24116499999999996
decision_type=2 2 2 2 2 2 2 2 2 2 2 2 2 2 2 2 2 2 2 2 2 2 2 2 2 2 2 2 2 2
left_child=11 2 3 4 5 13 -3 9 -4 -8 -5 20 -10 24 15 19 17 18 26 21 -1 -15 -23 -24 -2 -26 -16 -28 -7 -13
right_child=1 6 8 10 -6 28 7 -9 12 -11 -12 29 -14 14 16 -17 -18 -19 -20 -21 -22 22 23 -25 25 -27 27 -29 -30 -31
leaf_value=1.9791619319278237 1.9899431819045408 2.0034431821392342 1.9710146101273887 1.9995860393800131 1.975531417105526 2.0210146110347629 1.9711931815320116 1.9674431816065174 1.9843350738140522 1.9985242629528996 2.0257765165572477 1.9635369316018609 2.0099431823888283 2.0070265155172708 1.994526515227526 1.9717288958416743 2.0157765158898 2.0141098496453327 2.0056010770090102 1.9748505889428685 2.0043479441419176 2.0079193725714304 1.9674431815360609 1.9946170947253115 2.001371753506072 2.0245860405153397 1.9887394783146652 1.9641823119384496 2.0010970282518152 1.9815736164806388
leaf_weight=32 20 25 35 28 34 28 20 40 37 37 24 32 20 36 36 35 30 30 38 27 21 21 23 23 28 21 27 23 26 23
leaf_count=32 20 25 35 28 34 28 20 40 37 37 24 32 20 36 36 35 30 30 38 27 21 21 23 23 28 21 27 23 26 23
internal_value=1.99205 1.99374 1.9954 1.99715 1.99565 1.9971 1.98486 1.98007 1.98483 1.98893 2.01167 1.97994 1.99332 1.99525 1.9933 1.98714 1.99883 1.99553 1.99103 1.99129 1.98914 1.9956 1.98946 1.98103 2.00512 2.01132 1.98459 1.97744 2.01142 1.97108
internal_weight=0 772 650 558 506 472 122 97 92 57 52 108 57 418 349 165 184 154 124 130 53 103 67 46 69 49 86 50 54 55
internal_count=880 772 650 558 506 472 122 97 92 57 52 108 57 418 349 165 184 154 124 130 53 103 67 46 69 49 86 50 54 55
is_linear=0
shrinkage=1


Tree=1
num_leaves=31
num_cat=0
split_feature=54 32 6 5 78 103 100 48 58 2 61 15 32 39 108 105 13 49 48 29 104 101 100 85 104 97 54 43 57 4
split_gain=6.55151 3.60479 4.28203 4.20148 3.39027 4.60049 4.96796 4.80339 3.43579 4.45124 4.32241 4.08686 3.75912 3.34611 4.11105 5.9794 3.25759 3.18366 3.16254 3.11199 3.03385 5.93092 3.00391 3.00254 2.82621 2.81031 2.79238 2.72568 3.48207 2.63789
threshold=-2.6818499999999994 2.38165 -3.8886499999999997 0.26728500000000005 2.7802000000000002 1.5376000000000001 -2.0175499999999995 -0.66018999999999994 0.30004500000000006 3.1868000000000003 -0.6438799999999999 1.1593000000000002 -0.46785499999999997 -2.5546999999999995 0.27150000000000002 -0.22887499999999997 -0.80764999999999987 0.10919000000000001 1.0000000180025095e-35 0.50798500000000002 -0.16524999999999998 -0.043404999999999992 -0.77494499999999988 1.4438500000000001 0.6956500000000001 0.45932000000000006 -1.1071499999999996 3.1371500000000005 2.9273500000000001 -0.039662999999999997
decision_type=2 2 2 2 2 2 2 2 2 2 2 2 2 2 2 2 2 2 2 2 2 2 2 2 2 2 2 2 2 2
left_child=16 2 3 -2 5 6 -4 -7 10 11 12 20 -8 -3 15 23 -1 26 -9 29 21 -10 -6 -15 -12 -17 -14 -22 -29 -16
right_child=1 13 4 -5 22 7 8 18 9 -11 24 -13 17 14 19 25 -18 -19 -20 -21 27 -23 -24 -25 -26 -27 -28 28 -30 -31
leaf_value=-0.0013400241198456464 0.0031445002827914085 -0.023138555452301677 0.029994699298404162 -0.025301483852788811 0.031790817708097163 -0.017931992216580647 -0.010063528232664492 0.018475888786964458 0.012622055458824003 0.025219004168507777 -0.017287992700275548 -0.012607256870027273 0.0040313280609552754 0.011659220797291986 -0.012946573949593585 -0.03642845697700977 -0.021400125354062768 -0.00038018406097156308 -0.0049255339389977365 0.024049213923572097 0.027419298798777164 -0.019999425028535453 0.0072335959011318417 -0.012892412301152945 0.005153192442376167 -0.010531699653537627 0.027994615002535285 -0.0044776882978621868 0.023512764759652784 0.012733604730165099
leaf_weight=34 27 22 20 25 20 47 30 22 38 35 47 26 20 33 20 20 50 39 42 20 30 22 33 20 20 22 31 25 20 20
leaf_count=34 27 22 20 25 20 47 30 22 38 35 47 26 20 33 20 20 50 39 42 20 30 22 33 20 20 22 31 25 20 20
internal_value=0 0.00140147 0.00320073 -0.0105315 0.00446012 0.0032186 0.00570116 -0.00579465 0.00443257 0.00905826 -0.00041575 0.00554506 0.00526439 -0.00489087 -0.00230087 -0.00877222 -0.0132806 0.0103737 0.00311871 0.00794541 0.00904106 0.000660846 0.0165005 0.00239445 -0.0105891 -0.0228635 0.0185972 0.0157452 0.00796251 -0.000106485
internal_weight=0 796 619 52 567 514 403 111 383 196 187 161 120 177 155 95 84 90 64 60 135 60 53 53 67 42 51 75 45 40
internal_count=880 796 619 52 567 514 403 111 383 196 187 161 120 177 155 95 84 90 64 60 135 60 53 53 67 42 51 75 45 40
is_linear=0
shrinkage=0.05


Tree=2
num_leaves=31
num_cat=0
split_feature=54 11 18 97 32 93 6 29 62 22 108 88 1 108 34 17 112 59 77 19 12 97 70 29 101 62 83 100 60 4
split_gain=5.91274 4.49295 4.058 3.99579 3.99077 3.95247 3.93039 3.90406 3.77736 3.75531 5.23214 4.30642 4.25999 4.43152 5.32138 4.13831 3.70145 3.59546 2.93943 2.61582 2.60407 2.59225 2.56651 2.56118 3.0184 2.19291 2.15072 1.99169 1.96055 1.71327
threshold=-2.6818499999999994 -0.95898499999999987 2.7964500000000005 -0.97202499999999992 4.2257500000000006 4.7432000000000007 0.057126500000000004 3.1234500000000005 -1.0931499999999998 -1.0203 0.17665500000000003 2.7827000000000006 3.5097000000000005 -0.66920999999999997 -1.2518999999999998 0.12285500000000001 0.55843500000000013 -0.68413999999999986 -0.30059999999999992 0.32080000000000003 4.0966500000000012 0.9522250000000001 0.91718500000000014 -2.7726499999999996 -1.0500499999999999 1.2394500000000004 -0.90066999999999997 0.48975000000000007 1.0849000000000002 -0.29473499999999991
decision_type=2 2 2 2 2 2 2 2 2 2 2 2 2 2 2 2 2 2 2 2 2 2 2 2 2 2 2 2 2 2
left_child=1 -1 4 -4 5 7 17 9 -5 10 23 12 13 22 25 19 26 -6 -14 -16 -7 -10 -11 -2 -25 -15 -12 -26 -3 -17
right_child=2 28 3 8 6 20 -8 -9 21 11 16 -13 18 14 15 29 -18 -19 -20 -21 -22 -23 -24 24 27 -27 -28 -29 -30 -31
leaf_value=0.0025035239500744693 0.0063919476096761301 -0.028946850843953365 -0.0235787917327668 -0.020907463308512456 0.018363098589576445 0.003348742287406432 -0.016690015217075901 0.02178603927139193 0.01050692294754655 0.0097103751298752358 0.026437033594657596 -0.010605388321584606 0.010860781313385815 -0.0027789882195758679 0.031049391968175771 -0.01204227514564991 -0.0085731440767024946 -0.0096208794001237663 0.03441511570261075 0.0071121872297399457 -0.020534639503923244 -0.008384967407522103 0.028550820236185766 -0.024200374241494998 0.0034305916726589205 -0.022567669548360366 0.0058974996823817488 -0.016939379852265121 -0.009107596483081579 0.0071183337581844953
leaf_weight=31 23 33 28 21 22 21 48 35 46 51 26 29 27 42 25 20 21 24 26 21 25 30 28 33 30 21 25 20 20 28
leaf_count=31 23 33 28 21 22 21 48 35 46 51 26 29 27 42 25 20 21 24 26 21 25 30 28 33 30 21 25 20 20 28
internal_value=0 -0.0126165 0.00133139 -0.00693995 0.00287225 0.00442862 -0.00668121 0.00564663 -0.00213698 0.00450776 -0.00130732 0.00776274 0.0096059 0.00672912 0.00186892 0.00940488 0.00909395 0.00376276 0.0224157 0.0201215 -0.00963136 0.0030496 0.016388 -0.00837233 -0.0124636 -0.00937522 0.0163686 -0.0047174 -0.0214603 -0.000865253
internal_weight=0 84 796 125 671 577 94 531 97 496 178 318 289 236 157 94 72 46 53 46 46 76 79 106 83 63 51 50 53 48
internal_count=880 84 796 125 671 577 94 531 97 496 178 318 289 236 157 94 72 46 53 46 46 76 79 106 83 63 51 50 53 48
is_linear=0
shrinkage=0.05


Tree=3
num_leaves=31
num_cat=0
split_feature=3 103 3 11 18 48 32 38 4 50 45 61 63 108 38 56 68 3 69 46 22 102 6 55 48 65 94 86 2 25
split_gain=3.57275 5.09908 3.97954 4.97078 4.08079 3.61907 4.24931 3.54685 3.61375 3.19701 3.07033 3.77859 3.32402 3.04022 2.83568 2.82187 2.80611 2.7684 2.72251 3.23919 2.62549 2.90563 3.9578 3.88338 2.57313 2.36787 2.23815 2.12535 1.6675 1.64067
threshold=1.3681500000000002 -2.2313999999999994 0.12787000000000001 -0.47461499999999995 -1.3791499999999999 -0.85058999999999985 -0.71273999999999982 -0.84812999999999994 -1.5539499999999997 -0.82945999999999998 -6.4563999999999995 -1.7605999999999997 -0.19227499999999997 0.77829000000000004 -2.3269999999999995 0.55988500000000008 -1.2728499999999998 -1.3615499999999998 0.67276500000000017 -0.72207499999999991 -1.0116499999999997 -0.78848499999999988 1.6735500000000003 0.50790000000000013 -2.9120499999999994 -0.5894299999999999 -0.19295499999999996 -1.2160999999999997 0.67128500000000002 0.18656000000000003
decision_type=2 2 2 2 2 2 2 2 2 2 2 2 2 2 2 2 2 2 2 2 2 2 2 2 2 2 2 2 2 2
left_child=2 -2 5 13 -5 9 17 14 -9 16 -8 27 25 -4 -3 29 -1 -7 19 -10 -14 -22 23 -23 -11 -13 -16 -12 -29 -6
right_child=1 7 3 4 15 6 10 8 18 24 11 12 20 -15 26 -17 -18 -19 -20 -21 21 22 -24 -25 -26 -27 -28 28 -30 -31
leaf_value=-0.0032653627832504835 -0.022700287014756921 -0.0084704176173545417 0.028686287219485119 0.015999063764724677 -0.023342622009804474 0.023572122407666245 -0.014552747603396282 -0.023876158681769784 0.0036116255447268489 0.010926532028575561 0.025300037371926012 -0.0038009792576422508 -0.017465276013152967 0.0066199904911358048 0.023080334545940991 0.0061097793462168842 -0.026462407571671065 0.0018983752072717136 0.0093003669152817419 -0.019509936251437689 0.014503912889354287 -0.026735370900835199 0.0086013646696561155 0.0014972492593750802 -0.0085502290648819743 0.017372928495188397 0.0013161017226853543 -0.0022663050917563618 0.016781957332277671 -0.0039522519936629882
leaf_weight=22 36 21 37 36 20 34 34 26 28 28 20 23 38 27 27 36 32 26 31 33 21 29 28 21 43 31 21 27 20 24
leaf_count=22 36 21 37 36 20 34 34 26 28 28 20 23 38 27 27 36 32 26 31 33 21 29 28 21 43 31 21 27 20 24
internal_value=0 -0.0054684 0.00185609 0.0081908 0.00201907 -0.000534363 0.00206097 -0.00215103 -0.0074167 -0.00784282 -0.000429278 0.00143195 -0.00215186 0.0193771 0.00685403 -0.00427193 -0.0170118 0.0141802 -0.00276512 -0.00889676 -0.00629302 -0.00200468 -0.0064493 -0.0148777 -0.000869253 0.00835441 0.0135585 0.0116485 0.00583934 -0.0127661
internal_weight=0 223 657 180 116 477 352 187 118 125 292 258 191 64 69 80 54 60 92 61 137 99 78 50 71 54 48 67 47 44
internal_count=880 223 657 180 116 477 352 187 118 125 292 258 191 64 69 80 54 60 92 61 137 99 78 50 71 54 48 67 47 44
is_linear=0
shrinkage=0.05


Tree=4
num_leaves=31
num_cat=0
split_feature=54 11 18 100 60 32 78 107 2 29 70 24 19 39 7 95 54 82 63 97 104 11 28 37 47 3 12 57 41 38
split_gain=5.0915 3.89714 3.45477 3.71507 3.41698 3.39443 3.9141 4.39876 3.56781 3.40517 3.10985 2.93926 2.84163 2.57566 3.20676 2.3611 4.14766 3.91021 5.68511 2.11423 1.94301 2.38372 1.89104 1.82082 1.79954 2.59683 3.10101 4.8032 2.20018 2.1167
threshold=-2.6818499999999994 -0.95898499999999987 2.7964500000000005 -1.2176999999999998 -0.49601999999999996 4.2257500000000006 2.7802000000000002 5.413450000000001 1.2383500000000003 3.1234500000000005 -3.8526999999999996 -1.0103499999999996 -1.0591999999999999 -1.9227499999999997 6.301000000000001 -0.36841499999999994 1.7388500000000002 -0.40557499999999996 -0.54359999999999997 0.9522250000000001 -1.0153499999999998 0.32686000000000009 -0.65121499999999988 -1.0133499999999998 -0.70203999999999989 -1.0410499999999998 0.35373000000000004 -0.52011999999999992 -0.15975999999999999 0.085820000000000021
decision_type=2 2 2 2 2 2 2 2 2 2 2 2 2 2 2 2 2 2 2 2 2 2 2 2 2 2 2 2 2 2
left_child=1 -1 5 -4 -5 6 7 9 12 10 -2 -8 -7 20 15 16 17 18 -15 -6 23 -22 -3 -12 -17 29 27 -27 -29 -26
right_child=2 22 3 4 19 8 11 -9 -10 -11 13 -13 -14 14 -16 24 -18 -19 -20 -21 21 -23 -24 -25 25 26 -28 28 -30 -31
leaf_value=0.0023742594008874752 -0.016477704012650068 -0.0078123992029577498 -0.021406385787920427 -0.014407151193837776 0.013322502094605525 0.0097359819580257571 0.005915198526677809 -0.01460824172861655 -0.020737205554554564 0.018574065013436249 -0.0014758378885398131 0.029502499446272853 -0.01129503882457984 0.015702508962109545 0.02228533266871064 -0.0028533075650606456 0.017829200970008969 -0.02342959951895934 -0.019469035723886918 -0.0056048535145819187 0.013647605596074405 -0.0070368624924837296 -0.027296765634056294 -0.022555874043609949 0.0092462267774540263 0.011623790398316116 0.019749027936320222 -0.022305905151138592 -0.00018869027211938216 0.028591283902418441
leaf_weight=31 20 20 31 33 36 36 28 34 29 37 21 25 29 27 27 37 20 26 20 25 26 30 33 20 31 49 28 22 23 26
leaf_count=31 20 20 31 33 36 36 28 34 29 37 21 25 29 27 27 37 20 26 20 25 26 30 33 20 31 49 28 22 23 26
internal_value=0 -0.0117076 0.00123548 -0.00639636 -0.00144625 0.0026572 0.00409259 0.00278289 -0.00615361 0.00398963 0.0027984 0.0170413 0.000352911 0.00368875 0.00576074 0.00431684 -0.00234407 -0.00787099 0.000735894 0.00556539 -0.00348844 0.00256664 -0.0199442 -0.0117588 0.00718473 0.00925964 0.00514319 0.00079251 -0.0110016 0.0180703
internal_weight=0 84 796 125 94 671 577 524 94 490 453 53 65 433 336 309 93 73 47 61 97 56 53 41 216 179 122 94 45 57
internal_count=880 84 796 125 94 671 577 524 94 490 453 53 65 433 336 309 93 73 47 61 97 56 53 41 216 179 122 94 45 57
is_linear=0
shrinkage=0.05


Tree=5
num_leaves=31
num_cat=0
split_feature=54 83 84 3 71 37 83 103 44 23 3 3 94 7 2 0 31 96 100 10 30 60 4 102 47 4 78 95 59 1
split_gain=4.62967 3.43776 3.04689 3.0262 4.90609 7.29249 3.12919 2.90771 3.55929 2.90518 2.68377 2.36127 3.01967 2.92783 2.45391 2.45185 4.8787 3.34116 3.56394 3.94116 3.29554 2.37274 2.35208 2.25008 2.21541 2.13072 2.00375 1.72871 1.69889 2.86861
threshold=-2.4630999999999994 2.4254000000000002 -0.141925 1.3681500000000002 2.0489000000000006 2.3245000000000005 0.35079000000000005 -1.8504999999999996 0.54772500000000013 -0.28899999999999998 1.7060500000000003 0.12787000000000001 -3.0104499999999996 0.45248500000000008 9.3363000000000014 -0.88497499999999996 1.5837500000000002 -0.12335 -1.2461999999999998 0.062029000000000008 -0.16973999999999997 0.15757500000000005 -0.10083899999999998 -0.58997999999999984 -0.72881499999999988 4.0099000000000009 -0.70253499999999991 -0.35730499999999993 -0.065799999999999984 -0.67977999999999994
decision_type=2 2 2 2 2 2 2 2 2 2 2 2 2 2 2 2 2 2 2 2 2 2 2 2 2 2 2 2 2 2
left_child=9 3 23 6 5 7 11 -5 26 10 -1 12 -2 21 15 16 24 20 -19 22 -17 -13 -20 -3 -14 -15 -9 -23 -26 -30
right_child=1 2 -4 4 -6 -7 -8 8 -10 -11 -12 13 14 25 -16 17 -18 18 19 -21 -22 27 -24 -25 28 -27 -28 -29 29 -31
leaf_value=0.0074168638742390398 -0.015991099956833447 -0.0099869773146929221 -0.016635355584359322 -0.0099603191638986278 -0.023243597851922881 -0.019813802355201915 0.017203702555905861 0.030291107804937795 -0.0021678111088662758 -0.01774626953961243 -0.01579492922872305 -0.0083369377527075499 0.0028293342933466193 0.026085494580911472 -0.01412785429697362 0.0009116898187626661 -0.0094641220494944226 0.017957447262347808 -0.0035924378386698666 -0.014946111986383556 -0.022410129865498417 -0.00035313647652401419 0.020366241889340539 0.013446454029707684 0.0081836588566657157 0.0063772978610359132 0.010689036855910673 0.02018679052458278 0.01342582322943669 0.038613220527768138
leaf_weight=33 24 20 47 21 26 34 44 22 33 55 20 30 32 32 21 33 29 35 20 31 28 20 21 21 25 24 32 21 26 20
leaf_count=33 24 20 47 21 26 34 44 22 33 55 20 30 32 32 21 33 29 35 20 31 28 20 21 21 25 24 32 21 26 20
internal_value=0 0.00135646 -0.00794575 0.00255323 -0.00327532 0.000380844 0.0044509 0.00673842 0.0107691 -0.00969618 -0.0013423 0.00326208 0.00111641 0.00909089 0.00239547 0.00355211 0.00865156 -0.000454609 0.00486938 -0.00149288 -0.00979341 0.00234862 0.00867908 0.00201551 0.0137521 0.0176391 0.0186751 0.0101673 0.018675 0.0243769
internal_weight=0 772 88 684 168 142 516 108 87 108 53 472 345 127 321 300 132 168 107 72 61 71 41 41 103 56 54 41 71 46
internal_count=880 772 88 684 168 142 516 108 87 108 53 472 345 127 321 300 132 168 107 72 61 71 41 41 103 56 54 41 71 46
is_linear=0
shrinkage=0.05


Tree=6
num_leaves=31
num_cat=0
split_feature=54 11 83 58 53 6 76 6 32 5 108 2 2 20 87 49 8 62 42 100 55 100 87 62 19 94 101 34 41 94
split_gain=4.22218 3.42669 2.658 2.76113 3.77019 3.16147 3.58463 3.85385 3.45241 4.79792 3.92198 2.991 3.91216 3.65982 2.78548 2.7163 2.64807 2.96386 2.61174 2.40435 2.59325 2.80747 2.74128 2.26699 3.95115 2.50555 3.35844 2.01509 1.8154 1.76772
threshold=-2.6818499999999994 -0.95898499999999987 11.438000000000001 4.7895500000000011 -0.30744499999999991 -1.6736499999999996 -2.5076499999999995 -0.97975499999999982 2.38165 -1.5993999999999999 -1.2375999999999998 10.113450000000002 4.3629500000000005 -0.36511999999999994 -0.19413499999999997 0.092799500000000021 -1.1715999999999998 -0.40172499999999994 -0.018104499999999999 6.0553500000000007 0.65326000000000006 0.91339000000000004 -0.43899999999999995 1.5025000000000002 -1.1697 0.41965500000000006 0.89106000000000007 -0.56562499999999993 0.17044500000000004 -0.28409499999999993
decision_type=2 2 2 2 2 2 2 2 2 2 2 2 2 2 2 2 2 2 2 2 2 2 2 2 2 2 2 2 2 2
left_child=1 -1 3 5 -5 23 18 15 9 27 -10 12 13 16 -12 -8 -11 -18 -7 20 21 22 -15 25 -25 26 -2 -9 -19 -3
right_child=2 29 -4 4 -6 6 7 8 10 11 14 -13 -14 19 -16 -17 17 28 -20 -21 -22 -23 -24 24 -26 -27 -28 -29 -30 -31
leaf_value=0.0025431868883090156 -0.023674950718368351 -0.0066552792210131887 -0.011604289908726247 0.026400580737166682 0.00038711615062008304 0.00019250943192413876 0.030297434431585397 0.0023224633704457018 -0.022746717559173707 0.030347973438911144 -0.0098070029479761928 -0.0090655466347622383 0.025740292796399444 0.012714648823298159 0.00960153274277936 0.0073251445536434111 -0.0034768838901072744 0.0077951290860289223 -0.020728338165253476 0.016452036851426651 0.0094897650891653043 -0.021496469854416014 -0.012833079376391002 0.019150167417352683 -0.010488786649606799 -0.00017116469627415594 0.00071915819176605769 -0.016096026185462534 0.026305948069784792 -0.025493640249425714
leaf_weight=31 43 20 39 26 30 35 22 27 25 20 36 24 32 21 38 31 27 27 26 21 32 24 21 22 23 44 21 33 26 33
leaf_count=31 43 20 39 26 30 35 22 27 25 20 36 24 32 21 38 31 27 27 26 21 32 24 21 22 23 44 21 33 26 33
internal_value=0 -0.0106614 0.00112507 0.00178088 0.0124648 0.000927383 0.00270162 0.00413282 0.00257848 0.00500276 -0.00562487 0.00779777 0.0094102 0.00702406 0.000159542 0.0168608 0.0140751 0.0100068 -0.00872457 0.00109885 -0.00219112 -0.00785458 -5.92153e-05 -0.00542739 0.00400137 -0.00935604 -0.0156706 -0.00780771 0.0168759 -0.0183848
internal_weight=0 84 796 757 56 701 548 487 434 335 99 275 251 219 74 53 100 80 61 119 98 66 42 153 45 108 64 60 53 53
internal_count=880 84 796 757 56 701 548 487 434 335 99 275 251 219 74 53 100 80 61 119 98 66 42 153 45 108 64 60 53 53
is_linear=0
shrinkage=0.05


end of trees

feature_importances:
all_correlation_kurtosis=10
recent_10_loss_stddev_median_ratio=8
recent_25_correlation_skew=8
all_correlation_best_percentile75_ratio=7
top_30%_correlation_kurtosis=7
all_correlation_stddev_best_ratio=6
all_correlation_percentile5_percentile25_ratio=5
all_loss_kurtosis=5
recent_10_loss_percentile5_percentile25_ratio=5
top_30%_loss_kurtosis=5
recent_10_correlation_best_percentile50_ratio=4
recent_15%_loss_stddev_median_ratio=4
recent_25_loss_kurtosis=4
recent_25_loss_skew=4
top_10%_loss_skew=4
top_20%_correlation_best_percentile75_ratio=4
top_20%_loss_skew=4
top_30%_correlation_best_percentile25_ratio=4
top_30%_correlation_stddev_best_ratio=4
all_loss_percentile5_percentile25_ratio=3
recent_10_correlation_best_percentile75_ratio=3
recent_10_correlation_stddev_best_ratio=3
recent_15%_correlation_skew=3
recent_25_correlation_best_percentile25_ratio=3
top_30%_correlation_percentile5_percentile25_ratio=3
top_30%_correlation_skew=3
top_30%_correlation_stddev_median_ratio=3
all_correlation_best_percentile50_ratio=2
all_correlation_skew=2
all_correlation_stddev_median_ratio=2
recent_10_correlation_best_percentile25_ratio=2
recent_10_correlation_skew=2
recent_10_correlation_stddev_median_ratio=2
recent_10_loss_best_percentile25_ratio=2
recent_10_loss_kurtosis=2
recent_15%_correlation_best_percentile50_ratio=2
recent_15%_correlation_percentile5_percentile25_ratio=2
recent_15%_correlation_stddev_best_ratio=2
recent_15%_loss_best_percentile25_ratio=2
recent_15%_loss_stddev_best_ratio=2
recent_25_correlation_stddev_best_ratio=2
recent_25_correlation_stddev_median_ratio=2
recent_25_loss_best_percentile25_ratio=2
recent_25_loss_best_percentile50_ratio=2
recent_25_loss_best_percentile75_ratio=2
recent_25_loss_percentile5_percentile25_ratio=2
recent_25_loss_stddev_best_ratio=2
top_10%_correlation_best_percentile25_ratio=2
top_10%_correlation_skew=2
top_20%_correlation_stddev_best_ratio=2
top_20%_loss_kurtosis=2
top_20%_loss_stddev_best_ratio=2
top_30%_loss_best_percentile75_ratio=2
all_correlation_best_percentile25_ratio=1
all_loss_best_percentile25_ratio=1
all_loss_best_percentile75_ratio=1
all_loss_skew=1
all_loss_stddev_median_ratio=1
recent_10_correlation_kurtosis=1
recent_10_correlation_percentile5_percentile25_ratio=1
recent_10_loss_best_percentile50_ratio=1
recent_10_loss_skew=1
recent_10_loss_stddev_best_ratio=1
recent_15%_loss_best_percentile50_ratio=1
recent_15%_loss_best_percentile75_ratio=1
recent_15%_loss_kurtosis=1
recent_15%_loss_percentile5_percentile25_ratio=1
recent_15%_loss_skew=1
recent_25_correlation_best_percentile50_ratio=1
recent_25_correlation_percentile5_percentile25_ratio=1
top_10%_correlation_kurtosis=1
top_10%_correlation_percentile5_percentile25_ratio=1
top_10%_correlation_stddev_best_ratio=1
top_10%_loss_kurtosis=1
top_10%_loss_percentile5_percentile25_ratio=1
top_20%_correlation_best_percentile50_ratio=1
top_20%_correlation_kurtosis=1
top_20%_correlation_percentile5_percentile25_ratio=1
top_20%_correlation_skew=1
top_20%_correlation_stddev_median_ratio=1
top_20%_loss_best_percentile25_ratio=1
top_20%_loss_percentile5_percentile25_ratio=1
top_20%_loss_stddev_median_ratio=1
top_30%_loss_best_percentile25_ratio=1
top_30%_loss_stddev_median_ratio=1

parameters:
[boosting: gbdt]
[objective: regression]
[metric: l2]
[tree_learner: serial]
[device_type: cpu]
[data_sample_strategy: bagging]
[data: ]
[valid: ]
[num_iterations: 100]
[learning_rate: 0.05]
[num_leaves: 31]
[num_threads: 0]
[seed: 0]
[deterministic: 0]
[force_col_wise: 0]
[force_row_wise: 0]
[histogram_pool_size: -1]
[max_depth: -1]
[min_data_in_leaf: 20]
[min_sum_hessian_in_leaf: 0.001]
[bagging_fraction: 1]
[pos_bagging_fraction: 1]
[neg_bagging_fraction: 1]
[bagging_freq: 0]
[bagging_seed: 3]
[feature_fraction: 0.85]
[feature_fraction_bynode: 1]
[feature_fraction_seed: 2]
[extra_trees: 0]
[extra_seed: 6]
[early_stopping_round: 5]
[early_stopping_min_delta: 0]
[first_metric_only: 0]
[max_delta_step: 0]
[lambda_l1: 0]
[lambda_l2: 0]
[linear_lambda: 0]
[min_gain_to_split: 0]
[drop_rate: 0.1]
[max_drop: 50]
[skip_drop: 0.5]
[xgboost_dart_mode: 0]
[uniform_drop: 0]
[drop_seed: 4]
[top_rate: 0.2]
[other_rate: 0.1]
[min_data_per_group: 100]
[max_cat_threshold: 32]
[cat_l2: 10]
[cat_smooth: 10]
[max_cat_to_onehot: 4]
[top_k: 20]
[monotone_constraints: ]
[monotone_constraints_method: basic]
[monotone_penalty: 0]
[feature_contri: ]
[forcedsplits_filename: ]
[refit_decay_rate: 0.9]
[cegb_tradeoff: 1]
[cegb_penalty_split: 0]
[cegb_penalty_feature_lazy: ]
[cegb_penalty_feature_coupled: ]
[path_smooth: 0]
[interaction_constraints: ]
[verbosity: -1]
[saved_feature_importance_type: 0]
[use_quantized_grad: 0]
[num_grad_quant_bins: 4]
[quant_train_renew_leaf: 0]
[stochastic_rounding: 1]
[linear_tree: 0]
[max_bin: 255]
[max_bin_by_feature: ]
[min_data_in_bin: 3]
[bin_construct_sample_cnt: 200000]
[data_random_seed: 1]
[is_enable_sparse: 1]
[enable_bundle: 1]
[use_missing: 1]
[zero_as_missing: 0]
[feature_pre_filter: 1]
[pre_partition: 0]
[two_round: 0]
[header: 0]
[label_column: ]
[weight_column: ]
[group_column: ]
[ignore_column: ]
[categorical_feature: ]
[forcedbins_filename: ]
[precise_float_parser: 0]
[parser_config_file: ]
[objective_seed: 5]
[num_class: 1]
[is_unbalance: 0]
[scale_pos_weight: 1]
[sigmoid: 1]
[boost_from_average: 1]
[reg_sqrt: 0]
[alpha: 0.9]
[fair_c: 1]
[poisson_max_delta_step: 0.7]
[tweedie_variance_power: 1.5]
[lambdarank_truncation_level: 30]
[lambdarank_norm: 1]
[label_gain: ]
[lambdarank_position_bias_regularization: 0]
[eval_at: ]
[multi_error_top_k: 1]
[auc_mu_weights: ]
[num_machines: 1]
[local_listen_port: 12400]
[time_out: 120]
[machine_list_filename: ]
[machines: ]
[gpu_platform_id: -1]
[gpu_device_id: -1]
[gpu_use_dp: 0]
[num_gpu: 1]

end of parameters

pandas_categorical:null
