tree
version=v4
num_class=2
num_tree_per_iteration=2
label_index=0
max_feature_idx=116
objective=multiclass num_class:2
feature_names=all_correlation_best_percentile25_ratio all_correlation_best_percentile50_ratio all_correlation_best_percentile75_ratio all_correlation_kurtosis all_correlation_percentile5_percentile25_ratio all_correlation_skew all_correlation_stddev_best_ratio all_correlation_stddev_median_ratio all_loss_best_percentile25_ratio all_loss_best_percentile50_ratio all_loss_best_percentile75_ratio all_loss_kurtosis all_loss_percentile5_percentile25_ratio all_loss_skew all_loss_stddev_best_ratio all_loss_stddev_median_ratio log10_cardinality recent_10_correlation_best_percentile25_ratio recent_10_correlation_best_percentile50_ratio recent_10_correlation_best_percentile75_ratio recent_10_correlation_kurtosis recent_10_correlation_percentile5_percentile25_ratio recent_10_correlation_skew recent_10_correlation_stddev_best_ratio recent_10_correlation_stddev_median_ratio recent_10_loss_best_percentile25_ratio recent_10_loss_best_percentile50_ratio recent_10_loss_best_percentile75_ratio recent_10_loss_kurtosis recent_10_loss_percentile5_percentile25_ratio recent_10_loss_skew recent_10_loss_stddev_best_ratio recent_10_loss_stddev_median_ratio recent_15%_correlation_best_percentile25_ratio recent_15%_correlation_best_percentile50_ratio recent_15%_correlation_best_percentile75_ratio recent_15%_correlation_kurtosis recent_15%_correlation_percentile5_percentile25_ratio recent_15%_correlation_skew recent_15%_correlation_stddev_best_ratio recent_15%_correlation_stddev_median_ratio recent_15%_loss_best_percentile25_ratio recent_15%_loss_best_percentile50_ratio recent_15%_loss_best_percentile75_ratio recent_15%_loss_kurtosis recent_15%_loss_percentile5_percentile25_ratio recent_15%_loss_skew recent_15%_loss_stddev_best_ratio recent_15%_loss_stddev_median_ratio recent_25_correlation_best_percentile25_ratio recent_25_correlation_best_percentile50_ratio recent_25_correlation_best_percentile75_ratio recent_25_correlation_kurtosis recent_25_correlation_percentile5_percentile25_ratio recent_25_correlation_skew recent_25_correlation_stddev_best_ratio recent_25_correlation_stddev_median_ratio recent_25_loss_best_percentile25_ratio recent_25_loss_best_percentile50_ratio recent_25_loss_best_percentile75_ratio recent_25_loss_kurtosis recent_25_loss_percentile5_percentile25_ratio recent_25_loss_skew recent_25_loss_stddev_best_ratio recent_25_loss_stddev_median_ratio top_10%_correlation_best_percentile25_ratio top_10%_correlation_best_percentile50_ratio top_10%_correlation_best_percentile75_ratio top_10%_correlation_kurtosis top_10%_correlation_percentile5_percentile25_ratio top_10%_correlation_skew top_10%_correlation_stddev_best_ratio top_10%_correlation_stddev_median_ratio top_10%_loss_best_percentile25_ratio top_10%_loss_best_percentile50_ratio top_10%_loss_best_percentile75_ratio top_10%_loss_kurtosis top_10%_loss_percentile5_percentile25_ratio top_10%_loss_skew top_10%_loss_stddev_best_ratio top_10%_loss_stddev_median_ratio top_20%_correlation_best_percentile25_ratio top_20%_correlation_best_percentile50_ratio top_20%_correlation_best_percentile75_ratio top_20%_correlation_kurtosis top_20%_correlation_percentile5_percentile25_ratio top_20%_correlation_skew top_20%_correlation_stddev_best_ratio top_20%_correlation_stddev_median_ratio top_20%_loss_best_percentile25_ratio top_20%_loss_best_percentile50_ratio top_20%_loss_best_percentile75_ratio top_20%_loss_kurtosis top_20%_loss_percentile5_percentile25_ratio top_20%_loss_skew top_20%_loss_stddev_best_ratio top_20%_loss_stddev_median_ratio top_30%_correlation_best_percentile25_ratio top_30%_correlation_best_percentile50_ratio top_30%_correlation_best_percentile75_ratio top_30%_correlation_kurtosis top_30%_correlation_percentile5_percentile25_ratio top_30%_correlation_skew top_30%_correlation_stddev_best_ratio top_30%_correlation_stddev_median_ratio top_30%_loss_best_percentile25_ratio top_30%_loss_best_percentile50_ratio top_30%_loss_best_percentile75_ratio top_30%_loss_kurtosis top_30%_loss_percentile5_percentile25_ratio top_30%_loss_skew top_30%_loss_stddev_best_ratio top_30%_loss_stddev_median_ratio resultFilteringMode_age resultFilteringMode_loss_rank resultFilteringMode_none resultFilteringMode_random
feature_infos=[-2.7018:16.481000000000002] [-3.1732999999999998:27.791] [-3.7696000000000001:48.354999999999997] [-3.0586000000000002:16.109999999999999] [-2.7751999999999999:17.449999999999999] [-9.6991999999999994:7.1951000000000001] [-10.531000000000001:6.8536000000000001] [-4.6143999999999998:31.056000000000001] [-11.292:2.8656000000000001] [-6.8352000000000004:3.3765000000000001] [-3.9295:3.8683999999999998] [-3.4178999999999999:14.848000000000001] [-15.648:2.7305000000000001] [-9.3017000000000003:8.1724999999999994] [-2.5566:18.763000000000002] [-2.9495:30.140999999999998] [-2.7629000000000001:4.6207000000000003] [-4.7427999999999999:309.35000000000002] [-2.7223000000000002:160.5] [-2.1254:111.40000000000001] [-2.5661:13.404] [-5.7266000000000004:371.89999999999998] [-6.4371999999999998:6.0140000000000002] [-10.246:5.8430999999999997] [-2.6444000000000001:157.41999999999999] [-21.82:2.1391] [-12.055999999999999:2.2961] [-7.8375000000000004:2.3730000000000002] [-1.9490000000000001:1.8928] [-24.036000000000001:2.1254] [-6.3985000000000003:1.7808999999999999] [-1.6644000000000001:37.884999999999998] [-1.6296999999999999:45.820999999999998] [-4.6062000000000003:63.926000000000002] [-2.8319999999999999:109.73] [-2.2997000000000001:459.98000000000002] [-2.6613000000000002:21.399000000000001] [-5.5536000000000003:68.712000000000003] [-6.2096:8.0212000000000003] [-9.9367999999999999:5.9806999999999997] [-2.7768999999999999:111.59] [-19.861000000000001:2.3180999999999998] [-12.227:2.5828000000000002] [-9.1597000000000008:2.6334] [-1.6506000000000001:13.337] [-24.198:2.3445] [-5.2046000000000001:6.1962000000000002] [-2.0760999999999998:32.116] [-2.0310000000000001:37.783999999999999] [-5.6688999999999998:127.33] [-3.0884999999999998:419.13999999999999] [-2.5242:205.19] [-2.9756:19.428000000000001] [-6.7092999999999998:126.29000000000001] [-9.5863999999999994:7.9725000000000001] [-10.651:7.1566000000000001] [-2.895:387.81] [-16.524000000000001:2.3641999999999999] [-9.9831000000000003:2.4660000000000002] [-5.6052999999999997:2.6617999999999999] [-2.1699999999999999:3.7623000000000002] [-21.161999999999999:2.351] [-6.1001000000000003:3.4426000000000001] [-2.5569000000000002:34.085999999999999] [-2.6229:45.094999999999999] [-3.8687999999999998:387.44] [-2.3915999999999999:2910.6999999999998] [-1.6498999999999999:76.072999999999993] [-2.5192000000000001:12.542999999999999] [-4.5381:356.50999999999999] [-8.8574999999999999:5.4234999999999998] [-14.07:5.2107999999999999] [-2.4443999999999999:2612.4000000000001] [-67.527000000000001:1.8746] [-47.540999999999997:2.2635000000000001] [-37.316000000000003:2.4053] [-3.0249999999999999:33.904000000000003] [-101.09:1.9817] [-12.755000000000001:8.4123999999999999] [-2.4148000000000001:79.914000000000001] [-2.5525000000000002:46.792999999999999] [-4.2770999999999999:191.44999999999999] [-2.5076000000000001:480.23000000000002] [-1.5889:243.40000000000001] [-2.4666000000000001:16.024000000000001] [-5.2675000000000001:227.71000000000001] [-10.268000000000001:6.9086999999999996] [-13.499000000000001:5.3922999999999996] [-2.6602999999999999:541.21000000000004] [-25.207999999999998:2.2587999999999999] [-19.352:2.5394000000000001] [-14.880000000000001:2.6907999999999999] [-3.7698999999999998:79.771000000000001] [-35.848999999999997:2.4026999999999998] [-21.376000000000001:13.782] [-2.3418999999999999:47.545000000000002] [-2.5186999999999999:25.538] [-4.8472999999999997:241.66] [-2.6133999999999999:107.73] [-2.1158000000000001:333.30000000000001] [-2.3441000000000001:17.780999999999999] [-6.0284000000000004:211.49000000000001] [-6.3254999999999999:7.8319000000000001] [-7.6577000000000002:5.9763999999999999] [-2.6499000000000001:93.465999999999994] [-22.390000000000001:2.3984000000000001] [-14.702999999999999:2.6701000000000001] [-12.698:2.8235000000000001] [-4.4659000000000004:130.25999999999999] [-28.443000000000001:2.4474999999999998] [-27.126999999999999:15.679] [-2.3395999999999999:35.371000000000002] [-2.5819999999999999:29.420999999999999] [0:1] [0:1] [0:1] [0:1]
tree_sizes=3350 3350 3390 3400 3405 3393 3388 3387 3394 3391

Tree=0
num_leaves=31
num_cat=0
split_feature=61 51 112 98 17 11 8 47 46 34 35 102 22 28 71 51 11 88 39 60 56 16 27 34 38 87 9 26 60 60
split_gain=6.6116 6.89651 6.58168 5.60503 5.12902 4.68194 5.01292 5.80736 6.8044 5.80033 4.10719 3.79985 3.63358 5.17315 5.08702 4.37985 5.17983 3.59756 3.24366 3.48225 4.17181 2.92712 2.69927 2.50995 2.28238 2.00695 1.9558 1.94947 1.84404 0.965829
threshold=-1.2854999999999996 2.3274500000000002 -0.8142149999999998 2.3559500000000004 8.0042000000000026 6.0844500000000012 1.4273000000000002 0.14612500000000003 -1.2161999999999999 -0.6225099999999999 -1.6828499999999997 -0.84107499999999991 0.28395500000000001 0.60998000000000008 -0.55923999999999985 0.16478000000000001 -1.1256999999999999 -0.8125699999999999 1.6146000000000003 1.6550500000000001 -1.1381999999999997 -0.68730999999999987 -1.6606499999999997 -0.61587499999999984 0.6137450000000001 -1.4744999999999997 1.8556000000000001 -2.1258499999999994 -0.58228499999999983 -1.0000000180025095e-35
decision_type=2 2 2 2 2 2 2 2 2 2 2 2 2 2 2 2 2 2 2 2 2 2 2 2 2 2 2 2 2 2
left_child=3 2 5 12 17 6 9 8 -8 -2 -9 -3 13 15 -14 16 22 18 19 20 -4 -19 -1 -22 -11 -23 -10 -5 -15 -13
right_child=1 11 4 27 -6 -7 7 10 26 24 -12 29 14 28 -16 -17 -18 21 -20 -21 23 25 -24 -25 -26 -27 -28 -29 -30 -31
leaf_value=-0.84457446619828214 -0.86119961638885345 -0.86335639262979236 -0.82140195956200324 -0.84286701834087208 -0.83876914348308806 -0.88570843730861448 -0.84428007863665966 -0.86335639262979236 -0.90433514120763292 -0.8407474278971907 -0.82749998762418187 -0.88536349834752159 -0.81955152346037663 -0.86847873620202243 -0.86194333233400477 -0.87974789206092863 -0.81585829768729534 -0.86271609968326357 -0.88218446630069214 -0.87701597548907251 -0.87872342334648257 -0.87543986977454025 -0.87639508535910526 -0.84286701834087208 -0.81359648364241455 -0.89674648406358837 -0.87639508535910526 -0.81164511466251743 -0.89921279763540285 -0.90433514120763292
leaf_weight=17.570082664489746 18.54619836807251 14.641735553741453 10.249214887619017 9.7611570358276385 12.201446294784544 10.737272739410399 14.153677701950071 14.641735553741453 10.24921488761902 14.153677701950075 17.570082664489746 13.17756199836731 14.153677701950075 9.7611570358276385 14.153677701950071 12.201446294784544 10.737272739410402 15.617851257324217 18.058140516281128 14.641735553741453 9.7611570358276349 19.034256219863892 10.737272739410399 9.761157035827642 17.082024812698364 26.355123996734619 16.105909109115601 10.249214887619017 9.7611570358276349 13.665619850158691
leaf_count=36 38 30 21 20 25 22 29 30 21 29 36 27 29 20 29 25 22 32 37 30 20 39 22 20 35 54 33 21 20 28
internal_value=-0.861028 -0.864871 -0.861943 -0.851012 -0.869695 -0.85405 -0.851275 -0.859644 -0.872243 -0.83905 -0.843798 -0.883846 -0.855887 -0.861943 -0.840747 -0.8536 -0.845428 -0.872751 -0.864317 -0.857052 -0.847234 -0.881387 -0.856644 -0.860795 -0.825899 -0.887811 -0.887261 -0.826875 -0.883846 -0.895022
internal_weight=0 310.405 268.92 119.086 135.68 133.24 122.503 72.7206 40.5088 49.7819 32.2118 41.4849 99.0757 70.7684 28.3074 51.2461 39.0446 123.479 62.4714 44.4133 29.7715 61.0072 28.3074 19.5223 31.2357 45.3894 26.3551 20.0104 19.5223 26.8432
internal_count=880 636 551 244 278 273 251 149 83 102 66 85 203 145 58 105 80 253 128 91 61 125 58 40 64 93 54 41 40 55
is_linear=0
shrinkage=1


Tree=1
num_leaves=31
num_cat=0
split_feature=61 51 9 56 98 34 6 63 65 55 87 2 87 28 102 22 28 71 51 11 108 79 65 5 35 54 55 27 61 26
split_gain=6.6116 6.89651 6.43098 6.03368 5.60503 5.34646 5.28646 4.89941 4.7618 4.4276 4.38324 4.29201 3.87309 4.32923 3.79985 3.63358 5.17315 5.08702 4.37985 5.17983 3.25738 5.05116 3.24507 3.02894 3.2783 2.77474 2.99713 2.69927 2.47789 1.94947
threshold=-1.2854999999999996 2.3274500000000002 0.64336000000000004 5.1205000000000007 2.3559500000000004 -0.52729999999999988 -0.84093499999999988 11.450500000000002 -0.4595749999999999 -2.2113499999999995 1.2866500000000001 1.7730000000000004 -0.43455999999999995 1.4823500000000003 -0.84107499999999991 0.28395500000000001 0.60998000000000008 -0.55923999999999985 0.16478000000000001 -1.1256999999999999 -0.62800999999999985 0.70781500000000008 -1.3298999999999999 -1.1668999999999998 -1.0562999999999996 0.45680000000000004 0.39362500000000006 -1.6606499999999997 -0.0076212499999999987 -2.1258499999999994
decision_type=2 2 2 2 2 2 2 2 2 2 2 2 2 2 2 2 2 2 2 2 2 2 2 2 2 2 2 2 2 2
left_child=4 2 5 7 15 6 8 9 -2 -4 12 20 13 22 -3 16 18 -17 19 27 -8 -22 -11 -14 -25 -7 28 -1 -27 -6
right_child=1 14 3 -5 29 25 11 -9 -10 10 -12 -13 23 -15 -16 17 -18 -19 -20 -21 21 -23 -24 24 -26 26 -28 -29 -30 -31
leaf_value=-0.56589404689459366 -0.58738433889303021 -0.54711212046308344 -0.57443128618164374 -0.58447509710758505 -0.56760149475200372 -0.51637805902970302 -0.51007363617157364 -0.58296852546869393 -0.54198977689085337 -0.55270013163278897 -0.52274637806544855 -0.56005277790871733 -0.58529686345607124 -0.56523733618020522 -0.5154467238347521 -0.59091698963249917 -0.52662274617416316 -0.54852518075887102 -0.53072062103194717 -0.59461021540558046 -0.5635036198942196 -0.51589021678472868 -0.51862689279312113 -0.53174508974639323 -0.57272383832423379 -0.54516075148318621 -0.55958391350851311 -0.53407342773377053 -0.51079004785999749 -0.59882339843035837
leaf_weight=17.570082664489746 14.153677701950075 14.641735553741453 14.641735553741453 16.593966960906982 9.7611570358276385 24.402892589569092 12.689504146575926 11.713388442993162 9.7611570358276349 10.737272739410395 18.058140516281128 18.54619836807251 10.737272739410402 12.689504146575926 26.843181848526001 14.153677701950075 19.522314071655273 14.153677701950071 12.201446294784544 10.737272739410402 12.201446294784548 10.249214887619017 20.010371923446662 9.7611570358276385 9.7611570358276349 10.249214887619019 11.22533059120178 10.737272739410399 10.7372727394104 10.249214887619017
leaf_count=36 29 30 30 34 20 50 26 24 20 22 37 38 22 26 55 29 40 29 25 22 25 21 41 20 20 21 23 22 22 21
internal_value=-0.54944 -0.545598 -0.548525 -0.556243 -0.559456 -0.540779 -0.549303 -0.552277 -0.568856 -0.548898 -0.544823 -0.540593 -0.550233 -0.540666 -0.526623 -0.554581 -0.548525 -0.569721 -0.556869 -0.56504 -0.530322 -0.541767 -0.530525 -0.563966 -0.552234 -0.529096 -0.53873 -0.553824 -0.527576 -0.583593
internal_weight=0 310.405 268.92 134.704 119.086 134.216 77.6012 118.11 23.9148 106.397 91.7549 53.6864 73.6967 43.4371 41.4849 99.0757 70.7684 28.3074 51.2461 39.0446 35.1402 22.4507 30.7476 30.2596 19.5223 56.6147 32.2118 28.3074 20.9865 20.0104
internal_count=880 636 551 276 244 275 159 242 49 218 188 110 151 89 85 203 145 58 105 80 72 46 63 62 40 116 66 58 43 41
is_linear=0
shrinkage=1


Tree=2
num_leaves=31
num_cat=0
split_feature=61 51 112 104 17 13 8 47 47 34 69 42 26 20 35 102 88 40 39 10 55 55 110 33 71 102 38 40 54 3
split_gain=5.95792 6.28399 5.98359 4.85153 4.8026 4.4273 4.71726 5.38483 5.81075 5.3604 4.24646 6.32509 4.28373 3.82149 3.7218 3.50196 3.3828 3.25152 3.04088 3.69085 3.10606 2.90616 2.55208 3.54155 3.1904 2.36757 2.11011 1.907 1.59017 1.29922
threshold=-1.2854999999999996 2.3274500000000002 -0.8142149999999998 2.2218500000000003 8.0042000000000026 4.8331000000000008 1.4273000000000002 0.14612500000000003 -1.9396999999999998 -0.6225099999999999 -1.0232499999999998 -1.2661499999999999 -3.0738999999999996 -0.94196499999999983 -1.6828499999999997 -0.84107499999999991 -0.8125699999999999 -0.50746499999999994 1.6146000000000003 0.60104000000000013 0.83415500000000009 0.15205500000000002 -1.3257999999999999 -0.99254999999999993 0.80740500000000004 -0.25775999999999993 0.6137450000000001 -0.81655999999999984 0.10445000000000002 -0.30190999999999996
decision_type=2 2 2 2 2 2 2 2 2 2 2 2 2 2 2 2 2 2 2 2 2 2 2 2 2 2 2 2 2 2
left_child=3 2 5 10 16 6 9 8 -8 -2 11 12 27 -12 -9 -3 18 -15 19 20 -4 -5 -18 -24 28 -10 -11 -1 -25 -17
right_child=1 15 4 21 -6 -7 7 14 25 26 13 -13 -14 17 -16 29 22 -19 -20 -21 -22 -23 23 24 -26 -27 -28 -29 -30 -31
leaf_value=0.02923397842204975 -0.00016738274313320459 -0.0022135677200519461 -0.018618390751007529 0.048503960545200175 0.02158055352555514 -0.024212314515427359 0.017835043221279021 -0.0022511509391405977 -0.0042604391480871818 0.019467540868575703 -0.0029252702262768625 -0.027260915522084657 -0.014920358291653682 0.046729579865645826 0.031825926245611452 -0.019638028424025615 -0.036458967333335854 0.0092717779252677827 -0.020439418528924773 0.025512235024059374 0.013879185715965482 0.011346640451157347 0.013202431382345418 -0.042447094568486256 0.0033308117874252838 -0.034382463720615701 0.045494461508158959 0.0023934850665738856 -0.01704601966986596 -0.042067225772048605
leaf_weight=17.130817145109177 18.542979568243027 14.631124734878538 18.48348951339722 11.305726796388628 12.243499457836149 10.69705158472061 12.221176326274866 14.631985634565352 10.244550019502638 14.21225628256798 13.643928945064543 18.984472334384918 14.131713777780531 13.234885305166243 17.711154460906982 11.101665437221527 16.472412973642349 10.304062426090242 17.958402305841446 13.71023854613304 12.209760814905165 9.8442572355270368 9.7504581511020643 13.070104509592058 9.7255170345306379 17.959413856267936 17.226830452680588 10.783444017171862 11.656363159418104 15.430578231811523
leaf_count=35 38 30 38 23 25 22 25 30 21 29 28 39 29 27 36 23 34 21 37 28 25 20 20 27 20 37 35 22 24 32
internal_value=0 -0.00366037 -0.000873719 0.00948688 -0.00828396 0.0066383 0.00932677 0.00120334 -0.0109627 0.0211536 0.00480905 -0.00330609 0.00750992 0.0181289 0.0164095 -0.0218525 -0.0112558 0.0303326 -0.00307803 0.00394355 -0.00569087 0.0312091 -0.019661 -0.013401 -0.0209303 -0.0234412 0.0337288 0.0188653 -0.0304727 -0.0326824
internal_weight=0 309.891 268.728 119.363 135.28 133.447 122.75 72.7683 40.4251 49.9821 98.2133 61.0304 42.046 37.1829 32.3431 41.1634 123.037 23.5389 62.3619 44.4035 30.6933 21.15 60.6749 44.2024 34.452 28.204 31.4391 27.9143 24.7265 26.5322
internal_count=880 636 551 244 278 273 251 149 83 102 201 125 86 76 66 85 253 48 128 91 63 43 125 91 71 58 64 57 51 55
is_linear=0
shrinkage=0.05


Tree=3
num_leaves=31
num_cat=0
split_feature=61 51 112 104 17 13 8 47 46 40 8 65 42 26 35 20 102 88 40 55 33 108 8 41 61 43 112 33 45 10
split_gain=5.95792 6.28399 5.98359 4.85153 4.8026 4.4273 4.71726 5.38483 6.46805 4.46847 4.12969 3.79993 4.83677 4.84696 3.7218 3.63865 3.50196 3.3828 3.09461 2.90616 2.64121 4.33148 4.14568 3.22964 3.25092 2.51515 2.26737 2.43305 2.25249 2.10231
threshold=-1.2854999999999996 2.3274500000000002 -0.8142149999999998 2.2218500000000003 8.0042000000000026 4.8331000000000008 1.4273000000000002 0.14612500000000003 -1.2161999999999999 0.7447450000000001 1.2988500000000003 -0.90668499999999985 -1.2661499999999999 -3.0738999999999996 -1.6828499999999997 -0.94196499999999983 -0.84107499999999991 -0.8125699999999999 -0.50746499999999994 0.15205500000000002 -0.74555999999999989 -1.0005249999999999 -0.37085999999999991 0.37228500000000003 -0.032871999999999992 1.1876000000000004 1.3146000000000002 -0.99254999999999993 -6.4234499999999999 2.4940000000000002
decision_type=2 2 2 2 2 2 2 2 2 2 2 2 2 2 2 2 2 2 2 2 2 2 2 2 2 2 2 2 2 2
left_child=3 2 5 11 17 6 9 8 -8 10 25 12 13 28 -9 -13 -3 20 -17 -5 22 -22 -4 24 -23 -2 27 -19 -1 -10
right_child=1 16 4 19 -6 -7 7 14 29 -11 -12 15 -14 -15 -16 18 -18 26 -20 -21 21 23 -24 -25 -26 -27 -28 -29 -30 -31
leaf_value=-0.00024123723595827486 -0.014612629434014562 0.0022135677200519461 0.034992442909061353 -0.048503960545200175 -0.02158055352555514 0.024212314515427359 -0.016229797535439017 0.0022511509391405977 0.036556091007082889 -0.040919519175899401 -0.035006832664301907 0.0029252702262768625 0.023018831106334778 0.017502011142306477 -0.031825926245611452 -0.046114401055476394 0.03268236378716536 0.0044524894753834353 -0.0092717779252677827 -0.011346640451157347 0.023306191427433998 -0.023151914307395979 -0.0080733471052589472 -0.03794638415873143 0.017657618591825599 0.019990959923617421 -0.0001656408920970512 0.030601473649096569 -0.029697139252666691 0.0072645245216372452
leaf_weight=10.264895290136336 10.28212702274323 14.631124734878538 13.093678325414659 11.305726796388628 12.243499457836149 10.69705158472061 14.191344261169432 14.631985634565352 16.486539214849476 18.188283681869507 10.779217898845671 13.643928945064543 19.958025127649307 13.638191491365431 17.711154460906982 12.754854798316954 26.532243669033051 11.677131056785582 10.304062426090242 9.8442572355270368 10.207252115011213 9.7654662430286407 9.748836934566496 9.7919684350490552 9.7546891272068059 10.732437700033186 11.651036798954008 37.346687972545624 17.649365872144703 9.7472567260265333
leaf_count=21 21 30 27 23 25 22 29 30 34 37 22 28 41 28 36 26 55 24 21 20 21 20 20 20 20 22 24 77 36 20
internal_value=0 0.00366037 0.000873719 -0.00948688 0.00828396 -0.0066383 -0.00932677 -0.00120334 0.0109627 -0.0211536 -0.00984606 -0.00480905 0.00278805 -0.00692898 -0.0164095 -0.0175411 0.0218525 0.0112558 -0.029651 -0.0312091 0.00307803 -0.00474507 0.0166126 -0.0145133 -0.00275841 0.00305992 0.019661 0.024373 -0.0188653 0.0256727
internal_weight=0 309.891 268.728 119.363 135.28 133.447 122.75 72.7683 40.4251 49.9821 31.7938 98.2133 61.5105 41.5525 32.3431 36.7028 41.1634 123.037 23.0589 21.15 62.3619 39.5194 22.8425 29.3121 19.5202 21.0146 60.6749 49.0238 27.9143 26.2338
internal_count=880 636 551 244 278 273 251 149 83 102 65 201 126 85 66 75 85 253 47 43 128 81 47 60 40 43 125 101 57 54
is_linear=0
shrinkage=0.05


Tree=4
num_leaves=31
num_cat=0
split_feature=61 109 51 52 69 52 63 55 48 87 25 81 56 22 39 17 29 102 36 79 9 68 21 88 57 47 54 19 92 28
split_gain=5.3749 5.88332 5.46562 4.57441 5.28473 5.89931 4.30611 4.76146 5.14973 4.75421 4.23845 3.80895 4.82719 4.39692 4.24512 4.22303 3.98557 3.77106 3.45361 4.31096 3.24394 5.36453 4.3403 3.23574 2.94416 2.58879 2.5624 4.44935 2.52475 2.09929
threshold=-1.2854999999999996 -1.3756499999999996 2.1845500000000002 -1.6467499999999997 -1.5471999999999999 0.70933000000000013 15.146000000000003 -2.2113499999999995 -0.18718499999999996 1.9320000000000002 -2.5732499999999994 -0.68316499999999991 0.25799000000000005 1.8606000000000003 0.39287000000000005 1.6529500000000004 -0.28612999999999994 -0.84107499999999991 -0.61957499999999988 2.2137000000000007 0.47705000000000003 0.67265500000000011 -0.43266999999999994 -0.10838999999999999 1.5473500000000002 -0.14668999999999996 0.75865500000000008 -0.95441999999999994 0.29877500000000007 -0.26300999999999991
decision_type=2 2 2 2 2 2 2 2 2 2 2 2 2 2 2 2 2 2 2 2 2 2 2 2 2 2 2 2 2 2
left_child=3 18 6 -1 10 29 7 8 -3 11 26 12 14 15 24 16 -13 -4 -2 -20 -18 22 -22 25 -9 -15 27 -5 -14 -6
right_child=1 2 17 4 5 -7 -8 9 -10 -11 -12 13 28 23 -16 -17 20 -19 19 -21 21 -23 -24 -25 -26 -27 -28 -29 -30 -31
leaf_value=-0.013835718237986169 -0.036588113772376994 0.03879600952230481 0.0028686765192709315 0.020455342746627147 0.049755883366643591 0.0030203995471799814 0.028951974543736478 -0.0071667688791938597 -0.0032002877115137733 -0.029396705558271209 -0.021775566220600579 0.013552093376304737 0.011997825278275049 0.0027751043093014217 -0.021793655059268804 -0.038458561707759222 -0.032737539357824329 -0.029380044762123466 -0.025995391542663032 0.015011125260416017 0.0026463400371601509 0.024645889595742834 -0.042878769388988477 -0.013453432967281038 0.029691336894795278 0.036719707017346941 0.030259746828561127 -0.023484763878544101 0.047432649527449564 0.024135744520031713
leaf_weight=18.539153963327408 18.759885251522064 15.684896469116213 14.131516337394713 13.214732378721235 16.806644260883331 20.108307003974915 14.264918446540831 9.7264568805694598 13.654283076524733 15.023679316043852 14.082689017057417 17.547423511743538 9.7936795651912707 10.750650525093079 14.098588824272154 12.572713047266005 15.91063272953034 25.285738050937653 15.008507013320925 11.186284303665159 10.765267550945277 10.250168055295942 10.192351490259179 10.185499548912047 12.231074094772337 11.762356847524643 11.331735134124754 10.214364320039751 10.328019708395002 15.251073241233824
leaf_count=38 39 32 29 27 34 41 29 20 28 31 29 36 20 22 29 26 33 53 31 23 22 21 21 21 25 24 23 21 21 31
internal_value=0 -0.00349076 -0.000645146 0.00899403 0.0131842 0.0242507 0.00236687 0.000565087 0.0192512 -0.00246152 0.00136491 -2.54577e-05 0.0105661 -0.00543772 -0.000383017 -0.0119438 -0.00678864 -0.0178185 -0.020212 -0.00848387 -0.0143638 -0.00499627 -0.019494 0.00993056 0.0133644 0.0205101 0.0107398 0.00129881 0.0301857 0.0375674
internal_weight=0 309.115 264.16 119.549 101.01 52.166 224.743 210.478 29.3392 181.139 48.8435 166.115 56.1778 109.937 36.0561 77.2386 64.6658 39.4173 44.9547 26.1948 47.1184 31.2078 20.9576 32.6985 21.9575 22.513 34.7608 23.4291 20.1217 32.0577
internal_count=880 636 543 244 206 106 461 432 60 372 100 341 115 226 74 159 133 82 93 54 97 64 43 67 45 46 71 48 41 65
is_linear=0
shrinkage=0.05


Tree=5
num_leaves=31
num_cat=0
split_feature=61 109 51 52 69 52 63 70 60 25 5 83 102 65 55 38 35 55 3 63 36 79 24 23 54 19 28 6 56 31
split_gain=5.3749 5.88332 5.46562 4.57441 5.28473 5.89931 4.30611 4.86488 4.35669 4.23845 4.1244 3.94239 3.77106 3.58867 5.57303 4.75009 4.39304 4.23969 4.15844 3.70214 3.45361 4.31096 3.11364 3.06864 2.5624 4.44935 2.09929 1.65844 1.81673 1.47538
threshold=-1.2854999999999996 -1.3756499999999996 2.1845500000000002 -1.6467499999999997 -1.5471999999999999 0.70933000000000013 15.146000000000003 -2.14655 -0.040723999999999989 -2.5732499999999994 -2.9871499999999993 -1.1416499999999998 -0.84107499999999991 0.75585500000000005 0.94317000000000017 2.3257000000000008 -1.0562999999999996 -0.65746499999999986 -0.066980499999999984 -0.33689999999999992 -0.61957499999999988 2.2137000000000007 -1.0435499999999998 -1.0944499999999999 0.75865500000000008 -0.95441999999999994 -0.26300999999999991 2.0470500000000005 0.69318500000000005 0.47029500000000007
decision_type=2 2 2 2 2 2 2 2 2 2 2 2 2 2 2 2 2 2 2 2 2 2 2 2 2 2 2 2 2 2
left_child=3 20 6 -1 9 26 7 8 -3 24 11 -9 -4 15 17 16 27 23 22 -16 -2 -22 -18 -15 25 -5 -6 28 -12 -7
right_child=1 2 12 4 5 29 -8 10 -10 -11 13 -13 -14 14 19 -17 18 -19 -20 -21 21 -23 -24 -25 -26 -27 -28 -29 -30 -31
leaf_value=0.013835718237986169 0.036588113772376994 -0.0042452384305987348 -0.0028686765192709315 -0.020455342746627147 -0.049755883366643591 0.010199736832296868 -0.028951974543736478 -0.03544021214136029 -0.047288140737030249 0.021775566220600579 0.040173613374032371 0.0065599965750654191 0.029380044762123466 0.0098282652705404261 -0.0058538606100180003 -0.012976500358378273 -0.031736315543638809 0.023890105631572726 0.023324103649911346 -0.047941423319958154 0.025995391542663032 -0.015011125260416017 0.0054526918526543074 -0.028438377034526924 -0.030259746828561127 0.023484763878544101 -0.024135744520031713 0.0098526600667628444 0.016629843121654969 -0.01689539364407119
leaf_weight=18.539153963327408 18.759885251522064 14.643716126680376 14.131516337394713 13.214732378721235 16.806644260883331 10.297150671482088 14.264918446540831 13.213984608650209 9.8220024108886701 14.082689017057417 21.767741858959198 9.6803272664546949 25.285738050937653 10.656415164470674 11.19335648417473 17.603313267230988 9.8342260718345624 18.430169612169266 15.094592183828352 9.799186557531355 15.008507013320925 11.186284303665159 13.160140573978426 10.305342286825178 11.331735134124754 10.214364320039751 15.251073241233824 12.133626431226729 13.139600336551664 9.8111563324928266
leaf_count=38 39 30 29 27 34 21 29 27 20 29 45 20 53 22 23 36 20 38 31 20 31 23 27 21 23 21 31 25 27 20
internal_value=0 0.00349076 0.000645146 -0.00899403 -0.0131842 -0.0242507 -0.00236687 -0.000565087 -0.0215252 -0.00136491 0.00219175 -0.0176814 0.0178185 0.00498104 -0.00469236 0.0106669 0.0155559 0.00639638 0.00293324 -0.0255001 0.020212 0.00848387 -0.0104523 -0.00898461 -0.0107398 -0.00129881 -0.0375674 0.0257764 0.0313114 -0.0030204
internal_weight=0 309.115 264.16 119.549 101.01 52.166 224.743 210.478 24.4657 48.8435 186.012 22.8943 39.4173 163.118 60.3845 102.733 85.1299 39.3919 38.089 20.9925 44.9547 26.1948 22.9944 20.9618 34.7608 23.4291 32.0577 47.041 34.9073 20.1083
internal_count=880 636 543 244 206 106 461 432 50 100 382 47 82 335 124 211 175 81 78 43 93 54 47 43 71 48 65 97 72 41
is_linear=0
shrinkage=0.05


Tree=6
num_leaves=31
num_cat=0
split_feature=61 109 51 98 67 87 81 39 55 102 15 30 92 54 60 52 1 61 36 79 100 27 80 5 90 2 55 70 48 51
split_gain=4.85237 5.365 4.97146 4.26136 3.92904 4.58387 5.57381 4.42587 3.6852 3.47396 3.22418 4.14935 3.60856 3.24261 4.69148 3.87457 4.43476 3.27511 3.20598 3.9205 3.12629 3.03078 5.6839 3.34107 3.34067 3.04504 5.82792 2.67983 2.34558 2.26629
threshold=-1.2854999999999996 -1.3756499999999996 2.1845500000000002 2.3559500000000004 1.7481500000000003 1.9169500000000002 -0.68316499999999991 1.8385 -0.53568999999999989 -0.84107499999999991 -1.1614999999999998 -1.0373999999999997 0.54629000000000005 1.5780500000000002 1.9156000000000002 -0.80164499999999983 -0.10733999999999998 1.1962000000000004 -0.61957499999999988 2.2137000000000007 0.98493500000000012 -3.8027999999999995 3.6616500000000003 1.4002000000000001 -1.7468999999999999 2.0565500000000005 -1.0449999999999997 -1.3511499999999999 -0.087552499999999991 -1.3005999999999998
decision_type=2 2 2 2 2 2 2 2 2 2 2 2 2 2 2 2 2 2 2 2 2 2 2 2 2 2 2 2 2 2
left_child=3 18 4 21 5 6 7 8 27 -4 20 12 -12 15 -15 17 -17 -13 -2 -20 -8 23 24 -1 -23 26 -26 -3 -7 -24
right_child=1 2 9 -5 -6 28 10 -9 -10 -11 11 13 -14 14 -16 16 -18 -19 19 -21 -22 22 29 -25 25 -27 -28 -29 -30 -31
leaf_value=0.0015871279717533243 -0.035312745722952517 0.026720994387944008 0.0027227112050665905 0.029364950469327258 -0.023901324849948502 -0.0019603629833991726 -0.0007859614198460794 -0.0065518480118751284 0.034228339603115075 -0.028294950863702796 0.037199737729144887 -0.028948013196152242 -0.00098499759703121986 0.0010313355056746239 -0.04208081690471719 0.043021993073497397 0.00079262381060291639 0.010262504238464688 -0.024941807933248707 0.014193068391158107 -0.03774653059053143 0.034689729573896891 -0.0030638754138129637 0.041307118240218446 -0.0075637426271047761 -0.022215590270487064 0.033495136660206197 -0.0090012762333208287 -0.036794071769929874 -0.034894501299336987
leaf_weight=10.814935296773912 18.472803115844727 9.823240280151369 14.144329011440275 20.370380848646164 13.503112584352492 9.7157124280929583 13.071363866329195 15.047734498977659 34.007962703704834 24.951184809207916 14.720006167888643 11.102470099925997 10.673599213361738 15.608366131782534 10.592915117740629 10.817767828702927 14.617985397577286 10.234811693429945 14.864052563905718 11.238094210624693 10.174625456333159 9.9042403101921064 9.7763660848140734 10.371514678001402 20.928183019161221 9.6914174854755384 14.722173482179643 11.277416229248045 9.6156678795814496 13.065078139305113
leaf_count=22 39 20 29 41 28 20 27 31 69 53 30 23 22 32 22 22 30 21 31 23 21 20 20 21 43 20 30 23 20 27
internal_value=0 -0.00332983 -0.000617915 0.00853367 0.00224633 0.00391887 0.00625814 0.0174813 0.0240436 -0.0170731 -0.000216223 0.00374141 0.0211497 -0.00231632 -0.0163985 0.0055722 0.0187527 -0.01014 -0.0193732 -0.00809256 -0.0169634 0.00425922 -0.000291369 0.0210315 0.00838252 0.0026361 0.00939193 0.00762894 -0.0192871 -0.0212707
internal_weight=0 308.275 263.7 119.644 224.605 211.102 191.77 70.1564 55.1086 39.0955 121.614 98.3679 25.3936 72.9743 26.2013 46.773 25.4358 21.3373 44.5749 26.1021 23.246 99.2739 78.0875 21.1864 55.246 45.3418 35.6504 21.1007 19.3314 22.8414
internal_count=880 636 543 244 461 433 393 143 112 82 250 202 52 150 54 96 52 44 93 54 48 203 160 43 113 93 73 43 40 47
is_linear=0
shrinkage=0.05


Tree=7
num_leaves=31
num_cat=0
split_feature=61 109 51 98 67 87 81 39 55 102 20 15 97 30 92 54 60 52 87 61 36 79 27 80 5 90 2 55 48 51
split_gain=4.85237 5.365 4.97146 4.26136 3.92904 4.58387 5.57381 4.42587 3.6852 3.47396 3.30455 3.22418 4.15161 4.14935 3.60856 3.24261 4.69148 3.87457 3.3302 3.27511 3.20598 3.9205 3.03078 5.6839 3.34107 3.34067 3.04504 5.82792 2.34558 2.26629
threshold=-1.2854999999999996 -1.3756499999999996 2.1845500000000002 2.3559500000000004 1.7481500000000003 1.9169500000000002 -0.68316499999999991 1.8385 -0.53568999999999989 -0.84107499999999991 -0.40136999999999995 -1.1614999999999998 0.075608000000000022 -1.0373999999999997 0.54629000000000005 1.5780500000000002 1.9156000000000002 -0.80164499999999983 -1.2273999999999998 1.1962000000000004 -0.61957499999999988 2.2137000000000007 -3.8027999999999995 3.6616500000000003 1.4002000000000001 -1.7468999999999999 2.0565500000000005 -1.0449999999999997 -0.087552499999999991 -1.3005999999999998
decision_type=2 2 2 2 2 2 2 2 2 2 2 2 2 2 2 2 2 2 2 2 2 2 2 2 2 2 2 2 2 2
left_child=3 20 4 22 5 6 7 8 10 -4 -3 12 -8 14 -13 17 -17 19 -19 -15 -2 -22 24 25 -1 -24 27 -27 -7 -25
right_child=1 2 9 -5 -6 28 11 -9 -10 -11 -12 13 -14 15 -16 16 -18 18 -20 -21 21 -23 23 29 -26 26 -28 -29 -30 -31
leaf_value=-0.0015871279717533243 0.035312745722952517 0.013611822607865238 -0.0027227112050665905 -0.029364950469327258 0.023901324849948502 0.0019603629833991726 -0.0079295353299101059 0.0065518480118751284 -0.034228339603115075 0.028294950863702796 -0.026061513214358525 -0.037199737729144887 0.034899686579517961 0.028948013196152242 0.00098499759703121986 -0.0010313355056746239 0.04208081690471719 -0.04153771609163933 -0.004387349648322607 -0.010262504238464688 0.024941807933248707 -0.014193068391158107 -0.034689729573896891 0.0030638754138129637 -0.041307118240218446 0.0075637426271047761 0.022215590270487064 -0.033495136660206197 0.036794071769929874 0.034894501299336987
leaf_weight=10.814935296773912 18.472803115844727 9.8035474121570605 14.144329011440275 20.370380848646164 13.503112584352492 9.7157124280929583 9.7351136505603808 15.047734498977659 34.007962703704834 24.951184809207916 11.297109097242354 14.720006167888643 13.510875672101973 11.102470099925997 10.673599213361738 15.608366131782534 10.592915117740629 9.8355140984058362 15.600239127874376 10.234811693429945 14.864052563905718 11.238094210624693 9.9042403101921064 9.7763660848140734 10.371514678001402 20.928183019161221 9.6914174854755384 14.722173482179643 9.6156678795814496 13.065078139305113
leaf_count=22 39 20 29 41 28 20 20 31 69 53 23 30 28 23 22 32 22 20 32 21 31 23 20 20 21 43 20 30 20 27
internal_value=0 0.00332983 0.000617915 -0.00853367 -0.00224633 -0.00391887 -0.00625814 -0.0174813 -0.0240436 0.0170731 -0.00762894 0.000216223 0.0169634 -0.00374141 -0.0211497 0.00231632 0.0163985 -0.0055722 -0.0187527 0.01014 0.0193732 0.00809256 -0.00425922 0.000291369 -0.0210315 -0.00838252 -0.0026361 -0.00939193 0.0192871 0.0212707
internal_weight=0 308.275 263.7 119.644 224.605 211.102 191.77 70.1564 55.1086 39.0955 21.1007 121.614 23.246 98.3679 25.3936 72.9743 26.2013 46.773 25.4358 21.3373 44.5749 26.1021 99.2739 78.0875 21.1864 55.246 45.3418 35.6504 19.3314 22.8414
internal_count=880 636 543 244 461 433 393 143 112 82 43 250 48 202 52 150 54 96 52 44 93 54 203 160 43 113 93 73 40 47
is_linear=0
shrinkage=0.05


Tree=8
num_leaves=31
num_cat=0
split_feature=61 51 73 52 69 52 73 33 85 72 25 39 98 108 25 18 87 40 63 71 47 23 113 77 33 52 17 52 2 14
split_gain=4.38504 4.93416 4.87565 4.02363 4.51118 5.03375 3.83935 6.89128 5.16057 3.87231 5.12141 3.85217 4.32869 3.88274 3.76606 3.4851 4.18809 3.19091 3.18289 3.1025 2.90179 2.63311 2.53357 1.99371 1.91277 1.87555 1.94327 1.85085 1.52354 1.50924
threshold=-1.2854999999999996 2.3274500000000002 -0.26506999999999997 -1.6467499999999997 -1.5471999999999999 0.70933000000000013 0.44142500000000007 -0.39235499999999995 2.3283 -1.0399999999999998 1.0820500000000004 0.71430000000000005 -0.97664999999999991 -0.66770499999999988 -2.5732499999999994 -0.43873499999999993 -1.2131999999999998 -0.57951499999999989 0.77156000000000013 0.20591500000000004 -0.39326999999999995 -0.21821999999999997 1.0000000180025095e-35 1.6919500000000003 0.059254000000000008 0.20806000000000002 -1.2127999999999999 1.7893000000000001 -0.18752499999999997 0.56989000000000012
decision_type=2 2 2 2 2 2 2 2 2 2 2 2 2 2 2 2 2 2 2 2 2 2 2 2 2 2 2 2 2 2
left_child=3 2 15 -1 14 24 7 -4 9 11 17 13 23 -8 25 16 27 -11 21 -9 -3 -18 -17 -13 -6 26 -5 -2 -10 -7
right_child=1 20 6 4 5 29 8 19 28 10 -12 12 -14 -15 -16 22 18 -19 -20 -21 -22 -23 -24 -25 -26 -27 -28 -29 -30 -31
leaf_value=-0.01337295482946088 0.030389802846260045 -0.0040332450882451139 -0.011476657891657239 0.016195634516774832 0.045015969886937741 0.016619779440720735 0.038975556225337278 0.04841027216604521 -0.033793135590560193 0.02932956510938128 -0.026608915045027777 -0.031629357921010924 0.021295198045572786 0.0063223586304724209 -0.020870832833579638 -0.030951067670127036 0.01528739616294628 -0.0089420419552692157 -0.0291522970837092 0.012106809148771443 -0.031209822665801162 -0.018516085408525413 -0.0036340136813805381 9.8095527618549479e-05 0.020445210050552609 0.023744604320825341 -0.014635604308926173 0.00065226918852996955 -0.0071507903152651653 -0.010778274416335646
leaf_weight=18.445308744907379 10.733082771301271 17.217447549104691 12.596819639205931 9.8274148404598218 18.384589403867722 9.8014910519123095 18.803631901741028 14.829095333814623 11.999884873628618 10.237659841775896 18.814346104860306 9.5918030738830584 13.701606869697569 17.648510694503784 13.95634865760803 24.685344129800797 12.691050827503204 11.637049227952955 15.783323138952253 9.757553428411482 22.868708312511444 10.549606889486313 12.936035186052321 10.234860569238661 13.916488766670225 14.33184230327606 10.648817121982576 10.209639459848402 9.7063267230987531 10.317447870969771
leaf_count=38 22 36 26 20 37 20 38 30 25 21 39 20 28 36 29 52 26 24 33 20 49 22 27 21 28 29 22 21 20 21
internal_value=0 -0.00317955 -0.000725046 0.00810404 0.0120192 0.0222018 0.00439942 0.0185955 0.000411845 0.00478397 -0.00748167 0.0119156 -0.000316155 0.0231663 0.00107317 -0.0096288 -0.00214467 0.00896959 -0.0118246 0.0340027 -0.0195372 -5.69821e-05 -0.0215582 -0.0152511 0.03443 0.00987165 0.000161619 0.0158927 -0.0218795 0.00256944
internal_weight=0 307.233 267.147 119.63 101.184 52.42 169.559 37.1835 132.376 110.669 40.6891 69.9804 33.5283 36.4521 48.7644 97.5881 59.9667 21.8747 39.024 24.5866 40.0862 23.2407 37.6214 19.8267 32.3011 34.8081 20.4762 20.9427 21.7062 20.1189
internal_count=880 636 551 244 206 106 348 76 272 227 84 143 69 74 100 203 124 45 81 50 85 48 79 41 65 71 42 43 45 41
is_linear=0
shrinkage=0.05


Tree=9
num_leaves=31
num_cat=0
split_feature=61 51 73 52 69 52 73 33 85 72 27 39 108 104 54 17 18 87 109 105 54 71 47 1 31 113 33 2 14 68
split_gain=4.38504 4.93416 4.87565 4.02363 4.51118 5.03375 3.83935 6.89128 5.16057 3.87231 4.01757 3.85217 3.88274 3.87497 3.60656 4.468 3.4851 4.18809 3.20723 3.41808 3.16542 3.1025 2.90179 2.86661 2.84913 2.53357 1.91277 1.52354 1.50924 1.14446
threshold=-1.2854999999999996 2.3274500000000002 -0.26506999999999997 -1.6467499999999997 -1.5471999999999999 0.70933000000000013 0.44142500000000007 -0.39235499999999995 2.3283 -1.0399999999999998 1.1885000000000001 0.71430000000000005 -0.66770499999999988 -1.2841499999999997 0.75865500000000008 -0.98153999999999997 -0.43873499999999993 -1.2131999999999998 -1.2874499999999998 -0.056285999999999996 1.5324000000000002 0.20591500000000004 -0.39326999999999995 -0.78973499999999996 -1.5093499999999997 1.0000000180025095e-35 0.059254000000000008 -0.18752499999999997 0.56989000000000012 -0.61058499999999982
decision_type=2 2 2 2 2 2 2 2 2 2 2 2 2 2 2 2 2 2 2 2 2 2 2 2 2 2 2 2 2 2
left_child=3 2 16 -1 14 26 7 -4 9 11 -11 12 -8 -13 15 23 17 20 -19 -20 -2 -9 -3 -5 -12 29 -6 -10 -7 -18
right_child=1 22 6 4 5 28 8 21 27 10 24 13 -14 -15 -16 -17 25 18 19 -21 -22 -23 -24 -25 -26 -27 -28 -29 -30 -31
leaf_value=0.01337295482946088 -0.034830992533815393 0.0040332450882451139 0.011476657891657239 0.012639071897967655 -0.045015969886937741 -0.016619779440720735 -0.038975556225337278 -0.04841027216604521 0.033793135590560193 -0.011930407091718529 6.0468190568897838e-05 0.015751885490259385 -0.0063223586304724209 -0.018402285896622975 -0.023805212731080536 0.028528888317261809 0.019324092323344737 0.030720349128313375 -0.014536988974343596 0.023225167188268961 0.0040597950745631809 -0.012106809148771443 0.031209822665801162 -0.024082267334123466 0.034585336214657141 0.0036340136813805381 -0.020445210050552609 0.0071507903152651653 0.010778274416335646 0.040919687911277154
leaf_weight=18.445308744907379 10.744417607784273 17.217447549104691 12.596819639205931 9.7259179651737195 18.384589403867722 9.8014910519123095 18.803631901741028 14.829095333814623 11.999884873628618 16.104425758123398 10.245169073343279 18.375411868095398 17.648510694503784 15.15285864472389 12.850406706333159 14.470623433589937 11.3948615193367 14.254014402627943 14.610672205686569 10.159294247627258 10.1983046233654 9.757553428411482 22.868708312511444 11.717474818229674 14.339460343122481 12.936035186052321 13.916488766670225 9.7063267230987531 10.317447870969771 13.290482610464096
leaf_count=38 22 36 26 20 37 20 38 30 25 33 21 38 36 31 26 30 24 30 30 21 21 20 49 24 30 27 28 20 21 28
internal_value=0 0.00317955 0.000725046 -0.00810404 -0.0120192 -0.0222018 -0.00439942 -0.0185955 -0.000411845 -0.00478397 0.00748167 -0.0119156 -0.0231663 0.000316155 -0.00107317 0.00706059 0.0096288 0.00214467 0.0118246 0.000950996 -0.0158927 -0.0340027 0.0195372 -0.00742685 0.0201978 0.0215582 -0.03443 0.0218795 -0.00256944 0.0309511
internal_weight=0 307.233 267.147 119.63 101.184 52.42 169.559 37.1835 132.376 110.669 40.6891 69.9804 36.4521 33.5283 48.7644 35.914 97.5881 59.9667 39.024 24.77 20.9427 24.5866 40.0862 21.4434 24.5846 37.6214 32.3011 21.7062 20.1189 24.6853
internal_count=880 636 551 244 206 106 348 76 272 227 84 143 74 69 100 74 203 124 81 51 43 50 85 44 51 79 65 45 41 52
is_linear=0
shrinkage=0.05


end of trees

feature_importances:
recent_25_correlation_best_percentile75_ratio=14
recent_25_loss_percentile5_percentile25_ratio=14
recent_25_correlation_kurtosis=12
recent_25_correlation_stddev_best_ratio=12
top_20%_correlation_stddev_best_ratio=9
top_30%_correlation_skew=9
recent_25_correlation_skew=8
recent_15%_correlation_best_percentile25_ratio=7
recent_15%_correlation_stddev_best_ratio=7
recent_15%_loss_stddev_best_ratio=7
recent_10_correlation_best_percentile25_ratio=6
recent_25_loss_kurtosis=6
all_correlation_best_percentile75_ratio=5
all_loss_best_percentile25_ratio=5
recent_10_loss_best_percentile75_ratio=5
recent_10_loss_kurtosis=5
recent_15%_correlation_best_percentile75_ratio=5
recent_15%_correlation_stddev_median_ratio=5
recent_25_loss_stddev_best_ratio=5
top_10%_correlation_percentile5_percentile25_ratio=5
top_10%_correlation_stddev_best_ratio=5
top_10%_loss_stddev_best_ratio=5
top_30%_correlation_best_percentile50_ratio=5
top_30%_loss_percentile5_percentile25_ratio=5
all_correlation_skew=4
recent_10_loss_best_percentile25_ratio=4
recent_10_loss_best_percentile50_ratio=4
recent_15%_correlation_best_percentile50_ratio=4
recent_15%_correlation_kurtosis=4
recent_25_correlation_stddev_median_ratio=4
top_10%_correlation_best_percentile25_ratio=4
top_10%_loss_best_percentile25_ratio=4
top_20%_correlation_stddev_median_ratio=4
top_30%_loss_kurtosis=4
top_30%_loss_stddev_median_ratio=4
all_loss_best_percentile50_ratio=3
all_loss_kurtosis=3
recent_10_correlation_kurtosis=3
recent_10_correlation_skew=3
recent_15%_correlation_skew=3
recent_15%_loss_stddev_median_ratio=3
top_20%_correlation_best_percentile25_ratio=3
top_20%_loss_kurtosis=3
top_30%_correlation_stddev_median_ratio=3
all_correlation_best_percentile50_ratio=2
all_correlation_kurtosis=2
all_correlation_stddev_best_ratio=2
all_loss_best_percentile75_ratio=2
all_loss_skew=2
all_loss_stddev_best_ratio=2
all_loss_stddev_median_ratio=2
recent_10_correlation_best_percentile50_ratio=2
recent_10_correlation_best_percentile75_ratio=2
recent_10_correlation_stddev_best_ratio=2
recent_10_loss_skew=2
recent_10_loss_stddev_best_ratio=2
recent_15%_loss_best_percentile50_ratio=2
recent_15%_loss_skew=2
top_10%_correlation_best_percentile75_ratio=2
top_10%_correlation_kurtosis=2
top_10%_correlation_skew=2
top_10%_correlation_stddev_median_ratio=2
top_10%_loss_stddev_median_ratio=2
top_20%_correlation_percentile5_percentile25_ratio=2
top_20%_loss_best_percentile50_ratio=2
resultFilteringMode_age=2
log10_cardinality=1
recent_10_correlation_percentile5_percentile25_ratio=1
recent_10_correlation_stddev_median_ratio=1
recent_10_loss_percentile5_percentile25_ratio=1
recent_15%_loss_best_percentile25_ratio=1
recent_15%_loss_best_percentile75_ratio=1
recent_15%_loss_percentile5_percentile25_ratio=1
recent_25_loss_best_percentile25_ratio=1
top_10%_loss_percentile5_percentile25_ratio=1
top_20%_correlation_best_percentile75_ratio=1
top_30%_correlation_best_percentile25_ratio=1
top_30%_correlation_kurtosis=1
top_30%_loss_best_percentile25_ratio=1
top_30%_loss_skew=1

parameters:
[boosting: gbdt]
[objective: multiclass]
[metric: multi_error]
[tree_learner: serial]
[device_type: cpu]
[data_sample_strategy: bagging]
[data: ]
[valid: ]
[num_iterations: 100]
[learning_rate: 0.05]
[num_leaves: 31]
[num_threads: 0]
[seed: 0]
[deterministic: 0]
[force_col_wise: 0]
[force_row_wise: 0]
[histogram_pool_size: -1]
[max_depth: -1]
[min_data_in_leaf: 20]
[min_sum_hessian_in_leaf: 0.001]
[bagging_fraction: 1]
[pos_bagging_fraction: 1]
[neg_bagging_fraction: 1]
[bagging_freq: 0]
[bagging_seed: 3]
[feature_fraction: 0.85]
[feature_fraction_bynode: 1]
[feature_fraction_seed: 2]
[extra_trees: 0]
[extra_seed: 6]
[early_stopping_round: 5]
[early_stopping_min_delta: 0]
[first_metric_only: 0]
[max_delta_step: 0]
[lambda_l1: 0]
[lambda_l2: 0]
[linear_lambda: 0]
[min_gain_to_split: 0]
[drop_rate: 0.1]
[max_drop: 50]
[skip_drop: 0.5]
[xgboost_dart_mode: 0]
[uniform_drop: 0]
[drop_seed: 4]
[top_rate: 0.2]
[other_rate: 0.1]
[min_data_per_group: 100]
[max_cat_threshold: 32]
[cat_l2: 10]
[cat_smooth: 10]
[max_cat_to_onehot: 4]
[top_k: 20]
[monotone_constraints: ]
[monotone_constraints_method: basic]
[monotone_penalty: 0]
[feature_contri: ]
[forcedsplits_filename: ]
[refit_decay_rate: 0.9]
[cegb_tradeoff: 1]
[cegb_penalty_split: 0]
[cegb_penalty_feature_lazy: ]
[cegb_penalty_feature_coupled: ]
[path_smooth: 0]
[interaction_constraints: ]
[verbosity: -1]
[saved_feature_importance_type: 0]
[use_quantized_grad: 0]
[num_grad_quant_bins: 4]
[quant_train_renew_leaf: 0]
[stochastic_rounding: 1]
[linear_tree: 0]
[max_bin: 255]
[max_bin_by_feature: ]
[min_data_in_bin: 3]
[bin_construct_sample_cnt: 200000]
[data_random_seed: 1]
[is_enable_sparse: 1]
[enable_bundle: 1]
[use_missing: 1]
[zero_as_missing: 0]
[feature_pre_filter: 1]
[pre_partition: 0]
[two_round: 0]
[header: 0]
[label_column: ]
[weight_column: ]
[group_column: ]
[ignore_column: ]
[categorical_feature: ]
[forcedbins_filename: ]
[precise_float_parser: 0]
[parser_config_file: ]
[objective_seed: 5]
[num_class: 2]
[is_unbalance: 0]
[scale_pos_weight: 1]
[sigmoid: 1]
[boost_from_average: 1]
[reg_sqrt: 0]
[alpha: 0.9]
[fair_c: 1]
[poisson_max_delta_step: 0.7]
[tweedie_variance_power: 1.5]
[lambdarank_truncation_level: 30]
[lambdarank_norm: 1]
[label_gain: ]
[lambdarank_position_bias_regularization: 0]
[eval_at: ]
[multi_error_top_k: 1]
[auc_mu_weights: ]
[num_machines: 1]
[local_listen_port: 12400]
[time_out: 120]
[machine_list_filename: ]
[machines: ]
[gpu_platform_id: -1]
[gpu_device_id: -1]
[gpu_use_dp: 0]
[num_gpu: 1]

end of parameters

pandas_categorical:null
