tree
version=v4
num_class=1
num_tree_per_iteration=1
label_index=0
max_feature_idx=129
objective=regression
feature_names=all_correlation_best_percentile25_ratio all_correlation_best_percentile50_ratio all_correlation_best_percentile75_ratio all_correlation_kurtosis all_correlation_percentile5_percentile25_ratio all_correlation_skew all_correlation_stddev_best_ratio all_correlation_stddev_median_ratio all_loss_best_percentile25_ratio all_loss_best_percentile50_ratio all_loss_best_percentile75_ratio all_loss_kurtosis all_loss_percentile5_percentile25_ratio all_loss_skew all_loss_stddev_best_ratio all_loss_stddev_median_ratio log10_cardinality recent_10_correlation_best_percentile25_ratio recent_10_correlation_best_percentile50_ratio recent_10_correlation_best_percentile75_ratio recent_10_correlation_kurtosis recent_10_correlation_percentile5_percentile25_ratio recent_10_correlation_skew recent_10_correlation_stddev_best_ratio recent_10_correlation_stddev_median_ratio recent_10_loss_best_percentile25_ratio recent_10_loss_best_percentile50_ratio recent_10_loss_best_percentile75_ratio recent_10_loss_kurtosis recent_10_loss_percentile5_percentile25_ratio recent_10_loss_skew recent_10_loss_stddev_best_ratio recent_10_loss_stddev_median_ratio recent_15%_correlation_best_percentile25_ratio recent_15%_correlation_best_percentile50_ratio recent_15%_correlation_best_percentile75_ratio recent_15%_correlation_kurtosis recent_15%_correlation_percentile5_percentile25_ratio recent_15%_correlation_skew recent_15%_correlation_stddev_best_ratio recent_15%_correlation_stddev_median_ratio recent_15%_loss_best_percentile25_ratio recent_15%_loss_best_percentile50_ratio recent_15%_loss_best_percentile75_ratio recent_15%_loss_kurtosis recent_15%_loss_percentile5_percentile25_ratio recent_15%_loss_skew recent_15%_loss_stddev_best_ratio recent_15%_loss_stddev_median_ratio recent_25_correlation_best_percentile25_ratio recent_25_correlation_best_percentile50_ratio recent_25_correlation_best_percentile75_ratio recent_25_correlation_kurtosis recent_25_correlation_percentile5_percentile25_ratio recent_25_correlation_skew recent_25_correlation_stddev_best_ratio recent_25_correlation_stddev_median_ratio recent_25_loss_best_percentile25_ratio recent_25_loss_best_percentile50_ratio recent_25_loss_best_percentile75_ratio recent_25_loss_kurtosis recent_25_loss_percentile5_percentile25_ratio recent_25_loss_skew recent_25_loss_stddev_best_ratio recent_25_loss_stddev_median_ratio top_10%_correlation_best_percentile25_ratio top_10%_correlation_best_percentile50_ratio top_10%_correlation_best_percentile75_ratio top_10%_correlation_kurtosis top_10%_correlation_percentile5_percentile25_ratio top_10%_correlation_skew top_10%_correlation_stddev_best_ratio top_10%_correlation_stddev_median_ratio top_10%_loss_best_percentile25_ratio top_10%_loss_best_percentile50_ratio top_10%_loss_best_percentile75_ratio top_10%_loss_kurtosis top_10%_loss_percentile5_percentile25_ratio top_10%_loss_skew top_10%_loss_stddev_best_ratio top_10%_loss_stddev_median_ratio top_20%_correlation_best_percentile25_ratio top_20%_correlation_best_percentile50_ratio top_20%_correlation_best_percentile75_ratio top_20%_correlation_kurtosis top_20%_correlation_percentile5_percentile25_ratio top_20%_correlation_skew top_20%_correlation_stddev_best_ratio top_20%_correlation_stddev_median_ratio top_20%_loss_best_percentile25_ratio top_20%_loss_best_percentile50_ratio top_20%_loss_best_percentile75_ratio top_20%_loss_kurtosis top_20%_loss_percentile5_percentile25_ratio top_20%_loss_skew top_20%_loss_stddev_best_ratio top_20%_loss_stddev_median_ratio top_30%_correlation_best_percentile25_ratio top_30%_correlation_best_percentile50_ratio top_30%_correlation_best_percentile75_ratio top_30%_correlation_kurtosis top_30%_correlation_percentile5_percentile25_ratio top_30%_correlation_skew top_30%_correlation_stddev_best_ratio top_30%_correlation_stddev_median_ratio top_30%_loss_best_percentile25_ratio top_30%_loss_best_percentile50_ratio top_30%_loss_best_percentile75_ratio top_30%_loss_kurtosis top_30%_loss_percentile5_percentile25_ratio top_30%_loss_skew top_30%_loss_stddev_best_ratio top_30%_loss_stddev_median_ratio resultFilteringMode_age resultFilteringMode_loss_rank resultFilteringMode_none resultFilteringMode_random secondaryProbabilityMode_correlation secondaryProbabilityMode_fixed secondaryLockingMode_random secondaryLockingMode_top resultFilteringAgeMultiplier resultFilteringLossRankMultiplier resultFilteringRandomProbability secondaryTopLockingPercentile secondaryCorrelationExponent secondaryCorrelationMultiplier secondaryAnovaExponent secondaryAnovaMultiplier secondaryFixedProbability
feature_infos=[-2.7018:16.481000000000002] [-3.1732999999999998:27.791] [-3.7696000000000001:48.354999999999997] [-3.0586000000000002:16.109999999999999] [-2.7751999999999999:17.449999999999999] [-9.6991999999999994:7.1951000000000001] [-10.531000000000001:6.8536000000000001] [-4.6143999999999998:31.056000000000001] [-11.292:2.8656000000000001] [-6.8352000000000004:3.3765000000000001] [-3.9295:3.8683999999999998] [-3.4178999999999999:14.848000000000001] [-15.648:2.7305000000000001] [-9.3017000000000003:8.1724999999999994] [-2.5566:18.763000000000002] [-2.9495:30.140999999999998] [-2.7629000000000001:4.6207000000000003] [-4.7427999999999999:309.35000000000002] [-2.7223000000000002:160.5] [-2.1254:111.40000000000001] [-2.5661:13.404] [-5.7266000000000004:371.89999999999998] [-6.4371999999999998:6.0140000000000002] [-10.246:5.8430999999999997] [-2.6444000000000001:157.41999999999999] [-21.82:2.1391] [-12.055999999999999:2.2961] [-7.8375000000000004:2.3730000000000002] [-1.9490000000000001:1.8928] [-24.036000000000001:2.1254] [-6.3985000000000003:1.7808999999999999] [-1.6644000000000001:37.884999999999998] [-1.6296999999999999:45.820999999999998] [-4.6062000000000003:63.926000000000002] [-2.8319999999999999:109.73] [-2.2997000000000001:459.98000000000002] [-2.6613000000000002:21.399000000000001] [-5.5536000000000003:68.712000000000003] [-6.2096:8.0212000000000003] [-9.9367999999999999:5.9806999999999997] [-2.7768999999999999:111.59] [-19.861000000000001:2.3180999999999998] [-12.227:2.5828000000000002] [-9.1597000000000008:2.6334] [-1.6506000000000001:13.337] [-24.198:2.3445] [-5.2046000000000001:6.1962000000000002] [-2.0760999999999998:32.116] [-2.0310000000000001:37.783999999999999] [-5.6688999999999998:127.33] [-3.0884999999999998:419.13999999999999] [-2.5242:205.19] [-2.9756:19.428000000000001] [-6.7092999999999998:126.29000000000001] [-9.5863999999999994:7.9725000000000001] [-10.651:7.1566000000000001] [-2.895:387.81] [-16.524000000000001:2.3641999999999999] [-9.9831000000000003:2.4660000000000002] [-5.6052999999999997:2.6617999999999999] [-2.1699999999999999:3.7623000000000002] [-21.161999999999999:2.351] [-6.1001000000000003:3.4426000000000001] [-2.5569000000000002:34.085999999999999] [-2.6229:45.094999999999999] [-3.8687999999999998:387.44] [-2.3915999999999999:2910.6999999999998] [-1.6498999999999999:76.072999999999993] [-2.5192000000000001:12.542999999999999] [-4.5381:356.50999999999999] [-8.8574999999999999:5.4234999999999998] [-14.07:5.2107999999999999] [-2.4443999999999999:2612.4000000000001] [-67.527000000000001:1.8746] [-47.540999999999997:2.2635000000000001] [-37.316000000000003:2.4053] [-3.0249999999999999:33.904000000000003] [-101.09:1.9817] [-12.755000000000001:8.4123999999999999] [-2.4148000000000001:79.914000000000001] [-2.5525000000000002:46.792999999999999] [-4.2770999999999999:191.44999999999999] [-2.5076000000000001:480.23000000000002] [-1.5889:243.40000000000001] [-2.4666000000000001:16.024000000000001] [-5.2675000000000001:227.71000000000001] [-10.268000000000001:6.9086999999999996] [-13.499000000000001:5.3922999999999996] [-2.6602999999999999:541.21000000000004] [-25.207999999999998:2.2587999999999999] [-19.352:2.5394000000000001] [-14.880000000000001:2.6907999999999999] [-3.7698999999999998:79.771000000000001] [-35.848999999999997:2.4026999999999998] [-21.376000000000001:13.782] [-2.3418999999999999:47.545000000000002] [-2.5186999999999999:25.538] [-4.8472999999999997:241.66] [-2.6133999999999999:107.73] [-2.1158000000000001:333.30000000000001] [-2.3441000000000001:17.780999999999999] [-6.0284000000000004:211.49000000000001] [-6.3254999999999999:7.8319000000000001] [-7.6577000000000002:5.9763999999999999] [-2.6499000000000001:93.465999999999994] [-22.390000000000001:2.3984000000000001] [-14.702999999999999:2.6701000000000001] [-12.698:2.8235000000000001] [-4.4659000000000004:130.25999999999999] [-28.443000000000001:2.4474999999999998] [-27.126999999999999:15.679] [-2.3395999999999999:35.371000000000002] [-2.5819999999999999:29.420999999999999] [0:1] [0:1] [0:1] [0:1] [0:1] [0:1] [0:1] [0:1] [-3:4] [-3:4] [-3:0.90000000000000002] [-3:10] [1:3] [-3:1.8] [1:3] [-3:1.8] [-3:0.75]
tree_sizes=2711 2799 2802 2801 2774 2750 2797 2810 2795 2795 2779 2795

Tree=0
num_leaves=31
num_cat=0
split_feature=1 73 0 34 11 62 94 36 99 0 14 68 64 110 35 85 73 62 73 26 29 101 104 48 7 71 97 31 79 36
split_gain=4.42046 4.87515 3.92372 4.13968 2.90601 3.06989 5.79837 3.47622 3.53429 3.21327 5.11089 3.7813 3.36187 4.84037 2.88527 2.91737 2.69363 2.51793 2.45685 1.96189 2.55926 2.21318 2.44524 2.68922 2.81225 2.16943 1.79199 2.15585 1.69231 1.37281
threshold=-2.5605499999999997 1.3783000000000001 -1.8249499999999996 -0.80410499999999996 -2.1682499999999996 2.5490500000000007 -1.8671499999999999 0.11022000000000001 1.5655000000000003 1.1749000000000003 1.46845 -0.23887499999999998 2.4734500000000001 -0.22671499999999997 1.3550000000000002 2.3803000000000005 0.18742500000000004 -1.6563999999999999 0.7268300000000002 1.2315000000000003 -6.8111499999999987 -1.6425999999999996 -1.1974499999999997 -1.361 -0.44252999999999992 0.33836500000000008 -0.49605999999999995 1.0000000180025095e-35 -1.1662499999999998 -0.90524999999999989
decision_type=2 2 2 2 2 2 2 2 2 2 2 2 2 2 2 2 2 2 2 2 2 2 2 2 2 2 2 2 2 2
left_child=1 -1 3 29 28 7 -7 8 17 10 11 16 13 -11 15 26 -9 -6 -13 20 -19 -22 -23 -24 -25 -26 27 -8 -4 -2
right_child=2 -3 4 -5 5 6 14 9 -10 12 -12 18 -14 -15 -16 -17 -18 19 -20 -21 21 22 23 24 25 -27 -28 -29 -30 -31
leaf_value=0.045872565377019829 0.060009470325189107 0.013551137513396413 0.049416521565211473 0.044639846565928364 0.037503839507287126 0.074801137569275769 0.03911931886422363 0.040336851274909137 0.029148963279654033 0.028690025853839785 0.017613637194418431 0.038880084426939909 0.063714180943066537 0.054274821165129189 0.030551136854020028 0.037904585157243716 0.017509470374859643 0.065801136913624672 0.057528409793634307 0.059989816216052247 0.031705898889521883 0.039069429331329009 0.038134470484844404 0.072844615294837323 0.039051136868921192 0.060954983437993937 0.065768879042703468 0.061801137021658098 0.064801137197311176 0.077301137005402282
leaf_weight=28 24 20 39 31 37 24 22 28 23 36 32 38 23 38 20 29 24 20 33 53 21 41 21 23 20 26 31 20 33 22
leaf_count=28 24 20 39 31 37 24 22 28 23 36 32 38 23 38 20 29 24 20 33 53 21 41 21 23 20 26 31 20 33 22
internal_value=0.0471591 0.0324053 0.0480103 0.0587622 0.0469137 0.0459066 0.0523354 0.0441587 0.0479415 0.0398805 0.035414 0.040045 0.0470176 0.0418282 0.0479159 0.0513207 0.0298011 0.0495912 0.0475476 0.0515789 0.0489872 0.0467748 0.0491904 0.0538011 0.0585693 0.0514316 0.0566505 0.0499202 0.0564678 0.0682794
internal_weight=0 48 832 77 755 683 146 537 285 252 155 123 97 74 122 102 52 262 71 225 172 152 131 90 69 46 73 42 72 46
internal_count=880 48 832 77 755 683 146 537 285 252 155 123 97 74 122 102 52 262 71 225 172 152 131 90 69 46 73 42 72 46
is_linear=0
shrinkage=1


Tree=1
num_leaves=31
num_cat=0
split_feature=1 19 109 106 129 35 94 99 93 47 110 2 1 37 83 16 61 31 63 19 39 28 100 11 76 61 62 94 40 78
split_gain=3.98947 4.49286 3.15279 3.06399 3.29683 4.5762 2.96772 2.54112 6.38413 3.22671 3.56664 3.2194 3.28382 3.00006 2.53001 2.506 2.46511 2.39807 2.18604 2.06911 2.3573 1.97855 2.85877 2.42113 1.78329 1.75499 1.69933 1.55332 2.77373 1.41241
threshold=-2.5605499999999997 -1.3925999999999998 -6.096849999999999 -2.4525999999999999 0.67500000000000016 -0.27667499999999995 -1.9902499999999999 0.081559000000000006 1.0183000000000002 -0.34359499999999993 4.757200000000001 -1.3452499999999998 0.68526500000000012 0.74601000000000017 -0.62039999999999995 1.0000000180025095e-35 -0.67548999999999981 0.62503000000000009 -1.1143499999999997 -1.0881999999999998 0.62087500000000018 -0.18596499999999996 -0.64923999999999993 0.55234000000000016 0.93675500000000012 0.17356000000000002 -1.0464499999999999 -0.13615999999999998 -0.54078999999999988 -1.4927999999999997
decision_type=2 2 2 2 2 2 2 2 2 2 2 2 2 2 2 2 2 2 2 2 2 2 2 2 2 2 2 2 2 2
left_child=1 -1 -2 19 6 -6 18 9 14 10 21 15 13 17 -9 -11 -14 -13 -5 20 -4 22 26 -23 25 -24 -8 -18 -29 -20
right_child=2 -3 3 4 5 -7 7 8 -10 11 -12 12 16 -15 -16 -17 27 -19 29 -21 -22 23 24 -25 -26 -27 -28 28 -30 -31
leaf_value=0.0033292455953501522 0.013834064750170167 -0.027506921433464244 -0.023889998067170383 -0.0052116790165503829 0.019529024468591581 -0.0052602677349129628 0.0023806014175837241 -0.012318942213759704 -0.033133509045555475 0.021090852415987425 -0.013574002521193547 -0.015885109509582874 -0.015826337896287439 -0.022999652825473324 0.0058409075633707374 -0.0030567269941622565 -0.0042230222533856119 0.0049992647354624104 0.0082458492124541892 0.0028663481908062331 -0.0038985639039812421 0.022164765707193279 0.013396367989480497 0.002466993771779996 0.02073654024085651 -0.0070683661848306659 -0.017353370729833843 -0.0027177278843262924 0.021580899374869966 0.024389664027839902
leaf_weight=21 44 27 30 21 52 29 24 34 21 21 23 27 20 42 44 22 35 28 42 26 29 39 22 26 24 20 20 23 24 20
leaf_count=21 44 27 30 21 52 29 24 34 21 21 23 27 20 42 44 22 35 28 42 26 29 39 22 26 24 20 20 23 24 20
internal_value=0 -0.0140161 0.000808621 8.13119e-05 0.00116544 0.0106538 -7.0184e-05 -0.00142547 -0.00866311 0.000202999 0.00493668 -0.00367001 -0.00635077 -0.0129372 -0.00207492 0.00873628 -8.72421e-05 -0.00525306 0.00873101 -0.0088851 -0.0140637 0.00736951 0.0032827 0.0142857 0.00986409 0.00365126 -0.00658939 0.00375156 0.00969008 0.0134535
internal_weight=0 48 832 788 703 81 622 539 99 440 198 242 199 97 78 43 102 55 83 85 59 175 110 65 66 42 44 82 47 62
internal_count=880 48 832 788 703 81 622 539 99 440 198 242 199 97 78 43 102 55 83 85 59 175 110 65 66 42 44 82 47 62
is_linear=0
shrinkage=0.05


Tree=2
num_leaves=31
num_cat=0
split_feature=1 74 0 34 11 62 110 97 13 12 68 57 102 11 1 110 77 110 51 27 40 65 20 79 23 98 13 65 30 62
split_gain=3.60049 4.21454 3.36659 3.53207 2.53533 2.66169 3.47508 3.00179 2.98096 4.65436 2.78211 2.90801 2.8692 2.76004 2.98163 2.63604 3.41911 2.51622 2.20039 2.44622 2.17164 2.13309 2.63088 1.91518 1.8252 1.80621 1.80191 1.62367 1.59017 1.588
threshold=-2.5605499999999997 1.6022000000000001 -1.8249499999999996 -0.80410499999999996 -2.2933499999999998 2.5490500000000007 -0.81173999999999991 5.0591000000000008 -0.075509499999999993 0.76551500000000006 -0.68099499999999991 1.4179500000000003 0.11773000000000002 -0.62283499999999992 0.81694000000000011 -0.42151999999999995 -0.57488499999999998 -0.048722999999999995 2.9073000000000007 0.68823500000000004 -1.4407999999999996 -0.52924499999999985 -1.3454499999999998 -1.1662499999999998 -1.3555499999999998 -0.8365149999999999 1.2972500000000002 -0.092521999999999979 1.0000000180025095e-35 2.9576500000000006
decision_type=2 2 2 2 2 2 2 2 2 2 2 2 2 2 2 2 2 2 2 2 2 2 2 2 2 2 2 2 2 2
left_child=1 -1 3 28 23 7 27 8 13 15 11 -11 -12 18 -15 25 -17 -8 19 21 -9 22 -6 -4 -24 -10 -14 -7 -2 -19
right_child=2 -3 4 -5 5 6 17 20 9 10 12 -13 26 14 -16 16 -18 29 -20 -21 -22 -23 24 -25 -26 -27 -28 -29 -30 -31
leaf_value=-0.00079367677681148059 0.0093754485959098455 -0.030845557302236561 0.0020272672510682011 -0.0023172371690311738 0.0090046605238547697 0.023655166956423612 -0.01232951732526999 -0.0045863780800415128 -0.01376417634765739 0.0018755321814255281 0.020520161346278407 -0.02446754550561309 -0.011644032614474949 0.021868577520721234 -0.002570780203677714 0.0035444748858290335 -0.018702064000834257 0.014035314031773145 0.0086647899218780158 0.0046131570762752193 0.014785152200896007 -0.017896860305133256 -0.0010824110491999559 0.019350625353830836 -0.018979607214187757 -0.03299960768423401 0.0090924198366701594 0.0061491081491112714 0.028038869872689248 -0.0022066581473850154
leaf_weight=28 21 20 39 31 26 27 32 23 23 22 22 20 22 26 24 31 39 27 34 46 39 43 28 27 29 26 20 26 25 34
leaf_count=28 21 20 39 31 26 27 32 23 23 22 22 20 22 26 24 31 39 27 34 46 39 43 28 27 29 26 20 26 25 34
internal_value=0 -0.0133153 0.00076819 0.0107276 -0.000247533 -0.00114429 0.00484896 -0.00275574 -0.00409044 -0.00828904 -0.00066949 -0.0106688 0.00589255 -0.000400264 0.0101377 -0.0150762 -0.00885003 -0.000974381 -0.00295802 -0.00525555 0.00759894 -0.00885841 -0.00417584 0.0091141 -0.010188 -0.0239707 -0.00176953 0.0150673 0.0195186 0.00498241
internal_weight=0 48 832 77 755 689 146 543 481 225 106 42 64 256 50 119 70 93 206 172 62 126 83 66 57 49 42 53 46 61
internal_count=880 48 832 77 755 689 146 543 481 225 106 42 64 256 50 119 70 93 206 172 62 126 83 66 57 49 42 53 46 61
is_linear=0
shrinkage=0.05


Tree=3
num_leaves=31
num_cat=0
split_feature=105 54 33 27 54 92 27 101 103 52 57 49 57 128 45 15 74 61 110 103 99 101 33 39 1 102 94 13 44 18
split_gain=3.37682 5.54954 3.99919 3.26744 3.12975 2.83567 3.01276 2.34738 2.47234 2.18761 2.48321 2.45394 2.44353 2.1473 2.40234 2.11949 2.05942 2.01387 1.99144 2.93481 2.53317 2.16815 1.86412 1.67573 2.06761 1.56647 1.51639 2.85289 1.46441 1.51846
threshold=1.6959000000000002 -0.70059999999999989 0.048663500000000005 1.1277000000000001 -1.9318499999999996 -1.6837499999999999 1.0252000000000001 4.4437000000000006 -2.8543499999999997 2.5698000000000003 0.92242500000000016 0.66029000000000015 1.2552500000000002 0.70000000000000007 0.74539500000000014 1.6133000000000002 1.9246500000000002 -6.2960499999999993 0.36152000000000006 -0.48517999999999989 -1.0115499999999999 0.72402000000000011 -0.32580499999999996 -0.23911499999999997 0.96109500000000014 2.7373500000000006 -1.9595499999999997 1.1183000000000003 1.0000000180025095e-35 -0.55694499999999991
decision_type=2 2 2 2 2 2 2 2 2 2 2 2 2 2 2 2 2 2 2 2 2 2 2 2 2 2 2 2 2 2
left_child=4 3 -3 -2 13 17 7 8 -7 10 -8 12 -12 15 -15 28 -4 -6 20 -20 21 26 -21 -19 -25 -9 -10 -28 29 -1
right_child=1 2 16 -5 5 6 9 25 18 -11 11 -13 -14 14 -16 -17 -18 23 19 22 -22 -23 -24 24 -26 -27 27 -29 -30 -31
leaf_value=0.019253189569073067 -0.0075994160927591791 0.012179238655205284 -0.01973484989417636 -0.031162921392491889 -0.0037548463845338957 0.0090386597309261556 0.016672514610796829 0.014554927162826062 0.006344544662740724 -0.0070317556655832697 -0.016982680377328679 0.016627138649069128 0.0041722957343340687 -0.011660375368470949 0.011803133464418351 -0.00047962653916329147 0.0016631696711887013 0.024324182110528152 0.0096503251995373948 -0.019989651776003568 -0.021653054575435818 -0.017185375922455046 -0.0017872471962339029 -0.0036190494344654407 0.018314920365810394 -0.0029741833487955428 0.0010140504902945114 -0.020623103380203248 0.027081440165436461 0.0012148039788007737
leaf_weight=28 31 42 23 28 26 25 44 25 29 35 21 21 39 24 20 24 22 21 36 22 40 39 39 22 21 26 39 25 23 20
leaf_count=28 31 42 23 28 26 25 44 25 29 35 21 21 39 24 20 24 22 21 36 22 40 39 39 22 21 26 39 25 23 20
internal_value=0 -0.00694471 0.00108294 -0.0187821 0.00138137 -0.000196695 -0.00165388 -0.00428389 -0.00600165 0.00401708 0.00711075 0.00191671 -0.00323195 0.00813641 -0.000995144 0.0123658 -0.0092736 0.00797973 -0.00739945 -0.00167076 -0.0106302 -0.00728991 -0.00835205 0.0127469 0.00709289 0.00561852 -0.00314019 -0.00743796 0.0167079 0.0117372
internal_weight=0 146 87 59 734 595 505 345 294 160 125 81 60 139 44 95 45 90 269 97 172 132 61 64 43 51 93 64 71 48
internal_count=880 146 87 59 734 595 505 345 294 160 125 81 60 139 44 95 45 90 269 97 172 132 61 64 43 51 93 64 71 48
is_linear=0
shrinkage=0.05


Tree=4
num_leaves=31
num_cat=0
split_feature=64 109 83 103 43 41 23 0 7 69 44 44 128 20 19 28 43 47 15 34 66 33 15 3 24 34 129 79 28 9
split_gain=3.31024 2.94245 2.81221 2.1743 2.5395 2.9214 2.58389 3.56015 3.01497 2.9334 2.57164 3.6818 2.68877 2.516 2.46636 2.36098 2.27997 2.1278 2.90383 2.60416 3.11648 2.19598 1.97226 2.39129 1.97678 1.96648 1.87192 1.65589 1.64444 1.6117
threshold=-2.4610999999999996 -7.5886999999999993 9.6698500000000021 -3.6879499999999994 0.43595 2.0735500000000004 1.1097000000000001 -0.96723999999999999 4.7592000000000008 6.6709000000000005 -1.3325999999999998 -1.1603999999999999 1.3 -0.6428799999999999 -0.65016999999999991 -0.93116999999999994 0.60079500000000008 -0.26964999999999995 -0.63905499999999993 -1.4803499999999998 -0.038896499999999994 -0.71793999999999991 -0.58776499999999987 -0.95464999999999989 0.51102000000000014 -1.4032499999999997 0.22500000000000001 0.95930000000000015 -0.65545499999999979 0.51188000000000011
decision_type=2 2 2 2 2 2 2 2 2 2 2 2 2 2 2 2 2 2 2 2 2 2 2 2 2 2 2 2 2 2
left_child=-1 -2 3 -3 6 10 7 15 9 14 -6 -12 16 25 22 -5 -13 19 -19 -18 21 -21 27 -24 -25 -8 -16 -9 -27 -20
right_child=1 2 -4 4 5 -7 13 8 -10 -11 11 12 -14 -15 26 -17 17 18 29 20 -22 -23 23 24 -26 28 -28 -29 -30 -31
leaf_value=-0.018314260120193163 0.01645477449055761 0.015608150370257057 -0.017662998720664871 -0.0050163406589999798 0.016751597129190578 -0.0099425948298487235 0.008435405134445146 -0.010073310869153251 0.011445077129736029 0.011873009219943059 -0.014872140731089389 0.022049853739074685 -0.0094169788576405622 -0.022120678604447417 -0.0082373496929548026 0.01302607727879094 0.022531358220924932 -0.015274609326540182 0.014197936113591172 -0.015217344642151149 0.019170843295753002 0.0068201291446502391 -0.022158860964700582 -0.0086670310707466502 0.009421229990118225 0.00022059905414397899 0.011724153161048891 -0.029260714740856838 -0.016379992576049909 -0.0010169929824769498
leaf_weight=24 28 23 22 25 39 38 21 22 29 21 26 22 29 28 23 66 30 24 28 20 25 26 20 44 23 26 24 23 35 46
leaf_count=24 28 23 22 25 39 38 21 22 29 21 26 22 29 28 23 66 30 24 28 20 25 26 20 44 23 26 24 23 35 46
internal_value=0 0.000513484 -2.55936e-05 0.000455824 1.0737e-05 0.00315349 -0.00256924 -0.000296794 -0.00362134 -0.00580597 0.00473333 0.0030351 0.00489745 -0.00918 -0.00788004 0.00806937 0.00677581 0.00508723 -0.000161532 0.0101801 0.00496123 -0.00276138 -0.0113822 -0.00698665 -0.00245763 -0.00476123 0.00195576 -0.0198802 -0.00930433 0.00474001
internal_weight=0 856 828 806 783 353 430 320 229 200 315 276 250 110 179 91 221 199 98 101 71 46 132 87 67 82 47 45 61 74
internal_count=880 856 828 806 783 353 430 320 229 200 315 276 250 110 179 91 221 199 98 101 71 46 132 87 67 82 47 45 61 74
is_linear=0
shrinkage=0.05


Tree=5
num_leaves=31
num_cat=0
split_feature=1 89 35 18 21 111 94 62 28 11 5 48 54 36 104 54 82 100 97 69 94 18 45 11 75 37 22 85 27 102
split_gain=2.98386 3.30352 2.59367 3.48019 3.31274 3.51082 2.82743 2.71254 2.28895 2.81843 2.30592 2.68507 2.27174 3.09146 3.08601 2.55039 2.37587 2.20485 2.61679 2.12544 2.42478 1.99589 1.96916 1.68228 1.56049 1.55744 1.5538 1.3741 1.29384 1.26609
threshold=-2.5605499999999997 1.52085 0.40883000000000008 0.113945 3.6926500000000004 -1.01135 0.10812500000000001 2.8223500000000006 -1.5409999999999997 -2.2933499999999998 -2.8239999999999994 2.04095 -0.52762999999999993 0.57381000000000015 -0.63661499999999982 -0.051083999999999991 -0.96157999999999988 -0.96319499999999991 0.61438500000000007 -0.47589999999999993 -0.67997999999999992 -0.65441999999999989 0.89618000000000009 0.7592000000000001 1.1522000000000003 0.70795000000000019 -0.16006499999999999 -0.68442999999999987 1.1724000000000003 1.0321500000000003
decision_type=2 2 2 2 2 2 2 2 2 2 2 2 2 2 2 2 2 2 2 2 2 2 2 2 2 2 2 2 2 2
left_child=1 -1 4 6 7 -6 27 8 21 -10 -11 12 13 14 16 -14 -12 -17 -19 -7 -21 -2 23 -5 28 -20 -13 -4 -9 -28
right_child=2 -3 3 22 5 19 -8 24 9 10 11 26 15 -15 -16 17 -18 18 25 20 -22 -23 -24 -25 -26 -27 29 -29 -30 -31
leaf_value=-0.0010355839771883828 -0.015113455632870849 -0.027641931548714638 0.0034096944672258006 -0.00020240268204361201 0.0068135501391121322 -0.024270046234130861 0.01195235404257591 0.0095288350512938852 0.015274156901337529 0.014775639586150647 -0.015067416772246362 0.016479333304812681 0.018181539360772481 0.0069646031178277118 -0.024437348458224969 -0.0109546250144818 0.0069569901563227184 0.013456389154307545 -0.013275594489001062 -0.018871226673945786 0.0047016102944326121 0.0025546874948627046 -0.025315560400485992 -0.017930482170018164 0.0011889402923936194 0.0037819894758285956 -0.0062543941351274656 -0.012834317184363803 0.025018469519608729 0.011107917994792972
leaf_weight=28 33 20 23 32 35 25 39 28 46 33 25 37 22 29 31 35 24 40 23 20 24 31 22 23 22 32 21 30 26 21
leaf_count=28 33 20 23 32 35 25 39 28 46 33 25 37 22 29 31 35 24 40 23 20 24 31 22 23 22 32 21 30 26 21
internal_value=0 -0.0121216 0.000699321 -0.00483009 0.00210878 -0.00608522 0.00173408 0.00363324 0.00225163 0.00359687 0.00215677 0.000932 -0.00151256 -0.00702112 -0.0120909 0.00243765 -0.00427995 -0.000226702 0.00372569 -0.0126281 -0.00601332 -0.00655545 -0.012673 -0.00761596 0.0124137 -0.00335118 0.00900835 -0.00578503 0.0169868 0.00242676
internal_weight=0 48 832 169 663 104 92 559 483 419 373 340 261 109 80 152 49 130 95 69 44 64 77 55 76 55 79 53 54 42
internal_count=880 48 832 169 663 104 92 559 483 419 373 340 261 109 80 152 49 130 95 69 44 64 77 55 76 55 79 53 54 42
is_linear=0
shrinkage=0.05


Tree=6
num_leaves=31
num_cat=0
split_feature=64 109 70 35 110 31 99 68 17 10 99 69 45 106 19 9 22 76 3 87 48 29 68 35 26 48 129 35 39 54
split_gain=2.84036 2.63226 2.67532 2.56803 3.12943 2.74405 2.72729 3.27064 2.93764 2.71092 2.52711 2.28839 3.85418 2.04519 2.47576 2.51029 3.79724 2.48559 2.7619 2.50452 2.83152 2.0475 2.04645 1.83734 1.69746 1.68472 2.27942 1.5918 1.29609 1.17121
threshold=-2.4610999999999996 -7.5886999999999993 3.8532000000000006 1.3097500000000004 6.1850000000000014 -1.4132499999999999 1.3640500000000004 4.8979000000000008 5.067800000000001 -0.59366499999999989 3.0140500000000006 -0.47589999999999993 -0.16130499999999998 -2.4525999999999999 0.83929000000000009 -0.4791149999999999 1.9786500000000002 0.30357000000000006 0.35137000000000002 -1.1241999999999999 -1.5897999999999997 0.72569000000000006 -1.2859499999999997 4.4903000000000013 0.79295000000000015 -1.5052999999999999 0.22500000000000001 -0.98413499999999987 0.5245550000000001 0.065153500000000017
decision_type=2 2 2 2 2 2 2 2 2 2 2 2 2 2 2 2 2 2 2 2 2 2 2 2 2 2 2 2 2 2
left_child=-1 -2 3 4 6 -5 7 8 13 -7 -8 -10 -13 22 15 25 17 19 24 -17 -21 -22 -3 -11 -19 -15 -27 -12 -24 -28
right_child=1 2 -4 5 -6 9 10 -9 11 23 27 12 -14 14 -16 16 -18 18 -20 20 21 -23 28 -25 -26 26 29 -29 -30 -31
leaf_value=-0.01696470978204161 0.015553307104190546 0.0068101639682991493 0.014624075256288054 0.0076955357644086083 -0.017953969944607129 -0.00022253825994474551 -0.022685450849877227 -0.015388296894729137 -0.018369015818461776 -0.027392670870931064 0.0071855207129071161 -0.014835325479507448 0.016205692269722932 0.021917189273983242 0.015505174399974446 -0.016851362947906769 0.018463505155824383 -0.0086790359469459347 0.016397079064377717 0.012795924918296245 -0.017887352527119219 0.00084764876269868448 -0.016945466005171723 -0.0096820337028475489 0.007945397842143263 -0.0022387544788118152 0.021493067915658828 -0.01122191932214343 -0.00065119034084288978 0.0063359718583524231
leaf_weight=24 28 33 30 24 22 35 21 25 26 27 24 20 20 25 57 35 29 34 35 26 25 35 26 32 28 37 26 23 23 25
leaf_count=24 28 33 30 24 22 35 21 25 26 27 24 20 20 25 57 35 29 34 35 26 25 35 26 32 28 37 26 23 23 25
internal_value=0 0.000475646 -3.42265e-05 -0.00058529 0.000596267 -0.00739426 0.00121649 0.00230931 0.00309239 -0.011247 -0.00826538 -0.00682102 0.000685183 0.00440359 0.00582305 0.00429005 0.00146601 -0.000795129 0.00516785 -0.00557537 -0.000986303 -0.0069586 -0.00281493 -0.0177869 -0.00117123 0.010463 0.00720892 -0.00182238 -0.00929713 0.0140631
internal_weight=0 856 828 798 680 118 658 590 565 94 68 66 40 499 417 360 247 218 97 121 86 60 82 59 62 113 88 47 49 51
internal_count=880 856 828 798 680 118 658 590 565 94 68 66 40 499 417 360 247 218 97 121 86 60 82 59 62 113 88 47 49 51
is_linear=0
shrinkage=0.05


Tree=7
num_leaves=31
num_cat=0
split_feature=1 19 4 94 129 51 23 5 43 52 21 92 58 35 20 52 49 105 90 20 104 3 58 82 110 5 36 25 28 103
split_gain=2.59304 3.4796 2.99571 3.371 2.98325 2.90514 4.44855 2.20877 2.50773 2.80842 2.57895 3.88335 2.49744 2.19663 2.25814 2.17684 1.93067 1.88261 4.07531 3.57662 4.039 1.98424 1.94912 1.71636 1.42759 2.35945 1.40695 1.34175 1.19391 1.19239
threshold=-2.5605499999999997 -1.3925999999999998 -1.1661999999999997 -1.9902499999999999 0.67500000000000016 -0.93372999999999984 -0.72354499999999988 0.028958000000000005 -1.7257999999999998 -0.52716499999999988 -0.88436999999999988 0.041776500000000008 2.3199500000000004 -0.34996999999999995 0.68609500000000012 -0.19039499999999995 -1.14855 1.6959000000000002 1.0140000000000002 0.098151000000000016 -0.43756999999999996 -0.8427199999999998 -2.1678999999999995 -0.80817499999999987 -0.18378499999999998 -0.84622499999999989 -0.076789999999999983 -0.63134499999999993 -0.83072999999999986 -0.52386999999999995
decision_type=2 2 2 2 2 2 2 2 2 2 2 2 2 2 2 2 2 2 2 2 2 2 2 2 2 2 2 2 2 2
left_child=1 -1 3 -2 5 6 -5 8 26 10 -10 -12 13 17 29 -8 -7 18 19 20 -9 -21 -22 -23 25 -11 -4 -25 -26 -15
right_child=2 -3 7 4 -6 16 15 12 9 24 11 -13 -14 14 -16 -17 -18 -19 -20 21 22 23 -24 27 28 -27 -28 -29 -30 -31
leaf_value=0.0039647264494782402 0.020577763608007723 -0.023172382860341009 -0.0072179023768631336 0.024577860735977688 0.021222914047539235 -0.019933894105170939 0.0078455657924751988 0.021104900220311001 0.017880835846209756 -0.023259568121284248 -0.017446406398500716 0.012613433034593155 0.018356266580522061 -0.019725215324649104 0.0035273498640610622 -0.0099631220742594454 -0.00081171145324002614 -0.0074219929258816132 0.018540845820453108 -0.01811760894276879 0.010695916815134494 0.0049953055263934091 -0.0086505755813171461 -0.00045644734864649564 0.0076538655976764866 -0.00077410751720890408 -0.025118266525013106 -0.018164111860096456 -0.0073718163005721113 -0.0059828140993455521
leaf_weight=21 33 27 23 24 20 22 37 38 26 28 21 22 20 27 39 32 33 41 41 22 23 49 30 23 20 20 21 20 39 38
leaf_count=21 33 27 23 24 20 22 37 38 26 28 21 22 20 27 39 32 33 41 41 22 23 49 30 23 20 20 21 20 39 38
internal_value=0 -0.0112999 0.000651917 0.0059678 0.00309798 0.000648666 0.00603586 -0.00104141 -0.00508476 -0.00241563 0.0054496 -0.00206695 0.00112291 0.000241404 -0.00598424 -0.000413536 -0.00846058 0.00249739 0.00415062 0.00127257 0.00866456 -0.00462805 -0.000254928 -0.00140229 -0.0074876 -0.0138906 -0.0157613 -0.00869257 -0.00227836 -0.0116912
internal_weight=0 48 832 201 168 148 93 631 220 176 69 43 411 391 104 69 55 287 246 205 91 114 53 92 107 48 44 43 59 65
internal_count=880 48 832 201 168 148 93 631 220 176 69 43 411 391 104 69 55 287 246 205 91 114 53 92 107 48 44 43 59 65
is_linear=0
shrinkage=0.05


Tree=8
num_leaves=31
num_cat=0
split_feature=105 54 36 93 27 54 92 43 101 68 4 52 11 97 26 97 53 104 34 54 51 84 92 43 72 26 124 104 6 5
split_gain=2.41853 4.42056 3.11096 2.70795 2.50773 2.47577 2.08371 2.92481 3.54195 2.4299 1.9323 2.43958 1.84463 1.87337 1.98447 1.90851 2.35176 1.74207 1.71388 1.74431 1.67588 1.67491 1.73474 1.59687 2.00275 2.73609 1.93931 1.37227 1.37094 1.32561
threshold=1.6959000000000002 -0.70059999999999989 -0.63707999999999987 1.9744500000000003 1.1277000000000001 -1.9318499999999996 -1.9247499999999997 -1.0783499999999997 3.2045000000000003 -1.2773999999999999 -1.1435499999999996 -1.2222999999999999 4.6461000000000006 -0.51919499999999996 1.1730000000000003 -0.88710999999999995 0.16831500000000002 -0.085979499999999986 -1.2439999999999998 1.1707000000000003 -0.54787499999999989 3.8928000000000007 -0.0027623999999999995 1.5553500000000002 -1.1292499999999996 0.26208000000000004 1.0000000180025095e-35 -1.4184499999999998 -0.50642999999999982 1.5895000000000004
decision_type=2 2 2 2 2 2 2 2 2 2 2 2 2 2 2 2 2 2 2 2 2 2 2 2 2 2 2 2 2 2
left_child=5 4 -3 -4 -2 23 27 8 9 -8 11 -9 13 15 21 16 -12 -11 -13 -20 -19 22 -15 24 25 -1 -26 -7 -24 -29
right_child=1 2 3 -5 -6 6 7 10 -10 17 12 18 -14 14 -16 -17 -18 20 19 -21 -22 -23 28 -25 26 -27 -28 29 -30 -31
leaf_value=0.0059030431398558762 -0.0066454194365970559 0.013995233463544039 -0.017557790268675981 0.0044885621995975579 -0.02728859369776079 0.016684612130316405 0.0002857599188714768 -0.0077729808450731942 0.0064282119689458937 -0.022328419418519607 0.010220354360838731 0.024036988841835413 -0.015703070503659548 -0.010787526410575466 0.013936641242887293 -0.01734476437419653 -0.0089762500630548372 -0.018512906955293146 0.01392072101659847 -0.0047924668551422656 0.0017107311414466019 0.012797907790677113 0.011177978291245248 0.019535894793542952 0.00091843883628430585 -0.016481915072072299 0.020080669332415826 -0.0051602790020061316 -0.0043521109409630299 0.010367118227960808
leaf_weight=43 31 31 26 30 28 26 33 21 37 46 27 20 20 38 35 25 39 20 33 20 21 22 27 22 23 20 31 27 30 28
leaf_count=43 31 31 26 30 28 26 33 21 37 46 27 20 20 38 35 25 39 20 33 20 21 22 27 22 23 20 31 27 30 28
internal_value=0 -0.00587727 0.00128743 -0.00574724 -0.0164422 0.00116905 -0.000234496 -0.0014091 -0.0070966 -0.0112668 0.00109213 0.00724512 -0.00110704 9.42766e-05 0.00349113 -0.0055796 -0.00112309 -0.0156487 0.0115654 0.00685914 -0.00815446 0.000366411 -0.00251246 0.00717703 0.00485314 -0.00120329 0.011919 0.00721916 0.00300425 0.00274458
internal_weight=0 146 87 56 59 734 595 514 157 120 357 94 263 243 152 91 66 87 73 53 41 117 95 139 117 63 54 81 57 55
internal_count=880 146 87 56 59 734 595 514 157 120 357 94 263 243 152 91 66 87 73 53 41 117 95 139 117 63 54 81 57 55
is_linear=0
shrinkage=0.05


Tree=9
num_leaves=31
num_cat=0
split_feature=109 89 36 105 99 128 35 19 11 89 41 101 112 55 42 4 76 3 11 40 4 30 36 30 40 31 3 64 68 23
split_gain=2.33839 2.46631 2.55363 2.3681 4.06747 2.78882 2.69529 2.31828 2.8763 3.25784 2.2735 2.45663 2.21162 2.87769 2.09569 2.06113 2.00806 1.91289 1.80968 1.6901 1.6513 2.15187 1.64333 1.58721 1.36004 1.96895 1.358 1.30335 1.26967 1.26406
threshold=-6.4548499999999995 -3.9118999999999997 -0.35783999999999994 1.6215500000000003 0.081559000000000006 0.70000000000000007 3.1952000000000003 -0.79733499999999979 1.2350500000000002 -1.7400499999999999 0.68568000000000018 -1.5078999999999998 -0.71910499999999988 -0.80907499999999988 1.0620000000000003 1.0826000000000002 -0.41839499999999991 -0.30190999999999996 -1.0594499999999998 -1.4569499999999997 -1.6109999999999998 0.24376500000000004 0.89615000000000011 -0.072236499999999995 0.67903500000000017 0.80992000000000008 -0.16998999999999997 -0.63561999999999985 -1.0363499999999999 -0.11259999999999999
decision_type=2 2 2 2 2 2 2 2 2 2 2 2 2 2 2 2 2 2 2 2 2 2 2 2 2 2 2 2 2 2
left_child=28 2 -2 5 12 6 7 8 10 -10 11 -3 13 -5 19 -15 18 -11 -9 -7 -13 26 -8 -12 25 27 -22 -21 -1 -18
right_child=1 3 -4 4 -6 14 22 16 9 17 23 20 -14 15 -16 -17 29 -19 -20 24 21 -23 -24 -25 -26 -27 -28 -29 -30 -31
leaf_value=0.020719381719827651 0.0020255823810161515 -0.012406648367643358 -0.020248257224598238 0.01523032066013132 -0.02574166309620653 0.003462457726345747 0.00051949737593531603 -0.0073519021272659309 0.0099903664163624242 -0.020944422958739873 0.0057042661713572543 0.01655236358443896 -0.01272408809462512 -0.010444584562339716 0.0088991395784197031 0.0058668001226204287 0.022375133683761726 -0.0024505592848139781 0.01292838818308982 -0.010622864471571077 0.00091953818159906772 -0.0072416418269780044 -0.017471795478327709 0.019987991029346314 -0.0026104065889699592 -0.0008648710884153843 0.018734116442501544 -0.027679453231394292 0.0029031733516603712 0.0085910675645773787
leaf_weight=20 22 25 31 28 21 34 30 22 24 29 41 24 37 45 27 34 39 27 22 21 23 37 22 37 45 20 20 24 20 29
leaf_count=20 22 25 31 28 21 34 30 22 24 29 41 24 37 45 27 34 39 27 22 21 23 37 22 37 45 20 20 24 20 29
internal_value=0 -0.000562442 -0.0110025 0.000140638 -0.00518456 0.00155327 0.00361483 0.00501023 0.00262936 -0.00542231 0.00574112 0.00166652 -0.00218665 0.00145714 -0.00388393 -0.00342449 0.0111112 -0.0120277 0.00278824 -0.00628076 0.0050495 0.00159864 -0.0070922 0.0124799 -0.0092923 -0.0139182 0.00920539 -0.0197197 0.0118113 0.0164966
internal_weight=0 840 53 787 165 622 451 399 287 80 207 129 144 107 171 79 112 56 44 144 104 80 52 78 110 65 43 45 40 68
internal_count=880 840 53 787 165 622 451 399 287 80 207 129 144 107 171 79 112 56 44 144 104 80 52 78 110 65 43 45 40 68
is_linear=0
shrinkage=0.05


Tree=10
num_leaves=31
num_cat=0
split_feature=99 79 82 35 24 10 108 21 109 82 81 79 78 25 100 40 14 108 128 31 22 12 51 68 53 97 21 27 100 17
split_gain=2.17628 4.25089 2.69334 2.19234 3.32241 2.47021 2.43856 2.30281 2.06731 2.04975 3.20703 2.02916 2.7263 2.00606 1.93769 1.84574 1.5928 3.13609 1.98396 1.79644 1.58856 1.57776 1.56953 1.53639 2.20618 1.77303 3.26162 1.7015 1.69332 1.78532
threshold=0.23754500000000003 -1.6257499999999998 2.0680000000000001 1.1715000000000002 0.11607000000000002 2.1160000000000001 -0.14709499999999995 4.5310000000000015 -6.4548499999999995 -0.41775499999999993 -0.91400499999999985 1.1964000000000004 -0.47631999999999991 0.82748500000000014 -2.0259499999999995 1.1574000000000002 -1.1648999999999998 -1.2086999999999997 1.3 -0.44650999999999991 -1.0522999999999998 -0.62309999999999988 -0.58289999999999986 2.5772000000000004 1.9662000000000004 -0.66854999999999987 -1.0587499999999996 0.40864500000000009 2.6263500000000004 1.2064000000000001
decision_type=2 2 2 2 2 2 2 2 2 2 2 2 2 2 2 2 2 2 2 2 2 2 2 2 2 2 2 2 2 2
left_child=3 -2 9 5 6 7 -5 8 -1 10 -3 12 -9 22 -10 -6 17 20 23 -19 -16 -20 -7 25 -25 26 -18 -28 29 -27
right_child=1 2 -4 4 15 13 -8 11 14 -11 -12 -13 -14 -15 16 -17 18 19 21 -21 -22 -23 -24 24 -26 28 27 -29 -30 -31
leaf_value=0.014045630978154287 -0.027046390464529398 0.0065093984012492001 -0.017561123748917298 0.014576806326437257 -0.026502960742535914 -0.0059686418374026709 -0.0069108246795592772 0.011892197046266951 -0.013784343861043453 0.010537400057441311 -0.016661499365831594 -0.018883682182058693 -0.0098126305123934377 0.01961654447762104 -0.0032995494406508363 -0.0055158182786544793 0.013334963934806486 -0.0030121370664109356 -0.015419541781937536 -0.022773979831001032 0.015721095202579385 0.0022091411550839743 0.013141664516712941 -0.012250883290457919 0.0090793132781982425 0.019673707945363935 -0.0094569218453970996 0.0064839235202480971 0.0022621604955306144 0.0024593601375818251
leaf_weight=35 20 32 23 23 22 22 31 23 20 38 28 24 39 34 23 20 45 23 22 23 21 30 21 27 22 61 47 26 35 20
leaf_count=35 20 32 23 23 22 22 31 23 20 38 28 24 39 34 23 20 45 23 22 23 21 30 21 27 22 61 47 26 35 20
internal_value=0 -0.00569244 -0.00216286 0.00108611 -0.00596198 0.00213839 0.00224131 0.00099533 0.00234529 0.00145102 -0.00430369 -0.00653931 -0.00176084 0.0105406 0.00142503 -0.0165091 0.00214077 -0.00376475 0.00372733 -0.0128931 0.00577849 -0.00524915 0.0033643 0.00537671 -0.00267406 0.00706256 0.00274729 -0.00377936 0.0114522 0.0154233
internal_weight=0 141 121 739 96 643 54 566 480 98 60 86 62 77 445 42 425 90 335 46 44 52 43 283 49 234 118 73 116 81
internal_count=880 141 121 739 96 643 54 566 480 98 60 86 62 77 445 42 425 90 335 46 44 52 43 283 49 234 118 73 116 81
is_linear=0
shrinkage=0.05


Tree=11
num_leaves=31
num_cat=0
split_feature=64 83 70 21 90 112 97 4 15 15 71 92 22 9 111 21 76 59 55 65 71 5 60 0 55 7 50 27 63 70
split_gain=2.09073 2.12427 1.8872 1.92262 2.12348 3.15315 2.03757 1.96247 3.25444 2.79976 2.33148 2.12132 2.07215 2.09441 2.01486 2.3056 2.09525 2.22167 1.78561 1.63494 1.61602 3.17819 1.54 2.20729 1.36744 1.43573 1.35867 1.30912 1.23431 1.0541
threshold=-2.4610999999999996 10.568000000000001 3.8532000000000006 -2.0676999999999999 1.7712000000000001 -1.4807999999999997 -0.44435999999999992 -1.1739999999999997 2.7118000000000007 -1.4799999999999998 -1.5914999999999997 -1.6837499999999999 -1.5603999999999998 -2.5875499999999998 0.10420500000000001 4.1313000000000004 1.0394000000000003 -0.93199999999999994 1.5754500000000002 0.091150500000000009 -0.96797999999999995 0.39416000000000001 2.7627000000000002 0.89310000000000012 0.90384000000000009 0.49920000000000003 -0.74718999999999991 0.68823500000000004 0.34475500000000009 -0.40504499999999993
decision_type=2 2 2 2 2 2 2 2 2 2 2 2 2 2 2 2 2 2 2 2 2 2 2 2 2 2 2 2 2 2
left_child=-1 2 3 28 5 -5 18 8 9 -7 -11 24 19 -14 20 16 17 -16 27 -13 21 -15 23 29 25 -9 -12 -6 -2 -22
right_child=1 -3 -4 4 6 7 -8 11 -10 10 26 12 13 14 15 -17 -18 -19 -20 -21 22 -23 -24 -25 -26 -27 -28 -29 -30 -31
leaf_value=-0.014554888467925291 0.01831337045068326 -0.015695638237521053 0.013106880714573589 0.012560272737307691 -0.0041649910472333438 -0.0089053038685094742 -0.017227622132861255 0.00066793216392397887 -0.011264886927825435 -0.0043933820584788922 0.020208675406077722 -0.0054559628211858649 0.010114065834110784 0.0058062178202934814 0.0017891943454742432 -0.022265167619722585 0.0040309869929049643 -0.018176405385479724 -0.013496827625710032 -0.024317344254814091 -0.014674265114590527 -0.016329644894336953 0.016814476512372497 0.011559858200429329 -0.0062227952959282061 0.0152237040301164 0.0078147270572982257 0.0127689979704363 0.0026809949456946926 0.0015592139586806299
leaf_weight=24 23 20 30 52 25 21 33 32 27 20 48 27 31 31 22 24 39 38 23 20 20 34 20 29 21 36 41 21 28 20
leaf_count=24 23 20 30 52 25 21 33 32 27 20 48 27 31 31 22 24 39 38 23 20 20 34 20 29 21 36 41 21 28 20
internal_value=0 0.000408081 0.000793337 0.000335017 -0.000299671 0.000748335 -0.00700896 -0.000273663 0.00453114 0.00781186 0.0110326 -0.00197266 -0.00370312 -0.00221088 -0.00359021 -0.00836176 -0.00499124 -0.0108557 -0.00212178 -0.0134821 0.000220839 -0.00577254 0.00459803 0.00105703 0.00492976 0.00837393 0.0144991 0.00356574 0.00973089 -0.00655753
internal_weight=0 856 836 806 755 653 102 601 157 130 109 444 355 308 277 123 99 60 69 47 154 65 89 69 89 68 89 46 51 40
internal_count=880 856 836 806 755 653 102 601 157 130 109 444 355 308 277 123 99 60 69 47 154 65 89 69 89 68 89 46 51 40
is_linear=0
shrinkage=0.05


end of trees

feature_importances:
all_loss_kurtosis=9
recent_15%_correlation_best_percentile75_ratio=9
all_correlation_best_percentile50_ratio=8
recent_25_correlation_skew=8
top_30%_loss_skew=8
recent_10_loss_best_percentile75_ratio=7
recent_15%_correlation_kurtosis=7
top_10%_correlation_kurtosis=7
top_20%_loss_skew=7
top_30%_correlation_best_percentile25_ratio=7
top_30%_correlation_best_percentile75_ratio=7
recent_10_correlation_best_percentile75_ratio=6
recent_10_correlation_percentile5_percentile25_ratio=6
recent_25_loss_skew=6
all_correlation_best_percentile25_ratio=5
all_correlation_kurtosis=5
all_correlation_percentile5_percentile25_ratio=5
all_correlation_skew=5
all_loss_stddev_median_ratio=5
recent_10_loss_kurtosis=5
recent_10_loss_stddev_best_ratio=5
recent_15%_correlation_best_percentile50_ratio=5
recent_15%_correlation_stddev_median_ratio=5
recent_15%_loss_best_percentile75_ratio=5
recent_25_loss_stddev_median_ratio=5
top_10%_loss_stddev_best_ratio=5
top_20%_loss_kurtosis=5
top_30%_correlation_percentile5_percentile25_ratio=5
top_30%_correlation_stddev_median_ratio=5
top_30%_loss_percentile5_percentile25_ratio=5
recent_10_correlation_kurtosis=4
recent_10_correlation_skew=4
recent_10_correlation_stddev_best_ratio=4
recent_10_loss_best_percentile50_ratio=4
recent_15%_loss_stddev_median_ratio=4
recent_25_correlation_best_percentile75_ratio=4
recent_25_correlation_kurtosis=4
top_10%_loss_kurtosis=4
top_20%_correlation_best_percentile50_ratio=4
top_30%_correlation_kurtosis=4
top_30%_correlation_stddev_best_ratio=4
top_30%_loss_best_percentile25_ratio=4
secondaryAnovaMultiplier=4
secondaryFixedProbability=4
all_correlation_stddev_median_ratio=3
all_loss_best_percentile50_ratio=3
all_loss_skew=3
recent_10_correlation_best_percentile50_ratio=3
recent_10_loss_skew=3
recent_15%_correlation_best_percentile25_ratio=3
recent_15%_correlation_stddev_best_ratio=3
recent_15%_loss_kurtosis=3
recent_15%_loss_percentile5_percentile25_ratio=3
recent_25_correlation_stddev_best_ratio=3
recent_25_loss_best_percentile25_ratio=3
recent_25_loss_percentile5_percentile25_ratio=3
top_10%_correlation_best_percentile25_ratio=3
top_10%_correlation_percentile5_percentile25_ratio=3
top_10%_correlation_skew=3
top_10%_correlation_stddev_best_ratio=3
top_10%_loss_best_percentile25_ratio=3
top_20%_correlation_best_percentile75_ratio=3
top_20%_loss_best_percentile25_ratio=3
top_30%_correlation_skew=3
all_loss_best_percentile75_ratio=2
all_loss_percentile5_percentile25_ratio=2
all_loss_stddev_best_ratio=2
recent_10_correlation_best_percentile25_ratio=2
recent_10_correlation_stddev_median_ratio=2
recent_10_loss_best_percentile25_ratio=2
recent_10_loss_percentile5_percentile25_ratio=2
recent_15%_correlation_percentile5_percentile25_ratio=2
recent_15%_loss_best_percentile25_ratio=2
recent_15%_loss_stddev_best_ratio=2
recent_25_correlation_best_percentile25_ratio=2
recent_25_correlation_percentile5_percentile25_ratio=2
recent_25_loss_best_percentile50_ratio=2
recent_25_loss_stddev_best_ratio=2
top_10%_loss_best_percentile50_ratio=2
top_10%_loss_skew=2
top_20%_correlation_percentile5_percentile25_ratio=2
top_20%_loss_best_percentile50_ratio=2
top_20%_loss_percentile5_percentile25_ratio=2
top_30%_loss_best_percentile50_ratio=2
top_30%_loss_kurtosis=2
top_30%_loss_stddev_best_ratio=2
top_30%_loss_stddev_median_ratio=2
all_correlation_best_percentile75_ratio=1
all_correlation_stddev_best_ratio=1
log10_cardinality=1
recent_15%_loss_best_percentile50_ratio=1
recent_25_correlation_best_percentile50_ratio=1
recent_25_loss_best_percentile75_ratio=1
recent_25_loss_kurtosis=1
top_10%_correlation_best_percentile50_ratio=1
top_10%_correlation_stddev_median_ratio=1
top_10%_loss_best_percentile75_ratio=1
top_10%_loss_percentile5_percentile25_ratio=1
top_20%_correlation_best_percentile25_ratio=1
top_20%_correlation_kurtosis=1
top_20%_correlation_stddev_best_ratio=1
top_30%_correlation_best_percentile50_ratio=1
secondaryTopLockingPercentile=1

parameters:
[boosting: gbdt]
[objective: regression]
[metric: l2]
[tree_learner: serial]
[device_type: cpu]
[data_sample_strategy: bagging]
[data: ]
[valid: ]
[num_iterations: 100]
[learning_rate: 0.05]
[num_leaves: 31]
[num_threads: 0]
[seed: 0]
[deterministic: 0]
[force_col_wise: 0]
[force_row_wise: 0]
[histogram_pool_size: -1]
[max_depth: -1]
[min_data_in_leaf: 20]
[min_sum_hessian_in_leaf: 0.001]
[bagging_fraction: 1]
[pos_bagging_fraction: 1]
[neg_bagging_fraction: 1]
[bagging_freq: 0]
[bagging_seed: 3]
[feature_fraction: 0.7]
[feature_fraction_bynode: 1]
[feature_fraction_seed: 2]
[extra_trees: 0]
[extra_seed: 6]
[early_stopping_round: 5]
[early_stopping_min_delta: 0]
[first_metric_only: 0]
[max_delta_step: 0]
[lambda_l1: 0]
[lambda_l2: 0]
[linear_lambda: 0]
[min_gain_to_split: 0]
[drop_rate: 0.1]
[max_drop: 50]
[skip_drop: 0.5]
[xgboost_dart_mode: 0]
[uniform_drop: 0]
[drop_seed: 4]
[top_rate: 0.2]
[other_rate: 0.1]
[min_data_per_group: 100]
[max_cat_threshold: 32]
[cat_l2: 10]
[cat_smooth: 10]
[max_cat_to_onehot: 4]
[top_k: 20]
[monotone_constraints: ]
[monotone_constraints_method: basic]
[monotone_penalty: 0]
[feature_contri: ]
[forcedsplits_filename: ]
[refit_decay_rate: 0.9]
[cegb_tradeoff: 1]
[cegb_penalty_split: 0]
[cegb_penalty_feature_lazy: ]
[cegb_penalty_feature_coupled: ]
[path_smooth: 0]
[interaction_constraints: ]
[verbosity: -1]
[saved_feature_importance_type: 0]
[use_quantized_grad: 0]
[num_grad_quant_bins: 4]
[quant_train_renew_leaf: 0]
[stochastic_rounding: 1]
[linear_tree: 0]
[max_bin: 255]
[max_bin_by_feature: ]
[min_data_in_bin: 3]
[bin_construct_sample_cnt: 200000]
[data_random_seed: 1]
[is_enable_sparse: 1]
[enable_bundle: 1]
[use_missing: 1]
[zero_as_missing: 0]
[feature_pre_filter: 1]
[pre_partition: 0]
[two_round: 0]
[header: 0]
[label_column: ]
[weight_column: ]
[group_column: ]
[ignore_column: ]
[categorical_feature: ]
[forcedbins_filename: ]
[precise_float_parser: 0]
[parser_config_file: ]
[objective_seed: 5]
[num_class: 1]
[is_unbalance: 0]
[scale_pos_weight: 1]
[sigmoid: 1]
[boost_from_average: 1]
[reg_sqrt: 0]
[alpha: 0.9]
[fair_c: 1]
[poisson_max_delta_step: 0.7]
[tweedie_variance_power: 1.5]
[lambdarank_truncation_level: 30]
[lambdarank_norm: 1]
[label_gain: ]
[lambdarank_position_bias_regularization: 0]
[eval_at: ]
[multi_error_top_k: 1]
[auc_mu_weights: ]
[num_machines: 1]
[local_listen_port: 12400]
[time_out: 120]
[machine_list_filename: ]
[machines: ]
[gpu_platform_id: -1]
[gpu_device_id: -1]
[gpu_use_dp: 0]
[num_gpu: 1]

end of parameters

pandas_categorical:null
