tree
version=v4
num_class=1
num_tree_per_iteration=1
label_index=0
max_feature_idx=127
objective=regression
feature_names=all_correlation_best_percentile25_ratio all_correlation_best_percentile50_ratio all_correlation_best_percentile75_ratio all_correlation_kurtosis all_correlation_percentile5_percentile25_ratio all_correlation_skew all_correlation_stddev_best_ratio all_correlation_stddev_median_ratio all_loss_best_percentile25_ratio all_loss_best_percentile50_ratio all_loss_best_percentile75_ratio all_loss_kurtosis all_loss_percentile5_percentile25_ratio all_loss_skew all_loss_stddev_best_ratio all_loss_stddev_median_ratio log10_cardinality recent_10_correlation_best_percentile25_ratio recent_10_correlation_best_percentile50_ratio recent_10_correlation_best_percentile75_ratio recent_10_correlation_kurtosis recent_10_correlation_percentile5_percentile25_ratio recent_10_correlation_skew recent_10_correlation_stddev_best_ratio recent_10_correlation_stddev_median_ratio recent_10_loss_best_percentile25_ratio recent_10_loss_best_percentile50_ratio recent_10_loss_best_percentile75_ratio recent_10_loss_kurtosis recent_10_loss_percentile5_percentile25_ratio recent_10_loss_skew recent_10_loss_stddev_best_ratio recent_10_loss_stddev_median_ratio recent_15%_correlation_best_percentile25_ratio recent_15%_correlation_best_percentile50_ratio recent_15%_correlation_best_percentile75_ratio recent_15%_correlation_kurtosis recent_15%_correlation_percentile5_percentile25_ratio recent_15%_correlation_skew recent_15%_correlation_stddev_best_ratio recent_15%_correlation_stddev_median_ratio recent_15%_loss_best_percentile25_ratio recent_15%_loss_best_percentile50_ratio recent_15%_loss_best_percentile75_ratio recent_15%_loss_kurtosis recent_15%_loss_percentile5_percentile25_ratio recent_15%_loss_skew recent_15%_loss_stddev_best_ratio recent_15%_loss_stddev_median_ratio recent_25_correlation_best_percentile25_ratio recent_25_correlation_best_percentile50_ratio recent_25_correlation_best_percentile75_ratio recent_25_correlation_kurtosis recent_25_correlation_percentile5_percentile25_ratio recent_25_correlation_skew recent_25_correlation_stddev_best_ratio recent_25_correlation_stddev_median_ratio recent_25_loss_best_percentile25_ratio recent_25_loss_best_percentile50_ratio recent_25_loss_best_percentile75_ratio recent_25_loss_kurtosis recent_25_loss_percentile5_percentile25_ratio recent_25_loss_skew recent_25_loss_stddev_best_ratio recent_25_loss_stddev_median_ratio top_10%_correlation_best_percentile25_ratio top_10%_correlation_best_percentile50_ratio top_10%_correlation_best_percentile75_ratio top_10%_correlation_kurtosis top_10%_correlation_percentile5_percentile25_ratio top_10%_correlation_skew top_10%_correlation_stddev_best_ratio top_10%_correlation_stddev_median_ratio top_10%_loss_best_percentile25_ratio top_10%_loss_best_percentile50_ratio top_10%_loss_best_percentile75_ratio top_10%_loss_kurtosis top_10%_loss_percentile5_percentile25_ratio top_10%_loss_skew top_10%_loss_stddev_best_ratio top_10%_loss_stddev_median_ratio top_20%_correlation_best_percentile25_ratio top_20%_correlation_best_percentile50_ratio top_20%_correlation_best_percentile75_ratio top_20%_correlation_kurtosis top_20%_correlation_percentile5_percentile25_ratio top_20%_correlation_skew top_20%_correlation_stddev_best_ratio top_20%_correlation_stddev_median_ratio top_20%_loss_best_percentile25_ratio top_20%_loss_best_percentile50_ratio top_20%_loss_best_percentile75_ratio top_20%_loss_kurtosis top_20%_loss_percentile5_percentile25_ratio top_20%_loss_skew top_20%_loss_stddev_best_ratio top_20%_loss_stddev_median_ratio top_30%_correlation_best_percentile25_ratio top_30%_correlation_best_percentile50_ratio top_30%_correlation_best_percentile75_ratio top_30%_correlation_kurtosis top_30%_correlation_percentile5_percentile25_ratio top_30%_correlation_skew top_30%_correlation_stddev_best_ratio top_30%_correlation_stddev_median_ratio top_30%_loss_best_percentile25_ratio top_30%_loss_best_percentile50_ratio top_30%_loss_best_percentile75_ratio top_30%_loss_kurtosis top_30%_loss_percentile5_percentile25_ratio top_30%_loss_skew top_30%_loss_stddev_best_ratio top_30%_loss_stddev_median_ratio resultFilteringMode_age resultFilteringMode_loss_rank resultFilteringMode_none resultFilteringMode_random secondaryProbabilityMode_correlation secondaryProbabilityMode_fixed secondaryLockingMode_random secondaryLockingMode_top resultFilteringAgeMultiplier resultFilteringLossRankMultiplier resultFilteringRandomProbability secondaryTopLockingPercentile secondaryCorrelationExponent secondaryCorrelationMultiplier secondaryFixedProbability
feature_infos=[-2.5802999999999998:13.683999999999999] [-2.9011999999999998:36.338999999999999] [-2.4908000000000001:22.154] [-3.3220000000000001:18.364999999999998] [-2.8075000000000001:13.673] [-6.9523999999999999:8.0414999999999992] [-9.5030000000000001:6.5868000000000002] [-4.7125000000000004:50.707999999999998] [-20.004999999999999:3.0488] [-10.445:3.3892000000000002] [-5.7195:3.8957999999999999] [-3.6880000000000002:14.038] [-29.247:2.6823999999999999] [-10.036:8.1647999999999996] [-1.5528:3669.6999999999998] [-2.0236999999999998:11.084] [-2.8546999999999998:4.0662000000000003] [-5.3951000000000002:405.12] [-2.8292999999999999:173.31999999999999] [-1.8995:61.491] [-2.6276999999999999:14.065] [-6.5824999999999996:332.85000000000002] [-7.0819000000000001:6.6830999999999996] [-16.579999999999998:7.5868000000000002] [-2.8073999999999999:190.02000000000001] [-31.940999999999999:2.214] [-15.432:2.0956999999999999] [-6.7504:2.0038999999999998] [-1.9460999999999999:1.6763999999999999] [-42.722999999999999:2.2488999999999999] [-4.9756:1.6012] [-1.2927:3633.9000000000001] [-1.3687:3253.8000000000002] [-5.0330000000000004:53.046999999999997] [-3.0535999999999999:448.93000000000001] [-2.0968:1778.0999999999999] [-2.5518999999999998:15.548] [-6.1043000000000003:53.537999999999997] [-6.8860000000000001:7.2973999999999997] [-15.472:6.9954000000000001] [-3.0030000000000001:387.10000000000002] [-36.176000000000002:2.8315999999999999] [-20.048999999999999:2.7841999999999998] [-8.1367999999999991:2.4479000000000002] [-1.732:17.619] [-48.899999999999999:2.7496] [-4.9063999999999997:7.2343000000000002] [-1.4645999999999999:4948.6999999999998] [-1.5488999999999999:1607.4000000000001] [-5.9755000000000003:320.30000000000001] [-3.4251:886.88] [-2.1017000000000001:388.64999999999998] [-2.7115:16.530000000000001] [-7.2332999999999998:344.81] [-7.3422999999999998:7.0308000000000002] [-13.943:5.9992999999999999] [-3.1438000000000001:790.49000000000001] [-24.597999999999999:2.3576999999999999] [-12.343999999999999:2.2684000000000002] [-5.8395000000000001:2.3496999999999999] [-2.4369000000000001:5.0707000000000004] [-36.255000000000003:2.3260999999999998] [-6.4476000000000004:4.149] [-1.5838000000000001:3852.3000000000002] [-1.8496999999999999:3422] [-4.2514000000000003:863.84000000000003] [-1.9863999999999999:421.92000000000002] [-1.5651999999999999:62.469000000000001] [-2.2523:10.808] [-5.1196999999999999:1112.9000000000001] [-9.8315999999999999:6.1115000000000004] [-17.02:6.6920999999999999] [-2.1613000000000002:452.5] [-77.036000000000001:2.3529] [-52.518000000000001:2.7294999999999998] [-42.576000000000001:2.8957000000000002] [-3.1827999999999999:66.039000000000001] [-115.17:2.5270000000000001] [-13.536:12.039999999999999] [-2.8328000000000002:3464.5999999999999] [-2.9861:580.38999999999999] [-5.0598000000000001:645.52999999999997] [-2.3774000000000002:200.19] [-1.6398999999999999:443.25] [-2.5066999999999999:18.048999999999999] [-5.9250999999999996:633.14999999999998] [-13.356:7.1807999999999996] [-16.809000000000001:6.8170000000000002] [-2.3338999999999999:214.34999999999999] [-47.689999999999998:2.6762999999999999] [-35.771000000000001:3.1063000000000001] [-28.649000000000001:3.3538999999999999] [-4.1893000000000002:103.04000000000001] [-71.584000000000003:2.7955999999999999] [-15.381:24.893000000000001] [-2.7978999999999998:4609.6000000000004] [-3.0337000000000001:960.26999999999998] [-5.8018000000000001:610.57000000000005] [-2.5670999999999999:123.55] [-1.7574000000000001:99.587000000000003] [-2.4093:17.073] [-7.1430999999999996:579.72000000000003] [-9.4887999999999995:7.5206] [-16.375:5.8986999999999998] [-2.5964:115.25] [-39.555999999999997:2.8788] [-27.710999999999999:3.3039999999999998] [-22.041:3.3523999999999998] [-4.0065999999999997:53.292000000000002] [-58.887999999999998:2.8765999999999998] [-13.529:14.847] [-2.4163999999999999:5167.8999999999996] [-2.6128999999999998:2187.4000000000001] [0:1] [0:1] [0:1] [0:1] [0:1] [0:1] [0:1] [0:1] [-3:4] [-3:4] [-3:0.90000000000000002] [-3:10] [1:3] [-3:1.8] [-3:0.75]
tree_sizes=2742 2771 2778 2785 2783 2790 2784 2793 2797 2787 2777 2801 2802 2799 2801 2795 2800 2795 2815 2795 2807 2785

Tree=0
num_leaves=31
num_cat=0
split_feature=112 103 91 41 68 69 45 94 104 60 20 125 41 78 16 7 48 87 98 3 60 17 45 13 46 109 84 36 60 28
split_gain=11.5354 3.94146 3.9864 4.21789 4.29983 4.99018 3.27634 3.582 3.42454 3.19223 3.44709 2.83621 2.9679 2.81286 2.6877 2.46422 2.39148 2.24055 2.77252 2.16834 3.24 3.43986 4.08726 2.13011 2.04979 2.46514 2.30301 1.86525 1.97602 1.84616
threshold=39.435000000000009 -0.15776499999999996 -3.8061999999999991 -3.5456999999999996 -1.3362499999999999 -1.1366999999999996 1.7525000000000002 -0.66652999999999996 -1.1742999999999999 -1.9586499999999998 -1.4403999999999997 2.7500000000000004 1.0265500000000001 -1.5314499999999998 0.08243300000000002 3.1439000000000004 8.5890500000000021 1.6442500000000002 -0.22955499999999998 0.31048500000000007 0.77224500000000018 2.3984000000000005 1.0446000000000002 1.3016500000000002 1.7599000000000002 -1.7579999999999998 -0.49594999999999995 -0.87078499999999981 -0.37081999999999993 -0.17464999999999997
decision_type=2 2 2 2 2 2 2 2 2 2 2 2 2 2 2 2 2 2 2 2 2 2 2 2 2 2 2 2 2 2
left_child=1 9 -3 -4 5 -5 7 8 -6 -1 13 12 17 -11 -10 19 -2 18 -9 20 21 22 27 -22 25 -21 -27 -12 -29 -15
right_child=16 2 3 4 6 -7 -8 11 14 10 15 -13 -14 29 -16 -17 -18 -19 -20 24 23 -23 -24 -25 -26 26 -28 28 -30 -31
leaf_value=0.037647922869865146 0.012424799058347303 0.043972786560957655 0.0071306819350204671 0.027130681520379462 0.019130681759931826 -0.000994317766956309 0.045238789674626891 0.048854819267439342 0.033797348295385492 -0.0052502707900777823 0.029987824760232266 0.0066306818158111784 0.015976835550015278 0.027606871953532425 0.054452110000873931 0.036945496504242073 -0.0066193178624168736 0.018880682016976857 0.025608942415859742 0.026930681544610046 0.042273538728764694 0.0027828560100330892 0.039005681664936925 0.022130681839227291 0.029422348452675523 0.021169143109549801 0.0030566075380879 0.0030566076484668733 0.023000247000160779 0.0063806814209304077
leaf_weight=29 34 38 25 46 20 24 37 29 36 21 21 20 39 21 28 27 32 20 23 25 35 23 32 21 24 26 54 27 23 20
leaf_count=29 34 38 25 46 20 24 37 29 36 21 21 20 39 21 28 27 32 20 23 25 35 23 32 21 24 26 54 27 23 20
internal_value=0.0232955 0.0249255 0.0285982 0.0269145 0.0284506 0.0174878 0.0314958 0.0291307 0.0371902 0.0216295 0.0204682 0.0239627 0.0270856 0.00963068 0.0428338 0.0224561 0.00319129 0.0331029 0.038573 0.0211982 0.0247131 0.0202656 0.0241695 0.03472 0.0162392 0.0132259 0.00894318 0.0174828 0.0122307 0.0172526
internal_weight=0 814 385 347 322 70 252 215 84 429 400 131 111 62 64 338 66 72 52 311 182 126 103 56 129 105 80 71 50 41
internal_count=880 814 385 347 322 70 252 215 84 429 400 131 111 62 64 338 66 72 52 311 182 126 103 56 129 105 80 71 50 41
is_linear=0
shrinkage=1


Tree=1
num_leaves=31
num_cat=0
split_feature=112 5 119 105 105 28 112 41 60 18 32 112 103 55 85 92 100 5 86 48 65 41 45 101 92 51 66 18 3 60
split_gain=10.4107 3.62252 5.82026 4.06365 4.90464 4.39961 3.06033 5.15869 2.76311 2.88554 2.87689 2.60291 2.60066 2.58262 2.52696 2.62174 2.41937 2.37492 2.3503 2.15831 2.1301 2.05357 1.98875 1.91598 1.80324 1.7734 1.91742 1.63426 1.36869 1.30275
threshold=39.435000000000009 -1.7528999999999997 1.0000000180025095e-35 2.1950500000000006 1.6050500000000001 1.6670500000000004 1.7174500000000001 -1.7528499999999998 0.77224500000000018 3.8028000000000008 -0.25787999999999994 1.0000000180025095e-35 -1.46315 1.0485500000000003 2.9032000000000004 -0.50587999999999989 -0.080072499999999977 0.70525000000000015 0.89343000000000006 8.5890500000000021 -1.0314499999999998 0.46392000000000005 -0.34821499999999994 -0.9473649999999999 -1.2044499999999998 -1.1393999999999997 1.2066000000000001 11.631000000000002 0.53211500000000012 -0.67066499999999996
decision_type=2 2 2 2 2 2 2 2 2 2 2 2 2 2 2 2 2 2 2 2 2 2 2 2 2 2 2 2 2 2
left_child=1 2 6 4 5 8 7 -1 9 10 13 17 22 18 15 -9 -4 -12 20 -2 21 -3 -10 -13 -6 -14 -27 -11 -25 -15
right_child=19 3 16 -5 24 -7 -8 14 12 27 11 23 25 29 -16 -17 -18 -19 -20 -21 -22 -23 -24 28 -26 26 -28 -29 -30 -31
leaf_value=-0.036299101737412541 -0.010327123031568002 0.0077068632918185212 0.015307804841834766 -0.017696886636655442 0.0064936416649392682 -0.018127047434449196 0.0049438189094265306 -0.017061987216030024 0.0091862632737805452 -0.01929720787703991 0.0098062072019092748 0.003461450696564638 0.0060449718252608654 -0.0039221595705021175 -0.02356013356752339 0.00540768087050631 -0.003242141180089675 -0.0076488081799317639 -0.012523479622019374 -0.028419033742829926 0.014037582493911033 -0.012065465445630252 -0.012162160826846957 0.013178596020277059 0.02123126280904912 0.02760219726937287 0.007982394024729729 -0.00012145378859713675 0.03030430590733886 -0.021968997791409494
leaf_weight=22 34 29 39 22 35 25 24 21 24 25 40 26 38 20 21 34 32 38 23 32 40 24 20 28 51 33 20 20 20 20
leaf_count=22 34 29 39 22 35 25 24 21 24 25 40 26 38 20 21 34 32 38 23 32 40 24 20 28 51 33 20 20 20 20
internal_value=0 0.00154856 -0.00443459 0.00340806 0.0041832 0.00233073 -0.0110585 -0.0149774 0.00337878 0.00105209 0.00278002 0.00767551 0.00946264 -0.00198995 -0.00880531 -0.00317165 0.00694727 0.00130248 0.00178785 -0.019099 0.00532722 -0.00124664 -0.000517566 0.014393 0.0152334 0.0142882 0.0201985 -0.0107747 0.0203143 -0.0129456
internal_weight=0 814 193 621 599 513 122 98 488 353 308 152 135 156 76 55 71 78 116 66 93 53 44 74 86 91 53 45 48 40
internal_count=880 814 193 621 599 513 122 98 488 353 308 152 135 156 76 55 71 78 116 66 93 53 44 74 86 91 53 45 48 40
is_linear=0
shrinkage=0.05


Tree=2
num_leaves=31
num_cat=0
split_feature=112 5 119 14 4 126 76 19 46 39 39 30 46 73 4 48 97 23 15 22 54 5 80 31 74 15 14 85 14 5
split_gain=9.39672 3.34067 5.31672 3.65799 3.45729 4.6536 4.04732 2.82369 3.27518 2.94388 2.72623 3.90806 3.70316 2.57302 2.54513 2.56301 2.48334 2.33523 2.33201 2.3598 2.50403 2.03145 1.97486 1.94555 1.90296 1.86369 1.76533 2.11782 1.70406 1.49122
threshold=49.679000000000009 -1.7528999999999997 1.0000000180025095e-35 1.2783000000000002 -1.0791499999999996 0.70000000000000007 0.35525000000000007 -0.73240999999999989 0.32639500000000005 0.48925500000000005 0.69903000000000015 1.5377500000000002 0.59966500000000011 -0.46331499999999998 -0.65938499999999989 6.4897500000000008 1.0000000180025095e-35 1.1963000000000001 -1.3829999999999998 -1.0852999999999999 0.052016000000000007 0.53669500000000003 31.687000000000005 -0.80725999999999987 0.23094000000000001 2.8097500000000006 -0.85770999999999986 0.4169000000000001 -1.2732499999999998 1.7985000000000002
decision_type=2 2 2 2 2 2 2 2 2 2 2 2 2 2 2 2 2 2 2 2 2 2 2 2 2 2 2 2 2 2
left_child=1 2 7 4 5 6 -3 8 9 -1 11 12 18 -10 15 25 -14 -16 28 -20 -21 -13 -2 -4 -25 -5 27 -12 -6 -18
right_child=22 3 23 14 10 -7 -8 -9 13 -11 26 21 16 -15 17 -17 29 -19 19 20 -22 -23 -24 24 -26 -27 -28 -29 -30 -31
leaf_value=-0.0096020173954976997 -0.0096120056245596192 0.015227022176483074 0.01981688332743943 0.013390813656151296 -0.0022845892235636711 -0.022416585541385065 -0.013246841902825206 -0.024222836946137249 -0.0009634728729724884 0.016570369547910312 -0.0070612522548642656 -0.0020142240787390619 0.01922044872983613 -0.023966267915262331 -0.0021360192592870795 0.0032431982768078649 0.011423005004014289 0.014652668453259944 -0.018692616681600438 0.0092734890379782397 -0.01101177438904415 -0.023802769050488008 -0.027319308044388892 0.012505658140236681 -0.0069954852123969586 0.034260323708472047 0.013952409488459428 0.013018006823646525 0.017881005480885507 -0.007653933763504029
leaf_weight=21 31 26 20 20 22 34 24 29 20 22 29 20 44 31 53 21 21 34 29 29 32 23 32 22 29 23 75 24 20 20
leaf_count=21 31 26 20 20 22 34 24 29 20 22 29 20 44 31 53 21 21 34 29 29 32 23 32 22 29 23 75 24 20 20
internal_value=0 0.00143475 -0.00429478 0.0032189 0.00105187 -0.00814507 0.00155957 -0.0105836 -0.00637572 0.00378851 0.00304296 0.000102245 0.00283102 -0.0149456 0.00999267 0.0175611 0.0109706 0.00442508 -0.0024104 -0.00695035 -0.00136796 -0.0136686 -0.0186062 0.0065999 0.00141677 0.0245536 0.0090163 0.00203124 0.00731807 0.00211718
internal_weight=0 817 194 623 472 84 50 123 94 43 388 260 217 51 151 64 85 87 132 90 61 43 63 71 51 43 128 53 42 41
internal_count=880 817 194 623 472 84 50 123 94 43 388 260 217 51 151 64 85 87 132 90 61 43 63 71 51 43 128 53 42 41
is_linear=0
shrinkage=0.05


Tree=3
num_leaves=31
num_cat=0
split_feature=112 55 103 27 80 12 94 20 84 80 79 109 113 88 40 103 6 78 97 41 17 34 19 78 45 81 48 53 61 102
split_gain=8.50767 3.29322 3.72787 3.40935 4.63138 4.05691 3.03035 3.10904 2.9727 2.84613 3.87265 3.32636 3.00524 2.86672 2.93117 3.15733 2.90039 2.48049 2.37775 2.17915 2.17303 2.12536 2.15995 2.10743 2.01346 2.08782 1.96482 1.94337 1.44965 1.37081
threshold=39.435000000000009 -2.4763999999999995 -0.15776499999999996 -0.50490499999999983 -0.17792499999999997 -0.244285 1.5521000000000003 -1.4403999999999997 3.1415500000000005 1.5907000000000002 0.16711000000000004 -3.3822999999999994 1.0000000180025095e-35 0.066798500000000025 -1.9880999999999998 1.0449000000000002 1.5560500000000002 1.2939500000000004 0.72202500000000003 1.0265500000000001 0.36092500000000005 3.7283500000000003 -1.4742999999999997 -0.79165999999999992 0.7441850000000001 -0.13536499999999999 8.5890500000000021 -1.0729499999999998 0.27568000000000009 0.20998000000000003
decision_type=2 2 2 2 2 2 2 2 2 2 2 2 2 2 2 2 2 2 2 2 2 2 2 2 2 2 2 2 2 2
left_child=1 3 6 5 19 -1 7 18 17 10 13 -11 20 14 -4 -16 29 21 -3 -5 -12 22 24 -17 25 -9 -2 -8 -10 -15
right_child=26 2 9 4 -6 -7 27 8 28 11 12 -13 -14 16 15 23 -18 -19 -20 -21 -22 -23 -24 -25 -26 -27 -28 -29 -30 -31
leaf_value=-0.0091106659374558009 -0.0088958943115732617 -0.026284766545438251 0.020639069266617301 0.0094343205836291133 -0.024231026759371162 0.01939691413814823 0.0007370910607278347 -0.026956100886066755 -0.0035969831084366891 0.0050586229995698544 0.013707620725035669 0.026722854636061718 -0.020045023038983346 0.028809902460003894 -0.011570826010444226 0.019438651470201358 0.00020079144107347185 0.011321637355813794 -0.003787381267951181 -0.012912695119157434 -0.0096002814266830695 0.012051351477081577 0.0053884334909992341 0.00044794984957358493 0.0018470657087164 -0.0065374416284142969 -0.026157802366651595 0.018607656696233259 -0.022634145044721665 0.012377956094728276
leaf_weight=26 34 23 20 24 40 24 32 21 20 37 20 34 25 30 39 21 22 51 24 20 20 24 39 48 28 31 32 29 20 22
leaf_count=26 34 23 20 24 40 24 32 21 20 37 20 34 25 30 39 21 22 51 24 20 20 24 39 48 28 31 32 29 20 22
internal_value=0 0.00139989 0.00281167 -0.00576435 -0.0119175 0.00457297 -0.000868703 -0.00306159 -0.000704524 0.00653559 0.0041696 0.015433 -0.00644583 0.00758546 0.0030565 -0.000199527 0.0154193 0.00185445 -0.0147967 -0.000723414 0.00205367 -0.00152196 -0.00425943 0.00622773 -0.00896276 -0.0147834 -0.0172653 0.00923293 -0.0131156 0.0218579
internal_weight=0 814 680 134 84 50 342 281 234 338 267 71 65 202 128 108 74 194 47 44 40 143 119 69 80 52 66 61 40 52
internal_count=880 814 680 134 84 50 342 281 234 338 267 71 65 202 128 108 74 194 47 44 40 143 119 69 80 52 66 61 40 52
is_linear=0
shrinkage=0.05


Tree=4
num_leaves=31
num_cat=0
split_feature=43 120 111 8 3 57 53 55 59 58 83 111 10 40 78 87 10 47 57 70 71 6 81 85 95 36 8 34 73 76
split_gain=7.68548 3.16502 4.20816 6.69977 5.24533 4.00504 4.32199 3.73624 4.18889 5.40355 3.0459 3.0433 3.95782 2.58663 2.18669 2.0498 2.04649 2.02192 2.83751 1.75162 1.67012 1.6312 1.34321 2.17051 2.09395 1.32619 1.67297 1.19729 1.17566 0.999914
threshold=-5.4612999999999987 1.0000000180025095e-35 1.4193500000000003 0.64415000000000011 -0.13235999999999998 -3.6366999999999998 -1.6154999999999997 -2.4243999999999994 1.0323000000000002 0.35721500000000006 -0.71070999999999984 -1.1130999999999998 -0.14231499999999997 -0.86282499999999984 -0.95842499999999997 -1.0710499999999998 -5.7122499999999992 -1.3839499999999998 1.1930500000000002 0.18063500000000002 -1.2399499999999997 1.1715500000000001 0.54996000000000012 2.9420500000000005 -0.82429499999999989 -1.5410499999999996 -1.4891999999999999 -1.3676999999999999 -2.1895999999999995 0.8599500000000001
decision_type=2 2 2 2 2 2 2 2 2 2 2 2 2 2 2 2 2 2 2 2 2 2 2 2 2 2 2 2 2 2
left_child=15 22 3 7 11 6 -4 -3 9 10 14 12 -5 -7 -9 28 -17 -6 -19 -14 -10 -13 25 24 -24 -2 -27 -8 -1 -28
right_child=1 2 5 4 17 13 27 8 20 -11 -12 21 19 -15 -16 16 -18 18 -20 -21 -22 -23 23 -25 -26 26 29 -29 -30 -31
leaf_value=-0.02961236561338107 0.01999721315435388 -0.026657499970290169 -0.020154086260923319 0.016489856481990396 -0.019756498715529841 0.0037013705801218749 0.016078019975906327 0.011465572007000447 -0.009937594214542992 0.016642406791577052 -0.0222211095849397 0.031021919548511509 -0.017172706522978844 0.024409708341485578 -0.0093700355685809086 -0.017061969864627588 0.0034129559402712264 0.0082065937766695723 -0.012220873957609429 0.0035028543079360613 -0.029440402571597826 0.011292170476041396 -0.018212261460721493 0.010463316798106664 0.0022908135909925809 -0.0039596535626734639 0.01331909211700074 -0.001015733163803816 -0.013706273082285548 0.004511286581913799
leaf_weight=21 22 29 21 34 21 25 21 20 21 29 27 20 20 38 34 23 26 34 34 21 23 22 20 36 33 29 71 20 26 59
leaf_count=21 22 29 21 34 21 25 21 20 21 29 27 20 20 38 34 23 26 34 34 21 23 22 20 36 33 29 71 20 26 59
internal_value=0 0.00163509 -0.000667412 -0.00323198 0.00295269 0.00731353 -0.00170826 -0.010194 -0.00709369 -0.00187827 -0.00850913 0.00991134 0.00387681 0.0161921 -0.00165314 -0.0133532 -0.00619772 -0.00619519 -0.00200714 -0.00658279 -0.0201322 0.0206873 0.00601837 0.000989113 -0.0054462 0.00849133 0.00689932 0.0077396 -0.0208133 0.0093217
internal_weight=0 784 514 389 206 125 62 183 154 110 81 117 75 63 54 96 49 89 68 41 44 42 270 89 53 181 159 41 47 130
internal_count=880 784 514 389 206 125 62 183 154 110 81 117 75 63 54 96 49 89 68 41 44 42 270 89 53 181 159 41 47 130
is_linear=0
shrinkage=0.05


Tree=5
num_leaves=31
num_cat=0
split_feature=112 126 103 91 41 68 69 33 75 24 60 20 40 3 57 43 94 81 78 94 25 78 48 126 1 96 30 91 45 39
split_gain=6.96751 2.92466 2.78772 3.00174 4.0831 3.59205 2.74002 2.4253 2.88211 3.18971 2.37986 3.08265 2.3635 2.28271 2.62922 3.12532 3.01118 2.71179 2.24899 2.16957 3.19087 2.08128 1.71792 1.69021 1.64443 1.54111 1.53834 1.51851 1.42644 1.15639
threshold=39.435000000000009 1.7000000000000004 -0.15776499999999996 -3.8061999999999991 -3.5456999999999996 -1.3362499999999999 -1.2564999999999997 2.4665000000000004 1.6198000000000004 -0.38823999999999992 -1.9586499999999998 -1.4403999999999997 -0.88446999999999987 2.5753000000000004 1.1930500000000002 -1.2381999999999997 0.056519500000000007 1.0285500000000003 -1.5314499999999998 -0.66652999999999996 0.8329700000000001 1.0973000000000002 8.5890500000000021 0.70000000000000007 -0.69264499999999984 -0.75394499999999987 -0.26013499999999995 -0.34590999999999994 1.0446000000000002 -0.36235999999999996
decision_type=2 2 2 2 2 2 2 2 2 2 2 2 2 2 2 2 2 2 2 2 2 2 2 2 2 2 2 2 2 2
left_child=1 2 10 -4 -5 6 -6 8 9 12 -1 18 -7 14 15 24 23 28 -12 -11 -21 -18 -2 29 -13 -9 -20 -15 -16 -17
right_child=22 -3 3 4 5 7 -8 25 -10 19 11 13 -14 27 17 16 21 -19 26 20 -22 -23 -24 -25 -26 -27 -28 -29 -30 -31
leaf_value=0.013145725034805114 -0.0077986547901459482 -0.013313355460537203 0.018361137866189606 -0.016338017192902045 0.0028349698365976415 0.0052096915378102241 -0.018369846478744876 0.0082402856089174754 0.019776012152433395 0.018885041959583761 -0.025471167567939986 -0.016367564384232869 -0.012289839140464401 -0.018362254796860121 -0.0075010682791471486 0.014370388048700989 0.02840173029899597 -0.020774678996002133 0.0041019089342582788 0.014139729192287759 -0.010506925776523228 0.0090117185947395147 -0.023939581122249365 -0.0065402939044419796 0.0034420622698962695 0.027033133168394369 -0.015274086707504467 -0.002526538335241196 0.010175446553954057 0.00070623067906126378
leaf_weight=28 34 33 38 24 39 35 25 20 30 36 21 22 43 24 25 32 25 22 21 29 24 31 32 31 20 24 20 41 21 30
leaf_count=28 34 33 38 24 39 35 25 20 30 36 21 22 43 24 25 32 25 22 21 29 24 31 32 31 20 24 20 41 21 30
internal_value=0 0.00126686 0.00188292 0.00505568 0.00351888 0.00508139 -0.00544816 0.00787761 0.00550713 0.00294385 -0.000929642 -0.00195065 -0.00443749 3.96338e-06 0.00210643 0.00511231 0.00850803 -0.00633655 -0.0121651 0.00941289 0.00297898 0.017668 -0.0156246 0.00299237 -0.00693441 0.0184909 -0.0053498 -0.00837357 0.000568645 0.0077587
internal_weight=0 814 781 367 329 305 64 241 197 167 414 386 78 324 259 191 149 68 62 89 53 56 66 93 42 44 41 65 46 62
internal_count=880 814 781 367 329 305 64 241 197 167 414 386 78 324 259 191 149 68 62 89 53 56 66 93 42 44 41 65 46 62
is_linear=0
shrinkage=0.05


Tree=6
num_leaves=31
num_cat=0
split_feature=43 126 45 97 53 112 119 126 46 31 100 40 76 53 68 22 28 84 84 57 65 76 3 5 112 82 81 5 53 33
split_gain=6.4218 2.79076 2.43105 3.52946 4.12297 3.42292 3.11398 3.94549 5.38618 4.98777 4.59283 2.64516 2.44102 3.1907 2.22358 2.17441 2.01546 1.94341 1.7853 1.77649 2.29931 2.01548 1.66299 1.52514 1.48661 1.64015 1.56972 1.42361 1.28472 1.23947
threshold=-5.4612999999999987 1.7000000000000004 -3.1973999999999996 -0.50731999999999988 -1.0445999999999998 1.7671500000000002 1.0000000180025095e-35 0.3000000000000001 -1.2518999999999998 0.84040000000000015 -0.17187499999999997 0.99626000000000003 -0.7442899999999999 1.2668500000000003 -0.46478499999999995 -0.031212500000000001 -0.17464999999999997 3.7926000000000006 2.2475000000000005 1.16605 -0.87898499999999979 1.9611500000000002 -0.32788499999999993 -0.97148499999999982 -1.2397499999999997 0.55367500000000014 0.33089000000000007 -1.3575499999999996 -0.45141999999999999 -1.1516999999999997
decision_type=2 2 2 2 2 2 2 2 2 2 2 2 2 2 2 2 2 2 2 2 2 2 2 2 2 2 2 2 2 2
left_child=17 2 5 4 14 -2 7 8 -5 10 -10 -12 -9 -14 16 23 -4 18 -1 21 -21 27 -7 -16 -8 26 28 -6 -26 -29
right_child=1 -3 3 6 19 22 24 12 9 -11 11 -13 13 -15 15 -17 -18 -19 -20 20 -22 -23 -24 -25 25 -27 -28 29 -30 -31
leaf_value=-0.012805989287285643 -0.017856947787638223 -0.012966647557914258 0.0015581247878485712 0.024171946443278681 0.0068375339591875669 -0.0070779870840765174 -0.0037619362571550646 0.0035206949803978206 -0.029107272270179931 0.017385588756398018 -0.011111343118616127 0.010450375922024252 -0.023667513897332054 -0.0013393561588600279 0.0072339266575872909 0.016747519579699399 -0.017613216177918591 -0.022266943501017523 0.0052106449007987979 -0.0094451981503516445 0.012751881215288969 0.0054262649086190438 0.012383128236979247 -0.011290542576462032 0.017980683706700803 0.015548268148882521 -0.0077359641563485978 0.031220945545161766 0.00082212976412847642 0.017441637152988538
leaf_weight=44 35 32 29 22 20 21 34 20 21 23 33 25 48 24 25 28 26 32 20 20 28 41 23 20 20 45 22 24 24 51
leaf_count=44 35 32 29 22 20 21 34 20 21 23 33 25 48 24 25 28 26 32 20 20 28 41 23 20 20 45 22 24 24 51
internal_value=0 0.00149463 0.00211001 0.00308402 0.00697889 -0.00618758 -0.000282182 -0.00408698 0.00173374 -0.00310587 -0.00907174 -0.0018175 -0.0119323 -0.0162248 8.7577e-05 0.00580778 -0.00750469 -0.0122062 -0.00717579 0.0117728 0.0035031 0.0146916 0.00309487 -0.000999171 0.00538565 0.00818762 0.00316899 0.0186903 0.00862147 0.021851
internal_weight=0 784 752 673 312 79 361 216 124 102 79 58 92 72 128 73 55 96 64 184 48 136 44 45 145 111 66 95 44 75
internal_count=880 784 752 673 312 79 361 216 124 102 79 58 92 72 128 73 55 96 64 184 48 136 44 45 145 111 66 95 44 75
is_linear=0
shrinkage=0.05


Tree=7
num_leaves=31
num_cat=0
split_feature=112 5 10 41 1 124 31 46 51 73 99 36 2 57 110 28 1 35 12 79 90 29 80 108 108 51 50 97 97 65
split_gain=5.80782 2.62543 3.61204 3.9014 3.15552 2.96159 3.53284 2.61701 2.69492 2.88394 2.57776 5.22411 2.51721 2.43959 2.07862 2.25896 2.1804 1.81643 1.7628 1.67698 1.61285 2.23309 1.55309 1.51102 1.47618 1.47534 1.46132 2.07578 2.61617 1.20787
threshold=39.435000000000009 -2.3594499999999994 -0.018282999999999997 2.0421500000000004 -1.6301999999999996 1.0000000180025095e-35 -0.62179499999999988 3.5513000000000003 -0.99366999999999994 -1.1546999999999998 -0.28567999999999993 0.86747000000000007 -0.3894999999999999 1.1120500000000002 -3.3430999999999993 -0.5894299999999999 -0.94437499999999985 -0.28796499999999997 1.1009500000000003 0.224915 -1.8743499999999997 0.4440650000000001 29.307000000000006 0.12735500000000002 -0.19723499999999997 -0.82837499999999986 -0.35589499999999996 0.80819000000000007 -0.36094999999999994 -1.6076499999999998
decision_type=2 2 2 2 2 2 2 2 2 2 2 2 2 2 2 2 2 2 2 2 2 2 2 2 2 2 2 2 2 2
left_child=1 5 3 4 -3 6 -1 8 9 -4 13 19 -11 26 -6 20 -17 24 -7 -12 -16 -22 -2 -8 -14 -18 29 28 -28 -10
right_child=22 2 7 -5 14 18 23 -9 10 12 11 -13 17 -15 15 16 25 -19 -20 -21 21 -23 -24 -25 -26 -27 27 -29 -30 -31
leaf_value=0.015174214939387249 -0.0061152766481222167 0.018358008793762159 -0.020574469921449502 0.023441535223936362 -0.010889467998192862 -0.020912503017378709 -0.017241880120266052 0.014077757511820114 0.0074370466213187457 0.0073617783148546478 -0.0081060144196574892 0.0095342283602803946 -0.010018588297746399 -0.0067791668714562549 0.021116100577637555 -0.013365799066825555 0.010392232388748151 -0.019584802813827993 -0.0025884163698979786 -0.027709782777819783 -0.0037190935814813263 0.014969458743915753 -0.02148355302267841 0.0013087109460130982 0.0067020395241508442 -0.0034510120229149324 0.0082065124330776076 0.016609647866014553 -0.015470658238045871 0.023471728035171207
leaf_weight=28 31 36 31 31 26 35 21 28 23 37 24 32 33 32 24 26 38 25 21 20 31 33 35 23 22 39 28 23 20 24
leaf_count=28 31 36 31 31 26 35 21 28 23 37 24 32 33 32 24 26 38 25 21 20 31 33 35 23 22 39 28 23 20 24
internal_value=0 0.00115663 0.00238323 0.00669979 0.00464843 -0.00541715 0.00129026 -0.000666288 -0.00177012 -0.00701494 0.00166454 -0.00583743 -0.00342225 0.00546554 0.00237403 0.00417954 -0.000846557 -0.00840986 -0.014041 -0.0170168 0.0100623 0.00591719 -0.0142651 -0.00754498 -0.00333034 0.00338072 0.00878614 0.00425903 -0.00165898 0.015625
internal_weight=0 814 686 284 253 128 72 402 374 148 226 76 117 150 217 191 103 80 56 44 88 64 66 44 55 77 118 71 48 47
internal_count=880 814 686 284 253 128 72 402 374 148 226 76 117 150 217 191 103 80 56 44 88 64 66 44 55 77 118 71 48 47
is_linear=0
shrinkage=0.05


Tree=8
num_leaves=31
num_cat=0
split_feature=48 84 31 5 126 23 27 99 36 36 45 47 20 30 33 54 52 14 71 60 103 1 101 30 23 40 126 35 52 40
split_gain=5.60398 3.35003 3.68482 3.96091 3.07251 2.52849 2.35005 2.02539 3.04751 2.8315 2.16608 2.14786 1.90002 2.43523 2.86694 2.19347 1.82823 2.42311 1.74412 1.68016 1.62247 1.61161 1.54141 1.53563 1.48539 1.26928 1.24734 1.50017 1.22762 1.22436
threshold=9.224750000000002 2.9912000000000005 3.0973000000000002 -1.7944499999999997 1.7000000000000004 -0.11225999999999998 -4.5393499999999989 -0.28567999999999993 0.86747000000000007 -1.7028499999999998 0.24803500000000003 0.16970500000000002 -0.94330999999999987 1.4326500000000002 -1.4301499999999998 0.68315500000000007 -0.98184999999999989 -0.42719999999999997 0.65976000000000001 0.74675500000000017 -1.0303999999999998 0.95697500000000002 -0.0043444499999999988 -0.83791499999999985 -0.66812999999999989 -1.6981499999999998 1.1000000000000003 -0.82092999999999994 1.6484500000000002 -1.5531499999999998
decision_type=2 2 2 2 2 2 2 2 2 2 2 2 2 2 2 2 2 2 2 2 2 2 2 2 2 2 2 2 2 2
left_child=1 2 4 -4 6 -2 -1 9 11 -8 -10 19 13 14 -11 -16 17 24 22 23 28 25 -3 -9 -14 -5 27 29 -18 -22
right_child=5 18 3 21 -6 -7 7 8 10 12 -12 -13 16 -15 15 -17 20 -19 -20 -21 26 -23 -24 -25 -26 -27 -28 -29 -30 -31
leaf_value=-0.015394247407093645 -0.026177003221320258 -0.010133718182756143 -0.0084951482713222504 0.028012182908477609 -0.016437387477606535 -0.0038030360987328969 0.015778817507353698 0.0018063376784663309 -0.0013905259413701115 -0.015478487947786397 0.019462694246321917 0.0046590205838741815 -0.0033574094149199404 -0.018852318301796914 0.011948781230797371 -0.0058754847717604475 0.0080644150100950465 -0.012093961109040362 -0.019224148065162205 -0.02519670099311043 0.018098365887999537 0.0038406302814283188 0.0038169972391592132 -0.015989496972825794 0.015016152150928976 0.013583455032203345 0.00014314738059924409 0.021989335966381161 -0.0046493791473599588 0.0036852057319043613
leaf_weight=20 28 44 21 27 25 23 44 22 33 22 20 23 22 20 45 28 37 33 24 20 23 21 36 27 22 35 22 33 39 41
leaf_count=20 28 44 21 27 25 23 44 22 33 22 20 23 22 20 45 28 37 33 24 20 23 21 36 27 22 35 22 33 39 41
internal_value=0 0.000989657 0.00219349 0.0109039 0.000734738 -0.0160868 0.00145505 0.00204009 -0.00307163 0.00375981 0.00647861 -0.00857341 0.00239331 -0.00299471 0.000343735 0.00511208 0.00467133 -0.00185206 -0.00740242 -0.0129842 0.00724723 0.0158121 -0.0038559 -0.00799953 0.00582937 0.0198669 0.010892 0.0133299 0.00154023 0.00886494
internal_weight=0 829 725 104 621 51 596 576 145 431 53 92 387 115 95 73 272 77 104 69 195 83 80 49 44 62 119 97 76 64
internal_count=880 829 725 104 621 51 596 576 145 431 53 92 387 115 95 73 272 77 104 69 195 83 80 49 44 62 119 97 76 64
is_linear=0
shrinkage=0.05


Tree=9
num_leaves=31
num_cat=0
split_feature=43 55 94 27 12 80 97 69 14 55 92 56 26 104 63 74 55 59 103 119 108 84 104 84 84 102 34 65 11 39
split_gain=4.96712 2.43884 2.66137 2.63966 4.46897 3.39399 2.56808 3.39158 2.84204 2.53194 2.46768 2.28668 3.07251 2.61022 2.27426 1.74495 2.17855 1.80272 1.69634 3.3053 2.61427 1.82552 1.63575 1.61558 1.63771 1.53998 1.4726 1.9623 1.40373 1.33661
threshold=-5.4612999999999987 -2.4763999999999995 1.7462500000000001 -0.50490499999999983 -0.244285 -0.17792499999999997 -0.49666499999999997 0.23515500000000003 -1.0049999999999997 -0.87101999999999979 -0.67081499999999983 -0.73737499999999989 1.3748500000000001 9.5374500000000015 0.48518500000000003 -4.6761999999999988 -0.040404499999999989 -0.44518499999999994 -2.1650999999999994 1.0000000180025095e-35 0.29928500000000008 1.0326000000000002 -0.37704999999999994 3.7926000000000006 2.2475000000000005 1.5314000000000003 -2.0733999999999995 -0.80250999999999995 0.57569500000000018 -0.093425499999999981
decision_type=2 2 2 2 2 2 2 2 2 2 2 2 2 2 2 2 2 2 2 2 2 2 2 2 2 2 2 2 2 2
left_child=23 3 6 4 -2 10 7 8 9 -3 -5 12 25 18 -9 -10 -17 -18 20 21 -13 28 26 24 -1 -8 -4 -28 -20 -19
right_child=1 2 22 5 -6 -7 11 14 15 -11 -12 13 -14 -15 -16 16 17 29 19 -21 -22 -23 -24 -25 -26 -27 27 -29 -30 -31
leaf_value=-0.011540962518616157 -0.0093784294055344972 0.0029819201864302158 0.016175266643986105 -0.011740311700850726 0.021633336409216837 -0.02133026004915959 0.017547409017444462 0.021085859675788219 -0.0056835477271427711 -0.021598826812326232 0.012040161779150368 0.012734119600995823 -0.011358679728582503 0.012557329876082286 0.0011586635639624936 0.018644997491642383 0.015194993931800127 -0.010209816794085783 -0.0020834875825260367 -3.5324753520803319e-05 -0.0079732696359444948 -0.026158100939713991 0.018464630187765972 -0.019908083755581174 0.0057149044238030914 0.00084259610580788419 -0.011515862727537752 0.010633091116324067 -0.017201320503783576 0.0058345349471050287
leaf_weight=44 26 20 20 24 21 38 37 45 30 22 20 27 20 21 21 33 22 25 28 63 35 26 37 32 20 22 20 20 34 27
leaf_count=44 26 20 20 24 21 38 37 45 30 22 20 27 20 21 21 33 22 25 28 63 35 26 37 32 20 22 20 20 34 27
internal_value=0 0.00131449 0.00255209 -0.0049694 0.00447789 -0.0103843 0.00122325 0.0050572 0.00148503 -0.00989371 -0.000931006 -0.00177776 0.00557744 -0.00426093 0.0147454 0.0049734 0.00796133 0.00319699 -0.00591907 -0.00877827 0.00104446 -0.0150374 0.0101963 -0.010735 -0.0061485 0.0113185 0.0050975 -0.000441386 -0.0103739 -0.0018791
internal_weight=0 784 655 129 47 82 558 245 179 42 44 313 79 234 66 137 107 74 213 151 62 88 97 96 64 59 60 40 62 52
internal_count=880 784 655 129 47 82 558 245 179 42 44 313 79 234 66 137 107 74 213 151 62 88 97 96 64 59 60 40 62 52
is_linear=0
shrinkage=0.05


Tree=10
num_leaves=31
num_cat=0
split_feature=48 86 5 31 124 32 89 43 4 17 28 23 23 1 63 96 39 9 9 83 46 17 35 14 28 12 76 43 29 18
split_gain=4.83534 2.83311 2.75397 3.75999 2.71146 3.05641 2.53104 2.3101 2.3075 2.45089 2.58846 2.50531 2.24207 1.97312 1.74566 2.49123 2.19393 1.95803 2.1597 3.44459 2.28606 2.29124 1.85174 1.82498 1.55145 1.49301 1.39634 1.30165 1.25113 1.23572
threshold=9.224750000000002 4.2082500000000005 -2.3594499999999994 3.0973000000000002 1.0000000180025095e-35 -0.88768999999999987 2.23645 1.5951500000000001 -0.91749499999999984 -1.0537999999999996 0.064375000000000002 1.1415500000000003 -0.11225999999999998 0.95697500000000002 -0.016153999999999998 -1.3152999999999999 -1.7379499999999999 -0.42624499999999993 0.20596000000000003 -1.5798499999999998 1.5098500000000001 0.25959500000000008 -0.089075999999999989 -1.0998999999999997 -0.19198999999999997 1.1621000000000004 1.3770500000000003 1.7920500000000004 -0.97916499999999995 -0.66634999999999989
decision_type=2 2 2 2 2 2 2 2 2 2 2 2 2 2 2 2 2 2 2 2 2 2 2 2 2 2 2 2 2 2
left_child=1 2 4 6 5 -1 7 8 9 11 -11 -4 -2 -5 15 -10 -16 24 19 -19 21 23 -18 -20 29 -6 -22 -9 -7 -17
right_child=12 -3 3 13 25 28 -8 27 14 10 -12 -13 -14 -15 16 17 22 18 20 -21 26 -23 -24 -25 -26 -27 -28 -29 -30 -31
leaf_value=0.017210581162500949 -0.024444421686764278 -0.014432905008213532 0.013335609977366403 0.015558460377785681 -0.019594864159201586 -0.015209212303161621 -0.016314673889428376 0.022109066208358855 0.018191517665982246 -0.020717577205172609 -0.0020985418139025567 -0.009834469780907967 -0.0033757811209753803 -0.00037220024454514856 -0.017198434886945922 0.007459422997198999 0.0071431023268295193 0.003303134837187827 0.014908194972667843 -0.02479286551475525 0.022692851200699807 -0.0095646660850751547 -0.011341755001340062 -0.0023293667692033684 0.0023302446542258718 -0.0025564355868846183 0.0040090522915124894 0.0051424901636962133 0.001046479185079706 0.02482533749370348
leaf_weight=21 28 29 28 77 36 20 20 20 30 35 40 20 23 26 22 20 42 24 28 20 20 43 20 34 38 20 20 26 29 21
leaf_count=21 28 29 28 77 36 20 20 20 30 35 40 20 23 26 22 20 42 24 28 20 20 43 20 34 38 20 20 26 29 21
internal_value=0 0.000919284 0.0014758 0.00274421 -0.00530919 0.00125123 0.0011581 0.00179232 0.000815212 -0.00514105 -0.0107874 0.00368141 -0.0149429 0.0115371 0.00273307 0.00452759 -0.00363322 0.00299805 0.000234954 -0.00946777 0.00317923 -0.000695711 0.00118025 0.00545534 0.00960848 -0.0135097 0.013351 0.0125193 -0.0055885 0.0163542
internal_weight=0 829 800 674 126 70 571 551 505 123 75 48 51 103 382 298 84 268 189 44 145 105 62 62 79 56 40 46 49 41
internal_count=880 829 800 674 126 70 571 551 505 123 75 48 51 103 382 298 84 268 189 44 145 105 62 62 79 56 40 46 49 41
is_linear=0
shrinkage=0.05


Tree=11
num_leaves=31
num_cat=0
split_feature=48 84 31 55 55 93 79 41 14 64 28 12 69 101 52 69 11 0 73 120 108 27 87 87 42 92 44 28 68 10
split_gain=4.36389 2.68035 3.043 2.61148 2.34251 2.27265 2.92614 2.56318 2.22299 2.83845 2.04369 2.39928 2.43105 1.9858 3.20594 2.13056 2.07508 1.95101 1.87698 1.71439 2.17303 2.30532 1.63584 1.62338 1.55819 1.54747 1.51499 1.4425 1.27766 1.0228
threshold=9.224750000000002 2.9912000000000005 3.0973000000000002 -2.4763999999999995 0.27080500000000002 -5.8592999999999993 2.0689000000000006 1.9768000000000001 2.6465500000000004 6.7098000000000013 1.3082000000000003 0.35962500000000003 -1.3915499999999998 -0.58026499999999992 0.79948000000000008 0.23515500000000003 -0.24300499999999997 -1.5748999999999997 -4.1854499999999986 1.0000000180025095e-35 -0.97074999999999989 1.0103000000000002 -1.4469999999999998 -0.046273499999999988 -0.98599999999999988 -0.41408499999999998 -0.93263999999999991 -0.46274999999999994 0.96821000000000013 1.0121500000000003
decision_type=2 2 2 2 2 2 2 2 2 2 2 2 2 2 2 2 2 2 2 2 2 2 2 2 2 2 2 2 2 2
left_child=1 2 3 10 25 -5 7 13 -4 -10 11 12 -1 14 15 16 23 -15 -2 26 -21 22 -22 -7 -8 -3 -19 -24 -6 -18
right_child=18 4 8 5 28 6 24 -9 9 -11 -12 -13 -14 17 -16 -17 29 19 -20 20 21 -23 27 -25 -26 -27 -28 -29 -30 -31
leaf_value=0.0024405803446742626 -0.026137815720867364 -0.0049507367328323164 0.020588139783252371 -0.014428698774427177 -0.0070475662038439807 0.012998237051879583 0.0057497267785947773 0.01358047029337822 -0.0044343779902096449 0.015609927566997198 -0.020918985176831485 0.0069068281272692336 -0.019600965448751534 -0.01662017226057208 0.016690537987742574 0.011230098029199961 -0.019612127790848415 0.015107782098525408 -0.0064911648150413268 -0.018563110544346274 0.0033066158267584717 0.007900839814254523 -0.0044416609885437148 -0.0054080872461199766 0.022059530820007681 -0.02114823580098649 0.0001460914086237608 -0.023204365074634553 0.0098400308187895774 -0.0038130347826518122
leaf_weight=22 20 29 33 20 21 23 32 39 38 33 20 35 29 23 40 33 21 23 31 24 22 38 21 25 27 30 64 20 24 20
leaf_count=22 20 29 33 20 21 23 32 39 38 33 20 35 29 23 40 33 21 23 31 24 22 38 21 25 27 30 64 20 24 20
internal_value=0 0.00087332 0.00195012 0.000624491 -0.00663324 0.00209551 0.00276315 0.00134899 0.00986567 0.00488199 -0.00652241 -0.00317437 -0.0100928 0.000147411 0.00440652 0.000378976 -0.00364447 -0.00278866 -0.0141957 -0.00128807 -0.00503919 -0.00182559 -0.00769233 0.00341161 0.0132135 -0.0131868 0.00410148 -0.0135942 0.00195915 -0.0119053
internal_weight=0 829 725 621 104 515 495 436 104 71 106 86 51 397 162 122 89 235 51 212 125 101 63 48 59 59 87 41 45 41
internal_count=880 829 725 621 104 515 495 436 104 71 106 86 51 397 162 122 89 235 51 212 125 101 63 48 59 59 87 41 45 41
is_linear=0
shrinkage=0.05


Tree=12
num_leaves=31
num_cat=0
split_feature=54 5 124 31 105 105 38 60 57 17 92 100 101 50 3 11 119 127 39 6 101 29 51 31 12 92 44 27 39 31
split_gain=4.02251 2.40012 2.61691 2.69733 2.48547 2.79733 2.4999 2.3857 2.74944 2.47012 2.03137 1.98228 2.58754 2.39052 2.38864 2.18436 1.96968 1.83025 1.71709 2.95357 1.71139 1.66639 2.29275 1.84221 1.65705 1.63425 1.62473 1.52101 1.5139 1.73406
threshold=3.9378500000000005 -2.3594499999999994 1.0000000180025095e-35 -0.62179499999999988 2.1950500000000006 1.6050500000000001 3.3541500000000002 0.77224500000000018 1.2931500000000002 3.8671500000000005 2.1883500000000002 -0.61300999999999994 1.3925000000000003 0.5007100000000001 0.9152800000000002 -1.7091999999999998 1.0000000180025095e-35 0.67500000000000016 1.7208000000000003 -0.54870999999999992 2.6735000000000002 1.1955000000000002 1.1816000000000002 -0.83696499999999985 1.1009500000000003 -1.3445999999999998 -1.0081499999999999 0.48222500000000007 -1.3419499999999998 -0.28924499999999992
decision_type=2 2 2 2 2 2 2 2 2 2 2 2 2 2 2 2 2 2 2 2 2 2 2 2 2 2 2 2 2 2
left_child=1 2 3 -1 5 6 7 8 11 21 -2 15 13 18 20 -3 -10 28 19 -13 -14 22 23 27 -4 -7 -21 -9 -17 -30
right_child=10 4 24 -5 -6 25 -8 9 16 -11 -12 12 14 -15 -16 17 -18 -19 -20 26 -22 -23 -24 -25 -26 -27 -28 -29 29 -31
leaf_value=0.013079711131285877 -0.0039465571120381356 -0.0067013336054515095 -0.019689880215839759 -0.0067719890312715018 -0.013834594365713807 0.0016881386882492474 0.015270904310358067 -0.0070508383773267265 -0.018602085429419941 0.022134014065959492 -0.024311666438976923 -0.023245879746973515 0.0083400672083371319 -0.018930339343376762 0.01710053374990821 0.020343221997421598 0.0002900932915508747 -0.0046340109695765103 0.0091628319484048665 0.0091084419340958164 -0.0093226564240467269 0.013657665187492968 0.011903638346120717 -0.013260146976928367 -0.0021049452058616142 0.015163414300020253 -0.010127522511452082 0.012449195138178767 -0.0021130039489695002 0.01600419083982706
leaf_weight=28 25 32 37 44 24 35 30 20 37 20 24 20 24 34 24 31 22 22 21 23 32 30 30 33 21 63 21 20 28 25
leaf_count=28 25 32 37 44 24 35 30 20 37 20 24 20 24 34 24 31 22 22 21 23 32 30 30 33 21 63 21 20 28 25
internal_value=0 0.000820871 -0.00541896 0.000948117 0.00197804 0.00253861 0.00121634 0.000448328 -0.00160043 0.00575099 -0.0139213 0.000142806 -0.00305057 -0.00772532 0.00390312 0.00474775 -0.0115575 0.00820408 -0.00324332 -0.00731408 -0.00175292 0.00328738 0.000266907 -0.00451531 -0.0133229 0.0103508 -7.23593e-05 0.00269918 0.0115664 0.00643284
internal_weight=0 831 130 72 701 677 579 549 396 153 49 337 199 119 80 138 59 106 85 64 56 133 103 73 58 98 44 40 84 53
internal_count=880 831 130 72 701 677 579 549 396 153 49 337 199 119 80 138 59 106 85 64 56 133 103 73 58 98 44 40 84 53
is_linear=0
shrinkage=0.05


Tree=13
num_leaves=31
num_cat=0
split_feature=48 84 31 126 55 9 23 27 94 71 56 53 66 97 54 48 29 55 30 11 101 51 23 2 83 6 26 61 119 7
split_gain=3.68908 2.29618 2.57597 2.45595 2.01453 2.00421 1.89831 1.82583 1.82123 1.85048 3.16608 2.83416 2.48487 2.31438 2.98999 2.80608 2.39275 2.34633 2.2603 1.86881 1.81796 2.19721 2.07886 1.87914 1.70204 1.57668 1.42303 1.39735 1.3303 0.92814
threshold=9.224750000000002 2.9912000000000005 3.0973000000000002 1.7000000000000004 0.27080500000000002 1.9826000000000004 -0.11225999999999998 -4.5393499999999989 3.2451500000000002 0.65976000000000001 0.56054000000000015 -0.99851499999999993 -0.88031499999999985 -0.50731999999999988 -1.7796499999999997 -1.3155999999999997 1.7543500000000003 -1.9187999999999998 -0.79374499999999981 -0.42582499999999995 1.3925000000000003 -0.12755999999999998 -0.89737999999999996 0.29991500000000004 -1.2519499999999997 0.47207000000000005 1.0835500000000002 0.22114000000000003 1.0000000180025095e-35 0.11005000000000001
decision_type=2 2 2 2 2 2 2 2 2 2 2 2 2 2 2 2 2 2 2 2 2 2 2 2 2 2 2 2 2 2
left_child=1 2 3 7 28 25 -2 -1 9 13 11 19 -12 15 -15 -9 20 -17 -13 -11 21 29 -22 -23 -19 -4 -24 -6 -3 -16
right_child=6 4 5 -5 27 -7 -8 8 -10 10 12 18 -14 14 16 17 -18 24 -20 -21 22 23 26 -25 -26 -27 -28 -29 -30 -31
leaf_value=-0.013627643953077495 -0.021794923847275122 -0.017803592901480824 0.018083131245757438 -0.014772829324007034 0.0097039781585335737 -0.0043180535081774 -0.0024086097376826016 -0.0041896341392436091 0.01247048182412982 -0.015369370695383799 -0.0022250767637160608 -0.0038375245999883521 -0.026322870490991551 0.018003253098577261 -0.023856348722525265 -0.0011684056756825283 0.014133918751031161 0.019640300241735534 0.016614917921168464 0.0024511020896690237 0.014116966853971067 -0.011248549260199071 0.0020873655791943655 0.0077612873739921128 0.0048601131618072821 0.0037848947960282529 -0.014056591769414289 -0.0080274664866738024 -0.0021227625276272494 -0.009491278713738378
leaf_weight=20 28 38 51 25 25 22 23 39 37 31 20 22 23 20 23 29 20 64 35 28 23 26 39 26 28 31 21 20 21 22
leaf_count=20 28 38 51 25 25 22 23 39 37 31 20 22 23 20 23 29 20 64 35 28 23 26 39 26 28 31 21 20 21 22
internal_value=0 0.000802962 0.00179961 0.000579945 -0.00614485 0.00908244 -0.0130521 0.00122394 0.00173962 0.00100299 -0.0035261 0.000769629 -0.0151146 0.00289806 -0.000429638 0.00747364 -0.00227293 0.0112329 0.00872099 -0.0069122 -0.00409591 -0.00874405 0.00133625 -0.00174363 0.015142 0.0126777 -0.00356302 0.00182334 -0.0122223 -0.0168334
internal_weight=0 829 725 621 104 104 51 596 576 539 159 116 43 380 220 160 200 121 57 59 180 97 83 52 92 82 60 45 59 45
internal_count=880 829 725 621 104 104 51 596 576 539 159 116 43 380 220 160 200 121 57 59 180 97 83 52 92 82 60 45 59 45
is_linear=0
shrinkage=0.05


Tree=14
num_leaves=31
num_cat=0
split_feature=43 119 5 10 90 111 78 29 125 88 94 41 24 88 78 30 2 87 10 85 33 93 23 28 27 42 86 112 46 87
split_gain=3.39103 1.90858 3.35796 2.88123 3.56004 2.90779 2.5854 2.31445 2.12354 3.1492 2.39133 1.9916 2.49436 1.83219 2.46255 1.75657 1.65455 1.34553 1.22269 1.15682 1.13106 1.08875 1.05556 1.05485 2.0062 1.50755 1.62963 1.27558 1.04048 0.998595
threshold=-5.4612999999999987 1.0000000180025095e-35 -1.7528999999999997 1.0000000180025095e-35 0.69592500000000013 1.4193500000000003 1.2939500000000004 0.17670500000000003 1.2500000000000002 -1.1264999999999998 0.92440500000000003 -1.7528499999999998 -0.009521499999999997 -0.92438999999999993 -1.7884499999999999 1.0839500000000004 0.070654500000000009 -1.0710499999999998 -5.7122499999999992 -0.50420999999999994 -0.64502999999999988 0.06563200000000001 0.90376000000000012 1.5965000000000003 1.2277500000000001 0.86443500000000006 -0.23640499999999995 -1.1415999999999997 -2.2800499999999997 0.90442000000000011
decision_type=2 2 2 2 2 2 2 2 2 2 2 2 2 2 2 2 2 2 2 2 2 2 2 2 2 2 2 2 2 2
left_child=17 2 11 4 5 7 -6 -4 9 -5 13 -2 19 21 -15 -16 -7 22 -19 -13 -12 -10 -1 25 -25 27 29 -3 -29 -27
right_child=1 23 3 8 6 16 -8 -9 10 -11 20 12 -14 14 15 -17 -18 18 -20 -21 -22 -23 -24 24 -26 26 -28 28 -30 -31
leaf_value=-0.022249287452238302 -0.019510003384845011 -0.0081615467296532272 -0.021590085269999691 0.003918884973973036 0.025355202865532857 0.016389641501330609 0.0058478787696055537 0.0012298784554004669 0.0031409412739986479 -0.021871265984172453 -0.016519804865121845 -0.0036441709620079824 0.0089617323502898232 -0.0035557848204665916 0.021787738529118625 0.0037875941104215127 -0.0015679551693408387 -0.011470031122798506 0.0043561293815190978 -0.017279348196461798 -0.0013235728566845259 -0.011793277536534058 -0.0072596849094185498 0.0053521492805045385 -0.013816444753181369 0.025893201235504378 0.0037727900414186461 -0.0036446628035404363 0.0078514363402558251 0.010812638841731392
leaf_weight=24 29 22 20 20 33 29 35 25 26 29 25 35 25 29 33 23 23 23 26 28 24 23 23 39 21 21 37 26 81 23
leaf_count=24 29 22 20 20 33 29 35 25 26 29 25 35 25 29 33 23 23 23 26 28 24 23 23 39 21 21 37 26 81 23
internal_value=0 0.00108611 -0.000701894 0.00149204 0.00654291 0.000393628 0.0153147 -0.00891233 -0.00210017 -0.0113447 0.000375139 -0.00814628 -0.00440141 0.00383143 0.0082705 0.0143948 0.00844686 -0.00886986 -0.00307248 -0.00970425 -0.00907675 -0.003869 -0.014914 0.00448993 -0.00135686 0.00616044 0.0115067 0.0028035 0.00505799 0.0180102
internal_weight=0 784 514 397 165 97 68 45 232 49 183 117 88 134 85 56 52 96 49 63 49 49 47 270 60 210 81 129 107 44
internal_count=880 784 514 397 165 97 68 45 232 49 183 117 88 134 85 56 52 96 49 63 49 49 47 270 60 210 81 129 107 44
is_linear=0
shrinkage=0.05


Tree=15
num_leaves=31
num_cat=0
split_feature=54 119 49 97 45 9 68 60 73 125 28 44 31 15 92 55 29 77 107 84 60 125 123 104 41 79 53 54 49 78
split_gain=3.11682 1.81331 1.97469 2.4561 3.3506 2.84877 2.42378 1.91138 2.02122 2.47762 1.82681 2.2386 2.23534 1.81436 1.77509 1.69627 1.41174 1.46799 1.32567 1.3779 1.05717 0.978319 0.940251 1.03485 1.1074 0.974828 1.10992 1.27182 1.00386 1.37755
threshold=3.9378500000000005 1.0000000180025095e-35 -1.3225999999999998 -0.50731999999999988 -3.1973999999999996 -2.5533999999999994 2.2866000000000004 3.3421500000000006 1.2541000000000002 1.2500000000000002 -1.3098999999999996 -1.0081499999999999 0.84040000000000015 -1.3503499999999999 2.1883500000000002 -2.4449999999999998 1.1318000000000004 -1.0262999999999998 -0.21418999999999996 0.014673850000000002 -1.0031999999999999 2.2500000000000004 0.8500000000000002 5.4556000000000013 2.0555000000000003 -1.7424999999999997 4.3846000000000007 1.6011000000000004 -1.03765 0.36216000000000009
decision_type=2 2 2 2 2 2 2 2 2 2 2 2 2 2 2 2 2 2 2 2 2 2 2 2 2 2 2 2 2 2
left_child=1 2 6 4 -4 -5 10 8 9 -7 -1 20 -13 -11 -2 -6 17 -17 -15 -20 -12 -19 23 24 25 -3 27 28 -27 -30
right_child=14 22 3 5 15 7 -8 -9 -10 13 11 12 -14 18 -16 16 -18 21 19 -21 -22 -23 -24 -25 -26 26 -28 -29 29 -31
leaf_value=0.0039716092224877609 -0.0029299096912145618 -0.0081389683406226914 -0.013222220747792607 0.015417176336050034 -0.0054380972031503917 -0.021894057478282544 0.010228089376219683 0.0058428606471499882 0.0044560320471646268 0.0069708331596550783 -0.012478153446378808 -0.015182448118444412 0.0028053267775342253 -0.01934916780775656 -0.021967113002513847 0.0052027241113994805 0.0014681342715287911 0.024059964753541864 0.004933431815533411 -0.011765718743360291 -0.028043136169435458 0.011262265344183627 0.013224057910963894 0.012531488307286055 0.012966679034399846 0.0075765860467857009 -0.0089303614152595398 0.015362563077360392 0.0032728890088507007 -0.0093725210697757026
leaf_weight=26 25 26 21 20 20 31 21 37 32 22 24 31 39 23 24 35 34 32 21 30 20 28 25 26 21 51 20 20 62 33
leaf_count=26 25 26 21 20 20 31 21 37 32 22 24 31 39 23 24 35 34 32 21 30 20 28 25 26 21 51 20 20 62 33
internal_value=0 0.000722573 -0.000960374 0.000979819 0.00547556 -0.0025585 -0.00561202 -0.00439275 -0.00677462 -0.00960439 -0.00798803 -0.0107157 -0.00516069 -0.00563585 -0.0122543 0.00811082 0.0102114 0.0133406 -0.00938379 -0.0048896 -0.0195531 0.0180877 0.00396402 0.0030702 0.00201443 0.000929541 0.00219718 0.00353785 0.00191803 -0.00111973
internal_weight=0 831 547 386 170 216 161 196 159 127 140 114 70 96 49 149 129 95 74 51 44 60 284 259 233 212 186 166 146 95
internal_count=880 831 547 386 170 216 161 196 159 127 140 114 70 96 49 149 129 95 74 51 44 60 284 259 233 212 186 166 146 95
is_linear=0
shrinkage=0.05


Tree=16
num_leaves=31
num_cat=0
split_feature=48 86 5 10 45 4 1 64 28 42 5 21 97 47 61 124 40 31 124 31 57 15 23 39 58 23 20 33 65 25
split_gain=3.04547 1.8959 1.96008 2.66608 2.48898 2.0129 1.91765 1.86616 2.043 1.83674 2.28559 2.3538 2.29575 1.97396 2.21399 1.8383 2.41313 2.69275 1.81762 2.32395 1.75657 1.70797 1.5936 1.51502 1.50924 1.50912 1.45236 1.36049 1.34378 1.30721
threshold=9.224750000000002 4.2082500000000005 -2.3594499999999994 -0.018282999999999997 1.7238500000000003 -1.0694999999999999 -1.6301999999999996 7.6026500000000006 -0.74407499999999993 -2.7881999999999993 -0.69659499999999985 -0.70773999999999992 -0.35420999999999997 -1.2431999999999999 0.45759000000000005 1.0000000180025095e-35 -0.28342999999999996 -0.52354999999999985 1.0000000180025095e-35 -0.62179499999999988 1.1252500000000001 -1.0239999999999998 -0.12847999999999996 -1.4462499999999998 0.18258500000000003 -0.11225999999999998 1.2937500000000002 -0.50021499999999985 0.030378500000000003 1.1885000000000001
decision_type=2 2 2 2 2 2 2 2 2 2 2 2 2 2 2 2 2 2 2 2 2 2 2 2 2 2 2 2 2 2
left_child=1 2 18 4 6 20 -4 8 26 -7 11 -11 13 -12 -15 23 -17 -18 19 -1 21 -5 -10 -14 -24 -2 27 -8 -25 -16
right_child=25 -3 3 5 -6 9 7 -9 22 10 12 -13 15 14 29 16 17 -19 -20 -21 -22 -23 24 28 -26 -27 -28 -29 -30 -31
leaf_value=0.011989891678760094 -0.019654286253665176 -0.011829181645739952 0.015287022453478792 -0.013435951428784227 0.017719942899659658 -0.013376643471419812 0.0090437045463153884 0.01642935160946633 0.0042207912652214115 -0.00013488707659037216 -0.0047381914511788643 0.021283824927803806 -0.0096621442797847779 0.020664538006919128 0.010626447122733765 -0.022655937401577831 0.0092899145050482322 -0.016059398134239018 -0.011253427579400264 -0.0066064919018702182 -0.020112573135910292 0.0050390403211951771 -0.016426100075477734 -0.0025911852438002827 -0.0012972394607084639 -0.0023691030867073852 0.018347476162016391 -0.0061394326295703648 0.013227169819433114 -0.0060065769989575656
leaf_weight=28 28 29 33 22 39 20 36 21 38 23 32 29 22 30 27 24 22 20 56 42 21 29 32 25 34 23 20 25 29 21
leaf_count=28 28 29 33 22 39 20 36 21 38 23 32 29 22 30 27 24 22 20 56 42 21 29 32 25 34 23 20 25 29 21
internal_value=0 0.000729565 0.00118482 0.0022549 0.0060081 -0.00037992 0.00409696 0.00230438 0.000701004 0.00130054 0.00226614 0.0118102 0.000296741 0.005719 0.0100091 -0.0039036 -0.0100084 -0.00278119 -0.00453927 0.000832062 -0.00794198 -0.00293056 -0.00393607 0.00139791 -0.00863244 -0.011859 0.00665478 0.00282111 0.00590386 0.0033495
internal_weight=0 829 800 674 278 396 239 206 185 324 304 52 252 110 78 142 66 42 126 70 72 51 104 76 66 51 81 61 54 48
internal_count=880 829 800 674 278 396 239 206 185 324 304 52 252 110 78 142 66 42 126 70 72 51 104 76 66 51 81 61 54 48
is_linear=0
shrinkage=0.05


Tree=17
num_leaves=31
num_cat=0
split_feature=43 126 52 95 41 94 16 36 41 45 99 0 127 36 74 103 49 22 44 31 22 55 95 57 71 87 8 11 45 60
split_gain=2.71297 1.74572 1.45186 2.18959 1.72571 1.9587 2.25671 1.72911 2.34788 2.3126 2.30892 1.93611 1.92903 1.79495 3.02453 1.90956 1.78742 1.62625 1.60399 1.50632 1.41538 1.79809 1.27134 1.9836 1.2246 1.15981 1.10094 1.06268 1.03622 0.990956
threshold=-5.4612999999999987 1.7000000000000004 -1.9683999999999997 0.055206000000000005 2.0421500000000004 1.7462500000000001 0.08243300000000002 -1.2464999999999997 1.0687000000000004 -1.5856499999999998 0.84414000000000011 0.42358500000000004 0.52500000000000013 1.4369000000000003 1.1258000000000001 0.43277500000000008 2.7262000000000004 -0.94983999999999991 1.8406000000000002 -0.74267499999999986 -0.28454499999999994 -0.078208499999999986 0.29350500000000007 1.1930500000000002 -0.72485499999999992 -1.0710499999999998 -1.2449999999999999 -1.5852499999999998 -3.1973999999999996 1.3966000000000003
decision_type=2 2 2 2 2 2 2 2 2 2 2 2 2 2 2 2 2 2 2 2 2 2 2 2 2 2 2 2 2 2
left_child=25 2 3 -2 7 6 -6 10 9 11 12 28 22 14 16 18 17 -11 19 -15 21 -10 23 -4 -22 -1 -13 -27 -9 -19
right_child=1 -3 4 -5 5 -7 -8 8 20 13 -12 26 -14 15 -16 -17 -18 29 -20 -21 24 -23 -24 -25 -26 27 -28 -29 -30 -31
leaf_value=-0.013545137511298775 -0.017615422373637557 -0.010466093546710908 0.018101998112134397 0.0039734821199722921 0.012976489352565427 0.021830307582223957 -0.0090139821823686361 -0.018361816678196193 -0.0029369692007700605 -0.0089470286305774662 -0.0069921171357337809 0.011482902474346615 0.020145446599150699 -0.0086047486945365868 0.015446567343127344 0.021868509960283215 -0.015229698771699555 0.00048447231681126614 0.016003373109075861 0.0095082514001247065 0.006244108845878925 -0.021915755953747208 -0.0026576961370019785 -0.0020949768461287024 -0.0078761864015284705 -0.011417845077812672 -0.0039094295334787324 0.0035636891450347569 -0.0049523293342003056 0.011499526905666652
leaf_weight=47 24 32 31 23 28 22 20 25 24 34 27 21 30 24 31 24 21 69 24 22 28 26 31 20 34 20 26 29 34 29
leaf_count=47 24 32 31 23 28 22 20 25 24 34 27 21 30 24 31 24 21 69 24 22 28 26 31 20 34 20 26 29 34 29
internal_value=0 0.000971469 0.00145817 -0.00705064 0.00202543 0.00947613 0.00381379 0.00120409 -0.000177122 0.00168073 0.00613273 -0.0046031 0.00929676 0.00407672 0.00120509 0.0096978 -0.00168044 0.00047512 0.00552498 5.79905e-05 -0.00654689 -0.0128059 0.00532773 0.0101816 -0.00149928 -0.00793366 0.002968 -0.00255122 -0.0106343 0.00374403
internal_weight=0 784 752 47 705 70 48 635 496 384 139 106 112 278 184 94 153 132 70 46 112 50 82 51 62 96 47 49 59 98
internal_count=880 784 752 47 705 70 48 635 496 384 139 106 112 278 184 94 153 132 70 46 112 50 82 51 62 96 47 49 59 98
is_linear=0
shrinkage=0.05


Tree=18
num_leaves=31
num_cat=0
split_feature=48 126 103 55 109 14 15 15 86 24 55 47 27 68 101 65 28 110 119 48 18 43 51 48 73 43 78 51 38 3
split_gain=2.60149 1.70989 1.6511 2.03999 1.98626 2.30382 1.79228 2.11298 1.75064 2.29693 1.75191 1.81903 1.73696 1.6914 1.61265 1.57264 1.87217 1.93284 1.86444 1.81288 1.5815 1.54722 1.54245 2.05612 1.46103 1.37497 1.15336 1.15142 0.934193 0.882376
threshold=9.224750000000002 1.7000000000000004 -0.15776499999999996 -2.6043499999999997 -11.326499999999998 4.2954000000000017 -1.3937999999999999 -1.2910999999999997 -2.4250499999999993 -0.58922999999999981 -1.1926999999999996 0.35542500000000005 -3.0313999999999992 -0.98036999999999985 -0.93029999999999979 1.4211000000000003 1.2455500000000004 0.61396000000000017 1.0000000180025095e-35 0.35620000000000002 0.69143500000000013 0.53889000000000009 -1.3889499999999997 0.89783500000000005 -4.1854499999999986 0.52163500000000007 -1.5515999999999999 -0.73609999999999987 0.028233500000000005 1.1931500000000004
decision_type=2 2 2 2 2 2 2 2 2 2 2 2 2 2 2 2 2 2 2 2 2 2 2 2 2 2 2 2 2 2
left_child=1 2 4 14 -1 6 21 -8 9 -5 -10 13 -9 -12 -4 16 20 18 -18 -17 26 -6 -13 -24 -2 -15 -14 -27 -25 -28
right_child=24 -3 3 8 5 -7 7 12 10 -11 11 22 15 25 -16 19 17 -19 -20 -21 -22 -23 23 28 -26 27 29 -29 -30 -31
leaf_value=-0.016372941248118878 -0.02149664488155395 -0.010306191145825913 -0.017132994434796274 0.0065183637551963327 0.013986633945200028 0.015502639745616102 -0.016680043454281989 -0.014404639306788645 0.015523194112624464 -0.015375905775505565 0.00030305308939300874 -0.0086984612321590674 -0.0079104149737395362 0.020204343313250592 0.0029459279216825962 -0.014365950790611474 -0.016383941285312176 0.0076448866954216587 0.0014026972841328154 0.0026737251982989689 0.016111679526110149 -0.0011040945161533142 -0.0085446405243904643 0.013907452843462429 -0.0041630519193507007 0.014674588768199708 0.010131203152594113 -0.0013570602717144151 0.0014695744200323064 -0.0020520956134018691
leaf_weight=20 20 34 20 25 33 22 25 24 44 23 38 34 20 37 20 37 34 26 26 27 29 35 24 36 31 24 42 21 26 23
leaf_count=20 20 34 20 25 33 22 25 24 44 23 38 34 20 37 20 37 34 26 26 27 29 35 24 36 31 24 42 21 26 23
internal_value=0 0.000674291 0.0011439 0.00357371 -0.000992958 -0.000229683 -0.00113811 -0.00273654 0.00485892 -0.00397264 0.00635158 0.00467011 -0.00152616 0.00902307 -0.00709353 -0.000355393 0.00182763 -0.00374206 -0.0086764 -0.00717734 0.00602932 0.00621935 0.000317152 0.00388146 -0.0109605 0.0130641 0.00258946 0.00719315 0.00869157 0.00582019
internal_weight=0 829 795 372 423 403 381 313 332 48 284 240 288 120 40 264 200 86 60 64 114 68 120 86 51 82 85 45 62 65
internal_count=880 829 795 372 423 403 381 313 332 48 284 240 288 120 40 264 200 86 60 64 114 68 120 86 51 82 85 45 62 65
is_linear=0
shrinkage=0.05


Tree=19
num_leaves=31
num_cat=0
split_feature=48 5 10 80 80 4 49 23 124 31 23 92 78 42 4 36 37 57 15 20 50 3 3 23 4 12 88 78 78 5
split_gain=2.34784 1.57394 1.86769 2.74246 2.35637 1.87745 1.81452 1.67367 1.63806 1.88283 1.53873 1.5234 1.52162 1.50384 1.63195 1.84379 2.12529 1.52749 1.46765 1.41416 1.44614 1.44271 1.35877 1.33264 1.24592 1.19917 1.18242 1.06463 1.25313 1.13792
threshold=9.224750000000002 -2.3594499999999994 -0.018282999999999997 -0.30515999999999993 0.79155500000000012 -1.0694999999999999 -0.12668499999999996 0.3729050000000001 1.0000000180025095e-35 -0.62179499999999988 2.1648000000000001 -0.17332999999999996 -0.067453499999999986 -2.7881999999999993 2.8300000000000005 -1.7028499999999998 -0.59532499999999988 1.3236500000000002 -1.3713499999999998 -0.70940499999999984 1.4041500000000002 0.27689500000000006 -1.7864999999999998 -0.11225999999999998 0.71651000000000009 1.1009500000000003 -0.45487499999999992 1.2939500000000004 1.8095500000000002 -0.41735499999999998
decision_type=2 2 2 2 2 2 2 2 2 2 2 2 2 2 2 2 2 2 2 2 2 2 2 2 2 2 2 2 2 2
left_child=1 8 3 22 12 6 -4 11 9 -1 -9 -6 -5 -7 15 -15 24 19 -16 -18 -21 -22 -3 -2 -17 -10 -20 29 -29 -24
right_child=23 2 5 4 7 13 -8 10 25 -11 -12 -13 -14 14 18 16 17 -19 26 20 21 -23 27 -25 -26 -27 -28 28 -30 -31
leaf_value=0.010854663151050253 -0.017737839370965958 0.018682347818086035 -0.0010543023084485254 -0.00078268637457354513 0.015675600662239289 -0.012276747440919281 -0.01677862634023768 -0.010370805576288451 -0.015654191451194961 -0.0057311390484259886 0.0068187533634836263 0.0011071984053534619 -0.019838239250821062 0.018059899032648121 0.0055681971328643467 0.0036452372203625385 0.00031812537927180531 -0.0048703358412302772 -0.01716284367069602 0.01784590007737279 0.013710561428557744 -0.0048442886117845774 0.0043075342662632467 -0.001494722780974015 -0.01184462226845105 -0.00083435579823950927 -0.0017847996568307282 -0.0041521984415369166 0.011666810512542725 0.020786287037613382
leaf_weight=28 28 34 43 22 38 20 32 30 39 44 23 34 20 21 24 21 42 29 25 44 22 20 20 23 34 21 25 31 21 22
leaf_count=28 28 34 43 22 38 20 32 30 39 44 23 34 20 21 24 21 42 29 25 44 22 20 20 23 34 21 25 31 21 22
internal_value=0 0.000640577 0.00158868 0.00461008 0.000389466 -0.000628512 -0.00776335 0.0038322 -0.00436572 0.000718895 -0.00291119 0.00879608 -0.00985676 0.00100792 0.00187337 0.0039278 0.00252793 0.005491 -0.00459533 0.0078385 0.0115112 0.00487492 0.0101167 -0.0104125 -0.00593031 -0.0104672 -0.00947382 0.00701845 0.00223625 0.0129393
internal_weight=0 829 697 295 167 402 75 125 132 72 53 72 42 327 307 233 212 157 74 128 86 42 128 51 55 60 50 94 52 42
internal_count=880 829 697 295 167 402 75 125 132 72 53 72 42 327 307 233 212 157 74 128 86 42 128 51 55 60 50 94 52 42
is_linear=0
shrinkage=0.05


Tree=20
num_leaves=31
num_cat=0
split_feature=48 126 84 64 55 51 25 27 68 55 110 72 53 53 108 98 22 32 98 41 73 58 108 13 92 3 0 6 119 110
split_gain=2.11893 1.52566 1.48067 1.77174 1.48789 1.331 2.09009 2.18881 1.66271 1.59962 2.17099 1.94824 1.44385 2.02133 2.293 1.90174 1.71684 2.43094 1.69782 1.65734 1.31837 1.25301 1.21809 1.45179 1.16569 1.10612 1.07251 1.03426 0.968267 0.898866
threshold=9.224750000000002 1.7000000000000004 2.9912000000000005 7.6026500000000006 0.27080500000000002 -1.5103999999999997 -2.1898999999999993 -0.22405999999999998 -0.050027499999999996 1.0485500000000003 -1.1780999999999999 -1.2618499999999997 0.11895500000000002 1.8933500000000003 -0.9096749999999999 1.3382500000000002 -1.3344499999999997 -0.64274999999999993 -0.36968499999999993 -0.48997999999999992 -4.1854499999999986 0.30798000000000003 1.1749000000000003 1.8182000000000003 0.38985500000000006 -0.26925999999999994 -0.39616999999999997 0.56584000000000012 1.0000000180025095e-35 0.34162500000000001
decision_type=2 2 2 2 2 2 2 2 2 2 2 2 2 2 2 2 2 2 2 2 2 2 2 2 2 2 2 2 2 2
left_child=1 2 3 5 28 6 -1 -8 25 12 -11 -12 15 14 -14 16 17 26 29 -16 -2 -15 23 27 -13 -9 -7 -10 -4 -18
right_child=20 -3 4 -5 -6 9 7 8 22 10 11 24 13 21 19 -17 18 -19 -20 -21 -22 -23 -24 -25 -26 -27 -28 -29 -30 -31
leaf_value=-0.017278571920469405 -0.019900390906259419 -0.0097635126015280984 -0.015168169430190965 0.014192083324970945 0.0021061540529545811 0.016477929092943669 0.011019863802939654 -0.017476375026628375 -0.011350323943687337 -0.014065540177298004 -0.0078446586645441133 0.0015696197837435954 -0.015640109484749181 0.000988647432050443 -0.0081177736023584236 0.018588766112225132 0.020724861963742205 -0.0096083441949708186 -0.00089677611055473481 0.0083546958140072389 -0.0034347872520166058 0.015817482453504846 0.011790707405833972 0.0089074046705323075 0.016929078620991536 -0.0035333100311232338 0.00047983118142424656 0.002298682110141153 -0.0013770352432038637 0.0082461808592563992
leaf_weight=20 20 34 35 28 45 20 35 25 35 29 32 30 28 29 26 32 31 36 24 37 31 28 21 23 21 33 22 23 20 27
leaf_count=20 20 34 35 28 45 20 35 25 35 29 32 30 28 29 26 32 31 36 24 37 31 28 21 23 21 33 22 23 20 27
internal_value=0 0.000608548 0.00105213 0.00187064 -0.0046365 0.0013534 -0.00188512 -0.000306307 -0.00278391 0.00289385 -0.00228867 0.00182615 0.00460103 0.000889857 -0.00373474 0.00746172 0.00523631 -7.41734e-05 0.0102877 0.00155653 -0.00989189 0.00827299 0.00105964 -0.00172249 0.0078941 -0.00954325 0.00809797 -0.00593779 -0.0101532 0.0149158
internal_weight=0 829 795 695 100 667 215 195 160 452 112 83 340 148 91 192 160 78 82 63 51 57 102 81 51 58 42 58 55 58
internal_count=880 829 795 695 100 667 215 195 160 452 112 83 340 148 91 192 160 78 82 63 51 57 102 81 51 58 42 58 55 58
is_linear=0
shrinkage=0.05


Tree=21
num_leaves=31
num_cat=0
split_feature=48 120 5 1 49 21 31 28 86 62 38 19 39 110 22 40 31 68 5 55 59 48 73 112 41 81 104 2 19 45
split_gain=1.9192 1.4192 2.33014 2.50417 2.27014 2.1676 1.78162 1.75874 1.72248 1.79328 1.61562 1.64988 1.54248 1.52619 1.39954 1.66457 2.65332 1.35427 1.47219 1.14397 1.05641 0.989891 0.945023 0.759923 1.16893 1.23572 1.12682 0.851898 0.998903 0.982403
threshold=9.3818000000000001 1.0000000180025095e-35 -1.7528999999999997 1.1871500000000001 -1.3147999999999997 2.2325000000000004 3.0973000000000002 -1.4065999999999999 -2.2442499999999996 1.1404500000000002 1.9327500000000002 -0.77416499999999988 0.48925500000000005 1.03685 -1.4128499999999999 0.32044500000000004 -0.91520999999999997 -0.25973499999999999 1.5359 -0.015051499999999999 1.0757500000000002 -0.49221499999999996 -1.7927499999999996 -1.1024999999999998 0.52266000000000012 -0.74087999999999987 3.5675500000000002 1.5638500000000002 -1.0801999999999998 -1.1472999999999998
decision_type=2 2 2 2 2 2 2 2 2 2 2 2 2 2 2 2 2 2 2 2 2 2 2 2 2 2 2 2 2 2
left_child=1 23 7 6 -5 17 8 -3 21 13 11 12 -9 14 -10 -16 -17 -6 -19 -8 -11 -4 -2 24 -1 -26 27 28 29 -25
right_child=22 2 3 4 5 -7 19 10 9 20 -12 -13 -14 -15 15 16 -18 18 -20 -21 -22 -23 -24 26 25 -27 -28 -29 -30 -31
leaf_value=-0.0092087544587061369 -0.018022502888925374 0.0056839548334803279 -0.014246034022906555 -0.015383622287107365 0.0099293598623358126 -0.013660250582660622 0.0043824916651759019 -0.01732084482425341 0.0097198056802153595 0.021303322724997999 0.0012293947108376485 -0.02477066286585548 -0.00084775610206027838 0.011072325937706851 -0.013129371684709831 0.014679161868989469 -0.011076022950001062 0.0084767781291156998 -0.0085285368987492154 0.018947417195886374 0.005425710891458122 0.00096361075527966016 -0.0037920816468873194 -0.010452483659205231 0.012615090339518662 -0.0029861692960063621 0.01542944690293592 0.0099552175731376005 0.0068420271819331141 0.0016737423257016746
leaf_weight=27 20 23 23 35 38 26 26 27 20 20 26 22 30 29 35 20 20 20 35 28 22 20 28 23 22 30 23 42 59 61
leaf_count=27 20 23 23 35 38 26 26 27 20 20 26 22 30 29 35 20 20 20 35 28 22 20 28 23 22 30 23 42 59 61
internal_value=0 0.000560851 -0.000937705 0.000873634 -0.00418988 -0.000897597 0.00383858 -0.00683871 0.00174676 0.00405699 -0.00958177 -0.0131399 -0.0086508 0.00103249 -0.00203231 -0.0051662 0.00180157 0.00267046 -0.00234479 0.0119347 0.0129865 -0.00717178 -0.00972142 0.00340654 -0.000768221 0.00361436 0.00499215 0.00369454 0.00185574 -0.00164653
internal_weight=0 832 545 417 154 119 263 128 209 166 105 79 57 124 95 75 40 93 55 54 42 43 48 287 79 52 208 185 143 84
internal_count=880 832 545 417 154 119 263 128 209 166 105 79 57 124 95 75 40 93 55 54 42 43 48 287 79 52 208 185 143 84
is_linear=0
shrinkage=0.05


end of trees

feature_importances:
all_correlation_skew=18
recent_15%_loss_stddev_median_ratio=18
recent_10_loss_stddev_best_ratio=17
recent_25_correlation_stddev_best_ratio=17
recent_15%_loss_best_percentile25_ratio=14
recent_10_correlation_stddev_best_ratio=13
recent_10_loss_kurtosis=13
top_10%_loss_skew=13
recent_15%_loss_percentile5_percentile25_ratio=12
top_20%_correlation_kurtosis=12
top_30%_loss_stddev_median_ratio=12
recent_25_loss_kurtosis=11
secondaryCorrelationMultiplier=11
all_correlation_kurtosis=10
recent_15%_loss_best_percentile75_ratio=10
secondaryLockingMode_random=10
recent_10_loss_best_percentile75_ratio=9
recent_15%_correlation_stddev_best_ratio=9
recent_25_correlation_percentile5_percentile25_ratio=9
recent_25_loss_best_percentile25_ratio=9
top_20%_loss_kurtosis=9
top_30%_correlation_best_percentile25_ratio=9
top_30%_correlation_stddev_best_ratio=9
all_loss_best_percentile75_ratio=8
all_loss_stddev_best_ratio=8
recent_15%_correlation_kurtosis=8
recent_15%_correlation_stddev_median_ratio=8
recent_25_correlation_best_percentile75_ratio=8
top_10%_correlation_kurtosis=8
top_10%_loss_best_percentile25_ratio=8
top_20%_loss_skew=8
all_correlation_best_percentile50_ratio=7
all_correlation_percentile5_percentile25_ratio=7
all_loss_percentile5_percentile25_ratio=7
all_loss_stddev_median_ratio=7
recent_15%_loss_skew=7
top_10%_loss_stddev_median_ratio=7
top_20%_correlation_stddev_best_ratio=7
top_30%_correlation_percentile5_percentile25_ratio=7
recent_10_correlation_kurtosis=6
recent_10_correlation_skew=6
recent_10_loss_percentile5_percentile25_ratio=6
recent_10_loss_skew=6
recent_25_correlation_skew=6
top_10%_correlation_best_percentile25_ratio=6
top_20%_correlation_skew=6
top_30%_loss_kurtosis=6
secondaryTopLockingPercentile=6
all_correlation_stddev_best_ratio=5
all_loss_kurtosis=5
recent_10_correlation_best_percentile25_ratio=5
recent_15%_correlation_best_percentile25_ratio=5
recent_25_correlation_best_percentile25_ratio=5
top_10%_correlation_percentile5_percentile25_ratio=5
top_10%_loss_kurtosis=5
top_20%_correlation_best_percentile25_ratio=5
top_30%_correlation_stddev_median_ratio=5
top_30%_loss_skew=5
all_correlation_best_percentile75_ratio=4
all_loss_best_percentile50_ratio=4
recent_10_correlation_best_percentile50_ratio=4
recent_10_correlation_best_percentile75_ratio=4
recent_15%_loss_best_percentile50_ratio=4
recent_15%_loss_kurtosis=4
recent_15%_loss_stddev_best_ratio=4
recent_25_correlation_kurtosis=4
top_10%_correlation_stddev_best_ratio=4
top_10%_loss_stddev_best_ratio=4
top_20%_correlation_percentile5_percentile25_ratio=4
top_20%_correlation_stddev_median_ratio=4
top_30%_loss_best_percentile25_ratio=4
secondaryCorrelationExponent=4
all_correlation_best_percentile25_ratio=3
all_loss_best_percentile25_ratio=3
recent_10_correlation_stddev_median_ratio=3
recent_10_loss_best_percentile25_ratio=3
recent_10_loss_stddev_median_ratio=3
recent_15%_correlation_best_percentile50_ratio=3
recent_15%_correlation_best_percentile75_ratio=3
recent_15%_correlation_skew=3
recent_25_correlation_best_percentile50_ratio=3
recent_25_loss_best_percentile50_ratio=3
recent_25_loss_best_percentile75_ratio=3
recent_25_loss_percentile5_percentile25_ratio=3
recent_25_loss_stddev_median_ratio=3
top_10%_loss_best_percentile50_ratio=3
top_20%_correlation_best_percentile75_ratio=3
top_20%_loss_best_percentile75_ratio=3
top_20%_loss_stddev_best_ratio=3
top_30%_correlation_best_percentile50_ratio=3
top_30%_correlation_best_percentile75_ratio=3
top_30%_correlation_kurtosis=3
top_30%_loss_percentile5_percentile25_ratio=3
top_30%_loss_stddev_best_ratio=3
secondaryLockingMode_top=3
all_correlation_stddev_median_ratio=2
all_loss_skew=2
log10_cardinality=2
recent_10_correlation_percentile5_percentile25_ratio=2
recent_10_loss_best_percentile50_ratio=2
recent_25_correlation_stddev_median_ratio=2
recent_25_loss_stddev_best_ratio=2
top_10%_correlation_best_percentile50_ratio=2
top_20%_loss_best_percentile50_ratio=2
top_20%_loss_percentile5_percentile25_ratio=2
top_20%_loss_stddev_median_ratio=2
top_30%_correlation_skew=2
secondaryFixedProbability=2
recent_15%_correlation_percentile5_percentile25_ratio=1
recent_25_loss_skew=1
top_10%_correlation_skew=1
top_10%_correlation_stddev_median_ratio=1
top_10%_loss_best_percentile75_ratio=1
top_10%_loss_percentile5_percentile25_ratio=1
top_20%_correlation_best_percentile50_ratio=1
top_20%_loss_best_percentile25_ratio=1
top_30%_loss_best_percentile75_ratio=1
resultFilteringMode_age=1
resultFilteringRandomProbability=1

parameters:
[boosting: gbdt]
[objective: regression]
[metric: l2]
[tree_learner: serial]
[device_type: cpu]
[data_sample_strategy: bagging]
[data: ]
[valid: ]
[num_iterations: 100]
[learning_rate: 0.05]
[num_leaves: 31]
[num_threads: 0]
[seed: 0]
[deterministic: 0]
[force_col_wise: 0]
[force_row_wise: 0]
[histogram_pool_size: -1]
[max_depth: -1]
[min_data_in_leaf: 20]
[min_sum_hessian_in_leaf: 0.001]
[bagging_fraction: 1]
[pos_bagging_fraction: 1]
[neg_bagging_fraction: 1]
[bagging_freq: 0]
[bagging_seed: 3]
[feature_fraction: 0.7]
[feature_fraction_bynode: 1]
[feature_fraction_seed: 2]
[extra_trees: 0]
[extra_seed: 6]
[early_stopping_round: 5]
[early_stopping_min_delta: 0]
[first_metric_only: 0]
[max_delta_step: 0]
[lambda_l1: 0]
[lambda_l2: 0]
[linear_lambda: 0]
[min_gain_to_split: 0]
[drop_rate: 0.1]
[max_drop: 50]
[skip_drop: 0.5]
[xgboost_dart_mode: 0]
[uniform_drop: 0]
[drop_seed: 4]
[top_rate: 0.2]
[other_rate: 0.1]
[min_data_per_group: 100]
[max_cat_threshold: 32]
[cat_l2: 10]
[cat_smooth: 10]
[max_cat_to_onehot: 4]
[top_k: 20]
[monotone_constraints: ]
[monotone_constraints_method: basic]
[monotone_penalty: 0]
[feature_contri: ]
[forcedsplits_filename: ]
[refit_decay_rate: 0.9]
[cegb_tradeoff: 1]
[cegb_penalty_split: 0]
[cegb_penalty_feature_lazy: ]
[cegb_penalty_feature_coupled: ]
[path_smooth: 0]
[interaction_constraints: ]
[verbosity: -1]
[saved_feature_importance_type: 0]
[use_quantized_grad: 0]
[num_grad_quant_bins: 4]
[quant_train_renew_leaf: 0]
[stochastic_rounding: 1]
[linear_tree: 0]
[max_bin: 255]
[max_bin_by_feature: ]
[min_data_in_bin: 3]
[bin_construct_sample_cnt: 200000]
[data_random_seed: 1]
[is_enable_sparse: 1]
[enable_bundle: 1]
[use_missing: 1]
[zero_as_missing: 0]
[feature_pre_filter: 1]
[pre_partition: 0]
[two_round: 0]
[header: 0]
[label_column: ]
[weight_column: ]
[group_column: ]
[ignore_column: ]
[categorical_feature: ]
[forcedbins_filename: ]
[precise_float_parser: 0]
[parser_config_file: ]
[objective_seed: 5]
[num_class: 1]
[is_unbalance: 0]
[scale_pos_weight: 1]
[sigmoid: 1]
[boost_from_average: 1]
[reg_sqrt: 0]
[alpha: 0.9]
[fair_c: 1]
[poisson_max_delta_step: 0.7]
[tweedie_variance_power: 1.5]
[lambdarank_truncation_level: 30]
[lambdarank_norm: 1]
[label_gain: ]
[lambdarank_position_bias_regularization: 0]
[eval_at: ]
[multi_error_top_k: 1]
[auc_mu_weights: ]
[num_machines: 1]
[local_listen_port: 12400]
[time_out: 120]
[machine_list_filename: ]
[machines: ]
[gpu_platform_id: -1]
[gpu_device_id: -1]
[gpu_use_dp: 0]
[num_gpu: 1]

end of parameters

pandas_categorical:null
