tree
version=v4
num_class=1
num_tree_per_iteration=1
label_index=0
max_feature_idx=129
objective=regression
feature_names=all_correlation_best_percentile25_ratio all_correlation_best_percentile50_ratio all_correlation_best_percentile75_ratio all_correlation_kurtosis all_correlation_percentile5_percentile25_ratio all_correlation_skew all_correlation_stddev_best_ratio all_correlation_stddev_median_ratio all_loss_best_percentile25_ratio all_loss_best_percentile50_ratio all_loss_best_percentile75_ratio all_loss_kurtosis all_loss_percentile5_percentile25_ratio all_loss_skew all_loss_stddev_best_ratio all_loss_stddev_median_ratio log10_cardinality recent_10_correlation_best_percentile25_ratio recent_10_correlation_best_percentile50_ratio recent_10_correlation_best_percentile75_ratio recent_10_correlation_kurtosis recent_10_correlation_percentile5_percentile25_ratio recent_10_correlation_skew recent_10_correlation_stddev_best_ratio recent_10_correlation_stddev_median_ratio recent_10_loss_best_percentile25_ratio recent_10_loss_best_percentile50_ratio recent_10_loss_best_percentile75_ratio recent_10_loss_kurtosis recent_10_loss_percentile5_percentile25_ratio recent_10_loss_skew recent_10_loss_stddev_best_ratio recent_10_loss_stddev_median_ratio recent_15%_correlation_best_percentile25_ratio recent_15%_correlation_best_percentile50_ratio recent_15%_correlation_best_percentile75_ratio recent_15%_correlation_kurtosis recent_15%_correlation_percentile5_percentile25_ratio recent_15%_correlation_skew recent_15%_correlation_stddev_best_ratio recent_15%_correlation_stddev_median_ratio recent_15%_loss_best_percentile25_ratio recent_15%_loss_best_percentile50_ratio recent_15%_loss_best_percentile75_ratio recent_15%_loss_kurtosis recent_15%_loss_percentile5_percentile25_ratio recent_15%_loss_skew recent_15%_loss_stddev_best_ratio recent_15%_loss_stddev_median_ratio recent_25_correlation_best_percentile25_ratio recent_25_correlation_best_percentile50_ratio recent_25_correlation_best_percentile75_ratio recent_25_correlation_kurtosis recent_25_correlation_percentile5_percentile25_ratio recent_25_correlation_skew recent_25_correlation_stddev_best_ratio recent_25_correlation_stddev_median_ratio recent_25_loss_best_percentile25_ratio recent_25_loss_best_percentile50_ratio recent_25_loss_best_percentile75_ratio recent_25_loss_kurtosis recent_25_loss_percentile5_percentile25_ratio recent_25_loss_skew recent_25_loss_stddev_best_ratio recent_25_loss_stddev_median_ratio top_10%_correlation_best_percentile25_ratio top_10%_correlation_best_percentile50_ratio top_10%_correlation_best_percentile75_ratio top_10%_correlation_kurtosis top_10%_correlation_percentile5_percentile25_ratio top_10%_correlation_skew top_10%_correlation_stddev_best_ratio top_10%_correlation_stddev_median_ratio top_10%_loss_best_percentile25_ratio top_10%_loss_best_percentile50_ratio top_10%_loss_best_percentile75_ratio top_10%_loss_kurtosis top_10%_loss_percentile5_percentile25_ratio top_10%_loss_skew top_10%_loss_stddev_best_ratio top_10%_loss_stddev_median_ratio top_20%_correlation_best_percentile25_ratio top_20%_correlation_best_percentile50_ratio top_20%_correlation_best_percentile75_ratio top_20%_correlation_kurtosis top_20%_correlation_percentile5_percentile25_ratio top_20%_correlation_skew top_20%_correlation_stddev_best_ratio top_20%_correlation_stddev_median_ratio top_20%_loss_best_percentile25_ratio top_20%_loss_best_percentile50_ratio top_20%_loss_best_percentile75_ratio top_20%_loss_kurtosis top_20%_loss_percentile5_percentile25_ratio top_20%_loss_skew top_20%_loss_stddev_best_ratio top_20%_loss_stddev_median_ratio top_30%_correlation_best_percentile25_ratio top_30%_correlation_best_percentile50_ratio top_30%_correlation_best_percentile75_ratio top_30%_correlation_kurtosis top_30%_correlation_percentile5_percentile25_ratio top_30%_correlation_skew top_30%_correlation_stddev_best_ratio top_30%_correlation_stddev_median_ratio top_30%_loss_best_percentile25_ratio top_30%_loss_best_percentile50_ratio top_30%_loss_best_percentile75_ratio top_30%_loss_kurtosis top_30%_loss_percentile5_percentile25_ratio top_30%_loss_skew top_30%_loss_stddev_best_ratio top_30%_loss_stddev_median_ratio resultFilteringMode_age resultFilteringMode_loss_rank resultFilteringMode_none resultFilteringMode_random secondaryProbabilityMode_correlation secondaryProbabilityMode_fixed secondaryLockingMode_random secondaryLockingMode_top resultFilteringAgeMultiplier resultFilteringLossRankMultiplier resultFilteringRandomProbability secondaryTopLockingPercentile secondaryCorrelationExponent secondaryCorrelationMultiplier secondaryFixedProbability secondaryCutoff gamma
feature_infos=[-2.5802999999999998:13.683999999999999] [-2.9011999999999998:36.338999999999999] [-2.4908000000000001:22.154] [-3.3220000000000001:18.364999999999998] [-2.8075000000000001:13.673] [-6.9523999999999999:8.0414999999999992] [-9.5030000000000001:6.5868000000000002] [-4.7125000000000004:50.707999999999998] [-20.004999999999999:3.0488] [-10.445:3.3892000000000002] [-5.7195:3.8957999999999999] [-3.6880000000000002:14.038] [-29.247:2.6823999999999999] [-10.036:8.1647999999999996] [-1.5528:3669.6999999999998] [-2.0236999999999998:11.084] [-2.8546999999999998:4.0662000000000003] [-5.3951000000000002:405.12] [-2.8292999999999999:173.31999999999999] [-1.8995:61.491] [-2.6276999999999999:14.065] [-6.5824999999999996:332.85000000000002] [-7.0819000000000001:6.6830999999999996] [-16.579999999999998:7.5868000000000002] [-2.8073999999999999:190.02000000000001] [-31.940999999999999:2.214] [-15.432:2.0956999999999999] [-6.7504:2.0038999999999998] [-1.9460999999999999:1.6763999999999999] [-42.722999999999999:2.2488999999999999] [-4.9756:1.6012] [-1.2927:3633.9000000000001] [-1.3687:3253.8000000000002] [-5.0330000000000004:53.046999999999997] [-3.0535999999999999:448.93000000000001] [-2.0968:1778.0999999999999] [-2.5518999999999998:15.548] [-6.1043000000000003:53.537999999999997] [-6.8860000000000001:7.2973999999999997] [-15.472:6.9954000000000001] [-3.0030000000000001:387.10000000000002] [-36.176000000000002:2.8315999999999999] [-20.048999999999999:2.7841999999999998] [-8.1367999999999991:2.4479000000000002] [-1.732:17.619] [-48.899999999999999:2.7496] [-4.9063999999999997:7.2343000000000002] [-1.4645999999999999:4948.6999999999998] [-1.5488999999999999:1607.4000000000001] [-5.9755000000000003:320.30000000000001] [-3.4251:886.88] [-2.1017000000000001:388.64999999999998] [-2.7115:16.530000000000001] [-7.2332999999999998:344.81] [-7.3422999999999998:7.0308000000000002] [-13.943:5.9992999999999999] [-3.1438000000000001:790.49000000000001] [-24.597999999999999:2.3576999999999999] [-12.343999999999999:2.2684000000000002] [-5.8395000000000001:2.3496999999999999] [-2.4369000000000001:5.0707000000000004] [-36.255000000000003:2.3260999999999998] [-6.4476000000000004:4.149] [-1.5838000000000001:3852.3000000000002] [-1.8496999999999999:3422] [-4.2514000000000003:863.84000000000003] [-1.9863999999999999:421.92000000000002] [-1.5651999999999999:62.469000000000001] [-2.2523:10.808] [-5.1196999999999999:1112.9000000000001] [-9.8315999999999999:6.1115000000000004] [-17.02:6.6920999999999999] [-2.1613000000000002:452.5] [-77.036000000000001:2.3529] [-52.518000000000001:2.7294999999999998] [-42.576000000000001:2.8957000000000002] [-3.1827999999999999:66.039000000000001] [-115.17:2.5270000000000001] [-13.536:12.039999999999999] [-2.8328000000000002:3464.5999999999999] [-2.9861:580.38999999999999] [-5.0598000000000001:645.52999999999997] [-2.3774000000000002:200.19] [-1.6398999999999999:443.25] [-2.5066999999999999:18.048999999999999] [-5.9250999999999996:633.14999999999998] [-13.356:7.1807999999999996] [-16.809000000000001:6.8170000000000002] [-2.3338999999999999:214.34999999999999] [-47.689999999999998:2.6762999999999999] [-35.771000000000001:3.1063000000000001] [-28.649000000000001:3.3538999999999999] [-4.1893000000000002:103.04000000000001] [-71.584000000000003:2.7955999999999999] [-15.381:24.893000000000001] [-2.7978999999999998:4609.6000000000004] [-3.0337000000000001:960.26999999999998] [-5.8018000000000001:610.57000000000005] [-2.5670999999999999:123.55] [-1.7574000000000001:99.587000000000003] [-2.4093:17.073] [-7.1430999999999996:579.72000000000003] [-9.4887999999999995:7.5206] [-16.375:5.8986999999999998] [-2.5964:115.25] [-39.555999999999997:2.8788] [-27.710999999999999:3.3039999999999998] [-22.041:3.3523999999999998] [-4.0065999999999997:53.292000000000002] [-58.887999999999998:2.8765999999999998] [-13.529:14.847] [-2.4163999999999999:5167.8999999999996] [-2.6128999999999998:2187.4000000000001] [0:1] [0:1] [0:1] [0:1] [0:1] [0:1] [0:1] [0:1] [-3:4] [-3:4] [-3:0.90000000000000002] [-3:10] [1:3] [-3:1.8] [-3:0.75] [-1:1] [0.20000000000000001:2]
tree_sizes=2605 2722 2722 2729 2716 2721 2725 2702 2695 2716 2729 2729 2715 2727 2729 2731

Tree=0
num_leaves=31
num_cat=0
split_feature=75 48 24 12 43 22 96 94 5 34 71 18 40 125 7 17 60 52 13 61 52 43 89 60 55 65 10 126 39 2
split_gain=4655.39 2567.76 2655.63 3920.12 2489.41 2283.86 1404.72 1306.33 1301.25 1220.35 1347.61 1483.06 1310.78 1197.35 1131.14 1002.85 1124.75 972.832 956.366 863.661 790.111 751.97 729.584 1194.67 652.212 663.929 504.49 489.092 531.373 457.619
threshold=-7.6965499999999993 -0.65157999999999994 -0.29746499999999992 1.2065000000000003 0.15333500000000003 -1.7230999999999999 6.5310000000000006 1.3714500000000001 -3.1280499999999996 1.4608500000000002 0.9173650000000001 -1.2918999999999998 2.1297000000000001 2.2500000000000004 1.2597000000000003 -0.77145999999999992 -0.54758499999999988 -1.7042999999999997 -3.6518999999999995 1.8550000000000002 -0.8430249999999998 -0.20764999999999997 0.18377500000000005 0.26520500000000008 -2.6978499999999994 1.2390500000000002 0.90270000000000017 0.70000000000000007 0.40956500000000007 -0.53604999999999992
decision_type=2 2 2 2 2 2 2 2 2 2 2 2 2 2 2 2 2 2 2 2 2 2 2 2 2 2 2 2 2 2
left_child=7 2 3 4 5 -2 8 -1 -3 10 17 -12 -11 14 -9 -4 -17 -10 -6 24 -18 -13 -14 -24 -19 26 -26 28 -20 -27
right_child=1 6 15 -5 18 -7 -8 13 9 12 11 21 22 -15 -16 16 20 19 27 -21 -22 -23 23 -25 25 29 -28 -29 -30 -31
leaf_value=16.078863642688887 16.73886364619263 16.200628350102367 16.215786722043227 16.898863648447122 16.278863644777712 16.13053030923404 16.304081035595342 16.872196980162613 16.035530311152563 16.393863641797477 16.309234014865925 16.018863643293802 15.774974754340757 16.192196976018671 16.396928160151472 15.669816027125302 16.263863644274796 15.917435069732948 15.62147234114174 16.034101734687756 15.877325178208675 15.638863644533947 15.81505411546274 16.348387456264394 15.495786724378698 15.976958879726853 15.735833342452391 16.075227275135163 15.973863642710175 15.681720784077202
leaf_weight=35 27 34 26 20 20 36 23 21 30 20 27 30 36 30 31 42 20 28 23 21 39 23 21 21 65 21 33 22 20 35
leaf_count=35 27 34 26 20 20 36 23 21 30 20 27 30 36 30 31 42 20 28 23 21 39 23 21 21 65 21 33 22 20 35
internal_value=16.0409 15.9959 16.1114 16.2418 16.1531 16.3912 15.9231 16.3346 15.9034 15.8788 15.8306 16.0076 16.0327 16.4437 16.5889 15.9389 15.8676 15.7698 15.9765 15.7305 16.0084 15.854 15.9401 16.0817 15.6955 15.6551 15.5766 15.8835 15.7854 15.7924
internal_weight=0 763 295 168 148 63 468 117 445 411 313 80 98 82 52 127 101 233 85 203 59 53 78 42 182 154 98 65 43 56
internal_count=880 763 295 168 148 63 468 117 445 411 313 80 98 82 52 127 101 233 85 203 59 53 78 42 182 154 98 65 43 56
is_linear=0
shrinkage=1


Tree=1
num_leaves=31
num_cat=0
split_feature=75 48 8 42 96 21 94 116 92 98 71 78 24 36 100 36 125 7 37 88 51 7 92 92 77 29 11 3 15 99
split_gain=4201.49 2331.51 2255.98 2045.65 1694.1 1660.76 1178.96 1111.91 1128.18 1437.64 1401.62 1345.96 1288.38 1177.95 1283.26 1120.58 1080.61 1028.25 2012.88 1155.19 2060.27 1020.85 742.54 702.377 547.429 543.57 430.106 414.141 477.902 404.505
threshold=-7.6965499999999993 -0.86893999999999993 1.6574500000000001 -0.61548499999999995 6.5310000000000006 -0.7313599999999999 1.3714500000000001 1.0000000180025095e-35 -0.68838499999999991 4.9116000000000009 0.78034500000000018 -2.3814499999999996 0.26216000000000006 0.22678000000000001 -0.81946499999999989 -1.5614999999999999 2.2500000000000004 -1.1994999999999998 -0.97249499999999989 -0.74044499999999991 -0.75935999999999992 1.2597000000000003 -0.98027999999999993 0.70114500000000002 -0.24845499999999995 0.69832000000000016 1.5474000000000003 -0.96999499999999983 -0.58963499999999991 -1.4994499999999997
decision_type=2 2 2 2 2 2 2 2 2 2 2 2 2 2 2 2 2 2 2 2 2 2 2 2 2 2 2 2 2 2
left_child=6 2 3 5 7 -2 -1 8 10 11 27 25 13 15 -15 -13 21 18 -5 20 -19 -8 -9 -14 -17 -10 -21 -3 -29 -24
right_child=1 4 -4 17 -6 -7 16 22 9 -11 -12 12 23 14 -16 24 -18 19 -20 26 -22 -23 29 -25 -26 -27 -28 28 -30 -31
leaf_value=0.036056810755814822 0.47458608756558257 -0.44261707381622212 0.56375265013087883 -0.20079126998620189 0.30472348866363369 0.013155100437311027 0.78972350614411502 -0.037505096715429558 -0.14866818649073441 0.29668866455554965 0.051032430029197322 0.24863620818592611 -0.0064005348831415176 -0.045055254269391304 0.42694854496253865 -0.3521496027349853 0.14372348288695019 -0.25861057749596139 0.4607090784155804 -0.40216777169292695 0.37507036578558062 0.33821810431057409 -0.45048948085826379 -0.36422374560497706 -0.01326130201870745 -0.49274848591197618 -0.12436891550367529 -0.41561468891976844 -0.11390460726405893 -0.18981641797687521
leaf_weight=35 39 37 22 23 24 39 21 23 24 30 37 20 24 24 36 26 30 29 23 38 23 31 46 32 22 22 22 21 35 22
leaf_count=35 39 37 22 23 24 39 21 23 24 30 37 20 24 24 36 26 30 29 23 38 23 31 46 32 22 22 22 21 35 22
internal_value=0 -0.042782 0.0795 0.0343578 -0.105255 0.243871 0.278997 -0.125711 -0.0889895 -0.0288566 -0.209255 -0.071319 -0.0108417 0.0766712 0.238147 -0.0658076 0.382691 -0.0690726 0.129959 -0.150818 0.0216714 0.520557 -0.283089 -0.210871 -0.196826 -0.313228 -0.300308 -0.312811 -0.227046 -0.366154
internal_weight=0 763 258 236 505 78 117 481 390 260 130 230 184 128 60 68 82 158 46 112 52 52 91 56 48 46 60 93 56 68
internal_count=880 763 258 236 505 78 117 481 390 260 130 230 184 128 60 68 82 158 46 112 52 52 91 56 48 46 60 93 56 68
is_linear=0
shrinkage=0.05


Tree=2
num_leaves=31
num_cat=0
split_feature=75 48 24 12 43 22 96 5 101 125 61 34 71 34 40 61 42 55 75 41 73 113 96 105 39 87 58 102 80 74
split_gain=3791.84 2108.5 2309.77 3435.46 2089.89 1985 1127.79 1135.82 1099.52 1227.31 1279.39 1087.97 1179.01 1579.76 1167.85 921.37 1359.5 1032.51 842.744 1438.14 799.527 790.163 1017.59 784.924 641.549 737.178 563.392 551.427 519.531 389.248
threshold=-7.6965499999999993 -0.65157999999999994 -0.29746499999999992 1.2065000000000003 0.15333500000000003 -1.7230999999999999 6.5310000000000006 -3.1280499999999996 0.58487000000000011 1.7500000000000002 -8.0943499999999986 1.4608500000000002 0.31790000000000002 -1.5732999999999997 2.1297000000000001 -0.93076999999999988 -0.55982999999999994 -1.3335999999999999 -0.97737999999999992 0.27266500000000005 1.2541000000000002 1.0000000180025095e-35 -0.40932999999999992 0.4916350000000001 -0.44343999999999995 -1.5054999999999998 1.3888500000000004 -0.2549249999999999 -0.51264999999999994 -0.0092618999999999983
decision_type=2 2 2 2 2 2 2 2 2 2 2 2 2 2 2 2 2 2 2 2 2 2 2 2 2 2 2 2 2 2
left_child=8 2 3 4 5 -2 7 -3 9 -1 -11 12 21 -14 -13 -4 -17 -18 -15 -20 27 24 -23 -16 25 -9 -21 -6 -19 -26
right_child=1 6 15 -5 20 -7 -8 11 -10 10 -12 14 13 18 23 16 17 28 19 26 -22 22 -24 -25 29 -27 -28 -29 -30 -31
leaf_value=0.57952774903353521 0.64489442717145995 0.15345262402997298 -0.36230285614012531 0.80076048105955133 -0.024236331159068692 0.07775836018845439 0.2347771591466406 0.02451819373028619 -0.053467506712133239 -0.020624014542948817 0.43740672337512176 0.33899486319161953 0.26529752992921407 -0.4392396049066023 -0.22156431914671609 0.30928071167158044 0.12186911111628568 -0.06977379637814704 0.19636247195303441 -0.40528967181841535 0.15961181340473041 0.040496084537055048 -0.3889120165597309 0.10089665213599802 -0.24692280899201122 -0.35916016488786667 -0.055161222517490387 -0.33647304154359381 -0.39403153337538244 -0.49873900617423816
leaf_weight=34 27 34 26 20 31 36 23 21 22 31 30 20 27 22 46 23 27 21 28 27 28 37 22 32 21 31 20 26 30 57
leaf_count=34 27 34 26 20 31 36 23 21 22 31 30 20 27 22 46 23 27 21 28 27 28 37 22 32 21 31 20 26 30 57
internal_value=0 -0.0406429 0.0640475 0.185691 0.102574 0.320817 -0.106634 -0.12428 0.265047 0.338808 0.204637 -0.147255 -0.192775 -0.0729688 -0.00187111 -0.0968673 -0.0285374 -0.12815 -0.167125 -0.0873053 -0.0591823 -0.271377 -0.119622 -0.0892726 -0.340251 -0.204213 -0.256299 -0.16666 -0.260514 -0.430942
internal_weight=0 763 295 168 148 63 468 445 117 95 61 411 313 124 98 127 101 78 97 75 85 189 59 78 130 52 47 57 51 78
internal_count=880 763 295 168 148 63 468 445 117 95 61 411 313 124 98 127 101 78 97 75 85 189 59 78 130 52 47 57 51 78
is_linear=0
shrinkage=0.05


Tree=3
num_leaves=31
num_cat=0
split_feature=74 21 86 3 81 53 52 39 28 52 7 101 88 63 1 129 104 95 29 76 108 84 6 107 124 117 128 56 53 50
split_gain=3044.96 1920.28 2577.5 1450.44 1827.28 1724.63 1636.05 1285.88 1426.18 1284.81 1190.41 1185.98 1149.19 1126.36 1103.91 1084.19 990.008 944.339 921.306 1136.49 1555.95 885.705 844.427 1263.27 852.288 996.162 698.224 810.743 404.703 580.083
threshold=-5.9754999999999994 -0.11653999999999999 -3.2773999999999996 0.32999000000000006 -0.0036561999999999996 -1.9696999999999998 -1.4979499999999997 -1.0229499999999998 -0.92564499999999994 2.1545500000000004 -2.0878499999999995 0.53386500000000014 0.30372000000000005 -0.33337499999999992 -0.11921 1.7000000000000004 -0.52002999999999988 -0.49029499999999993 -3.9344499999999996 0.43409500000000006 2.6976000000000004 0.36886000000000002 0.56584000000000012 1.3974000000000002 1.0000000180025095e-35 1.0000000180025095e-35 -0.34999999999999992 -0.41667499999999996 -1.1083999999999998 -1.6496999999999999
decision_type=2 2 2 2 2 2 2 2 2 2 2 2 2 2 2 2 2 2 2 2 2 2 2 2 2 2 2 2 2 2
left_child=11 2 -2 4 13 -5 -6 15 -9 10 -3 18 14 16 -11 -7 -4 -8 19 -1 -21 -10 26 24 25 -24 -12 -28 29 -15
right_child=1 9 3 5 6 7 17 8 21 12 22 -13 -14 28 -16 -17 -18 -19 -20 20 -22 -23 23 -25 -26 -27 27 -29 -30 -31
leaf_value=0.49078079462051394 0.48033689002195995 0.098516989104888028 -0.21234679944240131 0.452847830929483 0.49412088915705682 0.47215151119232179 0.1260615314822644 0.21380437310656597 -0.37697768568992618 0.47424884772127762 -0.53520206257149028 -0.080808681488037104 -0.21569677501916887 -0.34621365828947592 -0.0091062735904146128 -0.0035223766513492755 0.24338778955015272 -0.27986099532117015 0.51582601701512054 0.32729813735932112 -0.26203237771987914 0.004171024759610494 0.31393046820605242 -0.41903877699816672 -0.20390870242722725 -0.1452295360820634 -0.047808568947242974 -0.35823682948047747 -0.43652003782136106 -0.0049571189284324654
leaf_weight=22 30 34 26 30 20 25 38 29 35 21 27 25 25 33 27 23 22 23 34 24 21 27 27 27 38 21 33 58 35 20
leaf_count=22 30 34 26 30 20 25 38 29 35 21 27 25 25 33 27 23 22 23 34 24 21 27 27 27 38 21 33 58 35 20
internal_value=0 -0.0380206 0.0339041 -0.000792729 -0.0863269 0.109035 0.101678 0.0348309 -0.0756184 -0.126543 -0.177708 0.22752 0.0591909 -0.198301 0.202362 0.244224 -0.00346845 -0.0269912 0.303839 0.196263 0.0522772 -0.210994 -0.218364 -0.120675 -0.0270027 0.113048 -0.311914 -0.245664 -0.304573 -0.217438
internal_weight=0 754 416 386 217 169 81 139 91 338 265 126 73 136 48 48 48 61 101 67 45 62 231 113 86 48 118 91 88 53
internal_count=880 754 416 386 217 169 81 139 91 338 265 126 73 136 48 48 48 61 101 67 45 62 231 113 86 48 118 91 88 53
is_linear=0
shrinkage=0.05


Tree=4
num_leaves=31
num_cat=0
split_feature=75 48 8 42 111 96 110 68 98 76 29 38 5 0 7 17 55 45 22 33 88 51 84 61 19 39 82 16 39 44
split_gain=3124.43 1818.8 1949.64 1646.84 1529.4 1362.26 1289.94 1134.71 1343.76 949.398 1209.61 1025.03 913.087 1063.75 1254.61 1575.15 1307.75 1116.93 961.711 944.658 809.147 1095.9 724.301 1258.53 652.997 592.276 525.58 614.172 468.411 163.086
threshold=-7.6965499999999993 -0.86893999999999993 1.6574500000000001 -0.61548499999999995 1.0903000000000003 6.5310000000000006 -1.2344999999999999 -1.1304999999999998 -0.51495999999999986 -0.78325499999999992 -3.3802999999999996 -1.4375999999999998 -3.1280499999999996 -1.2075999999999998 -1.6623499999999998 -0.75282999999999989 2.8149000000000006 1.4508000000000003 -1.7067499999999998 0.13181000000000001 -1.0040999999999998 -1.2036499999999999 0.58482500000000004 0.62943500000000008 -1.3124499999999999 1.0039000000000002 -1.0232499999999998 -0.19923999999999997 -1.1511499999999997 1.2579000000000002
decision_type=2 2 2 2 2 2 2 2 2 2 2 2 2 2 2 2 2 2 2 2 2 2 2 2 2 2 2 2 2 2
left_child=9 2 3 4 6 12 -2 8 -5 -1 11 -11 -3 17 15 -15 18 24 -16 26 21 -9 28 -24 -14 -22 27 -20 -21 -28
right_child=1 5 -4 7 -6 -7 -8 20 -10 10 -12 -13 13 14 16 -17 -18 -19 19 22 25 -23 23 -25 -26 -27 29 -29 -30 -31
leaf_value=-0.047346526254778323 0.70831677138805393 0.12150232555010382 0.52128553007814016 -0.13662932994573013 -0.034737306438824715 0.27556832991540431 0.16461525211731595 -0.19248117830363976 0.3929336599111557 -0.037003996329648153 0.57957251894062967 0.36396933109373664 -0.4790941162312285 -0.16092821806669236 0.076606155265318721 0.44578982125157895 0.22092874443531035 0.049781258404254916 -0.37581248037193138 -0.079877034857355311 -0.39601794057770778 0.28224641826003788 -0.19043985917750333 0.24417728935518573 -0.18626442232634874 -0.065148543885775984 -0.48550578086606921 -0.024208023481898839 -0.35531470473065524 -0.31570166544272354
leaf_weight=23 20 39 22 23 34 24 24 31 25 28 29 37 47 20 38 23 25 21 23 29 38 20 36 31 32 21 31 27 33 26
leaf_count=23 20 39 22 23 34 24 24 31 25 28 29 37 47 20 38 23 25 21 23 29 38 20 36 31 32 21 31 27 33 26
internal_value=0 -0.036893 0.07111 0.0291445 0.217129 -0.0920708 0.411752 -0.0636577 0.139185 0.240593 0.311046 0.191242 -0.110415 -0.130878 -0.0889343 0.163595 -0.125251 -0.274325 -0.156837 -0.194425 -0.152171 -0.00631349 -0.103319 0.0106517 -0.36048 -0.278251 -0.304264 -0.185946 -0.226481 -0.408051
internal_weight=0 763 258 236 78 505 44 158 48 117 94 65 481 442 342 43 299 100 274 236 110 51 129 67 79 59 107 50 62 57
internal_count=880 763 258 236 78 505 44 158 48 117 94 65 481 442 342 43 299 100 274 236 110 51 129 67 79 59 107 50 62 57
is_linear=0
shrinkage=0.05


Tree=5
num_leaves=31
num_cat=0
split_feature=75 21 86 27 54 104 22 23 61 92 108 23 60 5 45 42 33 12 94 28 46 128 35 128 128 50 2 97 53 111
split_gain=2819.79 1716.32 2268.69 1258.33 1415.95 1802.58 2296.24 1483.87 1979.39 1404.12 1208.68 1196.33 1012.35 1003.79 1677.1 1154.25 1149.98 1033.82 954.169 946.265 937.756 1681.34 875.769 615.798 614.345 570.188 807.32 549.199 462.541 220.111
threshold=-7.6965499999999993 -0.11653999999999999 -3.2773999999999996 1.5290000000000001 0.33062000000000008 1.5145500000000001 -2.1349999999999993 -0.11225999999999998 -1.1482999999999997 -0.82775999999999994 -0.97074999999999989 0.47654500000000005 -0.37081999999999993 -0.95192999999999983 1.4146500000000002 0.33733000000000007 0.062359500000000005 -0.10105249999999999 1.3714500000000001 -0.19198999999999997 1.3940000000000003 0.45000000000000007 -1.5803499999999997 0.25000000000000006 0.25000000000000006 1.1299000000000003 0.80018000000000011 -1.4679999999999997 1.8339500000000002 -0.95525499999999985
decision_type=2 2 2 2 2 2 2 2 2 2 2 2 2 2 2 2 2 2 2 2 2 2 2 2 2 2 2 2 2 2
left_child=18 2 -2 4 5 7 -7 8 -4 -10 29 28 -9 14 15 17 27 -3 -1 22 25 -22 -20 -14 -13 26 -18 -15 -12 -6
right_child=1 13 3 -5 10 6 -8 12 9 -11 11 24 23 16 -16 -17 20 -19 19 -21 21 -23 -24 -25 -26 -27 -28 -29 -30 -31
leaf_value=0.010007493495941162 0.4514297190308571 -0.18812385953962804 -0.14448956310749056 -0.37624056566329234 -0.20347416585399991 -0.057934157337461205 0.61088498722423212 0.095445614515079394 0.066134009273214778 0.59585497209738036 0.041662056191728032 -0.34651354505465581 -0.116445692769579 -0.084220099720087926 0.42422759607434274 -0.30302835954087121 -0.25027372343786836 0.29417241768538954 0.35939929644976343 0.52366316151969572 0.34929520200405806 -0.22765634254268977 -0.073803665637969973 -0.45048925449902361 0.012489991736682979 -0.32653519942572246 0.14176259582551817 -0.36748697300768129 0.35421885222196581 -0.42736888346464741
leaf_weight=35 30 20 30 21 21 21 33 36 22 29 29 26 37 22 20 35 29 25 28 34 28 23 20 22 22 38 24 77 20 23
leaf_count=35 30 20 30 21 21 21 33 36 22 29 29 26 37 22 20 35 29 25 28 34 28 23 20 22 22 38 24 77 20 23
internal_value=0 -0.0350484 0.0323622 0.000290667 0.0216038 0.0980845 0.350789 0.0205502 0.177778 0.367348 -0.103152 -0.00455666 -0.113507 -0.118471 0.0147039 -0.087677 -0.173731 0.0798185 0.228563 0.321849 -0.0825338 0.0891014 0.178898 -0.241004 -0.18197 -0.178725 -0.0727478 -0.304539 0.169236 -0.32051
internal_weight=0 763 422 392 371 230 54 176 81 51 141 97 95 341 100 80 241 45 117 82 142 51 48 59 48 91 53 99 49 44
internal_count=880 763 422 392 371 230 54 176 81 51 141 97 95 341 100 80 241 45 117 82 142 51 48 59 48 91 53 99 49 44
is_linear=0
shrinkage=0.05


Tree=6
num_leaves=31
num_cat=0
split_feature=75 48 8 1 43 39 81 96 24 116 92 98 32 76 71 12 66 71 94 125 7 103 71 74 92 48 21 10 3 15
split_gain=2544.86 1570.17 1702.1 1579.82 1365.53 1247.15 1338.48 1214.33 1125.75 894.562 895.602 1130.02 1097.79 1277.69 1017.03 924.993 881.318 1011.08 861.137 875.477 874.027 813.516 729.808 613.924 582.625 452.392 395.629 342.747 329.29 383.573
threshold=-7.6965499999999993 -0.86893999999999993 1.6574500000000001 -1.9532499999999999 1.6810500000000002 -0.8959649999999999 0.20392000000000002 6.5310000000000006 -1.5714999999999997 1.0000000180025095e-35 -0.68838499999999991 4.9116000000000009 1.2570000000000003 -0.98370999999999997 0.78034500000000018 0.89041500000000007 -1.1073499999999996 -0.22184499999999999 1.3714500000000001 2.2500000000000004 1.2597000000000003 0.47028500000000006 -3.0542999999999996 -2.0403499999999997 -0.98027999999999993 0.39149000000000006 -0.62494499999999986 0.90270000000000017 -0.96999499999999983 -0.58963499999999991
decision_type=2 2 2 2 2 2 2 2 2 2 2 2 2 2 2 2 2 2 2 2 2 2 2 2 2 2 2 2 2 2
left_child=18 2 3 -2 5 6 -5 9 -7 10 14 12 13 -12 28 21 -10 -18 -1 20 -20 -14 -15 -24 -11 26 -25 -26 -3 -30
right_child=1 7 -4 4 -6 8 -8 -9 16 24 11 -13 15 22 -16 -17 17 -19 19 -21 -22 -23 23 25 27 -27 -28 -29 29 -31
leaf_value=0.0095071229764393406 0.38043342473517572 -0.38005833738559003 0.48768098354339601 0.38355159216966389 -0.41240452593192461 0.22769129966887147 -0.11156683267936821 0.26254014968872069 -0.29985946182240836 -0.025506205403286481 0.2298469949336279 0.27325441976388298 0.19283858075737956 0.052305706024169923 0.045620277846181723 0.30000566460869532 -0.28860216468572614 0.15704880801694734 0.67890806354227529 0.090663806895414992 0.26113187343843525 -0.2313220962094 -0.48312282779000021 0.070595807284116741 -0.40221560108800269 -0.36384424132108695 -0.20414379341037653 -0.16940277051925659 -0.35677180943034947 -0.086473020719630381
leaf_weight=35 28 37 22 39 20 26 21 24 47 23 21 30 20 25 37 33 20 35 21 30 31 26 22 20 43 25 38 25 21 35
leaf_count=35 28 37 22 39 20 26 21 24 47 23 21 30 20 25 37 33 20 35 21 30 31 26 22 20 43 25 38 25 21 35
internal_value=0 -0.033296 0.0670538 0.0278428 -0.0196213 0.0221641 0.21026 -0.0845638 -0.0660059 -0.101883 -0.0689453 -0.0153681 -0.0530145 -0.132026 -0.1761 0.0980074 -0.14087 -0.00500609 0.217135 0.305757 0.429849 -0.0469044 -0.190482 -0.248289 -0.243044 -0.186044 -0.109406 -0.316623 -0.264311 -0.187835
internal_weight=0 763 258 236 208 188 60 505 128 481 390 260 230 151 130 79 102 55 117 82 52 46 130 105 91 83 58 68 93 56
internal_count=880 763 258 236 208 188 60 505 128 481 390 260 230 151 130 79 102 55 117 82 52 46 130 105 91 83 58 68 93 56
is_linear=0
shrinkage=0.05


Tree=7
num_leaves=31
num_cat=0
split_feature=75 21 86 3 25 35 21 55 18 110 25 23 75 97 104 26 57 35 20 86 35 35 103 20 28 57 65 38 102 55
split_gain=2296.74 1477.62 1833.68 1373.5 1433.08 1659.48 1520.28 1209.56 1349.83 1077.3 1314.74 1149.73 907.757 1326.34 885.816 853.637 831.014 1732.96 1427.68 809.268 890.66 1154.88 931.831 871.37 1017.32 765.749 707.844 570.222 479.99 443.402
threshold=-7.6965499999999993 -0.72466999999999981 -3.0507999999999993 0.32999000000000006 0.60758500000000015 -1.5764999999999996 -1.6331999999999998 -1.3429999999999997 -1.1875999999999998 -1.8978499999999998 -0.15030499999999997 -0.34501499999999991 0.72633500000000006 -0.57481499999999996 -1.18685 -2.4728999999999997 -1.1049999999999998 -1.4019499999999998 1.9972000000000001 1.5483500000000003 -0.22903499999999996 1.1967500000000004 0.19206500000000001 -0.41516499999999995 0.20212000000000002 0.16609500000000002 -0.021946499999999997 0.53713000000000011 -0.80892499999999989 1.2381500000000003
decision_type=2 2 2 2 2 2 2 2 2 2 2 2 2 2 2 2 2 2 2 2 2 2 2 2 2 2 2 2 2 2
left_child=16 2 -2 4 5 -4 -7 8 -3 -5 15 -12 -6 -14 -10 -11 17 18 -1 20 22 -22 29 -24 -25 -16 -13 -21 -23 -9
right_child=1 7 3 9 12 6 -8 19 14 10 11 26 13 -15 25 -17 -18 -19 -20 27 21 28 23 24 -26 -27 -28 -29 -30 -31
leaf_value=0.50100705529962264 0.42516570851720614 0.42596172034740454 -0.18456775398879519 0.43458592258393769 -0.44807371060053508 0.56992067410832359 0.025716435389988353 -0.20864219114465535 0.23173657140948556 0.094059598147869114 0.48184276384611924 -0.1483379121700471 -0.31017679186428299 0.17529791900888086 -0.31306274304787318 -0.34823573233249289 0.49118818505888895 -0.19564850683565493 0.046085035275010504 -0.45245703216642141 0.25100807630840472 -0.29293361902236942 -0.29433758578918601 -0.16257283516742033 0.25273012439409892 0.065853993097941085 0.25749932790086388 -0.13375518923997881 -0.0035356928839495312 -0.4518282758778539
leaf_weight=35 29 20 41 24 30 21 33 53 22 20 24 22 34 24 30 24 21 27 34 32 34 23 27 29 30 24 21 25 38 29
leaf_count=35 29 20 41 24 30 21 33 53 22 20 24 22 34 24 30 24 21 27 34 32 34 23 27 29 30 24 21 25 38 29
internal_value=0 -0.0316312 0.0445542 0.00984434 -0.0794064 0.05526 0.237351 -0.09518 0.0604797 0.130829 0.0651515 0.204601 -0.224785 -0.109291 -0.0356998 -0.147192 0.206278 0.143954 0.276843 -0.141878 -0.104861 0.0174994 -0.174053 -0.0590677 0.0485982 -0.144655 0.0498617 -0.312676 -0.112653 -0.294647
internal_weight=0 763 347 318 183 95 54 416 96 135 111 67 88 58 76 44 117 96 69 320 263 95 168 86 59 54 43 57 61 82
internal_count=880 763 347 318 183 95 54 416 96 135 111 67 88 58 76 44 117 96 69 320 263 95 168 86 59 54 43 57 61 82
is_linear=0
shrinkage=0.05


Tree=8
num_leaves=31
num_cat=0
split_feature=42 94 111 63 23 41 71 103 8 48 97 44 92 94 75 54 52 121 93 100 78 49 1 27 11 0 5 9 100 6
split_gain=2126.91 1626.18 1960.54 1832.83 1573.51 1435.68 1049.98 1915.26 1180.51 1529.99 990.765 987.213 1006.97 858.429 767.564 942.431 1068.82 799.411 759.516 635.774 622.324 593.309 661.915 698.329 569.091 563.119 946.887 477.021 447.762 415.021
threshold=-0.64662999999999993 1.3714500000000001 0.11944500000000001 -0.44117499999999993 4.1038000000000006 0.3755150000000001 1.0331500000000002 -0.6649449999999999 -0.66878499999999985 -0.55016999999999994 -0.59130499999999986 -0.33745999999999993 -1.4281999999999997 2.8101500000000006 -2.0161499999999997 -1.4650999999999998 -1.4979499999999997 1.5000000000000002 1.43415 -0.43919499999999995 -0.92206499999999991 4.1275000000000013 1.3507000000000002 0.79522500000000018 2.4439500000000005 -1.2816999999999998 1.7505500000000003 1.40005 -1.1189499999999997 0.48146500000000009
decision_type=2 2 2 2 2 2 2 2 2 2 2 2 2 2 2 2 2 2 2 2 2 2 2 2 2 2 2 2 2 2
left_child=1 2 3 -1 6 10 13 -8 -9 -10 25 12 -4 14 -2 16 -16 21 -18 -5 -19 22 24 -24 28 -3 -27 -22 -17 -13
right_child=4 5 11 19 -6 -7 7 8 9 -11 -12 29 -14 -15 15 17 18 20 -20 -21 27 -23 23 -25 -26 26 -28 -29 -30 -31
leaf_value=0.473753319978714 0.12312766031638996 0.021244312468029204 -0.26263464391231539 0.18787162289023401 0.3772191661037505 0.60018668929519858 -0.28088044608011842 -0.067087630489293268 0.61028960347175598 0.091965799289090294 -0.13428844267671758 -0.37123883383141626 0.17567922982730366 -0.38506366720906016 0.30266380012035371 -0.13723079606890679 -0.30873574072664439 0.17299459884608431 0.1116536509423029 -0.20163948881355198 -0.29198427366262136 -0.0017770618680984743 0.057934739848133181 -0.29092613848356103 -0.064961172001702455 0.51419368174768265 0.11671401210900011 0.045409601726569243 -0.40017502917962916 -0.087163925766944886
leaf_weight=35 37 21 20 20 20 23 32 34 24 35 22 36 38 27 26 20 22 28 21 22 22 31 32 26 21 31 29 20 85 20
leaf_count=35 37 21 20 20 20 23 32 34 24 35 22 36 38 27 26 20 22 28 21 22 22 31 32 26 21 31 29 20 85 20
internal_value=0 0.103592 0.0116124 0.206529 -0.0583282 0.243022 -0.0743704 0.0527728 0.167578 0.302809 0.163267 -0.120042 0.0245365 -0.112392 -0.0935627 -0.116211 0.0495913 -0.156353 -0.103429 -0.016158 -0.00959447 -0.204135 -0.238227 -0.0984512 -0.302569 0.244084 0.322079 -0.131321 -0.35009 -0.269784
internal_weight=0 317 191 77 563 126 543 125 93 59 103 114 58 418 391 354 69 285 43 42 70 215 184 58 126 81 60 42 105 56
internal_count=880 317 191 77 563 126 543 125 93 59 103 114 58 418 391 354 69 285 43 42 70 215 184 58 126 81 60 42 105 56
is_linear=0
shrinkage=0.05


Tree=9
num_leaves=31
num_cat=0
split_feature=75 21 68 43 14 5 39 81 81 57 52 52 48 62 39 88 1 7 5 97 20 85 8 6 107 23 75 128 56 57
split_gain=1927.57 1297.29 1362.86 1242.81 1351.88 1359.9 1447.67 1252.57 1102.61 1002.33 986.811 976.513 974.73 1078.43 986.773 953.616 887.103 840.251 770.049 1295.62 1154.7 699.692 713.944 637.912 1024.69 997.279 678.805 550.615 576.654 501.109
threshold=-7.6965499999999993 -0.11653999999999999 -2.0219499999999999 1.7546000000000002 -1.0938999999999999 -2.9208499999999993 -0.34091999999999995 0.43699000000000005 -1.5851499999999998 0.61949500000000013 0.90231500000000009 2.1545500000000004 -1.0306 -1.2195499999999997 -1.5146499999999998 0.30372000000000005 -0.13835499999999998 -2.0878499999999995 0.071403000000000008 -1.8238499999999997 1.3807000000000003 -0.63098999999999983 0.34687000000000007 0.56584000000000012 1.3974000000000002 -0.42338499999999996 -0.082587999999999981 -0.34999999999999992 -0.41667499999999996 -0.62391999999999992
decision_type=2 2 2 2 2 2 2 2 2 2 2 2 2 2 2 2 2 2 2 2 2 2 2 2 2 2 2 2 2 2
left_child=18 2 -2 4 10 8 12 21 -6 -9 -4 17 -7 -14 -15 16 -13 -3 19 -1 -20 22 29 27 25 -25 -27 -19 -29 -8
right_child=1 11 3 -5 5 6 7 9 -10 -11 -12 15 13 14 -16 -17 -18 23 20 -21 -22 -23 -24 24 -26 26 -28 28 -30 -31
leaf_value=0.26234453859237522 0.4127694941379807 0.086595414491260764 0.41867380190640691 -0.36585762898127239 0.4874927864126537 0.36080230064690116 -0.19417085194587708 -0.16219797730445862 -0.013617947555723646 0.32073738347916381 -0.014874451926776342 0.44536666311323647 0.32667729372069954 -0.21723959853454514 0.13645671867963038 -0.18979181009531021 0.0093696078385359476 -0.45820554362403021 0.49104275902112327 -0.27294070556759836 0.087723520142691483 -0.51225179314613345 -0.32818083546378396 -0.19653678784767789 -0.36270139703044185 -0.057080099934881383 0.3237314260303974 -0.044837372253338503 -0.29959456453035616 0.14161100223660469
leaf_weight=26 22 34 35 21 23 24 25 22 21 21 21 20 21 49 33 25 28 27 36 20 35 20 44 39 27 22 25 36 58 20
leaf_count=26 22 34 35 21 23 24 25 22 21 21 21 20 21 49 33 25 28 27 36 20 35 20 44 39 27 22 25 36 58 20
internal_value=0 -0.0289777 0.0296289 0.00855616 0.029302 -0.0100178 -0.0507602 -0.154868 0.248326 0.0736542 0.256093 -0.101506 0.073841 0.00697626 -0.0748984 0.0606149 0.191035 -0.145665 0.188974 0.0296118 0.292223 -0.245019 -0.184966 -0.179413 -0.0939854 -0.00962106 0.145479 -0.259192 -0.202028 -0.0449345
internal_weight=0 763 422 400 379 323 279 152 44 43 56 341 127 103 82 73 48 268 117 46 71 109 89 234 113 86 47 121 94 45
internal_count=880 763 422 400 379 323 279 152 44 43 56 341 127 103 82 73 48 268 117 46 71 109 89 234 113 86 47 121 94 45
is_linear=0
shrinkage=0.05


Tree=10
num_leaves=31
num_cat=0
split_feature=24 44 62 52 39 61 58 103 40 76 76 113 51 72 51 12 5 21 55 57 72 53 73 35 16 74 13 69 81 14
split_gain=1807.59 1249.51 1700.7 1547.59 1279.52 1261.35 1410.6 1235.39 1190.1 1122.79 959.414 1637.89 948.465 923.23 835.593 739.593 708.464 1194.15 881.3 829.575 686.955 1072.63 628.591 623.086 543.959 494.816 475.151 546.297 388.197 484.498
threshold=0.24370000000000003 -1.0179999999999998 -1.9021999999999999 5.3581500000000011 0.87351500000000015 -7.064849999999999 -1.0052099999999997 -1.9605999999999997 -0.80920999999999987 0.43409500000000006 0.52687500000000009 1.0000000180025095e-35 -0.93144999999999989 0.09139700000000002 -0.80773499999999987 -1.3454999999999997 -1.3048999999999997 0.67419000000000007 0.48495000000000005 -0.27789499999999995 -1.2118999999999998 -0.30970999999999993 -3.7417999999999996 -0.66507999999999989 0.98231500000000005 0.31345500000000004 1.4699000000000002 -0.43754499999999996 1.5772000000000002 -0.29123499999999997
decision_type=2 2 2 2 2 2 2 2 2 2 2 2 2 2 2 2 2 2 2 2 2 2 2 2 2 2 2 2 2 2
left_child=1 4 -3 10 5 -1 22 -8 15 -5 12 20 26 23 -13 -6 17 -2 28 -20 21 -12 -7 -14 -22 -23 27 -4 29 -18
right_child=16 2 3 9 8 6 7 -9 -10 -11 11 14 13 -15 -16 -17 18 -19 19 -21 24 25 -24 -25 -26 -27 -28 -29 -30 -31
leaf_value=0.53579030390138982 -0.17508543155811451 0.38227991289817376 -0.43602308922035748 0.48259434052135641 -0.37692460599152944 0.17895843183452434 0.062816966787256581 0.51023117494252002 0.21208377156938829 -0.0062824866424004248 0.28654642601807917 0.043081370588730683 0.061938085854053498 0.25606246400963179 0.46968975837032007 -6.4827874302864083e-05 -0.27174499898024329 0.31518903813203392 0.22365837449377235 -0.13372158540352699 -0.37899591608179944 0.034790635886399641 -0.16607963447317933 -0.3196540918039239 -0.048099252063295121 -0.29689225010277537 -0.097507846508832541 -0.14906585569734929 -0.39926446278889977 0.017073208652436733
leaf_weight=27 27 26 43 23 23 22 27 36 35 24 24 22 20 22 24 30 53 23 22 62 27 23 33 23 23 22 34 27 33 20
leaf_count=27 27 26 43 23 23 22 27 36 35 24 24 22 20 22 24 30 53 23 22 62 27 23 33 23 23 22 34 27 33 20
internal_value=0 0.0438828 -0.00897773 -0.0356777 0.136218 0.227498 0.156956 0.318482 -0.014185 0.232955 -0.0734794 0.0122839 -0.157213 -0.0073832 0.26566 -0.163608 -0.117021 0.0504408 -0.161089 -0.0401221 -0.0856597 0.0166039 -0.0280644 -0.142169 -0.226783 -0.127365 -0.250856 -0.32534 -0.25695 -0.192617
internal_weight=0 640 407 381 233 145 118 63 88 47 334 165 169 65 46 53 240 50 190 84 119 69 55 43 50 45 104 70 106 73
internal_count=880 640 407 381 233 145 118 63 88 47 334 165 169 65 46 53 240 50 190 84 119 69 55 43 50 45 104 70 106 73
is_linear=0
shrinkage=0.05


Tree=11
num_leaves=31
num_cat=0
split_feature=21 42 2 41 12 4 55 128 50 54 32 65 21 7 76 42 25 77 15 85 52 86 87 85 107 52 44 2 9 57
split_gain=1643.41 1171.01 1296.71 1287.64 1279.09 1276.38 1103.95 990.36 1255.69 1012.96 1060.59 864.484 820.17 1147.78 1895.34 1037.72 793.909 790.485 787.834 1753.77 991.23 813.101 645.105 641.431 550.097 528.307 472.138 440.948 333.1 313.833
threshold=-0.10012449999999999 -0.64662999999999993 4.224800000000001 0.88002000000000014 1.6229000000000002 -2.2456999999999998 1.2621500000000003 -0.74999999999999989 0.18904500000000005 -2.2879499999999995 -0.38149499999999997 -0.93250999999999984 0.39630000000000004 -1.6623499999999998 -0.43851999999999997 0.28386000000000006 0.80478500000000019 -3.8933999999999993 -1.3121499999999997 -0.60515999999999992 -1.8063499999999999 1.8165000000000002 -0.63436499999999996 -0.5845849999999998 0.63803500000000002 2.1545500000000004 -0.51754499999999981 1.3682500000000002 0.10171550000000001 1.0000000180025095e-35
decision_type=2 2 2 2 2 2 2 2 2 2 2 2 2 2 2 2 2 2 2 2 2 2 2 2 2 2 2 2 2 2
left_child=1 2 3 6 5 -3 7 -1 9 -9 -11 -6 24 14 -14 16 17 -15 19 -7 -20 27 -12 -19 -2 26 -17 28 29 -22
right_child=12 4 -4 -5 11 18 -8 8 -10 10 22 -13 13 15 -16 25 -18 23 20 -21 21 -23 -24 -25 -26 -27 -28 -29 -30 -31
leaf_value=-0.16002038602645582 -0.34326380464163697 0.33416373874992134 0.47637250629755168 0.469843742393312 0.4642527546733618 0.4276676880026406 -0.20009214360924329 0.0035858223438262945 -0.12979523080587388 0.66955775959151131 0.43583117097616197 0.015753633067721411 0.53505294010752724 0.21585283875465394 -0.088667455007290022 -0.094346680683461401 0.24689707401497613 -0.34801585885385672 0.17989710724872093 -0.17889893628083742 -0.28384583756841464 0.086436077107030607 0.039048702660061066 -0.017841488985638872 -0.056574965226981383 0.014912818651646377 -0.31747274160046474 -0.067212607370068636 -0.35634743958987575 -0.030043522304012662
leaf_weight=26 44 20 26 21 22 22 34 25 25 21 20 21 21 20 29 37 29 24 23 26 29 26 21 38 27 26 66 36 54 21
leaf_count=26 44 20 26 21 22 22 34 25 25 21 20 21 21 20 29 37 29 24 23 26 29 26 21 38 27 26 66 36 54 21
internal_value=0 0.0569864 0.14489 0.100234 -0.00718303 -0.0494136 0.0551073 0.117983 0.182519 0.272264 0.380603 0.245218 -0.0819279 -0.0446373 0.173295 -0.0900399 0.0220425 -0.0574793 -0.081783 0.0991108 -0.127724 -0.170347 0.232601 -0.145651 -0.234241 -0.186483 -0.237321 -0.218035 -0.270242 -0.177249
internal_weight=0 519 219 193 300 257 172 138 112 87 62 43 361 290 50 240 111 82 237 48 189 166 41 62 71 129 103 140 104 50
internal_count=880 519 219 193 300 257 172 138 112 87 62 43 361 290 50 240 111 82 237 48 189 166 41 62 71 129 103 140 104 50
is_linear=0
shrinkage=0.05


Tree=12
num_leaves=31
num_cat=0
split_feature=24 44 60 52 39 61 58 103 40 113 76 76 51 24 71 12 5 21 52 52 61 59 73 128 38 64 12 124 23 37
split_gain=1535.24 1038.1 1379.09 1227.87 1123.11 1077.28 1244 1056.69 1047.61 991.785 1436.83 981.887 850.259 692.874 993.934 670.379 615.386 1036.44 682.723 836.599 878.068 586.941 546.283 536.591 488.816 652.069 405.735 384.624 280.863 404.65
threshold=0.24370000000000003 -1.0179999999999998 -1.4895499999999997 5.3581500000000011 0.87351500000000015 -7.064849999999999 -1.0052099999999997 -1.9605999999999997 -0.80920999999999987 1.0000000180025095e-35 0.60514000000000012 0.43409500000000006 -0.80773499999999987 -0.031389999999999994 0.93057000000000012 -1.3454999999999997 -1.3048999999999997 0.67419000000000007 -0.76685499999999984 -1.5580499999999999 0.045294000000000008 0.059931500000000006 -3.7417999999999996 0.55000000000000016 0.64332500000000015 0.37907500000000005 0.89725500000000002 1.0000000180025095e-35 -1.1173 0.30163000000000001
decision_type=2 2 2 2 2 2 2 2 2 2 2 2 2 2 2 2 2 2 2 2 2 2 2 2 2 2 2 2 2 2
left_child=1 4 -3 9 5 -1 22 -8 15 13 26 -5 -12 14 23 -6 17 -2 19 -18 -21 -16 -7 24 27 -26 -11 -4 -20 -30
right_child=16 2 3 11 8 6 7 -9 -10 10 12 -13 -14 -15 21 -17 18 -19 28 20 -22 -23 -24 -25 25 -27 -28 -29 29 -31
leaf_value=0.49503387875027127 -0.16187762838822825 0.30733262058347466 -0.35804793460028517 0.44918982224030934 -0.35958923192127895 0.16417364437471738 0.060167247174238714 0.47395850494503977 0.19598431110382081 -0.22685150123434142 0.037617257152768702 -0.01804135726845783 0.46381696735508743 0.12667082697153093 -0.12603282295167448 -0.00079660996794700628 -0.24451696117719016 0.29487467116635779 -0.38444916580034344 0.34561519399285318 -0.085028419515182238 0.25702752180397515 -0.15748245887684101 -0.36420073365402778 0.14966825296481451 -0.22719059545885434 0.03906381198993096 -0.12683119375158 -0.314094277330347 -0.096891532823735596
leaf_weight=27 27 32 35 22 23 22 27 36 35 32 22 23 25 24 20 30 30 23 23 20 29 20 33 43 24 22 26 37 37 51
leaf_count=27 27 32 35 22 23 22 27 36 35 32 22 23 25 24 20 30 30 23 23 20 29 20 33 43 24 22 26 37 37 51
internal_value=0 0.040442 -0.00773941 -0.0346256 0.124604 0.210123 0.144932 0.296619 -0.0163068 -0.0680358 0.0588516 0.210383 0.264319 -0.12725 -0.157569 -0.156499 -0.107845 0.0482284 -0.148917 -0.03657 0.0907445 0.0654973 -0.02882 -0.212989 -0.157886 -0.0305686 -0.107648 -0.239228 -0.228876 -0.188215
internal_weight=0 640 407 375 233 145 118 63 88 330 105 45 47 225 201 53 240 50 190 79 49 40 55 161 118 46 58 72 111 88
internal_count=880 640 407 375 233 145 118 63 88 330 105 45 47 225 201 53 240 50 190 79 49 40 55 161 118 46 58 72 111 88
is_linear=0
shrinkage=0.05


Tree=13
num_leaves=31
num_cat=0
split_feature=81 3 36 24 30 23 8 39 93 55 53 33 24 62 5 5 47 95 84 84 38 73 5 84 79 28 45 48 80 6
split_gain=1410.14 1745.67 1293.05 1356.06 1331.89 1234.42 1194.23 1111.87 1070.69 936.544 897.629 979.427 763.702 1189.2 1095.14 841.008 743.415 729.522 713.402 890.143 600.84 599.653 977.849 1029.61 585.51 460.878 712.707 418.911 410.345 383.537
threshold=-1.4427999999999999 0.27689500000000006 1.8707500000000004 -0.54675499999999988 -1.8685999999999998 3.9232000000000005 -2.4268499999999995 -3.1822999999999997 -2.0953499999999994 -0.55449999999999988 -2.0885999999999996 0.26676000000000005 0.24370000000000003 -0.34083999999999998 0.28093500000000005 -0.63874999999999982 -0.57776999999999989 -0.81028999999999984 -1.5038999999999998 -1.8346999999999998 0.79492000000000018 -2.9358999999999997 -1.2878499999999999 -0.099251999999999993 -1.5388499999999998 -0.64040499999999978 -0.22081999999999996 3.4524000000000004 -1.1973999999999998 1.0000000180025095e-35
decision_type=2 2 2 2 2 2 2 2 2 2 2 2 2 2 2 2 2 2 2 2 2 2 2 2 2 2 2 2 2 2
left_child=1 6 3 4 -3 7 8 16 20 -6 -9 21 13 14 -13 -15 -2 -17 19 -8 -1 -12 23 -23 -24 29 -27 -4 -26 -14
right_child=5 2 27 -5 9 -7 18 10 -10 -11 11 12 25 15 -16 17 -18 -19 -20 -21 -22 22 24 -25 28 26 -28 -29 -30 -31
leaf_value=-0.17059044049431882 0.40756864596158265 0.062792631558009557 -0.17869806970868793 -0.030879106988077578 0.68569520430432429 0.3382789165526629 -0.20398642629384997 0.24636217305436731 0.43436100823538643 0.27723941699318261 -0.38065883985587529 0.45889795752508306 -0.40405951559543613 -0.27427681305381502 -0.012513620050793345 0.26997951790690422 -0.023539072573184966 -0.12021021211147309 -0.23895703534926138 0.26775060601532463 0.18321031280793251 -0.14799778614872813 -0.42392303907871248 0.24990648709494492 0.04848226308822632 0.20319377586600329 -0.17167469616979361 0.13351008323105901 -0.1964398568338257 -0.11281952949670644
leaf_weight=24 20 21 21 23 36 20 20 20 21 23 28 28 20 29 22 23 20 25 62 20 24 37 25 29 20 21 32 22 118 26
leaf_count=24 20 21 21 23 36 20 20 20 21 23 28 28 20 29 22 23 20 25 62 20 24 37 25 29 20 21 32 22 118 26
internal_value=0 0.0843499 0.211332 0.307475 0.404752 -0.0474937 -0.0240678 -0.0617026 0.136586 0.526467 -0.0818789 -0.0954707 -0.0195439 0.061607 0.251477 -0.0616851 0.192015 0.0667557 -0.132746 0.0318821 0.00630994 -0.162239 -0.135533 0.0268389 -0.201278 -0.123647 -0.0231419 -0.0189637 -0.160944 -0.239446
internal_weight=0 317 146 103 80 563 171 543 69 59 503 483 226 127 50 77 40 48 102 40 48 257 229 66 163 99 53 43 138 46
internal_count=880 317 146 103 80 563 171 543 69 59 503 483 226 127 50 77 40 48 102 40 48 257 229 66 163 99 53 43 138 46
is_linear=0
shrinkage=0.05


Tree=14
num_leaves=31
num_cat=0
split_feature=21 43 12 18 95 47 63 111 94 17 28 110 14 117 89 21 76 2 87 76 88 128 54 63 20 82 37 105 94 57
split_gain=1334.26 1143.33 1121.59 1396.65 1257.87 1039.21 1204.46 1178.14 1175.06 1178.44 1101.21 921.021 848.507 823.469 1154.88 714.022 863.379 1290.64 1239.44 831.41 1096.87 682.938 596.715 595.15 575.673 569.076 505.378 504.795 326.808 286.448
threshold=-0.10012449999999999 0.21499500000000002 1.1224000000000001 -0.37079499999999993 -1.3974499999999999 -0.52499999999999991 -0.96846999999999983 0.11944500000000001 4.0923000000000007 -0.58782499999999993 1.5539000000000003 -0.13389499999999996 -1.0593999999999999 1.0000000180025095e-35 -2.8397499999999996 0.39630000000000004 -0.43851999999999997 -0.029148999999999998 1.0000000180025095e-35 1.1260000000000001 -0.61962499999999987 0.15000000000000005 -1.9352499999999997 4.5646000000000013 1.9972000000000001 -1.2921999999999998 0.78886000000000012 -0.20244999999999996 -0.19957499999999997 1.2095500000000003
decision_type=2 2 2 2 2 2 2 2 2 2 2 2 2 2 2 2 2 2 2 2 2 2 2 2 2 2 2 2 2 2
left_child=1 5 12 4 -4 6 7 -1 9 10 13 -8 -3 14 -7 27 17 18 -17 29 21 -21 -14 -15 -10 -19 -22 -2 -24 -18
right_child=15 2 3 -5 -6 8 11 -9 24 -11 -12 -13 22 23 -16 16 19 25 -20 20 26 -23 28 -25 -26 -27 -28 -29 -30 -31
leaf_value=0.363605577037448 -0.3550150647759438 0.089685957231803948 0.071876138243181953 -0.16041550589060147 0.58730830758810038 -0.54918721372430979 0.69908774346113212 -0.13991981687454078 0.4799968844652176 0.34985948674380785 0.2200173550418445 0.2302711655131795 0.048538705571131276 -0.11616556451127336 -0.081504055473840598 0.56270046614110469 -0.27903364199703024 -0.30164047522204268 0.057839031950120003 0.32236112973519737 -0.31490115193384038 -0.033509266892304788 -0.12679369079156055 0.22237039983272552 0.12009908032417299 0.054766484582796697 -0.019540660878022514 -0.088134794944041486 -0.322770447914417 -0.071011445768501449
leaf_weight=21 34 38 29 28 20 22 20 26 20 20 28 22 22 37 33 20 59 21 31 28 28 26 36 20 25 24 30 37 52 23
leaf_count=21 34 38 29 28 20 22 20 26 20 20 28 22 22 37 33 20 59 21 31 28 28 26 36 20 25 24 30 37 52 23
internal_value=0 0.0513475 -0.0334835 0.121285 0.282257 0.116269 0.258938 0.0850596 0.0543299 -0.00915497 -0.0604427 0.453517 -0.114005 -0.130558 -0.268577 -0.073821 -0.0390271 0.0836142 0.255824 -0.0997156 -0.011148 0.151016 -0.184371 0.00261898 0.280054 -0.111557 -0.162128 -0.215937 -0.242598 -0.220686
internal_weight=0 519 225 77 49 294 89 47 205 160 140 42 148 112 55 361 290 96 51 194 112 54 110 57 45 45 58 71 88 82
internal_count=880 519 225 77 49 294 89 47 205 160 140 42 148 112 55 361 290 96 51 194 112 54 110 57 45 45 58 71 88 82
is_linear=0
shrinkage=0.05


Tree=15
num_leaves=31
num_cat=0
split_feature=21 43 12 125 61 47 28 94 17 28 72 61 56 103 21 71 70 55 126 35 18 8 14 94 47 82 9 106 107 23
split_gain=1205.11 1023.48 1033.85 1028.62 1734.85 906.83 1122.88 1056.97 1046.32 993.842 821.294 797.317 774.136 725.618 703.966 720.781 1060.64 1002.4 576.64 499.267 570.111 498.564 460.765 433.227 404.107 564.312 809.296 387.136 436.909 379.364
threshold=-0.084680999999999992 0.21499500000000002 0.84514000000000011 1.7500000000000002 1.4419500000000001 -0.52499999999999991 -0.78603999999999985 4.0923000000000007 -0.58782499999999993 1.5539000000000003 -1.6580499999999996 1.0695500000000002 -0.14834999999999995 -0.42644499999999991 0.14432500000000001 1.0331500000000002 -1.1189999999999998 -2.3923999999999999 0.3000000000000001 -0.10614999999999998 1.0000000180025095e-35 -0.79936999999999991 -1.0938999999999999 -0.19957499999999997 0.84292500000000004 -1.1353999999999997 0.20596000000000003 -0.43791999999999992 0.79479000000000011 -0.34501499999999991
decision_type=2 2 2 2 2 2 2 2 2 2 2 2 2 2 2 2 2 2 2 2 2 2 2 2 2 2 2 2 2 2
left_child=1 5 22 11 -5 6 10 8 9 12 -1 -4 18 -9 -2 17 -17 -16 21 24 -21 -7 -3 -24 25 26 -19 -27 -29 -20
right_child=14 2 3 4 -6 7 -8 13 -10 -11 -12 -13 -14 -15 15 16 -18 19 29 20 -22 -23 23 -25 -26 27 -28 28 -30 -31
leaf_value=-0.12120992204417354 -0.27703812331766697 0.048649195554079837 -0.30543069258818162 0.41579917994065163 -0.13949329087680037 -0.45340574582417803 0.47984230658039451 0.051409425338109341 0.32105907272724882 0.20901649030191558 0.26341329838548388 0.11560254801403394 0.12119203531742095 0.45386233652631447 0.25387730836868289 -0.12054952736343108 0.27355068147574602 0.25063493877649307 0.099019871354103089 0.16357900705830805 -0.11508404746651651 -0.12403684623539449 -0.062553740302100785 -0.28142565520336998 -0.31403935905545954 -0.38995467722415927 -0.15732069837470208 0.011710257044372459 -0.30057857079165329 -0.20894265517592434
leaf_weight=23 37 27 23 39 22 27 32 21 21 28 35 22 25 24 20 31 38 20 20 29 50 20 40 52 36 22 31 24 21 20
leaf_count=23 37 27 23 39 22 27 32 21 21 28 35 22 25 24 20 31 38 20 20 29 50 20 40 52 36 22 31 24 21 20
internal_value=0 0.0485703 -0.0318093 0.0817516 0.21553 0.10967 0.242073 0.0518235 -0.00805369 -0.0574206 0.11089 -0.0995922 -0.12403 0.266051 -0.0704879 -0.0467539 0.0964912 -0.0858207 -0.194496 -0.114979 -0.01279 -0.313249 -0.132964 -0.186264 -0.167401 -0.122664 0.0026619 -0.218061 -0.134025 -0.0549614
internal_weight=0 521 225 106 61 296 90 206 161 140 58 45 112 45 359 322 69 253 87 233 79 47 119 92 154 118 51 67 45 40
internal_count=880 521 225 106 61 296 90 206 161 140 58 45 112 45 359 322 69 253 87 233 79 47 119 92 154 118 51 67 45 40
is_linear=0
shrinkage=0.05


end of trees

feature_importances:
recent_10_correlation_percentile5_percentile25_ratio=15
recent_25_correlation_kurtosis=13
all_correlation_skew=12
top_10%_loss_best_percentile75_ratio=12
recent_15%_correlation_stddev_best_ratio=11
all_loss_percentile5_percentile25_ratio=10
recent_25_loss_percentile5_percentile25_ratio=10
top_10%_loss_kurtosis=10
top_20%_loss_skew=10
recent_10_correlation_stddev_median_ratio=9
recent_15%_loss_stddev_median_ratio=9
recent_25_correlation_stddev_best_ratio=9
top_10%_correlation_stddev_best_ratio=9
all_correlation_stddev_median_ratio=8
recent_10_correlation_stddev_best_ratio=8
secondaryCutoff=8
all_loss_best_percentile25_ratio=7
recent_10_loss_kurtosis=7
recent_15%_correlation_best_percentile75_ratio=7
recent_15%_loss_best_percentile50_ratio=7
recent_15%_loss_best_percentile75_ratio=7
recent_25_loss_best_percentile25_ratio=7
top_20%_loss_kurtosis=7
top_20%_correlation_best_percentile25_ratio=6
top_20%_loss_stddev_median_ratio=6
top_30%_correlation_stddev_best_ratio=6
all_correlation_best_percentile75_ratio=5
all_correlation_kurtosis=5
recent_15%_loss_kurtosis=5
recent_25_correlation_best_percentile75_ratio=5
recent_25_correlation_percentile5_percentile25_ratio=5
top_20%_correlation_kurtosis=5
top_20%_correlation_skew=5
top_20%_correlation_stddev_median_ratio=5
secondaryCorrelationExponent=5
all_correlation_best_percentile50_ratio=4
all_correlation_stddev_best_ratio=4
all_loss_stddev_best_ratio=4
recent_10_correlation_best_percentile25_ratio=4
recent_10_correlation_best_percentile50_ratio=4
recent_10_correlation_kurtosis=4
recent_10_correlation_skew=4
recent_15%_correlation_skew=4
recent_15%_correlation_stddev_median_ratio=4
recent_15%_loss_stddev_best_ratio=4
recent_25_correlation_skew=4
recent_25_loss_kurtosis=4
recent_25_loss_stddev_best_ratio=4
top_10%_loss_best_percentile25_ratio=4
top_10%_loss_best_percentile50_ratio=4
top_30%_correlation_best_percentile25_ratio=4
top_30%_loss_best_percentile75_ratio=4
top_30%_loss_stddev_best_ratio=4
all_loss_best_percentile50_ratio=3
all_loss_stddev_median_ratio=3
recent_10_loss_best_percentile25_ratio=3
recent_10_loss_percentile5_percentile25_ratio=3
recent_15%_correlation_best_percentile25_ratio=3
recent_15%_correlation_best_percentile50_ratio=3
recent_15%_correlation_kurtosis=3
recent_15%_correlation_percentile5_percentile25_ratio=3
recent_15%_loss_best_percentile25_ratio=3
recent_15%_loss_percentile5_percentile25_ratio=3
recent_25_correlation_best_percentile50_ratio=3
recent_25_correlation_stddev_median_ratio=3
recent_25_loss_best_percentile50_ratio=3
recent_25_loss_skew=3
top_10%_correlation_best_percentile25_ratio=3
top_10%_correlation_stddev_median_ratio=3
top_20%_correlation_best_percentile50_ratio=3
top_20%_correlation_percentile5_percentile25_ratio=3
top_20%_correlation_stddev_best_ratio=3
top_20%_loss_stddev_best_ratio=3
top_30%_correlation_best_percentile50_ratio=3
top_30%_correlation_kurtosis=3
top_30%_correlation_stddev_median_ratio=3
top_30%_loss_skew=3
resultFilteringMode_age=3
all_correlation_best_percentile25_ratio=2
all_loss_best_percentile75_ratio=2
all_loss_kurtosis=2
all_loss_skew=2
log10_cardinality=2
recent_10_loss_best_percentile75_ratio=2
recent_10_loss_stddev_median_ratio=2
top_10%_correlation_kurtosis=2
top_10%_loss_percentile5_percentile25_ratio=2
top_10%_loss_skew=2
top_10%_loss_stddev_median_ratio=2
top_20%_loss_best_percentile25_ratio=2
top_20%_loss_percentile5_percentile25_ratio=2
top_30%_correlation_percentile5_percentile25_ratio=2
top_30%_correlation_skew=2
top_30%_loss_best_percentile25_ratio=2
top_30%_loss_kurtosis=2
resultFilteringMode_random=2
secondaryProbabilityMode_correlation=2
secondaryTopLockingPercentile=2
secondaryCorrelationMultiplier=2
all_correlation_percentile5_percentile25_ratio=1
recent_10_correlation_best_percentile75_ratio=1
recent_10_loss_best_percentile50_ratio=1
recent_10_loss_skew=1
recent_15%_loss_skew=1
recent_25_correlation_best_percentile25_ratio=1
recent_25_loss_best_percentile75_ratio=1
recent_25_loss_stddev_median_ratio=1
top_10%_correlation_best_percentile50_ratio=1
top_10%_correlation_percentile5_percentile25_ratio=1
top_10%_correlation_skew=1
top_10%_loss_stddev_best_ratio=1
top_30%_correlation_best_percentile75_ratio=1
top_30%_loss_best_percentile50_ratio=1
resultFilteringAgeMultiplier=1
gamma=1

parameters:
[boosting: gbdt]
[objective: regression]
[metric: l2]
[tree_learner: serial]
[device_type: cpu]
[data_sample_strategy: bagging]
[data: ]
[valid: ]
[num_iterations: 100]
[learning_rate: 0.05]
[num_leaves: 31]
[num_threads: 0]
[seed: 0]
[deterministic: 0]
[force_col_wise: 0]
[force_row_wise: 0]
[histogram_pool_size: -1]
[max_depth: -1]
[min_data_in_leaf: 20]
[min_sum_hessian_in_leaf: 0.001]
[bagging_fraction: 1]
[pos_bagging_fraction: 1]
[neg_bagging_fraction: 1]
[bagging_freq: 0]
[bagging_seed: 3]
[feature_fraction: 0.85]
[feature_fraction_bynode: 1]
[feature_fraction_seed: 2]
[extra_trees: 0]
[extra_seed: 6]
[early_stopping_round: 5]
[early_stopping_min_delta: 0]
[first_metric_only: 0]
[max_delta_step: 0]
[lambda_l1: 0]
[lambda_l2: 0]
[linear_lambda: 0]
[min_gain_to_split: 0]
[drop_rate: 0.1]
[max_drop: 50]
[skip_drop: 0.5]
[xgboost_dart_mode: 0]
[uniform_drop: 0]
[drop_seed: 4]
[top_rate: 0.2]
[other_rate: 0.1]
[min_data_per_group: 100]
[max_cat_threshold: 32]
[cat_l2: 10]
[cat_smooth: 10]
[max_cat_to_onehot: 4]
[top_k: 20]
[monotone_constraints: ]
[monotone_constraints_method: basic]
[monotone_penalty: 0]
[feature_contri: ]
[forcedsplits_filename: ]
[refit_decay_rate: 0.9]
[cegb_tradeoff: 1]
[cegb_penalty_split: 0]
[cegb_penalty_feature_lazy: ]
[cegb_penalty_feature_coupled: ]
[path_smooth: 0]
[interaction_constraints: ]
[verbosity: -1]
[saved_feature_importance_type: 0]
[use_quantized_grad: 0]
[num_grad_quant_bins: 4]
[quant_train_renew_leaf: 0]
[stochastic_rounding: 1]
[linear_tree: 0]
[max_bin: 255]
[max_bin_by_feature: ]
[min_data_in_bin: 3]
[bin_construct_sample_cnt: 200000]
[data_random_seed: 1]
[is_enable_sparse: 1]
[enable_bundle: 1]
[use_missing: 1]
[zero_as_missing: 0]
[feature_pre_filter: 1]
[pre_partition: 0]
[two_round: 0]
[header: 0]
[label_column: ]
[weight_column: ]
[group_column: ]
[ignore_column: ]
[categorical_feature: ]
[forcedbins_filename: ]
[precise_float_parser: 0]
[parser_config_file: ]
[objective_seed: 5]
[num_class: 1]
[is_unbalance: 0]
[scale_pos_weight: 1]
[sigmoid: 1]
[boost_from_average: 1]
[reg_sqrt: 0]
[alpha: 0.9]
[fair_c: 1]
[poisson_max_delta_step: 0.7]
[tweedie_variance_power: 1.5]
[lambdarank_truncation_level: 30]
[lambdarank_norm: 1]
[label_gain: ]
[lambdarank_position_bias_regularization: 0]
[eval_at: ]
[multi_error_top_k: 1]
[auc_mu_weights: ]
[num_machines: 1]
[local_listen_port: 12400]
[time_out: 120]
[machine_list_filename: ]
[machines: ]
[gpu_platform_id: -1]
[gpu_device_id: -1]
[gpu_use_dp: 0]
[num_gpu: 1]

end of parameters

pandas_categorical:null
