tree
version=v4
num_class=1
num_tree_per_iteration=1
label_index=0
max_feature_idx=123
objective=regression
feature_names=all_correlation_best_percentile25_ratio all_correlation_best_percentile50_ratio all_correlation_best_percentile75_ratio all_correlation_kurtosis all_correlation_percentile5_percentile25_ratio all_correlation_skew all_correlation_stddev_best_ratio all_correlation_stddev_median_ratio all_loss_best_percentile25_ratio all_loss_best_percentile50_ratio all_loss_best_percentile75_ratio all_loss_kurtosis all_loss_percentile5_percentile25_ratio all_loss_skew all_loss_stddev_best_ratio all_loss_stddev_median_ratio log10_cardinality recent_10_correlation_best_percentile25_ratio recent_10_correlation_best_percentile50_ratio recent_10_correlation_best_percentile75_ratio recent_10_correlation_kurtosis recent_10_correlation_percentile5_percentile25_ratio recent_10_correlation_skew recent_10_correlation_stddev_best_ratio recent_10_correlation_stddev_median_ratio recent_10_loss_best_percentile25_ratio recent_10_loss_best_percentile50_ratio recent_10_loss_best_percentile75_ratio recent_10_loss_kurtosis recent_10_loss_percentile5_percentile25_ratio recent_10_loss_skew recent_10_loss_stddev_best_ratio recent_10_loss_stddev_median_ratio recent_15%_correlation_best_percentile25_ratio recent_15%_correlation_best_percentile50_ratio recent_15%_correlation_best_percentile75_ratio recent_15%_correlation_kurtosis recent_15%_correlation_percentile5_percentile25_ratio recent_15%_correlation_skew recent_15%_correlation_stddev_best_ratio recent_15%_correlation_stddev_median_ratio recent_15%_loss_best_percentile25_ratio recent_15%_loss_best_percentile50_ratio recent_15%_loss_best_percentile75_ratio recent_15%_loss_kurtosis recent_15%_loss_percentile5_percentile25_ratio recent_15%_loss_skew recent_15%_loss_stddev_best_ratio recent_15%_loss_stddev_median_ratio recent_25_correlation_best_percentile25_ratio recent_25_correlation_best_percentile50_ratio recent_25_correlation_best_percentile75_ratio recent_25_correlation_kurtosis recent_25_correlation_percentile5_percentile25_ratio recent_25_correlation_skew recent_25_correlation_stddev_best_ratio recent_25_correlation_stddev_median_ratio recent_25_loss_best_percentile25_ratio recent_25_loss_best_percentile50_ratio recent_25_loss_best_percentile75_ratio recent_25_loss_kurtosis recent_25_loss_percentile5_percentile25_ratio recent_25_loss_skew recent_25_loss_stddev_best_ratio recent_25_loss_stddev_median_ratio top_10%_correlation_best_percentile25_ratio top_10%_correlation_best_percentile50_ratio top_10%_correlation_best_percentile75_ratio top_10%_correlation_kurtosis top_10%_correlation_percentile5_percentile25_ratio top_10%_correlation_skew top_10%_correlation_stddev_best_ratio top_10%_correlation_stddev_median_ratio top_10%_loss_best_percentile25_ratio top_10%_loss_best_percentile50_ratio top_10%_loss_best_percentile75_ratio top_10%_loss_kurtosis top_10%_loss_percentile5_percentile25_ratio top_10%_loss_skew top_10%_loss_stddev_best_ratio top_10%_loss_stddev_median_ratio top_20%_correlation_best_percentile25_ratio top_20%_correlation_best_percentile50_ratio top_20%_correlation_best_percentile75_ratio top_20%_correlation_kurtosis top_20%_correlation_percentile5_percentile25_ratio top_20%_correlation_skew top_20%_correlation_stddev_best_ratio top_20%_correlation_stddev_median_ratio top_20%_loss_best_percentile25_ratio top_20%_loss_best_percentile50_ratio top_20%_loss_best_percentile75_ratio top_20%_loss_kurtosis top_20%_loss_percentile5_percentile25_ratio top_20%_loss_skew top_20%_loss_stddev_best_ratio top_20%_loss_stddev_median_ratio top_30%_correlation_best_percentile25_ratio top_30%_correlation_best_percentile50_ratio top_30%_correlation_best_percentile75_ratio top_30%_correlation_kurtosis top_30%_correlation_percentile5_percentile25_ratio top_30%_correlation_skew top_30%_correlation_stddev_best_ratio top_30%_correlation_stddev_median_ratio top_30%_loss_best_percentile25_ratio top_30%_loss_best_percentile50_ratio top_30%_loss_best_percentile75_ratio top_30%_loss_kurtosis top_30%_loss_percentile5_percentile25_ratio top_30%_loss_skew top_30%_loss_stddev_best_ratio top_30%_loss_stddev_median_ratio resultFilteringMode_age resultFilteringMode_loss_rank resultFilteringMode_none resultFilteringMode_random secondaryProbabilityMode_correlation secondaryProbabilityMode_fixed secondaryLockingMode_random secondaryLockingMode_top resultFilteringAgeMultiplier resultFilteringLossRankMultiplier resultFilteringRandomProbability
feature_infos=[-2.2599:27.907] [-2.7934000000000001:17.116] [-2.5586000000000002:455.68000000000001] [-4.0157999999999996:24.715] [-2.3498999999999999:26.260000000000002] [-5.7752999999999997:8.7965] [-12.534000000000001:7.3654999999999999] [-5.0029000000000003:17.094999999999999] [-10.725:2.6657000000000002] [-6.1744000000000003:2.7290999999999999] [-3.2389999999999999:3.1406000000000001] [-3.9510999999999998:13.782999999999999] [-13.134:2.4407000000000001] [-11.209:7.1554000000000002] [-1.6367:14.999000000000001] [-2.1474000000000002:12.513999999999999] [-3.0969000000000002:2.2509999999999999] [-3.7029000000000001:1209.5999999999999] [-2.9346000000000001:165.21000000000001] [-1.9407000000000001:185.71000000000001] [-2.4535999999999998:24.446000000000002] [-4.5965999999999996:364.06] [-6.1914999999999996:8.1655999999999995] [-15.209:6.5220000000000002] [-2.9763999999999999:173.22] [-22.969999999999999:2.1663999999999999] [-13.035:2.1962999999999999] [-5.9871999999999996:2.2410999999999999] [-1.9225000000000001:2.0085999999999999] [-22.960000000000001:2.1494] [-5.7145000000000001:1.9048] [-1.6754:33.854999999999997] [-1.6586000000000001:39.265999999999998] [-4.2361000000000004:147.81] [-2.8584999999999998:349.50999999999999] [-2.2593000000000001:396.98000000000002] [-2.4695:17.149999999999999] [-5.3093000000000004:203.80000000000001] [-6.6649000000000003:6.5972] [-13.398:5.6308999999999996] [-2.8300000000000001:398.12] [-16.870000000000001:2.4573] [-11.443:2.4403000000000001] [-6.2796000000000003:2.2544] [-1.8156000000000001:20.753] [-22.631:2.3978999999999999] [-5.3388999999999998:8.2760999999999996] [-1.7606999999999999:24.943999999999999] [-1.9197:30.702000000000002] [-4.5316999999999998:352.55000000000001] [-3.2925:158.46000000000001] [-2.2231999999999998:195.77000000000001] [-2.6983000000000001:23.841999999999999] [-5.6220999999999997:439.63999999999999] [-7.3398000000000003:7.9086999999999996] [-10.173:6.3887999999999998] [-3.1112000000000002:181.81999999999999] [-16.739999999999998:2.2581000000000002] [-9.2089999999999996:2.3067000000000002] [-5.2962999999999996:2.48] [-2.4851000000000001:6.5692000000000004] [-18.085000000000001:2.1194999999999999] [-6.9519000000000002:4.6384999999999996] [-1.8875:21.298999999999999] [-2.1884999999999999:26.402999999999999] [-3.5341:1171.9000000000001] [-2.3147000000000002:67.719999999999999] [-1.7373000000000001:48.223999999999997] [-2.1067999999999998:12.836] [-4.3086000000000002:1388.5] [-8.5375999999999994:5.9467999999999996] [-12.513999999999999:5.5088999999999997] [-2.4889000000000001:90.033000000000001] [-56.707999999999998:2.0792000000000002] [-38.712000000000003:2.3694000000000002] [-31.893000000000001:2.5735999999999999] [-2.9007999999999998:51.374000000000002] [-85.959999999999994:2.1625999999999999] [-14.044:8.0138999999999996] [-2.3786:53.401000000000003] [-2.5230999999999999:21.943999999999999] [-3.8456999999999999:743.67999999999995] [-2.8540999999999999:68.799999999999997] [-1.6635:92.189999999999998] [-2.29:15.215] [-4.7262000000000004:980.61000000000001] [-10.801:6.4522000000000004] [-14.714:6.8095999999999997] [-2.9746000000000001:83.084000000000003] [-22.797000000000001:2.3774999999999999] [-16.135999999999999:2.706] [-13.851000000000001:2.8275000000000001] [-4.1605999999999996:54.442] [-26.574999999999999:2.4007999999999998] [-13.065:9.7095000000000002] [-2.3239000000000001:52.752000000000002] [-2.5722:28.353999999999999] [-4.5740999999999996:456.94999999999999] [-3.0855000000000001:426.97000000000003] [-1.7641:456.19] [-2.6267999999999998:16.120000000000001] [-5.5518999999999998:540.79999999999995] [-9.2086000000000006:7.1086999999999998] [-15.65:6.1746999999999996] [-3.0865999999999998:388.30000000000001] [-18.018999999999998:2.5646] [-13.621:2.8313000000000001] [-10.925000000000001:2.8393000000000002] [-4.5885999999999996:58.183] [-19.933:2.5514000000000001] [-14.541:11.016999999999999] [-2.1088:48.893999999999998] [-2.3708999999999998:20.469000000000001] [0:1] [0:1] [0:1] [0:1] [0:1] [0:1] none none [-3:4] [-3:4] [-3:0.90000000000000002]
tree_sizes=2116 2145

Tree=0
num_leaves=25
num_cat=0
split_feature=55 14 94 35 13 99 88 13 37 110 73 69 94 34 35 81 92 111 51 26 30 56 24 103
split_gain=218.408 170.578 153.36 140.712 158.598 135.001 137.883 120.423 132.105 123.552 108.033 104.871 104.838 187.448 90 88.8706 84.2075 76.1905 74.2063 91.6932 97.305 115.714 70.4735 55.2002
threshold=4.108200000000001 -0.9294349999999999 0.16633000000000003 -1.4865999999999997 -3.1214 0.52451500000000018 -1.1541499999999998 -0.92523499999999992 2.7301500000000005 -0.70939499999999989 0.93856500000000009 -0.15965999999999997 0.39436000000000004 -0.72082499999999994 0.66937000000000013 -0.64659999999999995 0.78070000000000006 0.41823500000000008 -1.5105499999999998 1.2180500000000003 -1.2930499999999998 1.0000000180025095e-35 -0.8994049999999999 -0.36940999999999996
decision_type=2 2 2 2 2 2 2 2 2 2 2 2 2 2 2 2 2 2 2 2 2 2 2 2
left_child=1 2 5 4 -3 6 -1 9 11 -6 -4 23 18 -14 -15 -11 -13 -10 -5 20 -20 -22 -12 -9
right_child=-2 3 10 12 7 -7 -8 8 17 15 22 16 13 14 -16 -17 -18 -19 19 -21 21 -23 -24 -25
leaf_value=4.6642346450295502 4.440208671468028 4.4937801002523301 4.6673912100388932 4.6095208385095434 4.7750301000039777 4.6083634318471942 4.8375301009973883 4.6415073701348355 4.5910023213155728 4.5592562899479834 4.4812801002523299 4.5354467656275625 4.5202952507289158 4.7562800996562835 4.6062800990602373 4.6987800986430042 4.6642346434039688 4.4640181947098885 4.4521134335856631 4.4255982822059767 4.5044943855834427 4.6330658131330775 4.6083634318471942 4.7562800990602367
leaf_weight=22 21 24 36 27 24 24 24 22 27 21 20 30 33 20 20 25 22 21 24 22 35 35 24 20
leaf_count=22 21 24 36 27 24 24 24 22 27 21 20 30 33 20 20 25 22 21 24 22 35 35 24 20
internal_value=4.59872 4.60425 4.65045 4.58891 4.6156 4.70449 4.75465 4.62939 4.60294 4.68307 4.60316 4.6374 4.55975 4.60851 4.68128 4.63508 4.58993 4.53545 4.53486 4.51749 4.53899 4.56878 4.5506 4.69616
internal_weight=0 602 150 452 236 70 46 212 142 70 80 94 216 73 40 46 52 48 143 116 94 70 44 42
internal_count=623 602 150 452 236 70 46 212 142 70 80 94 216 73 40 46 52 48 143 116 94 70 44 42
is_linear=0
shrinkage=1


Tree=1
num_leaves=24
num_cat=0
split_feature=55 12 15 112 95 64 0 100 108 100 49 44 104 103 13 59 68 83 52 76 59 81 92
split_gain=197.113 156.482 138.872 165.394 161.171 128.482 125.645 152.004 118.699 121.529 118.17 121.278 117.158 109.104 106.741 104.365 115.849 84.0771 64.0204 62.0668 57.7241 53.4797 51.2999
threshold=4.108200000000001 -2.5287499999999992 -0.87107999999999985 -0.71905999999999992 -0.075498499999999982 -0.50631999999999988 -1.1735 0.83782000000000012 -1.4384499999999998 -1.1175999999999997 -1.1523999999999999 3.7959000000000005 -1.3108999999999997 -1.1181999999999996 -0.43243499999999996 -1.7926499999999999 1.1394500000000003 0.66669500000000015 -0.53470499999999987 1.97435 0.45352500000000007 -0.81243999999999994 -1.1183999999999996
decision_type=2 2 2 2 2 2 2 2 2 2 2 2 2 2 2 2 2 2 2 2 2 2 2
left_child=1 6 8 10 21 -6 -1 22 12 -10 -4 14 -3 -11 -12 -7 17 18 -17 -16 -15 -5 -8
right_child=-2 2 3 4 5 15 7 -9 9 13 11 -13 -14 20 19 16 -18 -19 -20 -21 -22 -23 -24
leaf_value=0.048667410646493624 -0.15058185373033797 0.092805941849946977 0.043383144851653808 0.16646377186883579 -0.10254708789288998 0.095593645547827094 -0.18616609709958237 0.00022926447359291284 -0.015317838977683674 0.042462431490421296 -0.0035744405218533109 0.019819955219482557 -0.059704270958900456 0.10087057678472429 -0.17680676417691368 0.0082970069277854188 -0.094096394112476944 -0.053346185982227325 0.13034835931929675 -0.069632228125225418 0.21053304773356235 0.059574971616268159 -0.084793397726920947
leaf_weight=26 21 20 31 22 24 36 24 37 22 30 21 29 34 21 35 21 26 20 22 22 28 25 26
leaf_count=26 21 20 31 22 24 36 24 37 22 30 21 29 34 21 35 21 26 20 22 22 28 25 26
internal_value=0 0.00525286 0.0175072 -0.000644501 0.028879 0.00341418 -0.0477768 -0.0765992 0.056621 0.0886147 -0.0425765 -0.0674807 -0.00321901 0.117558 -0.0999386 0.0237587 -0.00529808 0.0313488 0.0707419 -0.135441 0.163535 0.109608 -0.133452
internal_weight=0 602 489 334 196 149 113 87 155 101 138 107 54 79 78 125 89 63 43 57 49 47 50
internal_count=623 602 489 334 196 149 113 87 155 101 138 107 54 79 78 125 89 63 43 57 49 47 50
is_linear=0
shrinkage=0.05


end of trees

feature_importances:
all_loss_skew=3
recent_15%_correlation_best_percentile75_ratio=2
recent_25_correlation_stddev_best_ratio=2
recent_25_loss_best_percentile75_ratio=2
top_20%_correlation_best_percentile25_ratio=2
top_20%_loss_kurtosis=2
top_20%_loss_skew=2
top_30%_correlation_kurtosis=2
top_30%_correlation_stddev_best_ratio=2
all_correlation_best_percentile25_ratio=1
all_loss_percentile5_percentile25_ratio=1
all_loss_stddev_best_ratio=1
all_loss_stddev_median_ratio=1
recent_10_correlation_stddev_median_ratio=1
recent_10_loss_best_percentile50_ratio=1
recent_10_loss_skew=1
recent_15%_correlation_best_percentile50_ratio=1
recent_15%_correlation_percentile5_percentile25_ratio=1
recent_15%_loss_kurtosis=1
recent_25_correlation_best_percentile25_ratio=1
recent_25_correlation_best_percentile75_ratio=1
recent_25_correlation_kurtosis=1
recent_25_correlation_stddev_median_ratio=1
recent_25_loss_stddev_median_ratio=1
top_10%_correlation_kurtosis=1
top_10%_correlation_percentile5_percentile25_ratio=1
top_10%_loss_best_percentile25_ratio=1
top_10%_loss_kurtosis=1
top_20%_correlation_best_percentile75_ratio=1
top_20%_correlation_stddev_median_ratio=1
top_20%_loss_stddev_best_ratio=1
top_30%_correlation_best_percentile75_ratio=1
top_30%_correlation_stddev_median_ratio=1
top_30%_loss_kurtosis=1
top_30%_loss_skew=1
top_30%_loss_stddev_best_ratio=1
top_30%_loss_stddev_median_ratio=1

parameters:
[boosting: gbdt]
[objective: regression]
[metric: l2]
[tree_learner: serial]
[device_type: cpu]
[data_sample_strategy: bagging]
[data: ]
[valid: ]
[num_iterations: 100]
[learning_rate: 0.05]
[num_leaves: 31]
[num_threads: 0]
[seed: 0]
[deterministic: 0]
[force_col_wise: 0]
[force_row_wise: 0]
[histogram_pool_size: -1]
[max_depth: -1]
[min_data_in_leaf: 20]
[min_sum_hessian_in_leaf: 0.001]
[bagging_fraction: 1]
[pos_bagging_fraction: 1]
[neg_bagging_fraction: 1]
[bagging_freq: 0]
[bagging_seed: 3]
[feature_fraction: 0.85]
[feature_fraction_bynode: 1]
[feature_fraction_seed: 2]
[extra_trees: 0]
[extra_seed: 6]
[early_stopping_round: 5]
[early_stopping_min_delta: 0]
[first_metric_only: 0]
[max_delta_step: 0]
[lambda_l1: 0]
[lambda_l2: 0]
[linear_lambda: 0]
[min_gain_to_split: 0]
[drop_rate: 0.1]
[max_drop: 50]
[skip_drop: 0.5]
[xgboost_dart_mode: 0]
[uniform_drop: 0]
[drop_seed: 4]
[top_rate: 0.2]
[other_rate: 0.1]
[min_data_per_group: 100]
[max_cat_threshold: 32]
[cat_l2: 10]
[cat_smooth: 10]
[max_cat_to_onehot: 4]
[top_k: 20]
[monotone_constraints: ]
[monotone_constraints_method: basic]
[monotone_penalty: 0]
[feature_contri: ]
[forcedsplits_filename: ]
[refit_decay_rate: 0.9]
[cegb_tradeoff: 1]
[cegb_penalty_split: 0]
[cegb_penalty_feature_lazy: ]
[cegb_penalty_feature_coupled: ]
[path_smooth: 0]
[interaction_constraints: ]
[verbosity: -1]
[saved_feature_importance_type: 0]
[use_quantized_grad: 0]
[num_grad_quant_bins: 4]
[quant_train_renew_leaf: 0]
[stochastic_rounding: 1]
[linear_tree: 0]
[max_bin: 255]
[max_bin_by_feature: ]
[min_data_in_bin: 3]
[bin_construct_sample_cnt: 200000]
[data_random_seed: 1]
[is_enable_sparse: 1]
[enable_bundle: 1]
[use_missing: 1]
[zero_as_missing: 0]
[feature_pre_filter: 1]
[pre_partition: 0]
[two_round: 0]
[header: 0]
[label_column: ]
[weight_column: ]
[group_column: ]
[ignore_column: ]
[categorical_feature: ]
[forcedbins_filename: ]
[precise_float_parser: 0]
[parser_config_file: ]
[objective_seed: 5]
[num_class: 1]
[is_unbalance: 0]
[scale_pos_weight: 1]
[sigmoid: 1]
[boost_from_average: 1]
[reg_sqrt: 0]
[alpha: 0.9]
[fair_c: 1]
[poisson_max_delta_step: 0.7]
[tweedie_variance_power: 1.5]
[lambdarank_truncation_level: 30]
[lambdarank_norm: 1]
[label_gain: ]
[lambdarank_position_bias_regularization: 0]
[eval_at: ]
[multi_error_top_k: 1]
[auc_mu_weights: ]
[num_machines: 1]
[local_listen_port: 12400]
[time_out: 120]
[machine_list_filename: ]
[machines: ]
[gpu_platform_id: -1]
[gpu_device_id: -1]
[gpu_use_dp: 0]
[num_gpu: 1]

end of parameters

pandas_categorical:null
