tree
version=v4
num_class=1
num_tree_per_iteration=1
label_index=0
max_feature_idx=128
objective=regression
feature_names=all_correlation_best_percentile25_ratio all_correlation_best_percentile50_ratio all_correlation_best_percentile75_ratio all_correlation_kurtosis all_correlation_percentile5_percentile25_ratio all_correlation_skew all_correlation_stddev_best_ratio all_correlation_stddev_median_ratio all_loss_best_percentile25_ratio all_loss_best_percentile50_ratio all_loss_best_percentile75_ratio all_loss_kurtosis all_loss_percentile5_percentile25_ratio all_loss_skew all_loss_stddev_best_ratio all_loss_stddev_median_ratio log10_cardinality recent_10_correlation_best_percentile25_ratio recent_10_correlation_best_percentile50_ratio recent_10_correlation_best_percentile75_ratio recent_10_correlation_kurtosis recent_10_correlation_percentile5_percentile25_ratio recent_10_correlation_skew recent_10_correlation_stddev_best_ratio recent_10_correlation_stddev_median_ratio recent_10_loss_best_percentile25_ratio recent_10_loss_best_percentile50_ratio recent_10_loss_best_percentile75_ratio recent_10_loss_kurtosis recent_10_loss_percentile5_percentile25_ratio recent_10_loss_skew recent_10_loss_stddev_best_ratio recent_10_loss_stddev_median_ratio recent_15%_correlation_best_percentile25_ratio recent_15%_correlation_best_percentile50_ratio recent_15%_correlation_best_percentile75_ratio recent_15%_correlation_kurtosis recent_15%_correlation_percentile5_percentile25_ratio recent_15%_correlation_skew recent_15%_correlation_stddev_best_ratio recent_15%_correlation_stddev_median_ratio recent_15%_loss_best_percentile25_ratio recent_15%_loss_best_percentile50_ratio recent_15%_loss_best_percentile75_ratio recent_15%_loss_kurtosis recent_15%_loss_percentile5_percentile25_ratio recent_15%_loss_skew recent_15%_loss_stddev_best_ratio recent_15%_loss_stddev_median_ratio recent_25_correlation_best_percentile25_ratio recent_25_correlation_best_percentile50_ratio recent_25_correlation_best_percentile75_ratio recent_25_correlation_kurtosis recent_25_correlation_percentile5_percentile25_ratio recent_25_correlation_skew recent_25_correlation_stddev_best_ratio recent_25_correlation_stddev_median_ratio recent_25_loss_best_percentile25_ratio recent_25_loss_best_percentile50_ratio recent_25_loss_best_percentile75_ratio recent_25_loss_kurtosis recent_25_loss_percentile5_percentile25_ratio recent_25_loss_skew recent_25_loss_stddev_best_ratio recent_25_loss_stddev_median_ratio top_10%_correlation_best_percentile25_ratio top_10%_correlation_best_percentile50_ratio top_10%_correlation_best_percentile75_ratio top_10%_correlation_kurtosis top_10%_correlation_percentile5_percentile25_ratio top_10%_correlation_skew top_10%_correlation_stddev_best_ratio top_10%_correlation_stddev_median_ratio top_10%_loss_best_percentile25_ratio top_10%_loss_best_percentile50_ratio top_10%_loss_best_percentile75_ratio top_10%_loss_kurtosis top_10%_loss_percentile5_percentile25_ratio top_10%_loss_skew top_10%_loss_stddev_best_ratio top_10%_loss_stddev_median_ratio top_20%_correlation_best_percentile25_ratio top_20%_correlation_best_percentile50_ratio top_20%_correlation_best_percentile75_ratio top_20%_correlation_kurtosis top_20%_correlation_percentile5_percentile25_ratio top_20%_correlation_skew top_20%_correlation_stddev_best_ratio top_20%_correlation_stddev_median_ratio top_20%_loss_best_percentile25_ratio top_20%_loss_best_percentile50_ratio top_20%_loss_best_percentile75_ratio top_20%_loss_kurtosis top_20%_loss_percentile5_percentile25_ratio top_20%_loss_skew top_20%_loss_stddev_best_ratio top_20%_loss_stddev_median_ratio top_30%_correlation_best_percentile25_ratio top_30%_correlation_best_percentile50_ratio top_30%_correlation_best_percentile75_ratio top_30%_correlation_kurtosis top_30%_correlation_percentile5_percentile25_ratio top_30%_correlation_skew top_30%_correlation_stddev_best_ratio top_30%_correlation_stddev_median_ratio top_30%_loss_best_percentile25_ratio top_30%_loss_best_percentile50_ratio top_30%_loss_best_percentile75_ratio top_30%_loss_kurtosis top_30%_loss_percentile5_percentile25_ratio top_30%_loss_skew top_30%_loss_stddev_best_ratio top_30%_loss_stddev_median_ratio resultFilteringMode_age resultFilteringMode_loss_rank resultFilteringMode_none resultFilteringMode_random secondaryProbabilityMode_correlation secondaryProbabilityMode_fixed secondaryLockingMode_random secondaryLockingMode_top resultFilteringAgeMultiplier resultFilteringLossRankMultiplier resultFilteringRandomProbability secondaryTopLockingPercentile secondaryCorrelationExponent secondaryCorrelationMultiplier secondaryFixedProbability secondaryCutoff
feature_infos=[-2.2599:27.907] [-2.7934000000000001:21.067] [-2.5586000000000002:455.68000000000001] [-4.2568999999999999:24.715] [-2.3498999999999999:26.260000000000002] [-6.2713999999999999:8.7965] [-12.534000000000001:7.3654999999999999] [-5.0029000000000003:21.116] [-10.725:2.6657000000000002] [-6.1744000000000003:2.7290999999999999] [-3.2389999999999999:3.1406000000000001] [-3.9510999999999998:13.782999999999999] [-13.134:2.4407000000000001] [-11.209:7.2163000000000004] [-1.6432:14.999000000000001] [-2.1633:12.513999999999999] [-3.0969000000000002:2.2509999999999999] [-3.7029000000000001:1209.5999999999999] [-2.9346000000000001:165.21000000000001] [-1.9407000000000001:185.71000000000001] [-2.5076999999999998:24.446000000000002] [-4.5965999999999996:440.14999999999998] [-6.1914999999999996:8.1655999999999995] [-15.209:7.0591999999999997] [-2.9763999999999999:173.22] [-22.969999999999999:2.1663999999999999] [-13.035:2.1962999999999999] [-5.9871999999999996:2.2410999999999999] [-1.9225000000000001:2.0085999999999999] [-22.960000000000001:2.1494] [-5.7145000000000001:1.9048] [-1.6814:33.854999999999997] [-1.6659999999999999:39.265999999999998] [-4.2361000000000004:147.81] [-2.8584999999999998:437.23000000000002] [-2.2593000000000001:764.91999999999996] [-2.4695:17.149999999999999] [-5.3093000000000004:203.80000000000001] [-6.6649000000000003:6.5972] [-13.398:5.6308999999999996] [-2.8300000000000001:398.12] [-19.297999999999998:2.4704000000000002] [-11.443:2.4403000000000001] [-6.2796000000000003:2.4203999999999999] [-1.8156000000000001:20.753] [-24.052:2.4121999999999999] [-5.3388999999999998:8.2760999999999996] [-1.7755000000000001:24.943999999999999] [-1.9386000000000001:30.702000000000002] [-4.5316999999999998:352.55000000000001] [-3.2925:158.46000000000001] [-2.2231999999999998:195.77000000000001] [-2.7317:23.841999999999999] [-5.6220999999999997:439.63999999999999] [-7.3398000000000003:7.9086999999999996] [-13.52:6.3887999999999998] [-3.1112000000000002:181.81999999999999] [-16.739999999999998:2.2581000000000002] [-9.2089999999999996:2.3294999999999999] [-5.2962999999999996:2.5710000000000002] [-2.4851000000000001:6.5692000000000004] [-18.085000000000001:2.1194999999999999] [-6.9519000000000002:4.6384999999999996] [-1.8875:21.298999999999999] [-2.1884999999999999:26.402999999999999] [-3.5341:1171.9000000000001] [-2.3147000000000002:170.53] [-1.7373000000000001:48.223999999999997] [-2.1067999999999998:13.34] [-4.3086000000000002:1388.5] [-8.5375999999999994:6.3183999999999996] [-12.513999999999999:5.5088999999999997] [-2.4889000000000001:149.15000000000001] [-56.707999999999998:2.0931000000000002] [-38.712000000000003:2.3889] [-31.893000000000001:2.5979999999999999] [-2.9007999999999998:51.374000000000002] [-85.959999999999994:2.1793] [-14.044:8.0138999999999996] [-2.3786:53.401000000000003] [-2.5230999999999999:21.943999999999999] [-3.8456999999999999:743.67999999999995] [-2.8540999999999999:335.13999999999999] [-1.6635:134.72] [-2.29:15.215] [-4.7262000000000004:980.61000000000001] [-10.801:6.4522000000000004] [-14.714:6.8095999999999997] [-2.9746000000000001:315.27999999999997] [-22.797000000000001:2.3902999999999999] [-16.135999999999999:2.7244000000000002] [-13.851000000000001:2.8275000000000001] [-4.1605999999999996:54.442] [-26.574999999999999:2.4163999999999999] [-13.065:10.105] [-2.3239000000000001:52.752000000000002] [-2.5722:28.353999999999999] [-4.5740999999999996:456.94999999999999] [-3.0855000000000001:1704.5999999999999] [-1.7641:5082.5] [-2.6267999999999998:16.120000000000001] [-5.5518999999999998:540.79999999999995] [-9.2086000000000006:7.1086999999999998] [-15.65:6.1746999999999996] [-3.0865999999999998:1878.0999999999999] [-18.018999999999998:2.5855000000000001] [-13.621:2.8313000000000001] [-10.925000000000001:2.8393000000000002] [-4.5885999999999996:58.183] [-19.933:2.577] [-14.541:11.016999999999999] [-2.1088:48.893999999999998] [-2.3708999999999998:20.469000000000001] [0:1] [0:1] [0:1] [0:1] [0:1] [0:1] [0:1] [0:1] [-3:4] [-3:4] [-3:0.90000000000000002] [-3:10] [1:3] [-3:1.8] [-3:0.75] [-1:1]
tree_sizes=2609 2811 2777 2797 2810 2804 2810 2795 2812 2811 2811 2804 2834 2833 2798 2800 2830 2818 2842 2838 2830 2843 2833 2832 2844 2819 2838 2843 2825

Tree=0
num_leaves=31
num_cat=0
split_feature=77 76 59 15 66 20 100 37 59 47 15 36 45 28 40 110 105 101 6 18 65 111 57 20 46 1 53 22 77 83
split_gain=17.0415 10.1218 3.99993 3.08992 3.02005 3.17642 3.15094 2.89 1.95608 1.61737 1.51696 2.24532 2.88495 1.43811 1.30145 1.25696 1.16421 1.28453 1.11368 1.11127 1.02376 1.0087 1.04617 0.932609 0.627281 0.503361 0.637909 0.516496 0.484028 0.55365
threshold=-28.874999999999996 -2.8547499999999997 0.10435000000000001 -1.4461499999999998 -1.6983499999999998 2.5736000000000003 -0.53803499999999993 -1.5159999999999998 -3.1563999999999997 -1.3976999999999997 2.4804000000000004 -0.19216499999999997 -1.3336999999999997 -1.0374499999999998 -0.50916499999999998 0.32167500000000004 1.7693000000000003 1.95055 1.8278000000000001 -0.50681999999999994 0.17039500000000005 0.073215500000000003 -1.5902999999999998 -1.6763499999999998 -1.6349999999999998 2.0247000000000006 -0.98877499999999985 -0.78258499999999998 0.9827800000000001 -1.0784499999999999
decision_type=2 2 2 2 2 2 2 2 2 2 2 2 2 2 2 2 2 2 2 2 2 2 2 2 2 2 2 2 2 2
left_child=13 7 4 -4 5 6 -3 -2 -8 -9 11 14 -13 -1 -6 -10 17 18 23 -20 -19 -7 -23 -5 -25 26 -26 -28 29 -29
right_child=1 2 3 16 10 21 8 9 15 -11 -12 12 -14 -15 -16 -17 -18 20 19 -21 -22 22 -24 24 25 -27 27 28 -30 -31
leaf_value=1.4545833297081905 1.4454166635080721 1.4492499964514916 1.4638586920881165 1.4745833292966346 1.4888175637065375 1.4869021697529397 1.4826785679027696 1.4756499962488359 1.4718214254656976 1.4588970554275389 1.4885472929288224 1.4812499960626422 1.4553409054367379 1.4366666626636728 1.4740499965230172 1.4582196941147698 1.4927314769859215 1.4669021707506695 1.4715277744908675 1.4852499965110963 1.4806439355185086 1.4808928541137607 1.4666666631107077 1.4934239086242238 1.4891987138759943 1.4899342061292256 1.4758928536667257 1.4792499964514916 1.4899456477676161 1.4885227234018119
leaf_weight=21 24 25 23 21 37 23 21 25 35 34 37 21 22 24 25 33 27 23 36 25 33 28 24 23 39 38 28 60 23 22
leaf_count=21 24 25 23 21 37 23 21 25 35 34 37 21 22 24 25 33 27 23 36 25 33 28 24 23 39 38 28 60 23 22
internal_value=1.475 1.47662 1.47844 1.48168 1.47433 1.47019 1.46493 1.46005 1.46934 1.466 1.47984 1.47677 1.46799 1.44503 1.48286 1.46522 1.48271 1.48198 1.48322 1.47715 1.475 1.47818 1.47433 1.48468 1.48558 1.48473 1.48358 1.48193 1.48354 1.48174
internal_weight=0 835 752 421 331 189 114 83 89 59 142 105 43 45 62 68 398 371 315 61 56 75 52 254 233 210 172 133 105 82
internal_count=880 835 752 421 331 189 114 83 89 59 142 105 43 45 62 68 398 371 315 61 56 75 52 254 233 210 172 133 105 82
is_linear=0
shrinkage=1


Tree=1
num_leaves=31
num_cat=0
split_feature=13 75 15 1 103 78 16 3 100 65 95 64 55 108 29 104 101 66 93 78 128 17 0 23 78 0 65 5 101 29
split_gain=17.341 9.04744 5.40315 4.49462 3.23767 3.98378 2.25822 2.05039 2.02867 1.8576 1.84488 2.28725 1.87925 1.41584 1.37909 1.36238 1.36185 1.16791 1.24766 1.06761 0.998046 0.992072 0.940634 0.826915 0.751515 1.07066 1.12506 0.890064 0.673286 0.551665
threshold=-1.3492999999999997 -4.6749499999999991 -1.4461499999999998 -1.8932999999999998 0.82506000000000002 0.22545000000000001 -0.68012499999999998 0.74168500000000004 -0.28289999999999998 -1.1329499999999999 0.17373000000000002 3.6312000000000002 -1.7426499999999996 -2.3429499999999996 0.34488000000000002 -1.6148999999999998 -0.99135499999999988 -1.3799999999999997 -0.078737499999999988 1.4911500000000002 -1.0000000180025095e-35 -0.52773499999999995 2.4070000000000005 -0.14580499999999999 -1.4474999999999998 -1.8711499999999999 1.6380500000000002 -0.13323999999999997 0.47886500000000004 -0.73583499999999991
decision_type=2 2 2 2 2 2 2 2 2 2 2 2 2 2 2 2 2 2 2 2 2 2 2 2 2 2 2 2 2 2
left_child=1 8 -2 -3 7 -6 -7 15 -1 13 19 12 -12 -4 21 -5 20 18 -18 22 -15 -14 24 -22 -11 -26 -27 -28 29 -13
right_child=2 3 9 4 5 6 -8 -9 -10 10 11 28 14 16 -16 -17 17 -19 -20 -21 23 -23 -24 -25 25 26 27 -29 -30 -31
leaf_value=-0.038744151679178079 -0.015614991680239188 0.013585160082827012 0.013208171753212811 0.0097114413666228461 -8.4156868979334831e-05 -0.039356663301587103 -0.016142601460557095 -0.013009623016285547 -0.018754510115832092 0.0021625833319766181 0.010055163673435648 0.0064196365970102228 -0.018788547042225087 -0.0031530560659510753 0.00455832989378409 -0.0066698977893049072 -0.0025905674080485882 0.0013494974519643521 -0.01924572407521985 0.016868724474092808 0.01639197887852788 -0.0048867203182343284 0.014975952784099231 0.0023444907316430052 -0.00090275314515051634 0.015192738086694763 0.011929214457049968 -0.0029877532273530961 0.0028899156222386021 0.016772335863882496
leaf_weight=30 33 24 20 30 20 20 22 34 22 63 24 22 21 28 22 22 23 36 22 41 20 33 41 22 23 63 20 20 28 31
leaf_count=30 33 24 20 30 20 20 22 34 22 63 24 22 21 28 22 22 23 36 22 41 20 33 41 22 23 63 20 20 28 31
internal_value=0 -0.0120114 0.00410146 -0.00648623 -0.00974105 -0.0184509 -0.0271969 -0.00346188 -0.030287 0.00514583 0.00682513 0.00291645 -0.00214214 0.000706954 -0.00599392 0.00278087 -0.000948836 -0.00536305 -0.0107331 0.00943573 0.00415904 -0.010293 0.00811072 0.00903377 0.00662143 0.00885086 0.0110289 0.00447073 0.00916163 0.012475
internal_weight=0 224 656 172 148 62 42 86 52 623 452 181 100 171 76 52 151 81 45 271 70 54 230 42 189 126 103 40 81 53
internal_count=880 224 656 172 148 62 42 86 52 623 452 181 100 171 76 52 151 81 45 271 70 54 230 42 189 126 103 40 81 53
is_linear=0
shrinkage=0.05


Tree=2
num_leaves=31
num_cat=0
split_feature=73 11 65 58 102 11 1 103 100 65 61 58 83 11 56 61 102 49 83 78 16 127 4 25 99 8 55 58 101 77
split_gain=14.7819 7.63416 3.94424 3.26315 2.74159 2.59162 3.79334 1.99312 1.75606 1.73704 1.9955 1.51643 1.48572 1.88773 1.36886 1.52765 1.32946 1.19923 0.79227 1.42552 0.861907 1.38709 1.30196 1.02247 0.752099 0.73586 0.900585 0.707381 0.683156 0.646073
threshold=-25.753499999999999 -2.4649999999999994 -1.3048499999999998 -1.3149 -1.0784499999999999 -0.71757499999999985 -1.04965 0.82506000000000002 -0.26763999999999993 -1.1329499999999999 -1.1961499999999998 -2.2778999999999994 0.71897500000000003 -0.94472999999999985 -1.3489999999999998 1.0029000000000001 0.77560000000000018 0.31091000000000008 -1.0703499999999997 -0.50134499999999993 1.0000000180025095e-35 0.52500000000000013 0.92415000000000014 1.1375000000000004 0.12446500000000001 0.055659000000000007 0.25336500000000006 1.0312000000000003 1.5924000000000003 0.95254500000000009
decision_type=2 2 2 2 2 2 2 2 2 2 2 2 2 2 2 2 2 2 2 2 2 2 2 2 2 2 2 2 2 2
left_child=4 2 7 5 -1 6 -3 -2 -8 12 -11 16 13 -5 28 -16 -7 -13 20 24 23 25 -23 -12 -20 26 -22 -27 -15 -25
right_child=1 3 -4 9 -6 11 8 -9 -10 10 18 17 -14 14 15 -17 -18 -19 19 -21 21 22 -24 29 -26 27 -28 -29 -30 -31
leaf_value=-0.01411646197549999 -0.013339640607160551 0.0087272937720020618 0.0041032067779451604 0.0090903385231892279 -0.038953068368136889 0.014657087119356281 -0.025420343710316554 -0.033877983596175908 -0.0082263764727747799 -0.0059548446536064155 -0.0055526892985067059 0.0030861628241837026 0.013151413425803185 0.0068357707666499281 -0.01782464115270253 -0.0020948832798184771 1.3667044620360099e-05 -0.013830722589045764 -0.0018121311369423685 0.014923638598872468 0.013227988854050639 -0.0061482873392002335 0.009260350293838062 0.00054437573282764508 0.010749041170559148 0.019862772072000164 -0.0011380838618303339 0.010129397083073855 -0.0052634225971996788 0.011920742907871804
leaf_weight=20 27 21 20 33 25 31 27 21 33 30 31 22 20 28 29 33 31 20 26 77 20 29 26 26 22 28 24 56 20 24
leaf_count=20 27 21 20 33 25 31 27 21 33 30 31 22 20 28 29 33 31 20 26 77 20 29 26 26 22 28 24 56 20 24
internal_value=0 0.00150438 -0.0145521 0.0029279 -0.0279146 -0.00285661 -0.0095623 -0.0223252 -0.0159637 0.00476662 0.00647035 0.0023661 0.000387097 -0.00139812 -0.00454466 -0.00945235 0.00733538 -0.0049695 0.00742859 0.0107079 0.0058759 0.0077766 0.0011358 0.00158171 0.00394507 0.0106301 0.00539195 0.0133739 0.00179444 0.00600503
internal_weight=0 835 68 767 45 185 81 48 60 582 419 104 163 143 110 62 62 42 389 125 264 183 55 81 48 128 44 84 48 50
internal_count=880 835 68 767 45 185 81 48 60 582 419 104 163 143 110 62 62 42 389 125 264 183 55 81 48 128 44 84 48 50
is_linear=0
shrinkage=0.05


Tree=3
num_leaves=31
num_cat=0
split_feature=13 75 15 1 103 78 16 3 100 48 61 57 64 61 60 100 38 65 53 60 43 8 108 30 52 100 84 42 77 37
split_gain=14.3214 7.46194 4.69917 3.83572 2.71533 3.36344 1.9822 1.84083 1.81188 1.5909 1.38796 2.61168 1.93548 1.29754 0.869418 0.871086 1.05318 1.0266 1.12353 0.793819 0.692984 1.347 1.03116 0.920662 0.73909 0.68235 0.648467 0.622409 0.600212 0.466616
threshold=-1.3492999999999997 -4.6749499999999991 -1.5362999999999998 -1.8932999999999998 0.82506000000000002 0.22545000000000001 -0.68012499999999998 0.74168500000000004 -0.28289999999999998 10.506500000000001 -2.2390999999999996 -4.7489499999999998 1.2109000000000003 -3.5888499999999994 4.4398000000000009 -1.4474499999999997 2.0909500000000008 -1.1329499999999999 -0.98877499999999985 6.305600000000001 0.39093500000000009 0.16313000000000002 -1.0967999999999998 0.87328000000000017 1.0552000000000001 -1.8826499999999997 -0.46787499999999999 -0.20673999999999998 0.59774500000000008 5.7230500000000015
decision_type=2 2 2 2 2 2 2 2 2 2 2 2 2 2 2 2 2 2 2 2 2 2 2 2 2 2 2 2 2 2
left_child=1 8 -2 -3 7 -6 -7 13 -1 10 11 -4 -13 -5 15 25 17 18 -17 28 24 -22 -23 -24 27 -12 -20 -19 -16 -18
right_child=2 3 9 4 5 6 -8 -9 -10 -11 14 12 -14 -15 19 16 29 20 26 -21 21 22 23 -25 -26 -27 -28 -29 -30 -31
leaf_value=-0.035505353342353684 -0.017103813484740948 0.012644025248785815 0.012255342766318632 0.012751376302912832 -4.787761718034744e-06 -0.036309737265110019 -0.014560599602885882 -0.012200982731712216 -0.016613926720509136 -0.0062746868759859355 0.0044223656233113541 -0.020073827235028149 0.00061526075005531318 -0.0034832149161957205 0.0096177740141432343 0.0048584574833512306 0.0069419058525691862 0.0073579981719905686 -0.0015157899374819617 0.0035451384726911785 -0.0081067393104044295 -0.0053214050456881525 0.011951482242180242 0.00052715189241129775 0.00032192134083463598 0.015115814219628064 -0.013799431263690903 0.017658115569502114 0.019085550093306945 0.015936853967252234
leaf_weight=30 26 24 23 20 20 20 22 34 22 32 26 20 26 32 47 32 46 55 22 32 26 20 45 29 26 35 21 20 26 21
leaf_count=30 26 24 23 20 20 20 22 34 22 32 26 20 26 32 47 32 46 55 22 32 26 20 45 29 26 35 21 20 26 21
internal_value=0 -0.0109156 0.00372729 -0.00589788 -0.00890468 -0.016881 -0.0249173 -0.00315429 -0.0275128 0.00458699 0.00516821 -0.00150155 -0.00837999 0.00276086 0.00603818 0.00502947 0.00410044 0.00281912 -0.00223553 0.0101115 0.00453449 0.00196584 0.00475187 0.00747438 0.00758636 0.010558 -0.00751478 0.0101047 0.0129899 0.00976122
internal_weight=0 224 656 172 148 62 42 86 52 630 598 69 46 52 529 424 363 296 75 105 221 120 94 74 101 61 43 75 73 67
internal_count=880 224 656 172 148 62 42 86 52 630 598 69 46 52 529 424 363 296 75 105 221 120 94 74 101 61 43 75 73 67
is_linear=0
shrinkage=0.05


Tree=4
num_leaves=31
num_cat=0
split_feature=73 76 102 37 39 27 93 48 64 2 31 108 94 115 92 93 47 12 52 78 76 39 44 9 84 29 126 60 101 90
split_gain=12.1629 6.91925 2.48898 2.45843 2.37288 2.05011 1.65999 2.54176 1.58451 1.44312 1.4377 1.32835 1.28342 0.961763 1.20101 1.11214 1.34721 1.01596 0.778458 0.772202 1.14764 0.71052 0.808066 0.679371 0.656577 0.613386 0.981164 0.5943 0.414256 0.362895
threshold=-25.753499999999999 -2.8547499999999997 -1.0784499999999999 -1.5159999999999998 3.7201000000000004 -4.3576499999999987 -0.97101999999999988 2.5063500000000003 -0.054494499999999994 4.9076500000000012 -0.49663999999999991 2.0911500000000003 1.1205500000000004 1.0000000180025095e-35 -0.6799599999999999 1.8931000000000002 -1.3564499999999997 -1.2409499999999998 -0.18569999999999998 -1.0065999999999997 0.050536500000000005 -1.9170999999999998 0.021115500000000006 0.9824750000000001 1.8764000000000003 0.8008900000000001 0.50000000000000011 -0.76238499999999987 0.53513500000000003 0.056391500000000004
decision_type=2 2 2 2 2 2 2 2 2 2 2 2 2 2 2 2 2 2 2 2 2 2 2 2 2 2 2 2 2 2
left_child=2 3 -1 -2 5 -3 7 8 10 13 -7 -10 -5 15 18 16 28 -18 -15 -9 -21 -19 27 29 25 -24 -27 -23 -8 -16
right_child=1 4 -4 12 -6 6 9 19 11 -11 -12 -13 -14 14 23 -17 17 21 -20 20 -22 22 24 -25 -26 26 -28 -29 -30 -31
leaf_value=-0.012174093220382929 -0.025827693508472294 -0.0088014499030329967 -0.035838828064501289 -0.012533662151041869 -0.012935700316144072 -0.0060906968633266728 0.012297506810611357 0.013602950449647575 -0.016539707933278646 -0.0047988586428184665 0.007847858431774218 -0.0013572086542844774 0.0027163010545667599 0.0024921683501452209 0.0058446355815976866 -0.0035681435838341713 -0.0013147934650381407 0.015249573575953643 -0.011458261143416167 0.0096035060073648183 -0.0042645987624732344 0.0056077451809592874 0.012284900029671603 0.0018134062461878941 -0.0033266069367527962 0.0085578719981842574 -0.0046627398256374446 0.016077730962724395 0.020917012318968774 0.015255457792608514
leaf_weight=20 24 33 25 37 23 37 46 29 34 31 37 25 22 20 20 20 33 30 20 35 26 23 29 46 22 36 23 33 20 21
leaf_count=20 24 33 25 37 23 37 46 29 34 31 37 25 22 20 20 20 33 30 20 35 26 23 29 46 22 36 23 33 20 21
internal_value=0 0.00136461 -0.0253212 -0.0123356 0.00287673 0.00337562 0.00395298 0.000396697 -0.00399448 0.00562962 0.000878581 -0.0101064 -0.00684724 0.00636103 0.00268781 0.00784197 0.00861554 0.00680157 -0.00448305 0.00688587 0.00369251 0.0081681 0.00688832 0.00598476 0.00439925 0.00633071 0.00340407 0.0117776 0.0149095 0.0106648
internal_weight=0 835 45 83 752 729 696 223 133 473 74 59 59 442 127 315 295 229 40 90 61 196 166 87 110 88 59 56 66 41
internal_count=880 835 45 83 752 729 696 223 133 473 74 59 59 442 127 315 295 229 40 90 61 196 166 87 110 88 59 56 66 41
is_linear=0
shrinkage=0.05


Tree=5
num_leaves=31
num_cat=0
split_feature=13 75 14 66 100 124 51 100 59 13 77 48 75 84 73 52 31 59 63 73 42 37 43 12 73 62 125 55 28 62
split_gain=12.045 6.20278 3.88865 3.38451 2.98132 2.35868 2.2488 1.62714 1.58966 1.52876 1.71427 1.27083 1.00301 0.995195 0.939587 1.37983 0.862799 0.829425 0.954495 0.748648 0.6657 0.754392 0.816493 0.742269 0.709933 0.697244 0.76826 0.635349 0.609714 0.496469
threshold=-1.3492999999999997 -4.6749499999999991 -1.2797499999999997 -1.6983499999999998 1.3236500000000002 1.0000000180025095e-35 -1.1194499999999998 -0.28289999999999998 0.18562500000000001 -0.72837999999999992 -0.42048499999999994 10.824500000000002 0.54490500000000008 -1.48715 0.52078000000000013 0.18376500000000004 0.21423500000000004 2.0827000000000004 -0.62490999999999985 -2.2722499999999997 1.1471000000000002 0.84547000000000005 0.39093500000000009 0.41058000000000006 0.66693000000000013 -0.023978499999999996 1.7500000000000002 -1.7055499999999999 0.069971500000000006 0.68543000000000009
decision_type=2 2 2 2 2 2 2 2 2 2 2 2 2 2 2 2 2 2 2 2 2 2 2 2 2 2 2 2 2 2
left_child=1 7 -2 4 6 -5 -3 -1 9 10 -4 13 -8 -11 15 19 -16 20 -19 -15 21 22 24 -24 -10 -22 -27 -17 -25 -29
right_child=2 3 8 5 -6 -7 12 -9 17 11 -12 -13 -14 14 16 27 -18 18 -20 -21 25 -23 23 28 -26 26 -28 29 -30 -31
leaf_value=-0.032716891368230187 -0.017247479506344959 -0.0033964763209223744 -0.016745050899360493 0.015293616525552892 0.0014037356474373892 -0.0052424827012522469 -0.015439635434498389 -0.0148144335443662 0.0040301188176801042 -0.0060654844778279468 0.0021694909110665322 -0.0087226026824542471 -0.029153294997619622 0.015711679452886949 0.0052467589911360012 0.0052036212050709241 0.018700637185776775 0.0055509978317116442 -0.0077315471534218118 0.0028444167226552965 0.0045767157627590776 0.010156666050138681 -0.0064645356713579254 0.0098041165620088577 0.014625801324844361 0.0087267258204519749 0.020067578953291691 -0.010212901551276446 -0.00060471492436002289 -0.00017072706832550467
leaf_weight=30 22 25 23 27 37 29 30 22 43 21 25 21 24 26 26 29 22 38 21 20 29 69 26 24 25 32 28 20 34 32
leaf_count=30 22 25 23 27 37 29 30 22 43 21 25 21 24 26 26 29 22 38 21 20 29 69 26 24 25 32 28 20 34 32
internal_value=0 -0.0100106 0.00341825 -0.00543573 -0.010309 0.00465885 -0.0157947 -0.0251428 0.00413535 0.00118097 -0.00689373 0.00296708 -0.0215346 0.00421954 0.00545375 0.00320138 0.0114131 0.00625707 0.000823312 0.0101172 0.00729124 0.00582086 0.00385264 0.000555483 0.00792559 0.0109424 0.0140191 -0.000726127 0.00370239 -0.0040331
internal_weight=0 224 656 172 116 56 79 52 634 265 48 217 54 196 175 127 48 369 59 46 310 221 152 84 68 89 60 81 58 52
internal_count=880 224 656 172 116 56 79 52 634 265 48 217 54 196 175 127 48 369 59 46 310 221 152 84 68 89 60 81 58 52
is_linear=0
shrinkage=0.05


Tree=6
num_leaves=31
num_cat=0
split_feature=73 76 59 33 15 5 15 111 55 57 55 42 42 70 36 51 61 128 89 6 128 101 101 33 38 20 58 52 35 61
split_gain=9.96401 5.61571 2.24868 2.05982 2.00303 1.92817 2.30111 2.27196 2.12539 1.99691 1.87966 1.8474 1.4658 1.34221 1.24429 1.13876 1.08618 1.053 0.929298 0.870741 0.974858 0.659338 1.14141 0.641363 0.729144 0.561042 0.496884 0.489408 0.422966 0.793877
threshold=-25.753499999999999 -2.8547499999999997 0.10435000000000001 -1.5063999999999997 -1.4461499999999998 -2.3532999999999995 2.0318500000000004 -0.94023499999999993 -1.2644499999999999 -1.5902999999999998 -0.33681999999999995 -1.5399999999999998 -2.6457499999999996 0.88065500000000008 -0.27987499999999993 -1.0007249999999999 0.4623850000000001 -1.0000000180025095e-35 1.7382500000000001 2.1279500000000007 -1.0000000180025095e-35 1.95055 5.132950000000001 -0.27881499999999998 2.0140000000000007 -1.6763499999999998 0.14835500000000004 1.6738500000000001 -0.98330999999999991 0.38116500000000003
decision_type=2 2 2 2 2 2 2 2 2 2 2 2 2 2 2 2 2 2 2 2 2 2 2 2 2 2 2 2 2 2
left_child=11 3 5 -2 -4 -3 7 -7 9 -9 -10 -1 -12 27 -14 -5 23 -17 19 21 -21 25 -23 -15 -25 -6 -27 -8 29 -28
right_child=1 2 4 15 18 6 13 8 10 -11 12 -13 14 16 -16 17 -18 -19 -20 20 -22 22 -24 24 -26 26 28 -29 -30 -31
leaf_value=-0.011591738173738124 -0.024641446322614988 0.011828788588273116 -0.0093249100786836261 0.0029452005578648479 -0.00032823438840833582 0.010185167016461492 0.014099368519548858 0.0083426448125993053 -0.026061192881315948 -0.010650315955281257 -0.020120558333583179 -0.031979579031467441 0.0041052107311164345 0.0088185099214315426 -0.011682681402621362 -0.019583560535684229 -0.010800068904645741 -0.0035528623676371013 0.014633514625685557 -0.0064874762128437728 0.0059535209089517597 -0.0062264999231466884 0.0088945918406049419 -0.0075778540562499649 0.0056130632199347021 0.014273106133831398 0.0017006455255406247 0.0040018412151506975 0.004495329962133668 0.011303907853140626
leaf_weight=20 21 29 23 21 22 20 28 31 20 25 20 25 24 25 26 20 20 21 28 31 32 26 24 22 20 28 28 21 86 93
leaf_count=20 21 29 23 21 22 20 28 31 20 25 20 25 24 25 26 20 20 21 28 31 32 26 24 22 20 28 28 21 86 93
internal_value=0 0.00123512 0.00259738 -0.0111073 0.00502174 -0.000486183 -0.00166875 -0.00561923 -0.00778422 -0.000136356 -0.0125429 -0.0229183 -0.00868051 0.00315317 -0.00410449 -0.0065231 -0.000574599 -0.0113727 0.00585082 0.00518618 -0.00016824 0.00628497 0.00103162 0.00247778 -0.00129646 0.00730703 0.00802182 0.00977186 0.00717623 0.00908167
internal_weight=0 835 752 83 421 331 302 166 146 56 90 45 70 136 50 62 87 41 398 370 63 307 50 67 42 257 235 49 207 121
internal_count=880 835 752 83 421 331 302 166 146 56 90 45 70 136 50 62 87 41 398 370 63 307 50 67 42 257 235 49 207 121
is_linear=0
shrinkage=0.05


Tree=7
num_leaves=31
num_cat=0
split_feature=13 66 103 4 62 65 59 12 79 98 93 61 26 85 18 62 64 4 83 85 127 44 60 49 59 3 36 37 28 101
split_gain=9.98888 4.60703 3.21655 3.58542 2.4595 2.21431 1.73603 1.45808 2.44745 2.00697 1.70314 1.2208 1.93818 1.19481 1.01044 1.4741 0.94764 0.852544 0.96113 0.940833 0.944338 0.852375 0.70588 0.691083 0.532064 0.543265 0.527027 0.488929 0.482147 0.386553
threshold=-1.3492999999999997 -1.6983499999999998 0.82506000000000002 0.55701000000000012 -1.8253999999999999 -1.1329499999999999 -2.3128999999999995 1.1096000000000001 -1.2735999999999998 -1.0346499999999998 0.66777000000000009 -1.1961499999999998 -1.9816999999999998 0.081675500000000012 -1.0082499999999996 1.1609500000000001 1.3658000000000003 1.1183500000000002 -1.0703499999999997 -0.38124999999999992 0.52500000000000013 1.6487500000000004 4.1170500000000008 -0.58619499999999991 2.0100500000000001 -1.3405999999999998 0.43835500000000005 -1.0547999999999997 -0.17096999999999998 0.41318500000000008
decision_type=2 2 2 2 2 2 2 2 2 2 2 2 2 2 2 2 2 2 2 2 2 2 2 2 2 2 2 2 2 2
left_child=1 2 3 13 -3 7 -4 8 -2 -9 14 12 28 -1 15 -10 -14 18 19 21 24 -13 26 -8 25 -21 27 -20 -7 -19
right_child=5 4 6 -5 -6 11 23 9 10 -11 -12 17 16 -15 -16 -17 -18 29 22 20 -22 -23 -24 -25 -26 -27 -28 -29 -30 -31
leaf_value=-0.0042900000636776287 0.014974925688539559 -0.011177633460611106 -0.011780936571515421 -0.018673552101891904 0.010484468294797759 0.013221745677292347 -0.021293979317236408 -0.020070421221581373 -0.008392216749966909 0.00063611852377653123 -0.013271717773750425 -0.008153312525246292 -0.013902208941057327 0.011487146401777865 0.0087565712009867024 0.0073572641393790652 0.00032629637386311186 0.012780573023964875 0.0042729149237275129 0.016006695543942247 -0.0029453582396464693 0.0041685927323997021 0.016161783800149956 -0.033489148230070161 0.00080993388864127069 0.0065604344507058463 0.00020337714037547508 0.014161589041352271 0.002242821138352156 0.0066429777718756515
leaf_weight=30 26 20 33 36 38 20 26 22 39 25 26 32 25 20 30 24 22 58 25 23 28 25 24 21 22 45 24 25 20 46
leaf_count=30 26 20 33 36 38 20 26 22 39 25 26 32 25 20 30 24 22 58 25 23 28 25 24 21 22 45 24 25 20 46
internal_value=0 -0.00911622 -0.0133548 -0.00664192 0.00301478 0.00311286 -0.0205711 -0.00140306 0.00107764 -0.0090563 -0.00195874 0.00498151 -0.000357303 0.00202086 0.00120403 -0.00239241 -0.00724206 0.00621355 0.004746 0.00252589 0.00507392 -0.00274897 0.00871047 -0.0267429 0.0075688 0.00975549 0.00629383 0.00921725 0.00773228 0.0100659
internal_weight=0 224 166 86 58 656 80 192 145 47 119 464 87 50 93 63 47 377 273 175 118 57 98 47 90 68 74 50 40 104
internal_count=880 224 166 86 58 656 80 192 145 47 119 464 87 50 93 63 47 377 273 175 118 57 98 47 90 68 74 50 40 104
is_linear=0
shrinkage=0.05


Tree=8
num_leaves=31
num_cat=0
split_feature=13 75 15 66 103 14 3 26 51 75 48 0 100 77 0 126 35 15 15 30 17 127 92 13 110 108 104 40 81 35
split_gain=9.01497 4.87904 3.22472 2.60549 2.25279 2.07118 1.48003 1.36326 1.27273 1.11805 1.16528 1.2584 1.26986 1.04435 0.879041 0.799378 0.799187 0.750321 2.06656 1.09339 1.00218 0.837411 0.650283 0.633803 0.54992 0.541385 0.448197 0.417094 0.414859 0.414463
threshold=-1.3492999999999997 -4.6749499999999991 -1.5362999999999998 -0.98597999999999997 0.82506000000000002 -0.32707499999999995 0.88979500000000011 -3.1853499999999997 -1.1091499999999999 1.7775500000000002 10.506500000000001 2.4070000000000005 -1.4474499999999997 1.6942000000000002 1.8703500000000002 0.70000000000000007 8.5580500000000033 1.0000000180025095e-35 -0.44351999999999997 -0.20160499999999998 -0.74009499999999984 0.67500000000000016 0.12177 2.0988500000000005 -1.2946999999999997 1.0151500000000002 -0.6037499999999999 -0.16672999999999996 -1.0099999999999998 -0.89928999999999981
decision_type=2 2 2 2 2 2 2 2 2 2 2 2 2 2 2 2 2 2 2 2 2 2 2 2 2 2 2 2 2 2
left_child=1 7 -2 4 6 -6 8 -1 -3 10 11 12 15 14 16 28 17 18 19 23 -21 24 -13 -14 -19 26 29 -22 -4 -26
right_child=2 3 9 -5 5 -7 -8 -9 -10 -11 -12 22 13 -15 -16 -17 -18 21 -20 20 27 -23 -24 -25 25 -27 -28 -29 -30 -31
leaf_value=-0.015680875396355987 -0.01429908415839936 0.011148528118307393 0.0084235893424462385 0.0087855827684203795 -0.025826215960085393 -0.0068680795854614944 -0.012007743621674869 -0.032321544075384734 -0.0039840729399160902 0.011868972288301359 -0.0063080749527040514 0.0039353865679004228 0.01357916314797155 -0.0095874989964067937 -0.0056667372584342963 0.0021187748759984972 -0.0068334298301488162 0.013355616120887655 -0.013709446814443386 -0.008046391638445444 0.0090213509808693606 -0.0026838675284614928 0.013137139461468906 0.0029338087748598169 0.0076556198814130838 -0.00038667831184535195 0.012361383203777575 -0.00094399709431898038 0.017793796233655439 -0.00093820702284574508
leaf_weight=32 26 24 27 30 25 34 26 20 33 39 31 32 29 20 33 30 20 28 21 29 21 26 48 27 47 29 31 21 21 20
leaf_count=32 26 24 27 30 25 34 26 20 33 39 31 32 29 20 33 30 20 28 21 29 21 26 48 27 47 29 31 21 21 20
internal_value=0 -0.00866041 0.00295721 -0.00460299 -0.00743156 -0.0149012 -0.00212182 -0.0220811 0.00238755 0.00366938 0.00312829 0.00365066 0.00268303 0.00155021 0.00213334 0.00852141 0.00287088 0.00346081 0.000820198 0.00322274 -0.000897478 0.00561998 0.00945644 0.00844658 0.00701288 0.00561448 0.00739034 0.00403868 0.0125231 0.0050903
internal_weight=0 224 656 172 142 59 83 52 57 630 591 560 480 402 382 78 349 329 148 127 71 181 80 56 155 127 98 42 48 67
internal_count=880 224 656 172 142 59 83 52 57 630 591 560 480 402 382 78 349 329 148 127 71 181 80 56 155 127 98 42 48 67
is_linear=0
shrinkage=0.05


Tree=9
num_leaves=31
num_cat=0
split_feature=13 75 15 1 78 16 110 25 75 48 0 13 1 74 55 53 15 9 30 70 7 0 23 30 30 14 92 76 101 85
split_gain=8.13601 4.40333 2.93209 2.5529 1.83201 2.23167 2.03704 1.51435 1.21463 1.06621 1.10961 0.915957 1.55769 1.19782 0.929538 0.946316 0.966303 0.869191 0.811963 0.74189 0.760992 0.738948 0.662358 0.682405 0.646075 0.616031 0.58688 0.567124 0.685843 0.506665
threshold=-1.3492999999999997 -4.6749499999999991 -1.4461499999999998 -1.8932999999999998 1.5865000000000002 -1.0978299999999999 0.73128500000000007 -4.0266499999999992 1.7775500000000002 10.506500000000001 2.4070000000000005 -0.46297499999999997 0.39577000000000007 -0.90011499999999989 0.30936000000000002 3.0758000000000005 3.3683500000000008 -0.0059522499999999992 -0.19332999999999997 -1.3095999999999999 -0.45066499999999993 0.095098500000000016 0.98079500000000019 -0.17397499999999996 1.4519000000000002 -0.76956499999999994 0.12177 -0.61166999999999982 -1.0299499999999997 -0.098961499999999994
decision_type=2 2 2 2 2 2 2 2 2 2 2 2 2 2 2 2 2 2 2 2 2 2 2 2 2 2 2 2 2 2
left_child=1 7 -2 -3 6 -6 -5 -1 9 10 11 12 13 -4 18 16 22 -15 27 -20 -21 -7 25 -24 -22 -16 -12 -13 -29 -30
right_child=2 3 8 4 5 21 -8 -9 -10 -11 26 14 -14 17 15 -17 -18 -19 19 20 24 -23 23 -25 -26 -27 -28 28 29 -31
leaf_value=-0.013954269813914453 -0.011714909613047811 0.010753985168412328 -0.0065418882080568721 0.0082340905217058724 -0.022522234443264705 0.00032662932450572648 -0.010101669321634942 -0.031344075155045302 0.012493592019503315 -0.0059926710880151201 0.0037386171414254933 0.016564736925065517 -0.012794427014887333 0.013709502003115158 0.0019266325402362593 -0.0087434276853772721 0.010550835092776809 -0.00036005670470850811 -0.0051436125341316925 0.010355237546704107 -0.0057539230301266626 -0.011075128087153038 0.010630170830215018 -0.00045050054675701895 0.0060374464696416495 -0.0082117104362095569 0.012480282480828464 0.015097517972545965 -0.00022516943642805363 0.0086016161266613666
leaf_weight=31 33 24 26 33 30 27 28 21 36 31 32 20 24 23 29 22 29 21 23 37 21 30 24 33 26 31 48 21 29 37
leaf_count=31 33 24 26 33 30 27 28 21 36 31 32 20 24 23 29 22 29 21 23 37 21 30 24 33 26 31 48 21 29 37
internal_value=0 -0.00822739 0.00280935 -0.00437284 -0.00682584 -0.0114839 -0.000182324 -0.0209771 0.0035787 0.00303196 0.00353513 0.00261942 -0.00180211 0.00196669 0.00370743 0.000923724 0.00238042 0.00699449 0.00589278 0.00281292 0.00499149 -0.0056743 0.000355273 0.00421505 0.000768962 -0.00331151 0.00898362 0.00897264 0.00722733 0.00472318
internal_weight=0 224 656 172 148 87 61 52 623 587 556 476 94 70 382 168 146 44 214 107 84 57 117 57 47 60 80 107 87 66
internal_count=880 224 656 172 148 87 61 52 623 587 556 476 94 70 382 168 146 44 214 107 84 57 117 57 47 60 80 107 87 66
is_linear=0
shrinkage=0.05


Tree=10
num_leaves=31
num_cat=0
split_feature=14 77 71 59 103 5 63 111 22 84 61 53 20 88 61 6 3 17 60 62 45 54 98 59 76 33 103 51 39 36
split_gain=6.70101 4.72387 3.83904 2.28702 2.10548 2.04 2.0848 1.92996 2.05734 2.08406 1.28861 1.24841 0.870746 1.32947 0.777795 0.676211 1.777 1.52038 0.6168 0.718312 0.65087 0.56197 0.461444 0.602053 0.44483 0.415798 0.819917 0.777885 0.352779 0.406027
threshold=-1.4376999999999998 -28.874999999999996 4.4155500000000005 0.10435000000000001 0.67630500000000005 -2.3532999999999995 2.7444500000000005 -0.94023499999999993 2.1780000000000004 1.4127500000000002 -4.491299999999999 5.0580000000000007 0.34221500000000005 -1.5313499999999998 0.48589000000000004 2.1279500000000007 -0.081825999999999996 -1.1732499999999997 6.305600000000001 2.7162500000000005 -1.0245999999999997 0.6792100000000002 -1.0194999999999996 0.74673000000000012 0.33486500000000002 1.2422000000000002 1.0101000000000002 1.0000000180025095e-35 1.7018500000000001 1.8805500000000002
decision_type=2 2 2 2 2 2 2 2 2 2 2 2 2 2 2 2 2 2 2 2 2 2 2 2 2 2 2 2 2 2
left_child=-1 -2 3 5 -4 -3 7 -7 9 10 -9 14 13 -12 21 18 17 -17 19 20 -5 -8 28 -24 -23 26 27 -25 29 -22
right_child=1 2 4 15 -6 6 11 8 -10 -11 12 -13 -14 -15 -16 16 -18 -19 -20 -21 22 24 23 25 -26 -27 -28 -29 -30 -31
leaf_value=-0.026057331489088637 -0.016996530053438621 0.011924715600907803 -0.00082727982768450274 -0.0013400206225924194 -0.021844168100506069 0.0072286209298504725 0.010961452298896744 0.0047739981584960511 0.0066280507766034299 -0.021436585614393499 -0.014288491469904267 -0.0067666513086469086 -0.017894438821600661 -7.3177657874399103e-05 -0.0037632117210887371 -0.015137286251410843 0.013232054403051736 0.0023335090584375644 -0.00077030838583596055 0.011332865592633044 0.014114652449643474 0.0076010420416983276 0.011134526378440637 -0.0072344897653568874 -0.0021830301909219652 0.0077380564684669181 0.0094425911456346521 0.0049033325165510179 0.0034769810736179352 0.0056579366114667875
leaf_weight=24 36 30 22 32 26 27 47 21 23 29 29 27 21 38 20 20 20 33 32 62 40 26 27 33 21 30 20 22 20 22
leaf_count=24 36 30 22 32 26 27 47 21 23 29 29 27 21 38 20 20 20 33 32 62 40 26 27 33 21 30 20 22 20 22
internal_value=0 0.000730579 0.00150884 0.00236192 -0.0122114 -0.000557019 -0.00169517 -0.00514212 -0.00721672 -0.00952418 -0.00635483 0.00290077 -0.00901057 -0.00622607 0.00519042 0.0048992 0.000532893 -0.00425924 0.00583667 0.00652311 0.0053109 0.00709544 0.00630543 0.00447546 0.00322944 0.00276313 0.00077316 -0.00237936 0.00925122 0.0111139
internal_weight=0 856 820 772 48 359 329 188 161 138 109 141 88 67 114 413 73 53 340 308 246 94 214 132 47 105 75 55 82 62
internal_count=880 856 820 772 48 359 329 188 161 138 109 141 88 67 114 413 73 53 340 308 246 94 214 132 47 105 75 55 82 62
is_linear=0
shrinkage=0.05


Tree=11
num_leaves=31
num_cat=0
split_feature=73 76 102 37 39 27 94 45 43 82 1 15 37 33 68 78 6 78 15 61 9 73 42 7 110 0 78 80 47 78
split_gain=6.22329 3.36275 2.11612 1.77381 1.66364 1.55338 1.0415 1.03487 1.15385 1.23792 1.15391 1.89031 1.53248 0.96932 1.20295 1.59085 1.02769 0.894893 1.06325 0.662271 0.695451 0.648865 0.597596 0.590394 0.588929 0.581106 0.579295 0.570363 0.539662 0.493733
threshold=-25.753499999999999 -2.8547499999999997 -1.0784499999999999 -1.5159999999999998 3.7201000000000004 -4.6647999999999987 1.1205500000000004 -0.59753999999999985 0.59110000000000007 0.24431000000000003 -1.4171499999999997 2.1835000000000004 0.40164000000000005 -0.19459499999999999 -1.3636499999999998 2.4529500000000009 1.8007500000000001 1.6213000000000002 -0.69819999999999982 1.0322500000000001 0.94039000000000017 0.31411500000000009 1.0000000180025095e-35 -0.98256999999999983 1.6535000000000002 1.2027000000000003 -1.2505499999999998 2.3352500000000003 0.19859500000000005 -0.58944499999999989
decision_type=2 2 2 2 2 2 2 2 2 2 2 2 2 2 2 2 2 2 2 2 2 2 2 2 2 2 2 2 2 2
left_child=2 3 -1 -2 5 -3 -5 8 9 10 -7 12 -12 16 -15 25 19 18 -18 21 -21 22 -9 -22 -13 26 -16 -11 -28 -27
right_child=1 4 -4 6 -6 7 -8 13 -10 27 11 24 -14 14 15 -17 17 -19 -20 20 23 -23 -24 -25 -26 29 28 -29 -30 -31
leaf_value=-0.0059899967117235074 -0.02003529964325329 -0.010339448394496804 -0.02781030607223511 -0.0090353944640908703 -0.011209822834833809 0.0088545463755726819 0.0047022929944267331 0.013011449200677731 -0.011017247828255807 0.01249603267823314 -0.017703639589860265 0.0052153089808093175 -0.0017130740454435471 -0.0078462257877358107 -0.0025967067852616312 -0.0091211668519384191 0.004546691691502929 0.0093482643365859989 -0.011757103328127414 0.010997399732922063 -0.0020380110195320515 0.015167545272531557 0.0014619021967519075 0.0083586151542311363 -0.004828657861799002 0.013374821220835052 0.0084148836341531325 0.0024913052196747494 -0.00022397927682975242 0.004376954804625242
leaf_weight=20 24 23 25 37 23 25 22 21 21 29 29 54 31 28 35 23 20 20 20 33 36 49 24 22 20 30 48 28 29 31
leaf_count=20 24 23 25 37 23 25 22 21 21 29 29 54 31 28 35 23 20 20 20 33 36 49 24 22 20 30 48 28 29 31
internal_value=0 0.000976117 -0.0181124 -0.00857478 0.00203027 0.002448 -0.00391287 0.00286459 0.000171669 0.00125948 -0.00100688 -0.0028467 -0.00944185 0.0042254 0.00184814 0.00323305 0.00639889 0.000712618 -0.00360521 0.00824309 0.00520259 0.0111866 0.00685169 0.00190554 0.00250072 0.00487552 0.00273691 0.00758143 0.00516129 0.00880214
internal_weight=0 835 45 83 752 729 59 706 237 216 159 134 60 469 224 196 245 60 40 185 91 94 45 58 74 173 112 57 77 61
internal_count=880 835 45 83 752 729 59 706 237 216 159 134 60 469 224 196 245 60 40 185 91 94 45 58 74 173 112 57 77 61
is_linear=0
shrinkage=0.05


Tree=12
num_leaves=31
num_cat=0
split_feature=14 73 71 103 20 79 16 16 44 127 27 6 81 60 103 43 58 89 108 128 43 81 60 100 128 10 8 1 125 22
split_gain=5.77701 3.98549 3.2719 1.88853 1.88816 1.71816 2.59798 2.77163 2.34868 0.982374 2.00443 1.40953 0.811871 0.792974 0.780184 0.607568 0.914801 0.7714 0.725713 0.824435 0.778875 0.567995 0.663543 0.65091 0.617122 0.665881 0.695654 0.596249 0.669474 0.593596
threshold=-1.4376999999999998 -23.103999999999996 4.4155500000000005 0.67630500000000005 -0.17012499999999997 -0.25569999999999998 -1.0978299999999999 -2.4950499999999995 -0.97326999999999997 0.52500000000000013 -0.05868799999999999 0.085856000000000016 6.7441000000000004 6.2120500000000005 -0.8207899999999998 -3.3192499999999998 -0.032388499999999994 -2.1785499999999995 5.3090500000000009 1.0000000180025095e-35 -1.1682499999999998 2.5680500000000004 4.1170500000000008 -1.4275499999999999 -0.6499999999999998 0.50467000000000006 0.72593000000000008 0.021110500000000004 1.7500000000000002 -0.95453999999999983
decision_type=2 2 2 2 2 2 2 2 2 2 2 2 2 2 2 2 2 2 2 2 2 2 2 2 2 2 2 2 2 2
left_child=-1 4 5 -4 -2 12 7 -7 -9 15 11 -11 13 21 -12 17 18 -8 19 -17 -21 22 23 29 -25 26 -26 28 -27 -3
right_child=1 2 3 -5 -6 6 9 8 -10 10 14 -13 -14 -15 -16 16 -18 -19 -20 20 -22 -23 -24 24 25 27 -28 -29 -30 -31
leaf_value=-0.024194203952599008 -0.0038679384440183638 0.015868197787891735 -0.00044899912741543221 -0.020353657462132666 -0.025594401592388752 0.0041838285629637543 0.016118750153109433 -0.028667150136260762 -0.0050195236202506795 -0.0011172255275375916 -0.0010848118790558407 -0.016369567764922977 -0.0022726512035808051 -0.0040962762315757571 0.012244917936218173 0.0028244045893906764 0.0062451237418195788 0.0026921790255152664 0.0076534064575320198 0.00060188172385096557 -0.012224024442698935 0.013249052792357711 0.012174110633857323 -0.0036910447714574358 0.0018392966873943808 -0.0065729283361828754 0.013726462243357674 0.0066887428716538438 0.0034568323140464182 0.0048039887238431863
leaf_weight=24 20 22 22 26 20 25 20 21 21 33 21 28 37 20 23 38 85 23 21 20 29 26 33 27 20 28 32 47 41 27
leaf_count=24 20 22 22 26 20 25 20 21 21 33 21 28 37 20 23 38 85 23 21 20 29 26 33 27 20 28 32 47 41 27
internal_value=0 0.000678342 0.00143371 -0.0112307 -0.0147312 0.00222524 3.75432e-06 -0.00899738 -0.0168433 0.00177231 -0.00225109 -0.0081183 0.00474291 0.00554655 0.005883 0.00356237 0.0023649 0.0089371 -0.000688983 -0.00270266 -0.00698896 0.00618304 0.00551981 0.00461984 0.0033253 0.00445293 0.00915448 0.00234534 -0.000613215 0.00977159
internal_weight=0 856 816 48 40 768 408 67 42 341 105 61 360 323 44 236 193 43 108 87 49 303 277 244 195 168 52 116 69 49
internal_count=880 856 816 48 40 768 408 67 42 341 105 61 360 323 44 236 193 43 108 87 49 303 277 244 195 168 52 116 69 49
is_linear=0
shrinkage=0.05


Tree=13
num_leaves=31
num_cat=0
split_feature=13 1 72 15 110 35 102 87 101 109 48 71 45 74 22 127 93 98 73 59 115 62 41 103 12 59 16 92 103 68
split_gain=5.74581 3.21044 2.33095 2.17919 2.08879 1.60035 1.24847 1.0683 1.38228 0.960908 0.883612 0.654105 0.669859 1.02713 1.2727 1.03622 0.712944 0.887547 0.695662 0.475212 0.694872 0.747743 0.776096 0.716306 0.603838 0.863035 0.548883 0.531732 0.460855 0.317427
threshold=-1.3492999999999997 -0.93123999999999996 -1.5788999999999997 -1.4461499999999998 2.6411000000000002 -1.7410999999999996 1.5068000000000004 0.47132000000000002 -0.61128999999999989 1.8482000000000001 10.506500000000001 3.1929500000000002 -0.69684999999999986 -0.032604999999999995 -1.3206999999999998 0.52500000000000013 -4.6552499999999997 -0.51373499999999994 -3.8201999999999994 2.0616500000000006 1.0000000180025095e-35 -1.0014549999999998 0.68866500000000008 0.42707000000000001 0.056110500000000008 1.2540500000000001 -1.0978299999999999 0.85452000000000006 -1.0863999999999998 -0.39020499999999997
decision_type=2 2 2 2 2 2 2 2 2 2 2 2 2 2 2 2 2 2 2 2 2 2 2 2 2 2 2 2 2 2
left_child=1 5 4 -2 6 -1 7 -3 -9 10 11 12 13 14 -5 16 -16 -18 -14 20 21 -20 27 24 -22 -26 -21 29 -24 -23
right_child=3 2 -4 9 -6 -7 -8 8 -10 -11 -12 -13 18 -15 15 -17 17 -19 19 26 23 22 28 -25 25 -27 -28 -29 -30 -31
leaf_value=-0.0066245645533005403 -0.010160513177062527 -0.027220207733898862 0.0018729213167559999 -0.011134313095360995 -0.00022602360999292656 0.008736085615610371 -0.008098160120626462 -0.0055803139135241512 -0.023742420511553064 0.013537846518946545 -0.0055638983274900154 -0.005556856823109445 0.013274240663105792 0.0089043035757530361 0.01040960741980422 -0.0054732669061288621 -0.0043343569908756768 0.00909259045496583 0.00012611943465243612 -0.0054334444459527738 0.0054635649267584093 0.0037351370276883251 0.004782101181335748 0.007207268524382796 -0.012648691842332483 0.0015529787694306477 0.0045712861601777113 -0.00021373935125987322 0.013477444712771104 0.012536688752117612
leaf_weight=30 33 32 29 25 23 39 29 20 22 21 31 21 22 33 31 39 32 20 36 26 20 20 20 35 20 23 29 34 64 21
leaf_count=30 33 32 29 25 23 39 29 20 22 21 31 21 22 33 31 39 32 20 36 26 20 20 20 35 20 23 29 34 64 21
internal_value=0 -0.00691405 -0.0109078 0.00236089 -0.0138495 0.00205754 -0.0168916 -0.0203377 -0.0150938 0.00302415 0.00265739 0.00310373 0.00343441 0.00093265 -0.000856905 0.00124912 0.00440783 0.000829854 0.00465148 0.00410636 0.00490688 0.00663305 0.00810632 0.00147215 -0.00171403 -0.00505245 -0.000158223 0.00440941 0.0114071 0.00824325
internal_weight=0 224 155 656 126 69 103 74 42 623 602 571 550 180 147 122 83 52 370 348 293 195 159 98 63 43 55 75 84 41
internal_count=880 224 155 656 126 69 103 74 42 623 602 571 550 180 147 122 83 52 370 348 293 195 159 98 63 43 55 75 84 41
is_linear=0
shrinkage=0.05


Tree=14
num_leaves=31
num_cat=0
split_feature=13 75 14 4 15 24 11 35 87 5 21 81 13 92 29 13 81 57 31 31 10 5 82 31 112 78 101 87 62 88
split_gain=5.18559 3.02636 2.0038 1.77635 1.87481 2.24894 1.39155 1.16652 1.13637 0.871671 0.843435 0.803063 1.34585 0.795624 0.68354 0.904536 0.730094 0.588071 0.67968 1.21435 0.926328 0.828354 0.572854 0.565555 0.53391 0.560052 0.431833 0.422972 0.408697 0.460168
threshold=-1.3492999999999997 -4.6749499999999991 -1.2797499999999997 3.0697500000000004 -0.69228499999999993 -0.9260649999999998 -2.9327499999999995 -1.5860999999999998 1.5757000000000001 -2.6839 -1.3271499999999998 0.065192000000000014 0.35092500000000004 0.035259500000000006 1.6651 -0.84645499999999985 -1.6903499999999998 -4.7489499999999998 0.10374000000000001 0.97631000000000012 1.2799500000000001 -1.3516499999999998 -0.70556499999999989 0.14603500000000005 -0.9474999999999999 0.78416000000000008 0.22679000000000002 0.13869000000000004 1.5145500000000001 0.93706000000000012
decision_type=2 2 2 2 2 2 2 2 2 2 2 2 2 2 2 2 2 2 2 2 2 2 2 2 2 2 2 2 2 2
left_child=1 6 -2 4 5 7 -1 -3 13 24 11 12 -11 -6 15 -12 -17 -18 21 20 -20 -19 26 27 25 -4 -21 -16 29 -23
right_child=2 3 9 -5 8 -7 -8 -9 -10 10 14 -13 -14 -15 23 16 17 18 19 22 -22 28 -24 -25 -26 -27 -28 -29 -30 -31
leaf_value=-0.007586793098810384 -0.012591844587586821 -0.022749630292819348 -0.0021990266761609486 -0.015148097711304823 0.0055320943721794882 0.0042991078325680327 -0.024142551422119143 -0.0065487854629755031 0.01371312287190686 -0.014393249648408249 -0.0053208629525191078 0.0035349222934908339 0.0010322136331289526 -0.0074309826316311962 0.0087721150104278847 -0.0048506221567679733 0.011869565322995186 -0.0037010909787014777 -0.013351951717682506 -0.0054066626820713287 0.00099908545486290345 0.0071776630678761976 0.0084979892330797942 0.014638319304212928 0.011773018094782647 0.0088769824746996167 0.0039042899441538437 -0.00089959331438876694 0.010536837331495588 0.00012166462838649751
leaf_weight=22 22 20 21 27 29 28 30 25 23 26 37 36 31 20 26 28 20 23 23 20 22 68 37 20 39 25 33 20 44 35
leaf_count=22 22 20 21 27 29 28 30 25 23 26 37 36 31 20 26 28 20 23 23 20 22 68 37 20 39 25 33 20 44 35
internal_value=0 -0.00656834 0.00224285 -0.00337281 -0.00118017 -0.00682654 -0.0171382 -0.0137492 0.00454462 0.00275762 0.00202812 -0.00231149 -0.00600396 0.000241043 0.00291317 0.00211681 0.0028964 0.00356383 0.00301919 0.00037051 -0.00633589 0.00512256 0.00372371 0.00761893 0.00746933 0.00382054 0.000390723 0.00456702 0.00650313 0.00477999
internal_weight=0 224 656 172 145 73 52 45 72 634 549 93 57 49 456 390 353 325 305 135 45 170 90 66 85 46 53 46 147 103
internal_count=880 224 656 172 145 73 52 45 72 634 549 93 57 49 456 390 353 325 305 135 45 170 90 66 85 46 53 46 147 103
is_linear=0
shrinkage=0.05


Tree=15
num_leaves=31
num_cat=0
split_feature=14 13 80 4 59 103 45 81 34 12 55 61 63 57 83 44 61 38 92 76 68 70 66 48 4 46 39 33 94 4
split_gain=4.72458 3.15279 3.3163 2.95581 1.38576 1.62666 1.47792 1.08281 2.04717 0.943602 0.776186 0.902095 1.91267 1.17987 0.842065 0.950872 0.877242 0.862568 0.614567 0.614428 0.739514 0.492732 0.466064 0.482468 0.542885 0.44077 0.341387 0.453768 0.330502 0.330225
threshold=-1.4376999999999998 -1.3492999999999997 6.553300000000001 3.0697500000000004 -1.0367 1.7492500000000002 -2.4597999999999995 -1.8801999999999996 -1.7105999999999997 0.41058000000000006 -1.8864499999999997 -1.1961499999999998 0.80384500000000003 -0.72625999999999991 -1.2524999999999997 -0.97326999999999997 0.49757000000000001 -1.6870999999999998 0.28915000000000007 -0.82583999999999991 -0.76101499999999989 -1.4262999999999997 7.3989000000000011 6.5845000000000011 0.69696000000000013 0.87656500000000015 1.5443500000000003 -0.0079486999999999978 1.2179500000000003 0.42275000000000001
decision_type=2 2 2 2 2 2 2 2 2 2 2 2 2 2 2 2 2 2 2 2 2 2 2 2 2 2 2 2 2 2
left_child=-1 2 3 4 5 6 -2 8 -3 -6 19 12 -12 -13 15 16 -15 -17 28 -9 -21 -20 23 24 26 -14 27 -19 -16 -22
right_child=1 7 -4 -5 9 -7 -8 10 -10 -11 11 13 25 14 18 17 -18 22 21 20 29 -23 -24 -25 -26 -27 -28 -29 -30 -31
leaf_value=-0.021879712397579475 0.010447839015163482 0.0057196272537112236 -0.022293744820247718 -0.015754032981417636 0.0013668430757454852 -0.014067496255040168 -0.0052054016152396805 0.013195312568159015 -0.015614645507024683 0.014559663119523423 -0.011656282217507917 0.012548041767440739 0.0068139515241936732 -0.0135740840097978 0.010443010804328051 -0.0060854196211258919 0.0010576891899108886 0.01093594202771783 -0.004097387238162691 -0.0019360086936824794 0.0045224543337920508 0.0053234900268060818 -0.003964822543784976 -0.0029077660469781787 0.0093731954956892873 -0.0025405017472803597 -0.0023952821310123675 0.0017854767962403241 0.0029373139073140923 0.012334592520104101
leaf_weight=24 25 22 24 34 33 25 38 27 23 23 35 30 34 21 55 29 20 20 23 29 31 35 20 21 50 20 23 42 20 24
leaf_count=24 25 22 24 34 33 25 38 27 23 23 35 30 34 21 55 29 20 20 23 29 31 35 20 21 50 20 23 42 20 24
internal_value=0 0.00061345 -0.00484656 -0.00249413 0.000636676 -0.0032761 0.0010062 0.00229988 -0.00518456 0.00678532 0.00285291 0.00201018 -0.00255175 0.00300287 0.00224732 0.000514384 -0.00643663 0.00190459 0.00545259 0.00663383 0.00452479 0.00158762 0.00322112 0.0041424 0.00523909 0.00334934 0.00280726 0.00473724 0.00844149 0.00793139
internal_weight=0 856 202 178 144 88 63 654 45 56 609 498 89 409 379 246 41 205 133 111 84 58 176 156 135 54 85 62 75 55
internal_count=880 856 202 178 144 88 63 654 45 56 609 498 89 409 379 246 41 205 133 111 84 58 176 156 135 54 85 62 75 55
is_linear=0
shrinkage=0.05


Tree=16
num_leaves=31
num_cat=0
split_feature=14 73 58 13 103 20 28 7 87 9 111 86 2 102 76 27 13 61 29 21 29 77 29 58 46 55 18 77 70 41
split_gain=4.26393 2.91177 1.8784 1.83373 2.71183 1.5709 1.33346 1.10641 0.868806 0.803401 0.75829 0.756734 0.718951 0.60659 0.576524 0.774493 1.07183 0.690646 0.674273 0.571919 0.545541 0.517826 0.506574 0.64029 0.537437 0.444805 0.803584 0.434359 0.481325 0.423185
threshold=-1.4376999999999998 -23.103999999999996 -0.84923499999999985 -0.83502499999999991 1.5687000000000002 -0.17012499999999997 -1.1406499999999997 -0.91209499999999988 -2.3146999999999998 -1.1373999999999997 3.3433500000000005 -0.35840499999999992 5.0961000000000007 -3.3163999999999993 -0.033385999999999992 0.0076997500000000009 -0.039642999999999991 1.6418000000000001 1.5230500000000002 -1.5420499999999999 0.8008900000000001 1.1439500000000002 -1.1310499999999999 0.52686500000000014 0.24911000000000003 -0.95118999999999987 -0.43409499999999995 -0.81677499999999992 1.1541500000000002 0.87918500000000011
decision_type=2 2 2 2 2 2 2 2 2 2 2 2 2 2 2 2 2 2 2 2 2 2 2 2 2 2 2 2 2 2
left_child=-1 5 3 4 6 -2 -3 -8 -5 -9 12 -10 13 -4 19 16 -16 21 -19 -15 -18 25 -21 -24 -25 26 -17 28 -13 -26
right_child=1 2 10 8 -6 -7 7 9 11 -11 -12 27 -14 14 15 17 20 18 -20 22 -22 -23 23 24 29 -27 -28 -29 -30 -31
leaf_value=-0.020785726445804661 -0.0026798154041171077 -0.0107633511701058 -0.0028958413717301676 -0.0069288493621917002 -0.017997264016109207 -0.022497126180678607 0.0106900487581025 0.0032889817088963117 -0.0014605444713702634 -0.0094277434455959704 -0.0067001108732074504 0.010285276750219056 -0.0043063951718310522 0.012555358346937032 -0.011449659456099784 0.0018018227629363539 0.0067737405274615253 -0.0081522452272474767 0.0045326334471941336 -0.0023078176352317402 -0.0041214733012020595 0.012833603073588827 0.010664344657212497 0.0079465318868945662 -0.0032728586390975024 0.0025183059490920079 0.015975601598620416 0.013721797895268537 -0.00055290132627955509 0.0046468213093592914
leaf_weight=24 20 31 33 21 36 20 23 27 36 23 20 20 30 29 21 20 27 20 22 21 20 22 50 48 31 87 20 20 21 37
leaf_count=24 20 31 33 21 36 20 23 27 36 23 20 20 30 29 21 20 27 20 22 21 20 22 50 48 31 87 20 20 21 37
internal_value=0 0.000582777 0.00122843 -0.00229955 -0.0061695 -0.0125885 -0.00207527 0.00161419 0.00229191 -0.00256071 0.00285964 0.00428815 0.00321502 0.0036592 0.00411461 0.00252383 -0.00205855 0.00415525 -0.00150778 0.00602206 0.00213748 0.00575155 0.00500888 0.00593449 0.00389575 0.00452473 0.00888871 0.00768083 0.00473401 0.00103638
internal_weight=0 856 816 258 140 40 104 73 118 50 558 97 538 508 475 259 68 191 42 216 47 149 187 166 116 127 40 61 41 68
internal_count=880 856 816 258 140 40 104 73 118 50 558 97 538 508 475 259 68 191 42 216 47 149 187 166 116 127 40 61 41 68
is_linear=0
shrinkage=0.05


Tree=17
num_leaves=31
num_cat=0
split_feature=14 13 79 4 58 61 105 85 84 77 34 46 6 41 43 79 76 58 84 14 31 4 85 85 88 12 50 18 109 10
split_gain=3.8482 2.56865 2.81987 2.52126 1.3278 1.66497 1.32423 0.982653 1.46339 1.3408 1.20597 1.01126 0.980068 0.777988 0.774555 0.694151 0.673726 0.774247 0.624891 0.699076 0.737725 0.584665 0.581302 0.880676 0.578109 0.563806 0.501462 0.655327 0.375033 0.373905
threshold=-1.4376999999999998 -1.3492999999999997 6.7104500000000007 3.0697500000000004 -0.75488499999999992 -4.1937499999999988 -0.48893499999999995 -0.49985499999999988 -0.72936499999999993 -1.5619999999999996 -1.8305999999999998 0.40220000000000006 0.9480050000000001 1.4918000000000002 0.77643000000000006 1.0070000000000003 -0.75748999999999989 1.6845000000000001 2.3002000000000007 -0.53301499999999991 1.2294500000000002 1.6260000000000001 1.3106500000000001 0.60079000000000016 -0.36933499999999997 0.52350500000000011 -1.3695499999999998 0.8761500000000001 -2.4752499999999995 1.3537500000000002
decision_type=2 2 2 2 2 2 2 2 2 2 2 2 2 2 2 2 2 2 2 2 2 2 2 2 2 2 2 2 2 2
left_child=-1 2 3 4 5 12 -7 8 9 15 -10 -12 -2 14 18 -3 -16 -18 22 -20 -21 24 23 28 26 -6 -11 29 -9 -28
right_child=1 7 -4 -5 25 6 -8 13 10 21 11 -13 -14 -15 16 -17 17 -19 19 20 -22 -23 -24 -25 -26 -27 27 -29 -30 -31
leaf_value=-0.019746440212475139 0.012681402406832649 -0.012166057191207074 -0.019744849799630735 -0.014334105887888549 0.001839835543651134 1.5746963282044118e-05 -0.015524131884991094 0.001539239488192834 0.0038171246916485521 0.011626584207018217 -0.015276196424383671 -0.0028922639129792945 -0.0024197954869702122 0.0094719882882110633 -0.0085468835602311981 0.00022403008949298123 0.0056858981093123127 -0.0062222276326446314 0.0087949587919172786 -0.0086231238727729458 0.0025742394812895281 0.012114706200505185 0.010460289550462257 -0.0050685610777388016 -0.0019884334675766327 0.013206701601545016 0.0041823024292372999 0.010900591425597669 0.0092495048762825521 -0.0044931030204600616
leaf_weight=24 21 20 26 34 20 26 29 24 26 24 32 34 22 52 23 26 39 21 21 24 38 22 54 21 37 24 27 20 46 23
leaf_count=24 21 20 26 34 20 26 29 24 26 24 32 34 22 52 23 26 39 21 21 24 38 22 54 21 37 24 27 20 46 23
internal_value=0 0.000553639 -0.00437468 -0.00210408 0.000824233 -0.00241547 -0.00817801 0.00207584 -8.88118e-05 0.00232204 -0.00530359 -0.00889659 0.00495521 0.00381114 0.00286463 -0.00516296 -0.00127103 0.00151805 0.00437015 0.000910365 -0.00176022 0.00457243 0.00635059 0.00391186 0.00330579 0.00803994 0.00538969 0.00325132 0.00660599 0.000191616
internal_weight=0 856 202 176 142 98 55 654 291 199 92 66 43 363 311 46 83 60 228 83 62 153 145 91 131 44 94 70 70 50
internal_count=880 856 202 176 142 98 55 654 291 199 92 66 43 363 311 46 83 60 228 83 62 153 145 91 131 44 94 70 70 50
is_linear=0
shrinkage=0.05


Tree=18
num_leaves=31
num_cat=0
split_feature=73 11 70 102 88 44 45 7 6 72 92 92 110 42 11 100 110 5 72 21 35 36 92 109 92 97 42 128 98 73
split_gain=3.43664 1.96976 1.75226 1.56728 1.03776 1.43005 1.10615 1.29125 1.05854 1.21591 1.13586 1.02664 1.16428 0.899518 0.875963 0.765169 0.751831 0.697158 0.676859 0.596763 0.586445 0.441855 0.456584 0.402681 0.755813 0.539518 0.391424 0.527681 0.386192 0.378391
threshold=-25.753499999999999 -2.4649999999999994 -0.89616499999999988 -1.0784499999999999 -1.2687999999999997 -0.97326999999999997 -0.15164999999999998 -0.47600499999999996 -0.90187499999999987 -1.6604499999999998 -0.24158999999999997 -0.93415499999999996 1.0886500000000001 1.1702000000000001 2.0800000000000005 -0.49035999999999996 0.69799500000000014 0.48544000000000004 1.0206000000000002 -0.5372849999999999 -0.74077499999999985 -1.7572499999999998 -0.48026999999999992 0.19327500000000003 0.66483500000000018 -0.99493999999999982 0.29178500000000007 1.0000000180025095e-35 0.18040000000000003 -2.4352499999999995
decision_type=2 2 2 2 2 2 2 2 2 2 2 2 2 2 2 2 2 2 2 2 2 2 2 2 2 2 2 2 2 2
left_child=3 2 -2 -1 5 6 7 -3 16 -10 18 12 -7 -8 15 20 26 -18 -11 -16 -12 -13 -23 24 -24 -25 28 -28 -6 -26
right_child=1 4 -4 -5 8 11 13 -9 9 10 14 21 -14 -15 19 -17 17 -19 -20 -21 -22 22 23 25 29 -27 27 -29 -30 -31
leaf_value=-0.0030270291864871977 -0.014562176809110833 -0.0013661971949040889 0.0016026650990049044 -0.02180569039285183 0.0063175356946885593 0.0011495529447815248 0.0051807799418880189 -0.01643097632084832 -0.0081001360074526834 0.010564459111013164 -0.0058785278862342237 -0.0038957003306131811 -0.013742280574071975 -0.0078715483404018672 -0.0021343610471203215 -0.010241666988566003 0.0071212929068133236 -0.006080578521359712 -7.132018605868021e-05 0.0086476835351663103 0.0059513924050737521 0.010074541772393367 -0.0053022918813495027 0.00017476414364797098 0.0078398965502856303 0.009115041887077192 0.00047153133071131177 0.0098341962897821392 0.014819410322781871 -4.5645564537623836e-05
leaf_weight=20 38 25 30 25 22 35 33 33 31 52 20 20 21 22 21 29 20 20 21 33 22 26 33 27 32 45 27 34 34 29
leaf_count=20 38 25 30 25 22 35 33 33 31 52 20 20 21 22 21 29 20 20 21 33 22 26 33 27 32 45 27 34 34 29
internal_value=0 0.000725369 -0.00743063 -0.0134596 0.00144846 -0.000402735 -0.00512023 -0.00993754 0.00327567 0.00110766 0.00254928 0.00158636 -0.00443488 -4.01514e-05 -0.00034477 -0.00399505 0.00643792 0.000520357 0.00750485 0.00445467 0.000318097 0.00317687 0.0039136 0.00294863 0.000793376 0.00576244 0.00846102 0.00569007 0.0114794 0.00409103
internal_weight=0 835 68 45 767 381 113 58 386 229 198 268 56 55 125 71 157 40 73 54 42 212 192 166 94 72 117 61 56 61
internal_count=880 835 68 45 767 381 113 58 386 229 198 268 56 55 125 71 157 40 73 54 42 212 192 166 94 72 117 61 56 61
is_linear=0
shrinkage=0.05


Tree=19
num_leaves=31
num_cat=0
split_feature=14 77 71 103 109 77 79 102 101 93 13 48 57 69 103 81 1 79 61 105 115 86 40 42 16 31 50 79 126 63
split_gain=3.25728 2.15308 1.98796 1.48287 1.17798 1.31385 1.73321 1.28976 0.943698 0.880101 1.11623 1.045 0.955643 0.8618 0.778531 0.710628 0.838233 0.701526 0.656784 0.722087 0.657617 0.581247 0.471066 0.470958 0.506812 0.759055 0.588352 0.579152 0.517305 0.444602
threshold=-1.4376999999999998 -28.874999999999996 4.4155500000000005 0.67630500000000005 -0.080360499999999987 0.70641000000000009 0.72654000000000007 -2.4355999999999995 -0.99135499999999988 -1.4024999999999999 2.1273500000000003 4.5147500000000003 -3.6554499999999996 -0.34193499999999993 0.42707000000000001 5.8381000000000007 1.0916500000000002 0.76291000000000009 0.67137500000000017 1.7693000000000003 1.0000000180025095e-35 2.1770500000000004 -0.043745999999999993 1.8256000000000003 -2.4950499999999995 0.6912100000000001 -0.95694499999999982 -1.0887999999999998 0.90000000000000013 -1.0520499999999997
decision_type=2 2 2 2 2 2 2 2 2 2 2 2 2 2 2 2 2 2 2 2 2 2 2 2 2 2 2 2 2 2
left_child=-1 -2 4 -4 5 7 -7 -3 21 10 11 12 -10 -14 17 18 -17 -11 20 23 29 22 -9 24 -20 26 28 -28 -26 -6
right_child=1 2 3 -5 15 6 -8 8 9 14 -12 -13 13 -15 -16 16 -18 -19 19 -21 -22 -23 -24 -25 25 -27 27 -29 -30 -31
leaf_value=-0.018167187133803966 -0.011458578271170458 -0.0092256203635285288 0.00071544260294599971 -0.016922340828638811 0.0037450716485558401 -0.018898748236686171 0.0016678610397502782 0.013771389951479847 0.0012582612301533422 -0.0034513266407884659 0.0076123929543731109 0.0030714826126183783 -0.018432121232829311 -0.0060557138404617903 0.012887441492639483 0.0037689192574665263 -0.010090918866917492 0.0078571777557954192 0.0061869595319223713 0.011305111197924073 3.5689560060675906e-05 -0.0004147769138216973 0.0037968037970131266 0.009120132578536869 0.0012934226356446745 -0.0087953907183625484 -0.0010114401902594581 0.0069026366606539232 -0.009495161247905344 0.011092370435674216
leaf_weight=24 36 30 22 26 29 21 20 29 24 32 24 35 22 39 20 24 20 24 39 22 26 20 20 20 25 22 41 53 20 71
leaf_count=24 36 30 22 26 29 21 20 29 24 32 24 35 22 39 20 24 20 24 39 22 26 20 20 20 25 22 41 53 20 71
internal_value=0 0.00050936 0.00103478 -0.00883836 0.00164866 -0.000440771 -0.00886626 0.000642128 0.00166646 6.63488e-05 -0.00223112 -0.00419983 -0.0071939 -0.0105193 0.00441946 0.00347437 -0.00253101 0.00139518 0.0041924 0.00266823 0.00711979 0.00676827 0.00970013 0.00180454 0.00107298 -0.000165811 0.00120002 0.00345075 -0.0035015 0.00896165
internal_weight=0 856 820 48 772 360 41 319 289 220 144 120 85 61 76 412 44 56 368 242 126 69 49 220 200 161 139 94 45 100
internal_count=880 856 820 48 772 360 41 319 289 220 144 120 85 61 76 412 44 56 368 242 126 69 49 220 200 161 139 94 45 100
is_linear=0
shrinkage=0.05


Tree=20
num_leaves=31
num_cat=0
split_feature=77 65 60 3 45 16 28 87 11 109 76 11 42 125 66 70 38 24 10 38 101 96 55 4 60 51 41 43 7 44
split_gain=2.77407 1.52814 1.92099 1.79524 1.36835 1.75673 1.26566 0.880074 0.781578 1.07121 0.757419 1.45721 0.657877 0.645306 0.655068 0.635899 0.740576 0.830933 0.663716 0.538319 0.527608 1.09262 0.477798 0.432868 0.415452 0.495239 0.368561 0.543054 0.34931 0.380228
threshold=-28.874999999999996 -1.1329499999999999 -1.5970499999999999 1.1506000000000003 -0.30691999999999992 -1.0978299999999999 -1.0374499999999998 1.9800500000000001 3.4892000000000003 1.5010500000000002 -1.1727499999999997 -1.1342999999999999 0.46656000000000003 2.2500000000000004 2.8050500000000005 -2.5752499999999992 1.9764000000000002 -1.3191999999999997 -1.3441999999999996 0.031863000000000009 -1.1308999999999998 3.2741000000000002 0.87320000000000009 0.17169500000000001 0.87492000000000014 -1.4167499999999997 1.4918000000000002 1.1941000000000002 0.93271000000000004 1.2552500000000002
decision_type=2 2 2 2 2 2 2 2 2 2 2 2 2 2 2 2 2 2 2 2 2 2 2 2 2 2 2 2 2 2
left_child=6 2 3 -2 5 -3 -1 8 9 15 -7 -12 24 14 19 -4 17 18 -17 -14 -13 28 -15 -9 25 -6 27 -21 29 -22
right_child=1 4 7 -5 12 10 -8 23 -10 -11 11 20 13 22 -16 16 -18 -19 -20 26 21 -23 -24 -25 -26 -27 -28 -29 -30 -31
leaf_value=-0.0031283936685039884 -0.0038786330341520773 -0.010762924048105709 0.004043120798887685 -0.02209475240891888 0.0043465101346373564 0.0081603831989923489 -0.019936522251615921 0.0090849489657557573 -0.011236470108851791 0.010061352886259556 -0.010193655888239544 0.0095091593172401193 0.0057160824706443238 0.0093275694563141418 -0.0062385608871968895 -0.0049743060534819961 0.0020632534608012068 -0.00044670737697742884 -0.017559487626633861 0.0018026719922604767 0.0088879657951606954 -0.0092751937516202983 0.0015128542969544089 -0.00029194963164627549 0.0033849947695289888 0.014209521849240576 0.0045197014866227457 -0.009462736723944546 -0.0017658634064719081 0.00096621955121268654
leaf_weight=21 38 37 30 21 20 32 24 32 20 20 30 20 64 53 26 20 32 28 22 23 33 22 31 20 31 35 22 20 25 28
leaf_count=21 38 37 30 21 20 32 24 32 20 20 30 20 64 53 26 20 32 28 22 23 33 22 31 20 31 35 22 20 25 28
internal_value=0 0.000651704 -0.00233564 -0.0103623 0.00218326 -0.000795446 -0.0120927 -0.000221464 -0.00194469 -0.000722091 0.00114559 -0.000275129 0.00426377 0.00291434 0.00100172 -0.00235595 -0.00423802 -0.00711861 -0.0115665 0.002461 0.00204953 0.000668113 0.00644357 0.00547845 0.00801393 0.010623 -0.000743998 -0.00343705 0.00321175 0.00525175
internal_weight=0 835 283 59 552 227 45 224 172 152 190 158 325 239 155 132 102 70 42 129 128 108 84 52 86 55 65 43 86 61
internal_count=880 835 283 59 552 227 45 224 172 152 190 158 325 239 155 132 102 70 42 129 128 108 84 52 86 55 65 43 86 61
is_linear=0
shrinkage=0.05


Tree=21
num_leaves=31
num_cat=0
split_feature=14 73 59 83 19 29 92 45 90 77 23 127 63 46 103 49 102 59 128 59 127 42 21 57 6 86 46 124 41 7
split_gain=2.81025 1.76793 1.31684 0.937826 1.33038 1.99527 1.46377 1.25944 1.02077 0.956796 0.877559 0.790223 0.561554 0.671341 0.461753 0.448912 0.442971 0.493782 0.582694 0.423312 0.492598 0.409489 0.607301 0.424346 0.455656 0.588241 0.52211 0.346037 0.341583 0.303842
threshold=-1.4376999999999998 -25.753499999999999 0.10435000000000001 -1.2524999999999997 -1.4853999999999998 -1.4179999999999999 -2.3475499999999996 -0.24311999999999998 1.2810500000000002 0.71944500000000011 0.19018000000000004 0.22500000000000001 0.80384500000000003 0.9444800000000001 0.53650500000000012 1.7635500000000002 -3.3163999999999993 2.0616500000000006 -1.0000000180025095e-35 -1.8356499999999998 0.22500000000000001 1.0125500000000003 -0.69384499999999993 1.4017000000000002 -0.64333999999999991 -0.32408999999999993 -1.5787499999999997 1.0000000180025095e-35 0.19250000000000003 0.2885100000000001
decision_type=2 2 2 2 2 2 2 2 2 2 2 2 2 2 2 2 2 2 2 2 2 2 2 2 2 2 2 2 2 2
left_child=-1 -2 3 4 8 6 -6 10 9 12 11 -5 -3 19 -9 -15 -4 21 -19 20 -14 23 -23 24 26 -26 -18 -28 -27 -24
right_child=1 2 16 7 5 -7 -8 14 -10 -11 -12 -13 13 15 -16 -17 17 18 -20 -21 -22 22 29 -25 25 28 27 -29 -30 -31
leaf_value=-0.016874566720798612 -0.010371661631183492 -0.0056427899075465072 -0.0031657915612283562 -0.013099450853187592 -0.013438798023853452 -0.01979060606006533 0.003608221513808102 0.0041537943412549797 0.0085680609017058651 -0.0095582024349520622 0.005727771940067984 0.00095600444823503491 0.0060950790500889224 0.0014286487208058439 0.014650984637608583 -0.0090382430702447888 0.013040774306725889 -0.0060988620089899217 0.0038518997750455336 0.0099237284420625044 -0.0035154461860656739 0.011218513408675791 0.0067336816900736979 -0.0035861131067023329 -0.0035557555249677258 0.0013695724386100969 0.0075271134415792447 0.00068885294556919792 0.0089509963445986319 8.0297404201701292e-05
leaf_weight=24 36 36 28 20 20 25 34 20 27 33 26 20 30 21 22 20 21 28 31 23 24 43 37 23 39 39 37 37 24 32
leaf_count=24 36 36 28 20 20 25 34 20 27 33 26 20 30 21 22 20 21 28 31 23 24 43 37 23 39 39 37 37 24 32
internal_value=0 0.000473119 0.000949231 -0.00109893 -0.00256697 -0.00811217 -0.00270549 0.0028838 -0.000519903 -0.00183207 -0.00142344 -0.00607172 -0.000176469 0.00149122 0.00965232 -0.00367715 0.0029094 0.00334445 -0.000870496 0.00424321 0.00182373 0.0040935 0.00655457 0.00284059 0.00359091 0.00127022 0.0060826 0.00410798 0.00425773 0.00364805
internal_weight=0 856 820 401 293 79 54 108 214 187 66 40 154 118 42 41 419 391 59 77 54 332 112 220 197 102 95 74 63 69
internal_count=880 856 820 401 293 79 54 108 214 187 66 40 154 118 42 41 419 391 59 77 54 332 112 220 197 102 95 74 63 69
is_linear=0
shrinkage=0.05


Tree=22
num_leaves=31
num_cat=0
split_feature=13 75 15 11 86 10 128 13 63 57 61 15 48 0 29 46 75 100 89 52 100 83 18 11 68 30 0 37 94 82
split_gain=2.30221 1.90767 1.3222 1.27668 1.25836 1.74073 1.50843 1.33358 0.727244 0.6988 1.27551 0.874079 0.827954 0.569096 0.548751 0.493236 0.568913 0.621021 0.674861 0.568633 0.524679 0.709075 0.562153 0.410843 0.379846 0.347274 0.316938 0.465698 0.316511 0.256851
threshold=-1.3331499999999998 -4.6749499999999991 -1.5362999999999998 -2.9327499999999995 -0.5606899999999998 -1.2564499999999998 -1.0000000180025095e-35 -4.3349999999999991 1.3573500000000003 -4.7489499999999998 -2.3471999999999995 1.6087500000000003 10.506500000000001 2.4070000000000005 -0.56114999999999993 -2.9249499999999995 1.7775500000000002 -1.4348499999999997 1.5466500000000003 -1.7197999999999998 -0.85232999999999992 -1.2256999999999998 2.3174500000000005 0.041628500000000006 -1.1165999999999998 0.31159500000000007 0.095098500000000016 0.61165500000000017 -0.46053499999999997 0.41321000000000008
decision_type=2 2 2 2 2 2 2 2 2 2 2 2 2 2 2 2 2 2 2 2 2 2 2 2 2 2 2 2 2 2
left_child=1 3 -2 -1 7 8 -7 -3 -6 -4 11 -11 13 15 -9 -12 17 23 19 -19 21 -21 24 -17 -22 -15 -26 -28 -23 -24
right_child=2 4 9 -5 5 6 -8 14 -10 10 12 -13 -14 25 -16 16 -18 18 -20 20 22 28 29 -25 26 -27 27 -29 -30 -31
leaf_value=-0.0032623933818699286 -0.0095359804108738899 -0.0080313200259115557 0.0098396749546130497 -0.018909064668696376 0.0080787261907497177 -0.020824305299902337 -0.0041277037753212837 0.0018801581597438566 -0.0049579094350337988 -0.014213140169158579 -0.0055966001981869341 -0.00042208892258780979 -0.0060872548725456003 0.0030909936479998359 0.011785534724336246 0.0016496740747243166 0.0090772136409456531 -0.0052854944929330728 -0.0074111528779295362 -0.0084482743171975013 -0.0036673924293912329 -0.0017205916203396475 0.012279146905480461 0.009546518872957677 0.0051556266448741046 0.010060199168630136 -0.0030549533942432487 0.0056293211053483764 0.0068798260763287544 0.0048715381873771554
leaf_weight=22 26 20 27 32 23 24 31 27 20 20 20 27 28 33 29 28 30 27 22 24 24 23 22 40 83 39 38 26 20 25
leaf_count=22 26 20 27 32 23 24 31 27 20 20 20 27 28 33 29 28 30 27 22 24 24 23 22 40 83 39 38 26 20 25
internal_value=0 -0.00432471 0.00151232 -0.0125345 -0.00177685 -0.00552132 -0.0114135 0.00305156 0.00201517 0.0019712 0.00161652 -0.00629062 0.00228978 0.00273741 0.00700973 0.00207976 0.00243514 0.00193947 0.00105274 0.00164955 0.00230655 -0.00156322 0.00349589 0.00629488 0.00216476 0.00686598 0.00311695 0.000473033 0.0022796 0.00833893
internal_weight=0 228 652 54 174 98 55 76 43 626 599 47 552 524 56 452 432 402 334 312 285 67 218 68 171 72 147 64 43 47
internal_count=880 228 652 54 174 98 55 76 43 626 599 47 552 524 56 452 432 402 334 312 285 67 218 68 171 72 147 64 43 47
is_linear=0
shrinkage=0.05


Tree=23
num_leaves=31
num_cat=0
split_feature=73 44 1 21 42 69 52 55 3 31 52 4 53 75 10 21 92 82 13 68 61 103 12 51 11 40 61 22 29 39
split_gain=2.13813 1.29617 1.31928 1.36683 1.06998 0.999763 1.4892 1.19022 1.04837 0.810389 1.28566 0.743323 0.454677 0.436915 0.689225 0.547071 1.20373 0.807855 0.732682 0.706978 0.651345 0.397156 0.376133 0.412917 0.365003 0.342763 0.306158 0.298519 0.288678 0.293182
threshold=-25.753499999999999 -0.78568499999999986 -2.0377999999999994 -1.6943999999999997 -1.5399999999999998 -0.40026499999999993 -0.7944699999999999 -1.2644499999999999 0.20496000000000003 -0.70618999999999987 -0.62075999999999987 -0.61909999999999987 8.907250000000003 1.6052000000000002 1.6023500000000002 -0.20759499999999997 -1.1881499999999998 -0.45443499999999992 0.30422500000000002 1.1888000000000003 0.68706000000000012 -1.9355499999999999 0.47823000000000004 -0.64177999999999991 -0.033419499999999998 -0.28079999999999999 -0.90515999999999985 2.3043500000000008 0.9374300000000001 -0.23737499999999997
decision_type=2 2 2 2 2 2 2 2 2 2 2 2 2 2 2 2 2 2 2 2 2 2 2 2 2 2 2 2 2 2
left_child=4 2 -2 -4 -1 6 11 8 -8 -7 -11 -5 13 15 -15 16 -3 21 -19 20 26 -18 23 -23 -21 -20 -17 -14 -22 -30
right_child=1 12 3 5 -6 9 7 -9 -10 10 -12 -13 27 14 -16 19 17 18 25 24 28 22 -24 -25 -26 -27 -28 -29 29 -31
leaf_value=-0.0019965292885899544 0.0089804818332195283 -0.010147121710702776 -0.013091854515369051 -0.0035491938300028039 -0.017512519165873527 0.0081382756587117921 0.0048823126964271067 -0.016500631480988476 -0.0094679548325283195 -0.010633962901066179 0.0044197563988131452 0.006946994208039777 -0.0073785475385375323 0.013231974459536697 0.00085308647248893976 0.0058091706745991749 0.0097564886225602384 -0.0095851732747784524 -0.0042794864950701601 0.0043845704896563302 -0.002137192423738863 -0.0055974130230467952 0.0061584237949528662 0.0044410803518258038 -0.0023997289090501995 0.0039696623667088505 0.012332572843376044 0.001260300511494279 0.0091786363561238565 0.0016646369689089413
leaf_weight=20 25 25 30 37 25 36 20 31 35 23 37 31 20 23 22 35 26 24 20 31 23 21 39 20 55 34 37 20 21 34
leaf_count=20 25 25 30 37 25 36 20 31 35 23 37 31 20 23 22 35 26 24 20 31 23 21 39 20 55 34 37 20 21 34
internal_value=0 0.000572148 -0.00202469 -0.0030073 -0.0106165 -0.00179715 -0.0042936 -0.00866572 -0.00424968 0.00220758 -0.00135084 0.00123583 0.00206656 0.00248498 0.00718007 0.00201019 0.000147272 0.00154597 -0.00231622 0.00365998 0.00573213 0.00438795 0.00264318 -0.000700587 4.57744e-05 0.000914422 0.00916147 -0.00305912 0.00256658 0.00453362
internal_weight=0 835 305 280 45 250 154 86 55 96 60 68 530 490 45 445 209 184 78 236 150 106 80 41 86 54 72 40 78 55
internal_count=880 835 305 280 45 250 154 86 55 96 60 68 530 490 45 445 209 184 78 236 150 106 80 41 86 54 72 40 78 55
is_linear=0
shrinkage=0.05


Tree=24
num_leaves=31
num_cat=0
split_feature=14 39 2 66 100 75 41 21 53 108 92 4 112 4 52 14 101 102 101 60 32 68 14 36 21 14 81 10 15 102
split_gain=2.28413 1.39944 1.34086 1.32237 1.61507 1.2773 1.55538 1.13674 0.982453 0.944806 0.867431 0.76296 0.737135 0.708477 0.707979 0.704645 0.649978 0.856043 0.646002 0.615329 0.905427 0.588604 0.549124 0.540121 0.466288 0.60473 0.446666 0.403504 0.368645 0.330646
threshold=-1.4376999999999998 3.7201000000000004 -0.98546499999999992 -1.1170999999999998 0.63234500000000016 -6.1559499999999998 -4.0801999999999987 -1.1985999999999997 -1.5235999999999998 -0.84974499999999986 -0.95276499999999986 -0.30933999999999995 -0.31749999999999995 0.92415000000000014 -1.4129999999999998 -0.83016499999999993 -1.1308999999999998 -0.93515499999999985 2.8223500000000006 2.2281000000000009 0.13892500000000002 0.60378500000000013 1.6829500000000002 0.24507000000000004 -0.14835999999999996 -0.23253499999999996 0.62478500000000003 1.3891000000000002 -0.64589999999999981 0.46649500000000005
decision_type=2 2 2 2 2 2 2 2 2 2 2 2 2 2 2 2 2 2 2 2 2 2 2 2 2 2 2 2 2 2
left_child=-1 2 8 4 5 -4 -7 -8 -2 21 -11 15 13 -9 -10 -5 -13 -18 24 20 -12 -6 -17 -14 25 27 -23 -16 -26 -19
right_child=1 -3 3 11 9 6 7 12 14 10 19 16 23 -15 18 22 17 29 -20 -21 -22 26 -24 -25 28 -27 -28 -29 -30 -31
leaf_value=-0.015213190740905703 0.0099155638313207506 -0.010002806974995521 -0.014796422674290597 0.005331360845064575 0.011882077261805535 -0.016761783566325902 -0.0093888692293517505 -0.010626823636121116 -0.0043650186584700884 -0.01061870811866935 -0.0093847982268780474 0.011782879719329585 0.010040001447002095 0.0011102762306109072 0.0086183896683382274 -0.011667613000608982 -0.0042377554586735264 0.0080074429559452397 -0.0043104578214495084 0.0075015548545786228 0.0030737754875527963 0.0076000241586007189 4.9084890633821487e-05 -0.00065164729243233094 0.0024475004928915401 -0.0041882640545596725 -0.0027242592239583082 0.00019705487135797739 0.010146226419601591 0.0010524198040366172
leaf_weight=24 52 31 31 22 25 20 37 20 34 22 25 27 27 36 33 20 29 54 23 23 35 20 20 21 23 26 22 25 48 25
leaf_count=24 52 31 31 22 25 20 37 20 34 22 25 27 27 36 33 20 29 54 23 23 35 20 20 21 23 26 22 25 48 25
internal_value=0 0.000426538 0.000818429 -0.000564357 -0.00235022 -0.00550252 -0.00371301 -0.00186212 0.00375685 0.00116863 -0.00179156 0.0027354 0.000815663 -0.00308155 0.00224622 -0.00185614 0.00484411 0.00310942 0.00350904 0.000548168 -0.0021173 0.00580774 -0.00580926 0.00536241 0.00466935 0.00214808 0.00219207 0.0049885 0.00765227 0.00580649
internal_weight=0 856 825 561 364 192 161 141 264 172 105 197 104 56 212 62 135 108 178 83 60 67 40 48 155 84 42 58 71 79
internal_count=880 856 825 561 364 192 161 141 264 172 105 197 104 56 212 62 135 108 178 83 60 67 40 48 155 84 42 58 71 79
is_linear=0
shrinkage=0.05


Tree=25
num_leaves=31
num_cat=0
split_feature=14 39 5 13 27 61 90 15 4 55 32 89 126 4 61 57 29 47 59 93 70 101 1 5 29 45 1 106 68 84
split_gain=2.06143 1.263 1.05445 1.14227 1.82842 1.32908 1.78606 0.805019 0.78943 1.1098 0.913808 0.706473 0.624969 0.580966 0.620823 0.921505 0.618264 0.483087 0.461098 0.458458 0.520216 0.488135 0.448867 0.444625 0.367939 0.294502 0.293041 0.27599 0.260984 0.237041
threshold=-1.4376999999999998 3.7201000000000004 -2.4385499999999998 -0.72837999999999992 0.13514000000000001 -4.2905999999999986 -3.1065499999999999 -1.4461499999999998 -1.1045499999999999 -1.2644499999999999 1.0459500000000002 -0.74004999999999987 1.3 -0.25164499999999995 -1.7885999999999997 -0.11545999999999999 1.2070000000000003 -0.31658999999999998 0.30096000000000006 -5.5460999999999991 -1.7549999999999997 2.1724000000000001 0.091145500000000018 0.85083000000000009 0.57522000000000018 1.3186500000000001 3.6329500000000006 1.1575500000000003 -0.87390999999999985 -1.0945499999999997
decision_type=2 2 2 2 2 2 2 2 2 2 2 2 2 2 2 2 2 2 2 2 2 2 2 2 2 2 2 2 2 2
left_child=-1 2 12 4 5 6 -4 -5 -7 -10 -11 -6 18 14 -9 -16 24 -18 -2 -15 -21 26 -13 -23 -17 28 27 29 -20 -22
right_child=1 -3 3 7 11 8 -8 13 9 10 -12 22 -14 19 15 16 17 -19 25 20 21 23 -24 -25 -26 -27 -28 -29 -30 -31
leaf_value=-0.014452531142160297 0.012332120893828187 -0.0095026666839276592 -0.010843461301382855 -0.0080883696852695388 -0.0040084633155770249 -0.001675312763213047 0.0077025316491284787 -0.0087139474158175294 -0.0041721672110725198 -0.022566129890485453 -0.0088842761378897274 0.010410158055001928 -0.0016618626328776234 0.0091278145415708417 0.0092030379971849759 -0.0010686924060185751 0.007147773861050092 -0.0026777911761944944 0.0032670826695504643 -0.003477910839043738 0.0068965222929061086 0.0034721621597606327 0.00091734259389340876 -0.0053940267660296881 -0.0086364016225882658 -0.00012114890982740604 0.0095534463999447997 0.0075174693018198015 0.011247848470229657 0.0012309025332797319
leaf_weight=24 29 31 21 21 21 28 34 20 32 26 23 33 26 30 26 36 29 22 21 31 24 31 20 26 29 21 27 38 20 80
leaf_count=24 29 31 21 21 21 28 34 20 32 26 23 33 26 30 26 36 29 22 21 31 24 31 20 26 29 21 27 38 20 80
internal_value=0 0.000405211 0.000777507 5.08457e-05 -0.00277142 -0.00571526 0.000621334 0.00147999 -0.00891262 -0.0114144 -0.016144 0.00375276 0.00517474 0.00192751 -0.000466386 0.000695243 -0.00121168 0.00290929 0.00712806 0.00327877 0.002596 0.00342915 0.00682796 -0.000572064 -0.00444505 0.0046939 0.00477867 0.00387079 0.00716014 0.00253835
internal_weight=0 856 825 708 238 164 55 470 109 81 49 74 117 449 162 142 116 51 91 287 257 226 53 57 65 62 169 142 41 104
internal_count=880 856 825 708 238 164 55 470 109 81 49 74 117 449 162 142 116 51 91 287 257 226 53 57 65 62 169 142 41 104
is_linear=0
shrinkage=0.05


Tree=26
num_leaves=31
num_cat=0
split_feature=14 73 71 103 41 2 16 109 2 48 43 15 70 59 103 24 21 12 62 81 77 21 110 112 30 62 43 98 90 48
split_gain=1.86044 1.17413 1.19489 1.11978 1.05947 0.829407 1.29812 1.38179 0.922439 0.830797 0.937381 1.18422 0.71093 0.636141 0.616959 0.574709 0.576558 0.482323 0.476506 0.460013 0.420957 0.390677 0.426246 0.369694 0.360517 0.299012 0.394406 0.445441 0.401753 0.26457
threshold=-1.4376999999999998 -23.103999999999996 4.4155500000000005 0.67630500000000005 -3.8455999999999997 -0.98546499999999992 -1.0978299999999999 0.21444000000000002 -0.65174999999999994 0.15090500000000004 -4.5922499999999991 0.79865500000000011 1.2007500000000002 0.23239500000000005 2.4128000000000003 -1.5426499999999999 -1.0048499999999998 -0.97550499999999996 -1.3200999999999998 -0.95475499999999991 1.4629500000000002 2.2190000000000007 -0.40477999999999997 1.0463500000000001 1.4288500000000002 2.9962500000000003 0.25403500000000007 -0.66906499999999991 0.28038500000000005 0.26491000000000003
decision_type=2 2 2 2 2 2 2 2 2 2 2 2 2 2 2 2 2 2 2 2 2 2 2 2 2 2 2 2 2 2
left_child=-1 4 5 -4 -2 14 7 -7 13 23 -11 -12 24 -8 15 21 19 -14 -18 -17 -9 22 -3 25 -13 26 -10 -28 -29 -20
right_child=1 2 3 -5 -6 6 8 20 9 10 11 12 17 -15 -16 16 18 -19 29 -21 -22 -23 -24 -25 -26 -27 27 28 -30 -31
leaf_value=-0.013729904832628868 0.00015848694369196894 0.0030118595249950886 0.0014438039369203829 -0.013883243085673222 -0.016116290763020517 -0.013741745682295914 -0.011324119616461837 -0.0042389622679160485 0.0063085457531131053 0.0079353697405293074 -0.009674976126769104 0.00044631349543730424 -0.0067389242635966327 0.00031247737157779438 0.008994200821722519 -0.0090328554911336505 -0.003497628347300317 0.0024348525735347171 0.0020582050816301488 0.0013355166628025474 0.0049295796081423766 0.00072812406022263615 0.012500065044853195 0.0088254319881466599 0.0081350715575559483 0.0081740668965861775 0.0047487795999687585 -0.0080545640550553806 0.00087627186439931393 0.0081578026962233711
leaf_weight=24 20 20 22 26 20 32 23 31 42 29 37 30 38 24 44 23 23 23 40 20 21 23 29 37 31 26 36 20 34 32
leaf_count=24 20 20 22 26 20 32 23 31 42 29 37 30 38 24 44 23 23 23 40 20 21 23 29 37 31 26 36 20 34 32
internal_value=0 0.000384951 0.000794943 -0.00685835 -0.0079789 0.00127327 0.000118203 -0.00556693 0.00122879 0.00204004 -0.000331645 -0.00183947 0.000536878 -0.00538203 0.0036107 0.00248273 0.000593385 -0.00327996 0.00276771 -0.00421036 -0.000536282 0.00610397 0.00862733 0.00432658 0.00435372 0.00327305 0.0023077 0.000440645 -0.00243145 0.00476914
internal_weight=0 856 816 48 40 768 514 84 430 383 188 159 122 47 254 210 138 61 95 43 52 72 49 195 61 158 132 90 54 72
internal_count=880 856 816 48 40 768 514 84 430 383 188 159 122 47 254 210 138 61 95 43 52 72 49 195 61 158 132 90 54 72
is_linear=0
shrinkage=0.05


Tree=27
num_leaves=31
num_cat=0
split_feature=14 73 20 71 103 2 16 109 2 57 48 48 103 53 124 36 65 59 110 28 28 68 77 52 87 125 47 78 11 41
split_gain=1.67905 1.05965 1.14769 1.07838 1.0106 0.74854 1.17156 1.24706 0.832501 0.767885 0.749795 0.74987 0.709803 0.633018 0.591232 0.660917 0.574958 0.574117 0.528888 0.520381 0.40218 0.375641 0.39969 0.35265 0.408833 0.335902 0.324093 0.277592 0.270255 0.256456
threshold=-1.4376999999999998 -23.103999999999996 -0.17012499999999997 4.4155500000000005 0.67630500000000005 -0.98546499999999992 -1.0978299999999999 0.21444000000000002 -0.65174999999999994 -3.1096999999999997 0.15090500000000004 1.6946000000000001 2.4128000000000003 4.7532500000000004 7.5000000000000009 -0.27987499999999993 0.12191000000000002 0.23239500000000005 2.7413000000000003 -0.8952699999999999 -1.5364999999999998 -1.2509999999999997 1.5248000000000002 -0.53163499999999986 -0.019896999999999995 1.2500000000000002 4.7425000000000006 0.57643000000000011 -0.033419499999999998 0.027956500000000006
decision_type=2 2 2 2 2 2 2 2 2 2 2 2 2 2 2 2 2 2 2 2 2 2 2 2 2 2 2 2 2 2
left_child=-1 2 -2 5 -5 9 7 -7 17 -3 20 -12 14 18 15 23 -17 -8 25 -9 -10 -22 28 24 -11 -13 -27 -28 -23 -30
right_child=1 3 -4 4 -6 6 8 19 10 12 11 13 -14 -15 -16 16 -18 -19 -20 -21 21 22 -24 -25 -26 26 27 -29 29 -31
leaf_value=-0.013043409558789186 0.0008894237410277128 0.012587507160025694 -0.016049337014555933 0.0013716137692840263 -0.013189081109773654 -0.013054658565670252 -0.010757913754281144 -0.0068363404343836009 0.010171407484449446 -0.0017136207348667086 -0.006694343467117162 0.009586661021508602 0.0086667366069741545 -0.0058502851680924117 -0.0046360528304135451 -0.0064513386114789491 0.0028970070636684178 0.00029685350406604511 -0.0041245598629440954 0.003444827496423386 -0.0028391801286488773 0.0086394875333644459 -0.0020619325678456913 0.0098294023604830732 0.0065632878708325936 -0.0024341287684034219 0.0021449579542653788 0.0094562684430275126 -6.7992872791364784e-05 0.0056433416968374927
leaf_weight=24 20 21 20 22 26 32 23 20 24 25 37 23 40 26 34 29 38 24 23 32 22 40 22 30 37 22 37 20 30 57
leaf_count=24 20 21 20 22 26 32 23 20 24 25 37 23 40 26 34 29 38 24 23 32 22 40 22 30 37 22 37 20 30 57
internal_value=0 0.000365703 -0.00757996 0.000755196 -0.00651543 0.00120961 0.000112293 -0.00528859 0.00116735 0.00343017 0.00193804 -0.000315063 0.00260483 0.00124807 0.00134847 0.00262818 -0.00114929 -0.00511293 0.00272453 -0.000509468 0.00411025 0.00325957 0.00416005 0.00537917 0.00322582 0.00426893 0.00272073 0.00471033 0.00523788 0.00367392
internal_weight=0 856 40 816 48 768 514 84 430 254 383 188 233 151 193 159 67 47 125 52 195 171 149 92 62 102 79 57 127 87
internal_count=880 856 40 816 48 768 514 84 430 254 383 188 233 151 193 159 67 47 125 52 195 171 149 92 62 102 79 57 127 87
is_linear=0
shrinkage=0.05


Tree=28
num_leaves=31
num_cat=0
split_feature=14 13 4 105 86 22 88 30 46 23 6 64 57 86 91 45 75 74 93 80 42 103 6 84 11 6 94 74 75 44
split_gain=1.51534 0.967913 2.03176 1.84635 0.913482 0.776535 1.18838 0.756946 1.25486 0.728912 0.591292 0.509059 0.61187 0.473657 0.459893 0.36536 0.5639 0.516707 0.356659 0.550067 0.488228 0.401417 0.425919 0.451115 0.602399 1.02457 0.359443 0.286738 0.440536 0.368772
threshold=-1.4376999999999998 -1.0267999999999997 3.0697500000000004 -4.2692999999999985 -2.3793999999999995 -2.0983499999999995 -1.1742999999999999 -0.56855499999999981 -1.9153999999999998 -1.1374499999999996 -0.024201999999999998 11.336500000000003 -4.7489499999999998 -0.5606899999999998 -5.1519999999999992 1.7954000000000001 1.8150500000000003 1.5377500000000002 1.2989000000000002 -1.1935499999999999 1.0297000000000003 2.9804500000000003 -1.5200499999999997 -0.38861499999999993 2.4206500000000006 0.64132500000000003 0.44204000000000004 -1.4974499999999997 -0.88431999999999988 0.18922000000000003
decision_type=2 2 2 2 2 2 2 2 2 2 2 2 2 2 2 2 2 2 2 2 2 2 2 2 2 2 2 2 2 2
left_child=-1 2 3 -2 -5 6 -3 8 -6 -9 -4 12 -7 -11 -14 16 17 18 19 20 -16 22 26 24 25 -24 -21 -25 -29 -30
right_child=1 5 10 4 7 11 -8 9 -10 13 -12 -13 14 -15 15 -17 -18 -19 -20 21 -22 -23 23 27 -26 -27 -28 28 29 -31
leaf_value=-0.012391239069014168 -0.011713346648029983 -0.01176038910807283 -0.0060824025841429838 0.010557817294145934 0.0027956473531530186 0.010802304179274611 0.0019588974402531198 -0.003913364972919226 -0.01111359328797628 0.012092978024685924 -0.01796111736700616 -0.0037885039113461972 -0.0049784946086054507 0.0029590686212759465 -0.0087181517854332934 -0.002823612570101696 0.010787650359617103 -0.0050672011788595811 0.0073447714380633373 0.0077429146144603351 0.0020757747181712398 0.0097081990801684923 -0.012483367882668973 0.0065702735321459971 0.0038122464902698994 0.0022845484579548888 0.00092531356414587334 -0.0044240300786559999 0.0073814799572573982 -0.00047577170937854266
leaf_weight=24 30 27 20 25 34 21 38 25 31 22 22 35 22 40 20 31 21 22 39 58 22 21 24 41 30 23 29 23 32 28
leaf_count=24 30 27 20 25 34 21 38 25 31 22 22 35 22 40 20 31 21 22 39 58 22 21 24 41 30 23 29 23 32 28
internal_value=0 0.000347418 -0.00227768 -0.000243238 0.00170085 0.00142427 -0.00373988 0.00024411 -0.00383799 0.00329396 -0.0123046 0.00204359 0.0024462 0.00620013 0.00208513 0.00242005 0.00279546 0.00238809 0.00280864 0.00230463 -0.00306419 0.00303437 0.00254774 0.00128271 -0.00172323 -0.00525652 0.00547038 0.00314931 0.00145943 0.00371476
internal_weight=0 856 249 207 177 607 65 152 65 87 42 542 507 62 486 464 433 412 390 351 42 309 288 201 77 47 87 124 83 60
internal_count=880 856 249 207 177 607 65 152 65 87 42 542 507 62 486 464 433 412 390 351 42 309 288 201 77 47 87 124 83 60
is_linear=0
shrinkage=0.05


end of trees

feature_importances:
all_loss_skew=23
top_30%_correlation_stddev_best_ratio=22
all_loss_stddev_best_ratio=20
all_loss_stddev_median_ratio=20
recent_25_loss_percentile5_percentile25_ratio=20
recent_25_loss_best_percentile75_ratio=18
top_10%_loss_best_percentile25_ratio=17
all_correlation_percentile5_percentile25_ratio=16
top_10%_loss_percentile5_percentile25_ratio=16
top_30%_correlation_percentile5_percentile25_ratio=16
top_10%_loss_best_percentile75_ratio=15
top_30%_correlation_kurtosis=14
all_correlation_best_percentile50_ratio=13
all_loss_kurtosis=13
recent_15%_loss_stddev_median_ratio=13
top_10%_loss_skew=13
top_20%_loss_kurtosis=13
recent_10_loss_percentile5_percentile25_ratio=12
recent_15%_loss_best_percentile50_ratio=12
all_correlation_stddev_best_ratio=11
log10_cardinality=11
recent_25_correlation_stddev_best_ratio=11
recent_25_loss_best_percentile25_ratio=11
top_10%_loss_kurtosis=11
top_30%_correlation_skew=11
recent_10_correlation_percentile5_percentile25_ratio=10
recent_15%_loss_percentile5_percentile25_ratio=10
recent_25_loss_kurtosis=10
all_correlation_best_percentile25_ratio=9
recent_15%_loss_best_percentile75_ratio=9
recent_25_correlation_kurtosis=9
recent_25_loss_best_percentile50_ratio=9
recent_25_loss_skew=9
top_10%_correlation_best_percentile25_ratio=9
top_20%_correlation_best_percentile25_ratio=9
top_30%_loss_skew=9
all_correlation_skew=8
all_loss_percentile5_percentile25_ratio=8
recent_10_loss_skew=8
recent_10_loss_stddev_best_ratio=8
recent_15%_correlation_percentile5_percentile25_ratio=8
recent_15%_correlation_stddev_best_ratio=8
recent_15%_loss_best_percentile25_ratio=8
recent_15%_loss_kurtosis=8
recent_15%_loss_skew=8
top_10%_correlation_best_percentile50_ratio=8
top_10%_correlation_kurtosis=8
top_10%_correlation_skew=8
top_20%_correlation_kurtosis=8
top_20%_loss_percentile5_percentile25_ratio=8
secondaryCutoff=8
all_correlation_best_percentile75_ratio=7
all_correlation_kurtosis=7
all_loss_best_percentile75_ratio=7
recent_10_correlation_kurtosis=7
recent_10_loss_kurtosis=7
recent_15%_correlation_kurtosis=7
recent_25_correlation_percentile5_percentile25_ratio=7
top_10%_loss_stddev_best_ratio=7
top_20%_correlation_best_percentile75_ratio=7
top_30%_loss_percentile5_percentile25_ratio=7
secondaryFixedProbability=7
all_correlation_stddev_median_ratio=6
recent_10_correlation_skew=6
recent_15%_correlation_best_percentile75_ratio=6
recent_25_correlation_best_percentile75_ratio=6
recent_25_loss_stddev_best_ratio=6
top_10%_correlation_stddev_best_ratio=6
top_20%_correlation_percentile5_percentile25_ratio=6
top_20%_correlation_skew=6
top_20%_correlation_stddev_best_ratio=6
top_30%_loss_kurtosis=6
recent_10_correlation_best_percentile50_ratio=5
recent_10_loss_best_percentile75_ratio=5
recent_15%_correlation_best_percentile25_ratio=5
recent_15%_correlation_skew=5
recent_15%_loss_stddev_best_ratio=5
recent_25_loss_stddev_median_ratio=5
top_20%_correlation_stddev_median_ratio=5
top_20%_loss_skew=5
top_30%_correlation_best_percentile50_ratio=5
all_loss_best_percentile50_ratio=4
recent_10_correlation_stddev_best_ratio=4
recent_15%_correlation_stddev_median_ratio=4
top_10%_loss_best_percentile50_ratio=4
top_20%_correlation_best_percentile50_ratio=4
top_20%_loss_best_percentile25_ratio=4
top_20%_loss_best_percentile50_ratio=4
top_30%_loss_best_percentile25_ratio=4
top_30%_loss_stddev_best_ratio=4
secondaryCorrelationExponent=4
secondaryCorrelationMultiplier=4
all_loss_best_percentile25_ratio=3
recent_10_correlation_best_percentile25_ratio=3
recent_10_correlation_stddev_median_ratio=3
recent_25_correlation_best_percentile25_ratio=3
top_10%_correlation_stddev_median_ratio=3
top_10%_loss_stddev_median_ratio=3
top_30%_loss_stddev_median_ratio=3
resultFilteringMode_none=3
secondaryTopLockingPercentile=3
recent_10_loss_best_percentile25_ratio=2
recent_10_loss_best_percentile50_ratio=2
recent_10_loss_stddev_median_ratio=2
recent_15%_correlation_best_percentile50_ratio=2
recent_25_correlation_best_percentile50_ratio=2
top_10%_correlation_percentile5_percentile25_ratio=2
top_30%_correlation_stddev_median_ratio=2
recent_10_correlation_best_percentile75_ratio=1
recent_25_correlation_skew=1
recent_25_correlation_stddev_median_ratio=1
top_20%_loss_best_percentile75_ratio=1
top_20%_loss_stddev_best_ratio=1
top_20%_loss_stddev_median_ratio=1
top_30%_correlation_best_percentile25_ratio=1
top_30%_correlation_best_percentile75_ratio=1
top_30%_loss_best_percentile50_ratio=1

parameters:
[boosting: gbdt]
[objective: regression]
[metric: l2]
[tree_learner: serial]
[device_type: cpu]
[data_sample_strategy: bagging]
[data: ]
[valid: ]
[num_iterations: 100]
[learning_rate: 0.05]
[num_leaves: 31]
[num_threads: 0]
[seed: 0]
[deterministic: 0]
[force_col_wise: 0]
[force_row_wise: 0]
[histogram_pool_size: -1]
[max_depth: -1]
[min_data_in_leaf: 20]
[min_sum_hessian_in_leaf: 0.001]
[bagging_fraction: 1]
[pos_bagging_fraction: 1]
[neg_bagging_fraction: 1]
[bagging_freq: 0]
[bagging_seed: 3]
[feature_fraction: 0.7]
[feature_fraction_bynode: 1]
[feature_fraction_seed: 2]
[extra_trees: 0]
[extra_seed: 6]
[early_stopping_round: 5]
[early_stopping_min_delta: 0]
[first_metric_only: 0]
[max_delta_step: 0]
[lambda_l1: 0]
[lambda_l2: 0]
[linear_lambda: 0]
[min_gain_to_split: 0]
[drop_rate: 0.1]
[max_drop: 50]
[skip_drop: 0.5]
[xgboost_dart_mode: 0]
[uniform_drop: 0]
[drop_seed: 4]
[top_rate: 0.2]
[other_rate: 0.1]
[min_data_per_group: 100]
[max_cat_threshold: 32]
[cat_l2: 10]
[cat_smooth: 10]
[max_cat_to_onehot: 4]
[top_k: 20]
[monotone_constraints: ]
[monotone_constraints_method: basic]
[monotone_penalty: 0]
[feature_contri: ]
[forcedsplits_filename: ]
[refit_decay_rate: 0.9]
[cegb_tradeoff: 1]
[cegb_penalty_split: 0]
[cegb_penalty_feature_lazy: ]
[cegb_penalty_feature_coupled: ]
[path_smooth: 0]
[interaction_constraints: ]
[verbosity: -1]
[saved_feature_importance_type: 0]
[use_quantized_grad: 0]
[num_grad_quant_bins: 4]
[quant_train_renew_leaf: 0]
[stochastic_rounding: 1]
[linear_tree: 0]
[max_bin: 255]
[max_bin_by_feature: ]
[min_data_in_bin: 3]
[bin_construct_sample_cnt: 200000]
[data_random_seed: 1]
[is_enable_sparse: 1]
[enable_bundle: 1]
[use_missing: 1]
[zero_as_missing: 0]
[feature_pre_filter: 1]
[pre_partition: 0]
[two_round: 0]
[header: 0]
[label_column: ]
[weight_column: ]
[group_column: ]
[ignore_column: ]
[categorical_feature: ]
[forcedbins_filename: ]
[precise_float_parser: 0]
[parser_config_file: ]
[objective_seed: 5]
[num_class: 1]
[is_unbalance: 0]
[scale_pos_weight: 1]
[sigmoid: 1]
[boost_from_average: 1]
[reg_sqrt: 0]
[alpha: 0.9]
[fair_c: 1]
[poisson_max_delta_step: 0.7]
[tweedie_variance_power: 1.5]
[lambdarank_truncation_level: 30]
[lambdarank_norm: 1]
[label_gain: ]
[lambdarank_position_bias_regularization: 0]
[eval_at: ]
[multi_error_top_k: 1]
[auc_mu_weights: ]
[num_machines: 1]
[local_listen_port: 12400]
[time_out: 120]
[machine_list_filename: ]
[machines: ]
[gpu_platform_id: -1]
[gpu_device_id: -1]
[gpu_use_dp: 0]
[num_gpu: 1]

end of parameters

pandas_categorical:null
