tree
version=v4
num_class=2
num_tree_per_iteration=2
label_index=0
max_feature_idx=118
objective=multiclass num_class:2
feature_names=all_correlation_best_percentile25_ratio all_correlation_best_percentile50_ratio all_correlation_best_percentile75_ratio all_correlation_kurtosis all_correlation_percentile5_percentile25_ratio all_correlation_skew all_correlation_stddev_best_ratio all_correlation_stddev_median_ratio all_loss_best_percentile25_ratio all_loss_best_percentile50_ratio all_loss_best_percentile75_ratio all_loss_kurtosis all_loss_percentile5_percentile25_ratio all_loss_skew all_loss_stddev_best_ratio all_loss_stddev_median_ratio log10_cardinality recent_10_correlation_best_percentile25_ratio recent_10_correlation_best_percentile50_ratio recent_10_correlation_best_percentile75_ratio recent_10_correlation_kurtosis recent_10_correlation_percentile5_percentile25_ratio recent_10_correlation_skew recent_10_correlation_stddev_best_ratio recent_10_correlation_stddev_median_ratio recent_10_loss_best_percentile25_ratio recent_10_loss_best_percentile50_ratio recent_10_loss_best_percentile75_ratio recent_10_loss_kurtosis recent_10_loss_percentile5_percentile25_ratio recent_10_loss_skew recent_10_loss_stddev_best_ratio recent_10_loss_stddev_median_ratio recent_15%_correlation_best_percentile25_ratio recent_15%_correlation_best_percentile50_ratio recent_15%_correlation_best_percentile75_ratio recent_15%_correlation_kurtosis recent_15%_correlation_percentile5_percentile25_ratio recent_15%_correlation_skew recent_15%_correlation_stddev_best_ratio recent_15%_correlation_stddev_median_ratio recent_15%_loss_best_percentile25_ratio recent_15%_loss_best_percentile50_ratio recent_15%_loss_best_percentile75_ratio recent_15%_loss_kurtosis recent_15%_loss_percentile5_percentile25_ratio recent_15%_loss_skew recent_15%_loss_stddev_best_ratio recent_15%_loss_stddev_median_ratio recent_25_correlation_best_percentile25_ratio recent_25_correlation_best_percentile50_ratio recent_25_correlation_best_percentile75_ratio recent_25_correlation_kurtosis recent_25_correlation_percentile5_percentile25_ratio recent_25_correlation_skew recent_25_correlation_stddev_best_ratio recent_25_correlation_stddev_median_ratio recent_25_loss_best_percentile25_ratio recent_25_loss_best_percentile50_ratio recent_25_loss_best_percentile75_ratio recent_25_loss_kurtosis recent_25_loss_percentile5_percentile25_ratio recent_25_loss_skew recent_25_loss_stddev_best_ratio recent_25_loss_stddev_median_ratio top_10%_correlation_best_percentile25_ratio top_10%_correlation_best_percentile50_ratio top_10%_correlation_best_percentile75_ratio top_10%_correlation_kurtosis top_10%_correlation_percentile5_percentile25_ratio top_10%_correlation_skew top_10%_correlation_stddev_best_ratio top_10%_correlation_stddev_median_ratio top_10%_loss_best_percentile25_ratio top_10%_loss_best_percentile50_ratio top_10%_loss_best_percentile75_ratio top_10%_loss_kurtosis top_10%_loss_percentile5_percentile25_ratio top_10%_loss_skew top_10%_loss_stddev_best_ratio top_10%_loss_stddev_median_ratio top_20%_correlation_best_percentile25_ratio top_20%_correlation_best_percentile50_ratio top_20%_correlation_best_percentile75_ratio top_20%_correlation_kurtosis top_20%_correlation_percentile5_percentile25_ratio top_20%_correlation_skew top_20%_correlation_stddev_best_ratio top_20%_correlation_stddev_median_ratio top_20%_loss_best_percentile25_ratio top_20%_loss_best_percentile50_ratio top_20%_loss_best_percentile75_ratio top_20%_loss_kurtosis top_20%_loss_percentile5_percentile25_ratio top_20%_loss_skew top_20%_loss_stddev_best_ratio top_20%_loss_stddev_median_ratio top_30%_correlation_best_percentile25_ratio top_30%_correlation_best_percentile50_ratio top_30%_correlation_best_percentile75_ratio top_30%_correlation_kurtosis top_30%_correlation_percentile5_percentile25_ratio top_30%_correlation_skew top_30%_correlation_stddev_best_ratio top_30%_correlation_stddev_median_ratio top_30%_loss_best_percentile25_ratio top_30%_loss_best_percentile50_ratio top_30%_loss_best_percentile75_ratio top_30%_loss_kurtosis top_30%_loss_percentile5_percentile25_ratio top_30%_loss_skew top_30%_loss_stddev_best_ratio top_30%_loss_stddev_median_ratio resultFilteringMode_age resultFilteringMode_loss_rank resultFilteringMode_none resultFilteringMode_random resultFilteringMode_cluster resultFilteringMode_skewness
feature_infos=[-2.8698000000000001:20.433] [-2.9916:40.982999999999997] [-4.2297000000000002:34.328000000000003] [-3.4156:20.803000000000001] [-2.8151999999999999:14.609] [-9.5478000000000005:9.1981999999999999] [-8.8140000000000001:9.5786999999999995] [-4.0286:44.308] [-17.07:2.8117000000000001] [-10.318:3.0670999999999999] [-4.9805999999999999:2.9230999999999998] [-3.3570000000000002:8.4403000000000006] [-25.036000000000001:2.5297000000000001] [-9.6928000000000001:5.9936999999999996] [-1.6309:49.295000000000002] [-2.5421:109.92] [-2.4544999999999999:1.9938] [-4.8251999999999997:879.37] [-2.3460000000000001:148.34999999999999] [-1.6995:59.176000000000002] [-2.2827999999999999:13.196999999999999] [-5.6875:764.88] [-8.2172000000000001:7.0141] [-16.437999999999999:6.5782999999999996] [-2.2627999999999999:151.38999999999999] [-26.602:2.2286000000000001] [-16.376999999999999:2.3727999999999998] [-8.7861999999999991:2.4413] [-1.9087000000000001:1.7504] [-34.798000000000002:2.2412000000000001] [-5.4176000000000002:1.6658999999999999] [-1.4296:118.28] [-1.3952:110.27] [-5.5869:102.36] [-3.0847000000000002:187.06] [-2.0844999999999998:9918.6000000000004] [-2.6974:16.975000000000001] [-6.8324999999999996:95.135000000000005] [-11.875:8.4606999999999992] [-15.206:6.3426999999999998] [-3.0354999999999999:159.06] [-31.920000000000002:2.6882000000000001] [-19.251000000000001:2.9100000000000001] [-9.6479999999999997:2.7241] [-1.5889:14.561999999999999] [-44.723999999999997:2.6766000000000001] [-4.3284000000000002:6.1875] [-1.7479:114.01000000000001] [-1.857:116.56999999999999] [-6.1003999999999996:293.37] [-3.3742000000000001:651.10000000000002] [-2.2572000000000001:165.90000000000001] [-2.8214000000000001:18.370000000000001] [-7.5785999999999998:268.50999999999999] [-10.186:8.2247000000000003] [-7.4836999999999998:6.8167] [-3.2176:666.92999999999995] [-22.754999999999999:2.2075999999999998] [-12.875999999999999:2.3441999999999998] [-6.8525:2.4243000000000001] [-2.0427:3.3845000000000001] [-32.917000000000002:2.2612999999999999] [-5.9733999999999998:3.1008] [-1.9590000000000001:99.453999999999994] [-2.3212999999999999:141.99000000000001] [-4.4386999999999999:300.00999999999999] [-2.1698:93.816999999999993] [-1.8744000000000001:141.84] [-1.76:9.9113000000000007] [-5.3521000000000001:285.61000000000001] [-7.4729999999999999:5.7477999999999998] [-18.027999999999999:7.8883999999999999] [-2.2479:88.006] [-75.135999999999996:2.1545999999999998] [-52.661999999999999:2.512] [-41.643000000000001:2.6665000000000001] [-2.8679999999999999:39.640999999999998] [-109.06:2.2332000000000001] [-12.170999999999999:8.8825000000000003] [-2.5815999999999999:186.71000000000001] [-2.7113999999999998:163.59999999999999] [-5.0545999999999998:333.36000000000001] [-2.7948:209.75] [-1.5569999999999999:1033.8] [-1.8991:8.4245000000000001] [-6.3464:332] [-7.9036:5.3693] [-18.709:8.6065000000000005] [-2.8361999999999998:168.05000000000001] [-31.678000000000001:2.4931999999999999] [-27.254999999999999:2.7263000000000002] [-22.152999999999999:3.0259999999999998] [-3.8860999999999999:80.632999999999996] [-48.177999999999997:2.6288999999999998] [-18.184999999999999:10.93] [-2.6309:118.26000000000001] [-2.8500000000000001:61.584000000000003] [-5.1521999999999997:406.79000000000002] [-2.6756000000000002:149.41] [-1.3184:639.87] [-2.1150000000000002:12.898999999999999] [-6.1627999999999998:358.75999999999999] [-5.5998999999999999:6.6291000000000002] [-18.007999999999999:8.4802999999999997] [-2.8889999999999998:145.34999999999999] [-31.381:2.5962000000000001] [-21.32:2.9619] [-17.539000000000001:2.9363999999999999] [-4.0708000000000002:27.652999999999999] [-50.039000000000001:2.6375999999999999] [-9.6385000000000005:11.634] [-2.2235999999999998:175.09] [-2.3736999999999999:96.081000000000003] [0:1] [0:1] [0:1] [0:1] [0:1] [0:1]
tree_sizes=3351 3343

Tree=0
num_leaves=31
num_cat=0
split_feature=7 19 68 54 78 94 95 91 31 40 34 55 34 32 48 47 55 7 50 82 104 94 19 83 55 21 38 28 29 56
split_gain=5.20513 5.67433 4.22524 5.44822 5.17292 4.38866 4.30996 5.05218 4.22968 4.82331 5.36152 4.39081 4.41371 4.1571 5.82935 4.7028 4.11495 3.83605 3.72941 3.56265 4.98852 3.54622 4.02125 3.36083 3.14773 4.63145 2.99091 2.94941 2.61518 2.59796
threshold=-2.0117499999999997 1.6286000000000003 -1.0713999999999999 -0.48186999999999997 2.0373000000000006 0.99179000000000006 -1.1707499999999997 1.1480500000000002 -1.3584499999999997 7.5236500000000008 2.4374500000000006 0.50911000000000006 0.25905000000000006 -1.1388999999999998 -0.31979499999999994 16.853500000000004 -0.018795999999999997 -2.1477499999999998 6.3574500000000009 0.99109000000000014 -0.6527799999999998 1.6505000000000003 -0.88972499999999988 -0.95255499999999993 -0.47293499999999994 -0.41690499999999991 -0.55565999999999993 1.0788000000000002 0.19961000000000004 0.33142000000000005
decision_type=2 2 2 2 2 2 2 2 2 2 2 2 2 2 2 2 2 2 2 2 2 2 2 2 2 2 2 2 2 2
left_child=17 2 3 5 6 -2 18 8 -8 10 11 12 21 -13 -15 -16 26 27 19 20 -4 22 24 -3 25 -10 -5 28 -1 -6
right_child=1 23 4 16 29 -7 7 -9 9 -11 -12 13 -14 14 15 -17 -18 -19 -20 -21 -22 -23 -24 -25 -26 -27 -28 -29 -30 -31
leaf_value=-0.85609265792230627 -0.90851681845985366 -0.90690376736639067 -0.88477270636407834 -0.87370717586292224 -0.87599053929966875 -0.87370717586292224 -0.83260663400148505 -0.83331526403357881 -0.85119973627213519 -0.83260663400148505 -0.8976824919487606 -0.90502187442401727 -0.83639221022556476 -0.83652097132162184 -0.8917410870878385 -0.85119973627213519 -0.88911987906096113 -0.82746906626880534 -0.84801933719952394 -0.90196379839266028 -0.84762413968162553 -0.83774420173416464 -0.89939501452632042 -0.87695195548356197 -0.84202550817806432 -0.89939501452632042 -0.83540894367385576 -0.84141389297179303 -0.89145513712127011 -0.90379864401147447
leaf_weight=10.218843072652822 23.843967169523239 18.977851420640945 31.629752367734906 9.7322314977645874 21.897520869970322 14.598347246646879 9.7322314977645856 14.11173567175865 10.218843072652808 9.7322314977645856 14.598347246646879 10.218843072652815 18.491239845752716 10.218843072652815 23.843967169523239 10.218843072652815 13.625124096870421 9.7322314977645856 9.7322314977645856 15.571570396423338 12.651900947093965 9.7322314977645856 9.7322314977645963 18.491239845752716 11.678677797317503 9.7322314977645892 10.705454647541046 10.218843072652815 10.705454647541044 13.625124096870421
leaf_count=21 49 39 65 20 45 30 20 29 21 20 30 21 38 21 49 21 28 20 20 32 26 20 20 38 24 20 22 21 22 28
internal_value=-0.871839 -0.87363 -0.871649 -0.882396 -0.86884 -0.895298 -0.866223 -0.861981 -0.864539 -0.866632 -0.86902 -0.865648 -0.857324 -0.876276 -0.869642 -0.879579 -0.867836 -0.854869 -0.876725 -0.881393 -0.874159 -0.8649 -0.871289 -0.892122 -0.862642 -0.87471 -0.853646 -0.863432 -0.874185 -0.886657
internal_weight=0 387.343 349.874 72.5051 277.369 38.4423 241.846 172.26 158.149 148.417 138.684 124.086 69.5855 54.5005 44.2817 34.0628 34.0628 40.8754 69.5855 59.8532 44.2817 51.0942 41.362 37.4691 31.6298 19.9511 20.4377 31.1431 20.9243 35.5226
internal_count=880 796 719 149 570 79 497 354 325 305 285 255 143 112 91 70 70 84 143 123 91 105 85 77 65 41 42 64 43 73
is_linear=0
shrinkage=1


Tree=1
num_leaves=31
num_cat=0
split_feature=1 60 49 12 78 5 101 18 22 48 98 78 74 73 31 7 0 48 13 74 49 38 18 4 31 3 101 70 10 107
split_gain=6.21377 5.54946 5.72655 5.70187 4.52962 4.04787 5.1122 4.70944 4.16077 4.02572 4.98916 3.86142 5.88804 5.12032 4.27321 3.67503 4.11359 4.41923 3.62724 5.10177 6.90228 3.57171 3.44543 3.40283 3.14238 2.97333 7.77821 3.99779 3.56083 3.21376
threshold=-1.5794999999999997 -0.74235499999999988 -0.51462499999999989 1.8289000000000002 2.5463000000000005 1.0877000000000001 1.8198500000000004 -0.79768499999999987 1.3984500000000002 0.59487000000000012 0.076868000000000006 -0.091881499999999991 0.87491000000000019 -0.6933499999999998 1.2340000000000002 2.6575500000000005 0.17258500000000002 -1.2543999999999997 -0.0083178499999999982 -1.6580999999999997 -1.2803499999999997 1.2929500000000003 -0.7127349999999999 1.8110500000000003 0.31430000000000008 -1.0946499999999999 -0.96482499999999993 1.4622500000000003 1.3283000000000003 -0.14313999999999996
decision_type=2 2 2 2 2 2 2 2 2 2 2 2 2 2 2 2 2 2 2 2 2 2 2 2 2 2 2 2 2 2
left_child=11 5 25 4 9 7 8 18 23 15 21 12 13 -1 22 16 -4 -18 19 -2 -21 -11 -13 -7 -19 26 -3 28 -27 -29
right_child=1 2 3 -5 -6 6 -8 -9 -10 10 -12 14 -14 -15 -16 -17 17 24 -20 20 -22 -23 -24 -25 -26 27 -28 29 -30 -31
leaf_value=-0.52945394040778415 -0.51649833482102681 -0.51838840990662804 -0.57355139677995115 -0.51649833482102681 -0.52431637267510456 -0.56401575970035633 -0.50890366947706556 -0.51147245334340541 -0.57691528041444384 -0.57691528041444373 -0.5133072989622196 -0.53858739415477019 -0.50890366947706556 -0.57904263765364861 -0.58376537072468337 -0.58376537072468337 -0.57141074355800137 -0.51765656265126059 -0.5133072989622196 -0.52798606391273284 -0.5842546628897004 -0.53459150814046386 -0.57569205000190105 -0.53008303033423476 -0.55514177907118245 -0.50796956625294198 -0.57154885021748192 -0.56401575970035633 -0.54266482886324618 -0.52431637267510456
leaf_weight=9.7322314977645892 11.192066222429274 12.651900947093965 23.35735559463501 11.192066222429274 11.678677797317503 10.705454647541044 9.7322314977645856 38.92892599105835 10.218843072652815 10.218843072652822 10.218843072652815 17.518016695976261 9.7322314977645856 11.192066222429277 17.031405121088028 17.031405121088028 11.6786777973175 13.138512521982198 13.625124096870421 10.218843072652815 11.678677797317507 9.7322314977645856 9.7322314977645856 23.843967169523239 9.7322314977645856 26.763636618852615 15.084958821535109 10.705454647541048 10.218843072652815 9.7322314977645856
leaf_count=20 23 26 48 23 24 22 20 80 21 21 21 36 20 23 35 35 24 27 28 21 24 20 20 49 20 55 31 22 21 20
internal_value=-0.541597 -0.538823 -0.543905 -0.55059 -0.553857 -0.531095 -0.541747 -0.524316 -0.548887 -0.55714 -0.541718 -0.554675 -0.541034 -0.555978 -0.564118 -0.563349 -0.557344 -0.546386 -0.53502 -0.54396 -0.557996 -0.55627 -0.551839 -0.540597 -0.533608 -0.533858 -0.5473 -0.527364 -0.517556 -0.545111
internal_weight=0 353.28 213.136 127.979 116.787 140.144 54.5005 85.6436 44.7683 105.108 30.1699 74.9382 30.6565 20.9243 44.2817 74.9382 57.9068 34.5494 46.7147 33.0896 21.8975 19.9511 27.2502 34.5494 22.8707 85.157 27.7369 57.4202 36.9825 20.4377
internal_count=880 726 438 263 240 288 112 176 92 216 62 154 63 43 91 154 119 71 96 68 45 41 56 71 47 175 57 118 76 42
is_linear=0
shrinkage=1


end of trees

feature_importances:
all_correlation_stddev_median_ratio=3
recent_10_loss_stddev_best_ratio=3
recent_15%_loss_stddev_median_ratio=3
recent_25_correlation_stddev_best_ratio=3
top_10%_loss_skew=3
recent_10_correlation_best_percentile50_ratio=2
recent_10_correlation_best_percentile75_ratio=2
recent_15%_correlation_best_percentile50_ratio=2
recent_15%_correlation_skew=2
recent_25_correlation_best_percentile25_ratio=2
top_10%_loss_best_percentile50_ratio=2
top_20%_loss_skew=2
top_30%_correlation_percentile5_percentile25_ratio=2
all_correlation_best_percentile25_ratio=1
all_correlation_best_percentile50_ratio=1
all_correlation_kurtosis=1
all_correlation_percentile5_percentile25_ratio=1
all_correlation_skew=1
all_loss_best_percentile75_ratio=1
all_loss_percentile5_percentile25_ratio=1
all_loss_skew=1
recent_10_correlation_percentile5_percentile25_ratio=1
recent_10_correlation_skew=1
recent_10_loss_kurtosis=1
recent_10_loss_percentile5_percentile25_ratio=1
recent_10_loss_stddev_median_ratio=1
recent_15%_correlation_stddev_median_ratio=1
recent_15%_loss_stddev_best_ratio=1
recent_25_correlation_best_percentile50_ratio=1
recent_25_correlation_skew=1
recent_25_correlation_stddev_median_ratio=1
recent_25_loss_kurtosis=1
top_10%_correlation_kurtosis=1
top_10%_correlation_skew=1
top_10%_loss_best_percentile25_ratio=1
top_20%_correlation_best_percentile50_ratio=1
top_20%_correlation_best_percentile75_ratio=1
top_20%_loss_best_percentile75_ratio=1
top_20%_loss_stddev_best_ratio=1
top_30%_correlation_best_percentile50_ratio=1
top_30%_correlation_stddev_median_ratio=1
top_30%_loss_best_percentile75_ratio=1

parameters:
[boosting: gbdt]
[objective: multiclass]
[metric: multi_error]
[tree_learner: serial]
[device_type: cpu]
[data_sample_strategy: bagging]
[data: ]
[valid: ]
[num_iterations: 100]
[learning_rate: 0.05]
[num_leaves: 31]
[num_threads: 0]
[seed: 0]
[deterministic: 0]
[force_col_wise: 0]
[force_row_wise: 0]
[histogram_pool_size: -1]
[max_depth: -1]
[min_data_in_leaf: 20]
[min_sum_hessian_in_leaf: 0.001]
[bagging_fraction: 1]
[pos_bagging_fraction: 1]
[neg_bagging_fraction: 1]
[bagging_freq: 0]
[bagging_seed: 3]
[feature_fraction: 0.85]
[feature_fraction_bynode: 1]
[feature_fraction_seed: 2]
[extra_trees: 0]
[extra_seed: 6]
[early_stopping_round: 5]
[early_stopping_min_delta: 0]
[first_metric_only: 0]
[max_delta_step: 0]
[lambda_l1: 0]
[lambda_l2: 0]
[linear_lambda: 0]
[min_gain_to_split: 0]
[drop_rate: 0.1]
[max_drop: 50]
[skip_drop: 0.5]
[xgboost_dart_mode: 0]
[uniform_drop: 0]
[drop_seed: 4]
[top_rate: 0.2]
[other_rate: 0.1]
[min_data_per_group: 100]
[max_cat_threshold: 32]
[cat_l2: 10]
[cat_smooth: 10]
[max_cat_to_onehot: 4]
[top_k: 20]
[monotone_constraints: ]
[monotone_constraints_method: basic]
[monotone_penalty: 0]
[feature_contri: ]
[forcedsplits_filename: ]
[refit_decay_rate: 0.9]
[cegb_tradeoff: 1]
[cegb_penalty_split: 0]
[cegb_penalty_feature_lazy: ]
[cegb_penalty_feature_coupled: ]
[path_smooth: 0]
[interaction_constraints: ]
[verbosity: -1]
[saved_feature_importance_type: 0]
[use_quantized_grad: 0]
[num_grad_quant_bins: 4]
[quant_train_renew_leaf: 0]
[stochastic_rounding: 1]
[linear_tree: 0]
[max_bin: 255]
[max_bin_by_feature: ]
[min_data_in_bin: 3]
[bin_construct_sample_cnt: 200000]
[data_random_seed: 1]
[is_enable_sparse: 1]
[enable_bundle: 1]
[use_missing: 1]
[zero_as_missing: 0]
[feature_pre_filter: 1]
[pre_partition: 0]
[two_round: 0]
[header: 0]
[label_column: ]
[weight_column: ]
[group_column: ]
[ignore_column: ]
[categorical_feature: ]
[forcedbins_filename: ]
[precise_float_parser: 0]
[parser_config_file: ]
[objective_seed: 5]
[num_class: 2]
[is_unbalance: 0]
[scale_pos_weight: 1]
[sigmoid: 1]
[boost_from_average: 1]
[reg_sqrt: 0]
[alpha: 0.9]
[fair_c: 1]
[poisson_max_delta_step: 0.7]
[tweedie_variance_power: 1.5]
[lambdarank_truncation_level: 30]
[lambdarank_norm: 1]
[label_gain: ]
[lambdarank_position_bias_regularization: 0]
[eval_at: ]
[multi_error_top_k: 1]
[auc_mu_weights: ]
[num_machines: 1]
[local_listen_port: 12400]
[time_out: 120]
[machine_list_filename: ]
[machines: ]
[gpu_platform_id: -1]
[gpu_device_id: -1]
[gpu_use_dp: 0]
[num_gpu: 1]

end of parameters

pandas_categorical:null
