tree
version=v4
num_class=1
num_tree_per_iteration=1
label_index=0
max_feature_idx=128
objective=regression
feature_names=all_correlation_best_percentile25_ratio all_correlation_best_percentile50_ratio all_correlation_best_percentile75_ratio all_correlation_kurtosis all_correlation_percentile5_percentile25_ratio all_correlation_skew all_correlation_stddev_best_ratio all_correlation_stddev_median_ratio all_loss_best_percentile25_ratio all_loss_best_percentile50_ratio all_loss_best_percentile75_ratio all_loss_kurtosis all_loss_percentile5_percentile25_ratio all_loss_skew all_loss_stddev_best_ratio all_loss_stddev_median_ratio log10_cardinality recent_10_correlation_best_percentile25_ratio recent_10_correlation_best_percentile50_ratio recent_10_correlation_best_percentile75_ratio recent_10_correlation_kurtosis recent_10_correlation_percentile5_percentile25_ratio recent_10_correlation_skew recent_10_correlation_stddev_best_ratio recent_10_correlation_stddev_median_ratio recent_10_loss_best_percentile25_ratio recent_10_loss_best_percentile50_ratio recent_10_loss_best_percentile75_ratio recent_10_loss_kurtosis recent_10_loss_percentile5_percentile25_ratio recent_10_loss_skew recent_10_loss_stddev_best_ratio recent_10_loss_stddev_median_ratio recent_15%_correlation_best_percentile25_ratio recent_15%_correlation_best_percentile50_ratio recent_15%_correlation_best_percentile75_ratio recent_15%_correlation_kurtosis recent_15%_correlation_percentile5_percentile25_ratio recent_15%_correlation_skew recent_15%_correlation_stddev_best_ratio recent_15%_correlation_stddev_median_ratio recent_15%_loss_best_percentile25_ratio recent_15%_loss_best_percentile50_ratio recent_15%_loss_best_percentile75_ratio recent_15%_loss_kurtosis recent_15%_loss_percentile5_percentile25_ratio recent_15%_loss_skew recent_15%_loss_stddev_best_ratio recent_15%_loss_stddev_median_ratio recent_25_correlation_best_percentile25_ratio recent_25_correlation_best_percentile50_ratio recent_25_correlation_best_percentile75_ratio recent_25_correlation_kurtosis recent_25_correlation_percentile5_percentile25_ratio recent_25_correlation_skew recent_25_correlation_stddev_best_ratio recent_25_correlation_stddev_median_ratio recent_25_loss_best_percentile25_ratio recent_25_loss_best_percentile50_ratio recent_25_loss_best_percentile75_ratio recent_25_loss_kurtosis recent_25_loss_percentile5_percentile25_ratio recent_25_loss_skew recent_25_loss_stddev_best_ratio recent_25_loss_stddev_median_ratio top_10%_correlation_best_percentile25_ratio top_10%_correlation_best_percentile50_ratio top_10%_correlation_best_percentile75_ratio top_10%_correlation_kurtosis top_10%_correlation_percentile5_percentile25_ratio top_10%_correlation_skew top_10%_correlation_stddev_best_ratio top_10%_correlation_stddev_median_ratio top_10%_loss_best_percentile25_ratio top_10%_loss_best_percentile50_ratio top_10%_loss_best_percentile75_ratio top_10%_loss_kurtosis top_10%_loss_percentile5_percentile25_ratio top_10%_loss_skew top_10%_loss_stddev_best_ratio top_10%_loss_stddev_median_ratio top_20%_correlation_best_percentile25_ratio top_20%_correlation_best_percentile50_ratio top_20%_correlation_best_percentile75_ratio top_20%_correlation_kurtosis top_20%_correlation_percentile5_percentile25_ratio top_20%_correlation_skew top_20%_correlation_stddev_best_ratio top_20%_correlation_stddev_median_ratio top_20%_loss_best_percentile25_ratio top_20%_loss_best_percentile50_ratio top_20%_loss_best_percentile75_ratio top_20%_loss_kurtosis top_20%_loss_percentile5_percentile25_ratio top_20%_loss_skew top_20%_loss_stddev_best_ratio top_20%_loss_stddev_median_ratio top_30%_correlation_best_percentile25_ratio top_30%_correlation_best_percentile50_ratio top_30%_correlation_best_percentile75_ratio top_30%_correlation_kurtosis top_30%_correlation_percentile5_percentile25_ratio top_30%_correlation_skew top_30%_correlation_stddev_best_ratio top_30%_correlation_stddev_median_ratio top_30%_loss_best_percentile25_ratio top_30%_loss_best_percentile50_ratio top_30%_loss_best_percentile75_ratio top_30%_loss_kurtosis top_30%_loss_percentile5_percentile25_ratio top_30%_loss_skew top_30%_loss_stddev_best_ratio top_30%_loss_stddev_median_ratio resultFilteringMode_age resultFilteringMode_loss_rank resultFilteringMode_none resultFilteringMode_random secondaryProbabilityMode_correlation secondaryProbabilityMode_fixed secondaryLockingMode_random secondaryLockingMode_top resultFilteringAgeMultiplier resultFilteringLossRankMultiplier resultFilteringRandomProbability secondaryTopLockingPercentile secondaryCorrelationExponent secondaryCorrelationMultiplier secondaryFixedProbability secondaryCutoff
feature_infos=[-2.5491999999999999:16.530999999999999] [-2.8372999999999999:24.245000000000001] [-2.7557:37.680999999999997] [-3.0859000000000001:12.045999999999999] [-2.6465999999999998:14.791] [-6.8095999999999997:5.4836999999999998] [-12.917999999999999:6.5324] [-4.4776999999999996:26.809000000000001] [-13.234:3.1080999999999999] [-7.2653999999999996:3.4115000000000002] [-5.0983000000000001:4.2472000000000003] [-3.3512:14.935] [-15.465:2.7292000000000001] [-9.1888000000000005:9.4795999999999996] [-1.9705999999999999:40.409999999999997] [-2.3418000000000001:12.238] [-2.7728000000000002:6.0151000000000003] [-4.2477999999999998:1479.3] [-3.3382999999999998:121.37] [-2.0943000000000001:155.97] [-2.4792999999999998:16.001000000000001] [-4.8164999999999996:1220.5999999999999] [-7.0229999999999997:6.8475000000000001] [-8.4337999999999997:5.9335000000000004] [-3.2038000000000002:135.58000000000001] [-23.227:2.1471] [-12.186999999999999:2.3593999999999999] [-6.7225999999999999:2.3452999999999999] [-1.7426999999999999:2.0853000000000002] [-28.006:2.1993999999999998] [-4.6769999999999996:1.8864000000000001] [-1.4356:67.701999999999998] [-1.4570000000000001:38.061999999999998] [-4.7081999999999997:5102.1000000000004] [-3.5125000000000002:1025.5999999999999] [-2.3738000000000001:430.55000000000001] [-2.6972:21.355] [-5.6719999999999997:4447.3999999999996] [-9.0085999999999995:7.4705000000000004] [-10.278:7.3643000000000001] [-3.3525999999999998:1138.0999999999999] [-26.516999999999999:2.7372999999999998] [-14.776999999999999:2.8176000000000001] [-8.1395999999999997:2.6063000000000001] [-1.5384:15.026999999999999] [-31.042999999999999:2.6181999999999999] [-4.3291000000000004:6.4221000000000004] [-1.6697:76.346999999999994] [-1.7478:25.27] [-5.3750999999999998:3217.5999999999999] [-3.6646999999999998:254.06999999999999] [-2.4687000000000001:289.89999999999998] [-2.4649000000000001:20.209] [-6.7587999999999999:2912] [-8.6442999999999994:7.1127000000000002] [-7.9272:5.2937000000000003] [-3.3003999999999998:258.97000000000003] [-16.699000000000002:2.3532000000000002] [-9.0013000000000005:2.3439999999999999] [-5.8444000000000003:2.5341999999999998] [-2.0017:4.1548999999999996] [-19.992000000000001:2.2707999999999999] [-5.0614999999999997:3.4578000000000002] [-2.0122:73.070999999999998] [-2.1137000000000001:23.582000000000001] [-2.8805000000000001:3503.6999999999998] [-2.7258:87.317999999999998] [-1.5889:56.759999999999998] [-2.1444999999999999:11.391999999999999] [-3.2263000000000002:2910.9000000000001] [-9.4313000000000002:5.8783000000000003] [-17.606000000000002:6.9325999999999999] [-2.7244000000000002:96.765000000000001] [-63.517000000000003:2.1160999999999999] [-45.344000000000001:2.4826000000000001] [-37.415999999999997:2.7511000000000001] [-3.3729:23.84] [-84.582999999999998:2.0145] [-9.8245000000000005:7.1946000000000003] [-2.4361000000000002:117.3] [-2.5884:41.664999999999999] [-3.0931999999999999:875.48000000000002] [-2.8776999999999999:1446.2] [-1.7749999999999999:283.25] [-2.2311000000000001:11.853999999999999] [-3.5562:743.86000000000001] [-8.5234000000000005:5.7507000000000001] [-18.684000000000001:7.9916] [-2.9138000000000002:1569.2] [-30.933:2.4379] [-24.204000000000001:2.8671000000000002] [-19.971:3.1560000000000001] [-4.2765000000000004:43.893000000000001] [-36.023000000000003:2.4327000000000001] [-13.372999999999999:13.94] [-2.4142999999999999:78.762] [-2.5969000000000002:44.883000000000003] [-3.5562:1173.9000000000001] [-3.7484999999999999:73.188999999999993] [-1.7868999999999999:773.5] [-2.2966000000000002:14.218999999999999] [-4.1436000000000002:1003.3] [-5.2107000000000001:6.3327] [-11.210000000000001:6.5669000000000004] [-3.6204999999999998:70.992999999999995] [-26.581:2.6819999999999999] [-19.111999999999998:3.0676000000000001] [-15.106:3.1271] [-4.3403:37.700000000000003] [-30.247:2.5819999999999999] [-11.513999999999999:10.545999999999999] [-2.3624999999999998:68.021000000000001] [-2.6322999999999999:36.753999999999998] [0:1] [0:1] [0:1] [0:1] [0:1] [0:1] [0:1] [0:1] [-3:4] [-3:4] [-3:0.90000000000000002] [-3:10] [1:3] [-3:1.8] [-3:0.75] [-1:1]
tree_sizes=2620 2815 2632 2806 2792 2803 2800 2809 2812 2818 2807 2804 2832 2821 2835 2825 2826 2834 2810 2830 2827 2842 2843 2835 2826 2841

Tree=0
num_leaves=31
num_cat=0
split_feature=65 93 76 86 62 23 45 62 68 23 16 9 47 1 103 56 20 9 15 4 66 87 11 58 76 51 11 51 15 47
split_gain=24.8526 6.01082 5.17497 4.70119 2.80189 2.82132 2.63718 2.46023 1.95517 1.78901 1.45919 2.84563 1.54497 1.09851 1.06783 1.02724 0.993706 0.799068 0.73696 0.675068 0.851662 0.754673 0.680851 0.595841 0.592486 0.504692 0.361 0.351153 0.498503 0.351117
threshold=-1.5708499999999999 1.8418500000000002 -1.7836499999999997 -1.2463499999999998 -0.26828999999999997 0.52328000000000008 1.0252500000000002 -2.6953499999999995 -1.5543999999999998 1.1171500000000003 -1.0141749999999998 -1.4201999999999997 -1.5587499999999996 4.3859000000000004 -3.3966999999999996 -0.57917999999999992 -0.51982499999999987 1.4626000000000003 -0.92409999999999981 -0.016481149999999996 -0.72695499999999991 0.7093600000000001 8.5164000000000026 0.49853500000000006 2.1373500000000001 -0.43175499999999994 5.5776000000000012 -1.0021299999999997 0.3557550000000001 -0.80855999999999983
decision_type=2 2 2 2 2 2 2 2 2 2 2 2 2 2 2 2 2 2 2 2 2 2 2 2 2 2 2 2 2 2
left_child=1 3 4 7 5 -2 -5 -1 9 -4 11 -10 -12 16 -14 -9 -13 18 -16 21 22 24 -21 -23 27 -22 -19 -20 -29 -18
right_child=2 -3 8 6 -6 -7 -8 15 10 -11 12 13 14 -15 17 -17 29 26 19 20 25 23 -24 -25 -26 -27 -28 28 -30 -31
leaf_value=1.4928636340729213 1.4958636334636295 1.4658636342605955 1.4884562266909012 1.4886841468712735 1.5058636335912774 1.4731363615867765 1.5080511335960842 1.4791969674474104 1.4884562265805221 1.5061969670585611 1.4953636339239098 1.4979688970755303 1.5003463926535321 1.5162984153690191 1.5040989275822505 1.4633636341921308 1.5138636332682587 1.4988636340133168 1.5221493473155545 1.5160763987640866 1.5103636336258865 1.5147922048756441 1.5058636330298401 1.5050064906835943 1.5104090878570622 1.5002386336892166 1.5083636334470727 1.5198636329106308 1.5099545425650747 1.5051228931368099
leaf_weight=20 36 37 27 39 31 22 32 21 27 30 20 38 29 23 34 20 20 20 35 47 20 28 25 35 33 32 20 30 22 27
leaf_count=20 36 37 27 39 31 22 32 21 27 30 20 38 29 23 34 20 20 20 35 47 20 28 25 35 33 32 20 30 22 27
internal_value=1.50091 1.48367 1.50501 1.48867 1.49373 1.48724 1.49741 1.47849 1.50662 1.49779 1.50751 1.50297 1.50893 1.5066 1.5096 1.47147 1.50398 1.5103 1.51108 1.51186 1.50901 1.51379 1.51253 1.50936 1.51611 1.50413 1.50361 1.51828 1.51567 1.50884
internal_weight=0 169 711 132 89 58 71 61 622 57 565 135 430 108 410 41 85 381 341 307 124 183 72 63 120 52 40 87 52 47
internal_count=880 169 711 132 89 58 71 61 622 57 565 135 430 108 410 41 85 381 341 307 124 183 72 63 120 52 40 87 52 47
is_linear=0
shrinkage=1


Tree=1
num_leaves=31
num_cat=0
split_feature=65 13 13 13 58 55 111 15 4 76 95 68 101 65 99 23 128 49 41 93 26 81 17 29 79 29 17 58 60 55
split_gain=22.4295 5.63118 5.24466 4.59032 4.0551 2.70226 2.22751 1.56989 1.59949 1.71128 1.27395 1.18768 1.15757 1.2571 1.10132 1.06145 1.12658 0.985151 0.982577 0.931893 1.65435 0.835856 0.733477 0.719992 0.80191 0.665544 0.610837 0.742427 0.593906 0.534435
threshold=-1.5708499999999999 0.11647500000000001 -1.9926999999999999 -4.1965999999999992 -3.0332999999999997 0.0080636000000000024 0.29755500000000007 8.0004500000000025 -0.54842499999999983 -1.2179499999999999 0.6648050000000002 -0.60582999999999998 -1.2398499999999999 -1.1927999999999999 -1.1350499999999999 -1.0763999999999998 -1.0000000180025095e-35 0.54657000000000011 1.2554500000000002 -0.92172499999999991 -0.39965999999999996 -1.4002499999999998 -0.71271499999999988 0.40483500000000006 -0.26117499999999999 1.2005000000000001 -0.79250999999999994 1.0510000000000002 0.43300500000000003 0.043663500000000008
decision_type=2 2 2 2 2 2 2 2 2 2 2 2 2 2 2 2 2 2 2 2 2 2 2 2 2 2 2 2 2 2
left_child=1 3 4 5 -2 21 -5 8 9 10 -4 -6 22 -14 15 -15 17 -17 -3 -11 -21 -1 -10 29 -25 26 -22 -28 -18 -16
right_child=2 18 7 6 11 -7 -8 -9 12 19 -12 -13 13 14 23 16 28 -19 -20 20 25 -23 -24 24 -26 -27 27 -29 -30 -31
leaf_value=-0.011183117441833021 -0.023567461153423345 -0.0078004121425605949 0.0083586285822093483 -0.040617687205473582 0.0051723574533274301 -0.026464727967977525 -0.022392087096446439 0.014870548798214823 0.0017919046618044378 0.014961382421472717 -0.0087278250294427085 -0.0086961900958648104 -0.0053054867750581582 -0.0050067823968435593 0.017329683154821397 -0.0094204239902042214 0.0037705047676960626 0.0050190174055320252 0.0076849229633808138 -0.0052993256066526688 0.0019321786356158556 0.0032724676094949244 -0.011438144895840776 0.0098079466228855067 -0.0032062369398772718 0.015070111904202439 0.017716115713119509 0.0042555281892418867 0.01299664462740357 0.0074312072843313219
leaf_weight=20 27 21 20 30 38 20 38 42 20 63 24 26 34 38 30 21 33 27 20 21 32 20 22 29 20 41 21 20 37 25
leaf_count=20 27 21 20 30 38 20 38 42 20 63 24 26 34 38 30 21 33 27 20 21 32 20 22 29 20 41 21 20 37 25
internal_value=0 -0.0163731 0.00389177 -0.0215386 -0.00731728 -0.0114585 -0.0304328 0.00553697 0.00485875 0.00795801 -0.000961255 -0.00046174 0.00262654 0.00373578 0.0049181 0.00226109 0.00460159 -0.00129824 -0.00024659 0.00994007 0.0075968 -0.00395532 -0.00513812 0.00890362 0.00449603 0.0099724 0.0071093 0.01115 0.00864718 0.0128304
internal_weight=0 169 711 128 91 60 68 620 578 242 44 64 336 294 260 156 118 48 41 198 135 40 42 104 49 114 73 41 70 55
internal_count=880 169 711 128 91 60 68 620 578 242 44 64 336 294 260 156 118 48 41 198 135 40 42 104 49 114 73 41 70 55
is_linear=0
shrinkage=0.05


Tree=2
num_leaves=29
num_cat=0
split_feature=65 93 73 44 35 65 40 30 4 103 74 17 16 112 79 54 54 127 51 110 78 25 18 30 12 44 22 94
split_gain=20.2426 5.10077 4.22473 3.87254 2.82274 1.86434 1.8063 1.84631 2.17145 1.6985 1.31963 1.23689 0.938763 1.58577 1.03326 1.00017 0.882984 0.754802 1.50364 0.727094 0.693148 0.684898 0.94207 0.50001 0.685454 0.558179 0.46198 0.235254
threshold=-1.5708499999999999 1.8418500000000002 0.36493500000000006 -0.88002499999999995 -1.4198499999999996 -2.2289999999999996 2.4346000000000001 -1.5766499999999997 -1.1769499999999999 -3.1600999999999995 0.16830500000000001 -1.2454999999999998 -1.0141749999999998 -1.1464499999999997 -1.1296499999999998 -0.48152999999999996 -0.29264499999999993 0.52500000000000013 -0.80254999999999987 1.2000000000000002 0.80721000000000009 1.2362500000000003 2.6136500000000003 1.7630000000000001 0.40040000000000003 0.80954500000000007 1.2650000000000001 0.4099350000000001
decision_type=2 2 2 2 2 2 2 2 2 2 2 2 2 2 2 2 2 2 2 2 2 2 2 2 2 2 2 2
left_child=1 2 4 6 -1 -4 7 10 -9 -5 -2 -10 13 15 -14 -11 -13 20 19 -19 21 22 23 24 25 -16 -17 -22
right_child=3 -3 5 9 -6 -7 -8 8 11 12 -12 16 14 -15 17 26 -18 18 -20 -21 27 -23 -24 -25 -26 -27 -28 -29
leaf_value=-0.0097416710321392343 0.00061780165348734178 -0.031961461076059856 0.0085817358384911845 -0.0047651232165448814 -0.030124701356345956 -0.0087940183027010229 -0.013693136709003613 0.0060036575169982141 -0.018444857689673487 -0.0014374213614340488 0.015658487111330034 -0.012310036390342496 0.0004225859561791787 -0.0071993892819717008 0.016482736055667586 0.0061441290813187763 0.00070235149469226603 0.016234275725271023 -0.0022087197750806811 0.0040875296193090358 0.011390998125785874 0.016040857354628631 -0.0024505213648080828 0.01556193445622921 0.0023855604329391534 0.0067506404593586922 0.014890730295043725 0.018160693731271861
leaf_weight=35 35 37 26 34 33 38 29 37 23 29 25 22 39 29 26 36 32 28 39 22 21 29 20 25 38 34 26 33
leaf_count=35 35 37 26 34 33 38 29 37 23 29 25 22 39 29 26 36 32 28 39 22 21 29 20 25 38 34 26 33
internal_value=0 -0.0155544 -0.0109555 0.00369718 -0.0196334 -0.00173512 -0.00214019 -0.000214694 -0.00395125 0.00602983 0.00688475 -0.00873477 0.00680415 0.00298233 0.00809968 0.00622706 -0.00459899 0.00905018 0.00514995 0.0108897 0.0105861 0.00903458 0.00761372 0.00925018 0.00764004 0.0109679 0.00981206 0.015528
internal_weight=0 169 132 711 68 64 203 174 114 508 60 77 474 120 354 91 54 315 89 50 226 172 143 123 98 60 62 54
internal_count=880 169 132 711 68 64 203 174 114 508 60 77 474 120 354 91 54 315 89 50 226 172 143 123 98 60 62 54
is_linear=0
shrinkage=0.05


Tree=3
num_leaves=31
num_cat=0
split_feature=65 13 13 13 58 36 31 15 7 104 12 15 103 19 23 51 20 77 77 41 43 20 49 29 37 51 44 85 71 51
split_gain=18.269 4.72081 4.47804 4.05052 3.54649 2.8452 2.21986 1.35119 1.34187 1.66064 1.25377 1.69785 1.32975 1.17778 2.10149 1.74016 1.13164 1.10672 0.928119 0.854534 0.809381 0.72486 0.550959 0.496528 0.610071 0.512297 0.4521 0.432776 0.557251 0.42037
threshold=-1.5708499999999999 0.11647500000000001 -1.9926999999999999 -4.1965999999999992 -3.0332999999999997 -0.57653999999999994 -0.66162499999999991 8.0004500000000025 0.25220000000000004 -1.3961999999999997 -7.2054999999999998 -0.16589999999999996 0.25811000000000006 -1.4621499999999998 -1.0763999999999998 -1.4261499999999998 -0.077871499999999982 0.87298000000000009 0.97145500000000007 1.2554500000000002 0.94738000000000011 -0.42795999999999995 4.6743000000000015 0.8985200000000001 -0.78908499999999993 -0.80616999999999994 0.11590500000000002 -0.9398249999999998 -1.0947999999999998 -0.44938999999999996
decision_type=2 2 2 2 2 2 2 2 2 2 2 2 2 2 2 2 2 2 2 2 2 2 2 2 2 2 2 2 2 2
left_child=1 3 4 6 -2 -5 -1 8 9 10 -4 29 -13 14 -10 21 -17 -6 23 -3 -20 -16 -23 24 25 -11 -15 -26 -29 -12
right_child=2 19 7 5 17 -7 -8 -9 13 18 11 12 -14 26 15 16 -18 -19 20 -21 -22 22 -24 -25 27 -27 -28 28 -30 -31
leaf_value=-0.0029801360110585126 -0.022042125842913433 -0.0070556632110050747 0.011996015872467649 -0.038088716062552791 -0.0072177769496075579 -0.017633609068306053 -0.023143667976061502 0.013691622001074611 -0.014698437803114453 0.017933859646320344 0.011484393551945686 -0.015615895092487337 0.00069209494441747671 0.010487039357021048 -0.0019202573467855871 0.00068930541165173058 -0.015414533223956823 0.005938747615525217 0.0080909623702367147 0.0073854889720678333 -0.0045353388075124136 0.0120648847367519 0.0021690836345607586 0.014004497947629358 0.011638499359073847 0.0075939248923374255 0.0026166465340389149 0.0099859957716294714 -0.00026277656563454207 0.0012329332996159792
leaf_weight=39 27 21 22 34 31 34 21 42 24 25 20 25 25 37 23 24 20 33 30 20 22 39 22 61 23 23 36 21 36 20
leaf_count=39 27 21 22 34 31 34 21 42 24 25 20 25 25 37 23 24 20 33 30 20 22 39 22 61 23 23 36 21 36 20
internal_value=0 -0.0147767 0.00351232 -0.0195063 -0.00684516 -0.0278612 -0.0100374 0.00503253 0.00440333 0.00632671 0.00129611 -0.00131943 -0.0074619 0.00138575 -0.00112122 0.00142451 -0.00663062 -0.000433944 0.00866458 -1.11987e-05 0.00274907 0.00564386 0.00849591 0.0102921 0.00852295 0.0129793 0.00660575 0.00584914 0.00351309 0.00635866
internal_weight=0 169 711 128 91 68 60 620 578 353 112 90 50 225 152 128 44 64 241 41 52 84 61 189 128 48 73 80 57 40
internal_count=880 169 711 128 91 68 60 620 578 353 112 90 50 225 152 128 44 64 241 41 52 84 61 189 128 48 73 80 57 40
is_linear=0
shrinkage=0.05


Tree=4
num_leaves=31
num_cat=0
split_feature=65 93 76 35 25 41 62 102 68 68 14 9 123 5 128 67 81 9 90 62 60 1 20 45 1 68 48 1 65 54
split_gain=16.4877 4.45646 3.70744 3.56347 3.05954 2.90204 2.13621 1.87923 1.62932 1.62798 0.987435 2.95233 0.997615 1.0084 0.847952 1.00468 1.16703 0.735886 0.665739 0.659342 0.65349 0.534282 0.530021 0.520866 0.438736 0.434776 0.484429 0.391768 0.36717 0.209253
threshold=-1.5708499999999999 1.8887500000000002 -1.7836499999999997 -1.5265999999999997 -1.2033999999999998 1.1952 -0.26828999999999997 0.44518500000000005 -1.5543999999999998 -1.6887499999999998 3.5599500000000002 -2.5563499999999997 0.8500000000000002 -0.93681999999999988 0.15000000000000005 0.16519000000000003 -0.80797999999999992 -1.5907999999999998 0.56103500000000006 -0.27142499999999997 -0.61617499999999981 -2.0302999999999995 -1.2561499999999997 0.55942000000000014 0.90492000000000006 1.1065000000000003 2.2783500000000005 0.71217000000000008 -0.29086999999999991 -0.12107499999999997
decision_type=2 2 2 2 2 2 2 2 2 2 2 2 2 2 2 2 2 2 2 2 2 2 2 2 2 2 2 2 2 2
left_child=1 3 6 5 -5 17 7 -2 9 -4 11 -10 13 19 15 16 -15 -1 -18 22 -16 -21 -13 27 -20 -12 -27 -22 -23 -14
right_child=2 -3 8 4 -6 -7 -8 -9 10 -11 25 12 29 14 20 -17 18 -19 24 21 23 28 -24 -25 -26 26 -28 -29 -30 -31
leaf_value=-0.0036699237124550909 -0.0040378904026566135 -0.029924779085974608 0.0058724307240201881 -0.027187939117161126 -0.0044981427335490784 0.010319330011095321 0.0043875061876831522 -0.022211738951504231 -0.010863203985680796 -0.011092993809330848 0.014961440599290655 0.0063208405738291538 0.016751542184501887 -0.012219124270433729 0.011976982894189218 0.008026930751899879 -0.0046603518351912496 -0.016755364585498516 -0.0015501246973872184 -0.0013297119516540658 0.011701113311573863 0.0041578391407217303 0.016037728606412806 -0.00065493225245862399 0.0078901210392359651 0.0020463052003279977 0.011286810342524503 0.0022258767113089561 0.011630249023437501 0.0095187517255544678
leaf_weight=21 33 35 26 39 24 28 31 25 29 31 32 23 20 22 34 33 35 22 20 22 24 35 36 37 32 23 37 20 31 20
leaf_count=21 33 35 26 39 24 28 31 25 29 31 32 23 20 22 34 33 35 22 20 22 24 35 36 37 32 23 37 20 31 20
internal_value=0 -0.0140379 0.00333671 -0.00988829 -0.0185442 -0.00220768 -0.00620822 -0.0118714 0.00470246 -0.00335438 0.00551527 0.00459341 0.00560297 0.00485721 0.00296796 0.000383359 -0.00193075 -0.0103648 0.000670909 0.00816018 0.00615938 0.00541828 0.0122498 0.00371743 0.00425926 0.0102548 0.00774462 0.00739419 0.00766761 0.0131351
internal_weight=0 169 711 134 63 71 89 58 622 57 565 473 444 404 257 142 109 43 87 147 115 88 59 81 52 92 60 44 66 40
internal_count=880 169 711 134 63 71 89 58 622 57 565 473 444 404 257 142 109 43 87 147 115 88 59 81 52 92 60 44 66 40
is_linear=0
shrinkage=0.05


Tree=5
num_leaves=31
num_cat=0
split_feature=69 93 13 86 59 43 41 84 43 59 4 48 68 49 77 7 7 101 13 53 53 53 53 13 12 54 99 127 19 68
split_gain=14.8802 4.02668 3.75277 3.37031 3.22444 2.78375 2.2915 1.10722 1.10229 2.69756 1.45703 1.31821 1.18548 1.00617 0.935013 0.880711 0.850525 0.770243 0.763397 0.673979 0.950542 0.845729 0.618276 0.602602 0.480364 0.462475 0.426849 0.420848 0.362431 0.225405
threshold=-1.5531999999999997 1.8418500000000002 -1.9926999999999999 -1.2463499999999998 -2.7644999999999995 0.59798000000000007 1.1952 -0.94477999999999984 -4.4265499999999998 -1.3200999999999998 -0.59014499999999981 0.18318000000000004 -1.5543999999999998 4.2667500000000009 -0.15346999999999997 0.61392000000000013 -2.0355499999999993 -1.2947999999999997 0.40801500000000007 1.6531000000000002 -0.35238499999999995 0.45149000000000006 -0.96562999999999988 6.4228000000000014 -7.6080499999999995 0.99777500000000019 -0.38790999999999992 0.52500000000000013 -1.5980999999999999 -0.56947499999999984
decision_type=2 2 2 2 2 2 2 2 2 2 2 2 2 2 2 2 2 2 2 2 2 2 2 2 2 2 2 2 2 2
left_child=1 3 4 5 -2 -1 14 -6 23 11 15 -10 -12 17 -5 16 -11 -14 27 20 22 -22 -20 24 -4 26 28 29 -18 -19
right_child=2 -3 8 6 7 -7 -8 -9 9 10 12 -13 13 -15 -16 -17 25 18 19 -21 21 -23 -24 -25 -26 -27 -28 -29 -30 -31
leaf_value=-0.026770311361178759 -0.021193316584238068 -0.027913573968249401 0.016925607225106609 -0.016768661376443648 -0.0071934491395950319 -0.0050518697649240499 0.0089656984048156908 0.0058719546753255763 -0.014900098279118538 0.0018420404927046213 -0.0070109485116388124 -0.00011683747564491474 -0.0032506931788073138 -0.0057031926214694975 -0.0018481322918974218 0.00083640518714673824 0.014874126152558762 0.0077251099946874166 0.00059556818821213467 0.01117844157630489 -0.010853148082440551 0.0025885220542550091 0.012449562337926844 0.0030966960055672605 0.0078907491506210389 0.0056059264649565409 0.016280768550216006 0.0036858411729335789 0.0065374403784517199 0.013608567107741427
leaf_weight=36 26 37 31 21 31 25 29 34 25 27 28 38 26 25 21 32 22 27 22 21 22 25 22 23 28 26 52 25 32 41
leaf_count=36 26 37 31 21 31 25 29 34 25 27 28 38 26 25 21 32 22 27 22 21 22 25 22 23 28 26 52 25 32 41
internal_value=0 -0.013336 0.00316987 -0.00924981 -0.00631183 -0.0178693 -0.00184433 -0.000359238 0.00456154 0.00373847 0.00502787 -0.00598321 0.00275688 0.00382524 -0.0093084 0.00840462 0.00992779 0.00485646 0.00588468 0.00310432 0.00124106 -0.00370332 0.00652257 0.00996169 0.0126379 0.0115817 0.0130474 0.00923307 0.00993387 0.0112725
internal_weight=0 169 711 132 91 61 71 65 620 538 475 63 284 256 42 191 159 231 205 112 91 47 44 82 59 132 106 93 54 68
internal_count=880 169 711 132 91 61 71 65 620 538 475 63 284 256 42 191 159 231 205 112 91 47 44 82 59 132 106 93 54 68
is_linear=0
shrinkage=0.05


Tree=6
num_leaves=31
num_cat=0
split_feature=65 16 56 76 87 20 110 7 59 15 10 5 7 25 71 46 51 64 19 86 10 36 3 55 59 36 15 29 29 96
split_gain=13.4294 3.83692 3.18579 3.04855 2.19713 2.39028 2.07333 1.94904 2.27595 1.20387 2.60614 1.56771 1.42045 1.20536 1.18138 1.13824 1.10777 1.04846 0.823392 0.926532 0.58306 0.551721 0.559831 0.525881 0.503678 0.430474 0.455799 0.557719 0.572916 0.374429
threshold=-1.5708499999999999 -2.3946999999999998 -1.3202999999999998 -1.7836499999999997 0.25501000000000001 -0.53770999999999991 0.20385500000000004 0.99637500000000012 -2.7644999999999995 3.2245500000000002 -1.3768999999999998 -0.27472499999999994 -2.0355499999999993 -0.10029599999999998 1.1326500000000002 0.022449000000000004 -0.31379499999999994 -1.0712999999999997 -1.3293499999999998 -1.1266499999999999 -0.28217999999999993 0.100844 -1.2030499999999997 0.60396500000000009 1.3885500000000002 -1.5978499999999998 0.90400000000000003 0.10239500000000001 -0.58202999999999994 9.7521500000000021
decision_type=2 2 2 2 2 2 2 2 2 2 2 2 2 2 2 2 2 2 2 2 2 2 2 2 2 2 2 2 2 2
left_child=1 -1 6 7 5 -4 -3 8 -2 10 15 12 -12 23 18 -5 -6 -10 19 -15 21 -11 -23 -13 -21 -14 27 28 -27 -24
right_child=3 2 4 9 16 -7 -8 -9 17 20 11 13 25 14 -16 -17 -18 -19 -20 24 -22 22 29 -25 -26 26 -28 -29 -30 -31
leaf_value=-0.032143611257726495 -0.012986137366129292 -0.012274595056563462 -0.033815030813217163 -0.0149772267931929 0.00056963010048050251 -0.010933059919625522 0.0066978273822719024 -0.019387344997376207 -0.0019116731699217451 0.016190870057929446 -0.0039206675176198282 0.01074409150518477 0.015948566049337389 -0.011241980213671924 -0.0088567687095039427 -3.4983418881893154e-05 -0.015872649345546962 0.013906024745665491 0.0060708784463780899 -0.0026059120955566565 0.0025709431458796773 0.014099092903332069 0.001241497078846241 0.0011198079890825531 0.0076377693936228765 0.0091132477976572836 0.0014855658381500029 0.012045537595721809 -0.0012953938636928797 0.0092089755833148958
leaf_weight=22 27 24 25 26 21 21 36 20 22 27 24 40 20 20 36 25 20 20 54 30 35 26 29 22 20 39 22 77 20 30
leaf_count=22 27 24 25 26 21 21 36 20 22 27 24 40 20 20 36 25 20 20 54 30 35 26 29 22 20 39 22 77 20 30
internal_value=0 -0.0126692 -0.00975462 0.00301138 -0.0158674 -0.0233689 -0.000891142 -0.00564392 -0.00166032 0.00424984 0.00302613 0.0043106 0.00749789 0.00141046 -0.000882986 -0.0076526 -0.00745099 0.00562056 0.00143198 -0.00214659 0.00820398 0.00996431 0.00798646 0.00732902 0.00149156 0.00903747 0.00816264 0.00924276 0.00558489 0.00529276
internal_weight=0 169 147 711 87 46 60 89 69 622 475 424 202 222 160 51 41 42 124 70 147 112 85 62 50 178 158 136 59 59
internal_count=880 169 147 711 87 46 60 89 69 622 475 424 202 222 160 51 41 42 124 70 147 112 85 62 50 178 158 136 59 59
is_linear=0
shrinkage=0.05


Tree=7
num_leaves=31
num_cat=0
split_feature=65 16 13 62 9 13 52 36 4 76 4 26 44 71 60 12 93 26 108 12 36 3 110 96 56 51 89 2 59 32
split_gain=12.12 3.46282 3.11386 2.89273 2.80116 2.58012 2.11794 1.91511 0.949726 1.07421 1.04098 1.15637 1.05428 1.00753 0.915873 0.952828 0.906712 1.30928 0.792196 0.746505 0.655388 0.857069 0.657125 0.640798 0.540085 0.533927 0.631146 0.5272 0.519388 0.518115
threshold=-1.5708499999999999 -2.3946999999999998 -1.9926999999999999 -0.32000499999999993 -2.0578499999999997 -4.1965999999999992 -0.033656999999999992 -0.65699499999999988 -0.54842499999999983 -1.2179499999999999 3.5294000000000003 1.4456500000000003 1.4265500000000002 2.8595000000000002 -1.0570499999999998 -0.24370499999999998 -0.92172499999999991 -0.39965999999999996 -0.32257499999999995 -0.2846499999999999 4.9004500000000011 0.99421000000000015 -1.7950999999999997 -1.0591999999999999 1.7027000000000003 3.0053500000000004 0.16458000000000003 -0.20071999999999998 1.3063000000000002 2.6297000000000001
decision_type=2 2 2 2 2 2 2 2 2 2 2 2 2 2 2 2 2 2 2 2 2 2 2 2 2 2 2 2 2 2
left_child=1 -1 4 5 -2 6 -3 -7 9 19 11 13 -13 18 15 -6 -11 -18 23 -4 21 22 -20 -10 29 26 -19 -25 -28 -12
right_child=2 3 8 -5 14 7 -8 -9 10 16 24 12 -14 -15 -16 -17 17 25 20 -21 -22 -23 -24 27 -26 -27 28 -29 -30 -31
leaf_value=-0.03053643105456352 -0.018285130144407354 -0.014213700419350063 -0.0062745341993868352 0.002405101772493277 0.0036536433547735211 -0.031413036048412328 0.0056778987829128047 -0.012373541278273999 0.015247057527303695 0.01249599187341455 0.0065922157542610722 -0.014503508078910056 0.00099185086462808686 -0.0075268218536739765 0.008831412682221049 -0.011780310459434987 -0.0058934580445999191 0.0036315423232736069 0.0070379155983285209 0.0065129638427779794 0.0095861282944679268 -0.0068999440628377835 -0.0018093175969498103 0.0097386284598282406 0.00021211866289377212 0.00049155960302977339 0.015767101953044916 0.0001199111599346687 0.0061590124006298463 0.01629802400711924
leaf_weight=22 30 32 25 39 20 25 23 28 20 73 44 21 23 23 21 20 21 32 41 21 20 34 43 28 20 21 39 29 22 20
leaf_count=22 30 32 25 39 20 25 23 28 20 73 44 21 23 23 21 20 21 32 41 21 20 34 43 28 20 21 39 29 22 20
internal_value=0 -0.0120357 0.00286081 -0.00926689 -0.00577613 -0.0134818 -0.0058954 -0.0213544 0.00412849 0.00647756 0.00249825 0.00104291 -0.00640366 0.00241959 0.000375841 -0.00406333 0.00800669 0.00557915 0.00348362 -0.000436763 0.00121651 -0.00020207 0.00250897 0.00754676 0.00738405 0.00769252 0.00931854 0.0048449 0.0123019 0.00962528
internal_weight=0 169 711 147 91 108 55 53 620 254 366 282 44 238 61 40 208 135 215 46 138 118 84 77 84 114 93 57 61 64
internal_count=880 169 711 147 91 108 55 53 620 254 366 282 44 238 61 40 208 135 215 46 138 118 84 77 84 114 93 57 61 64
is_linear=0
shrinkage=0.05


Tree=8
num_leaves=31
num_cat=0
split_feature=81 13 13 58 48 52 35 71 78 18 15 7 104 91 52 57 62 7 11 39 11 55 62 108 0 47 55 82 53 18
split_gain=8.37828 3.49843 3.12142 2.91852 2.74403 1.92569 2.05233 1.63801 2.0461 1.19486 1.04484 1.0676 1.8102 1.91187 1.52945 0.978663 1.01832 0.773596 1.08221 0.737974 0.659988 0.918707 0.637141 0.485916 0.454241 0.556757 0.451073 0.355178 0.343355 0.235985
threshold=-1.5159999999999998 0.036902000000000004 -1.7256999999999996 -3.7312499999999997 -1.2332999999999996 0.14021000000000003 -0.79676999999999987 3.5158500000000004 1.4780000000000004 -1.2293499999999997 8.1348500000000019 0.25220000000000004 -1.9022999999999997 -6.461949999999999 -1.0013249999999998 2.0245500000000005 -0.97656499999999991 0.95934500000000011 0.97590500000000013 1.2000000000000002 2.1207000000000003 0.60396500000000009 -0.50671499999999992 0.28251500000000002 -0.24533999999999997 -0.38048999999999994 1.2480000000000002 2.1570500000000004 -0.052304999999999997 -0.15327999999999997
decision_type=2 2 2 2 2 2 2 2 2 2 2 2 2 2 2 2 2 2 2 2 2 2 2 2 2 2 2 2 2 2
left_child=1 4 3 -2 -1 6 9 10 -9 -5 11 12 13 -4 -15 16 -13 18 -18 20 21 -19 23 -14 25 -24 28 29 -26 -27
right_child=2 -3 7 5 -6 -7 -8 8 -10 -11 -12 15 22 14 -16 -17 17 19 -20 -21 -22 -23 24 -25 26 27 -28 -29 -30 -31
leaf_value=-0.0086511717246170964 -0.017955361634041322 0.0016834636256098747 0.010259810192510486 -0.0045715820458200251 -0.029073759795803775 0.0081298900743652334 0.0050140423122151147 0.0041715369898487229 -0.01792537626810372 -0.020079989067238312 0.012376816918635195 0.0068750433774816024 0.0068333774592195242 0.0044965201013144997 -0.012397796897267974 0.0094048149817224074 -0.016113151618767352 -0.00023431459267158063 -0.0013138980418443682 0.0087358448747545479 0.0033926066330501013 -0.013894925471395253 0.0020178300383336405 0.014948598324106291 0.0039246579911559817 0.01463530649120609 0.0081580726784609616 0.0037616418488323686 -0.0051272511397573084 0.0085920012875327044
leaf_weight=29 33 25 25 27 38 38 29 22 20 23 34 37 35 21 37 28 21 32 30 20 35 20 34 39 20 30 21 20 22 35
leaf_count=29 33 25 25 27 38 38 29 22 20 23 34 37 35 21 37 28 21 32 30 20 35 20 34 39 20 30 21 20 22 35
internal_value=0 -0.0142783 0.00166701 -0.00482304 -0.0202341 -0.00111905 -0.00556791 0.00319288 -0.0063508 -0.0117054 0.00386542 0.0033505 0.00511799 -0.00129875 -0.00628089 0.000663587 -0.000591564 -0.00234007 -0.00740771 7.53416e-05 -0.00191558 -0.0054884 0.00719842 0.0111103 0.00560787 0.00742536 0.00217481 0.00958838 -0.000816818 0.0113812
internal_weight=0 92 788 150 67 117 79 638 42 50 596 562 339 83 58 223 195 158 51 107 87 52 256 74 182 119 63 85 42 65
internal_count=880 92 788 150 67 117 79 638 42 50 596 562 339 83 58 223 195 158 51 107 87 52 256 74 182 119 63 85 42 65
is_linear=0
shrinkage=0.05


Tree=9
num_leaves=31
num_cat=0
split_feature=65 93 41 13 59 20 4 47 84 41 15 4 53 81 101 85 125 55 3 30 98 18 76 4 82 84 25 7 69 73
split_gain=9.95946 2.95094 2.72174 2.56764 2.37799 1.76003 1.21324 1.10023 0.918005 0.917624 0.866252 0.950246 1.06211 1.36758 0.973798 0.753142 1.04865 0.739501 0.729463 0.622208 0.616386 0.742546 0.447695 0.766775 0.882663 0.419337 0.395888 0.521292 0.383165 0.378895
threshold=-1.5708499999999999 1.8418500000000002 1.0704000000000002 -1.9926999999999999 -2.7644999999999995 0.11102000000000002 -0.98033499999999985 -1.1215999999999997 -0.94477999999999984 -1.2606999999999997 8.0004500000000025 0.057744500000000004 -1.2502499999999999 -0.12581499999999998 -1.2323499999999996 -1.1843499999999996 1.7500000000000002 -1.0761499999999999 -0.56111499999999992 -0.87685999999999986 2.1914500000000001 -0.53743999999999992 0.22876500000000002 3.5294000000000003 -0.47217999999999993 -0.55930999999999986 0.15758500000000003 3.0167500000000005 -0.45944499999999994 -0.27813499999999997
decision_type=2 2 2 2 2 2 2 2 2 2 2 2 2 2 2 2 2 2 2 2 2 2 2 2 2 2 2 2 2 2
left_child=1 2 5 4 -2 7 -4 -1 -6 -7 11 12 13 28 -13 -14 17 -17 -19 29 22 -22 23 24 -16 -21 -24 -28 -5 -18
right_child=3 -3 6 10 8 9 -8 -9 -10 -11 -12 14 15 -15 20 16 19 18 -20 25 21 -23 26 -25 -26 -27 27 -29 -30 -31
leaf_value=-0.010749828616390004 -0.018029414493447315 -0.02338971985957107 0.011663046125322582 0.010979593917727471 -0.0063606010865412599 0.0024952969932928682 -0.0047172253235028341 -0.026483616705983877 0.005536166047129561 -0.012469458781803649 0.010677679474715011 -0.0076960322415006574 -0.00012241242349975642 -0.0074297178333758256 -0.0098704397454857842 -0.0050775477219195597 0.010473406435921789 0.011986916284793273 0.00025305076743717549 0.011618071334922445 0.0032442681398242713 -0.010380576848983766 0.0081952576492247842 0.0082463277736678723 0.0038616038350896401 0.0051488477093252277 -0.0011375129124835918 0.0088352991570718586 0.0013095063290425712 0.02008945494890213
leaf_weight=20 26 37 20 20 31 20 26 25 34 21 42 29 36 35 25 21 20 26 27 46 20 20 56 20 22 55 38 20 21 21
leaf_count=20 26 37 20 20 31 20 26 25 34 21 42 29 36 35 25 21 20 26 27 46 20 20 56 20 22 55 38 20 21 21
internal_value=0 -0.0109103 -0.00741232 0.00259331 -0.0052496 -0.0126633 0.00240463 -0.0194908 -0.000137677 -0.00516958 0.00374445 0.00324065 0.00501059 -0.000170376 0.000918499 0.0065731 0.00768902 0.00286302 0.00600929 0.010204 0.00204891 -0.00356815 0.00329025 4.65798e-05 -0.00344267 0.00809523 0.00519662 0.00230139 0.00602662 0.0153987
internal_weight=0 169 132 711 91 86 46 45 65 41 620 578 328 76 250 252 216 74 53 142 221 40 181 67 47 101 114 58 41 41
internal_count=880 169 132 711 91 86 46 45 65 41 620 578 328 76 250 252 216 74 53 142 221 40 181 67 47 101 114 58 41 41
is_linear=0
shrinkage=0.05


Tree=10
num_leaves=31
num_cat=0
split_feature=65 91 76 37 7 59 98 6 98 68 68 64 0 7 98 92 45 35 93 7 1 87 94 61 71 39 17 17 45 37
split_gain=8.98841 2.69919 2.12624 2.06916 1.64499 1.69226 1.40113 1.49656 1.63057 1.14146 1.25538 0.922683 0.823308 0.891396 0.935362 0.740335 0.770212 0.658454 0.687839 0.712929 0.976237 0.586152 0.551838 0.547337 0.53965 0.493526 0.534489 0.476201 0.660982 0.253651
threshold=-1.5708499999999999 2.5826500000000006 -1.7836499999999997 1.5424000000000002 0.99637500000000012 -2.7644999999999995 -0.63557999999999992 -1.2152999999999998 -1.4313499999999999 -1.5543999999999998 -1.6887499999999998 -1.0712999999999997 -0.15961499999999998 3.3618500000000004 2.1914500000000001 0.31106000000000006 0.94248500000000013 3.2280500000000001 -0.92172499999999991 -2.0250999999999997 0.37950500000000004 1.5981500000000002 0.4099350000000001 0.97255000000000014 -1.5110999999999997 0.50831000000000015 -0.98162499999999986 2.6078500000000004 0.22624000000000002 0.075791000000000011
decision_type=2 2 2 2 2 2 2 2 2 2 2 2 2 2 2 2 2 2 2 2 2 2 2 2 2 2 2 2 2 2
left_child=1 3 4 6 5 -2 7 -1 -9 10 -4 -7 17 14 15 27 29 18 24 -20 21 25 23 -15 -11 26 -21 28 -14 -17
right_child=2 -3 9 -5 -6 11 -8 8 -10 12 -12 -13 13 22 -16 16 -18 -19 19 20 -22 -23 -24 -25 -26 -27 -28 -29 -30 -31
leaf_value=-0.0049272160477950378 -0.010871134215482961 -0.026698751612143086 0.004856728952234754 0.0055090880409503981 -0.017390766061143949 -0.0018928348848765545 -0.0009329044549115774 -0.012005243457567233 -0.029029211232608015 0.0020545487402982656 -0.01004123271352822 0.012945822984911502 0.002210744804787365 -0.0013363126361661632 -0.0072198584908619527 0.0056282070243642447 -0.0011499922656055008 0.011928044745653142 -0.0055988557823002348 -0.0047756397351622591 -0.003745190831350869 0.012529370188713074 0.013549363695125542 0.0098284694765295305 0.01140895026780119 0.010038291100688556 0.0052351854764856398 0.0039154268129585456 -0.0091994922716791428 0.011989295728504658
leaf_weight=33 27 22 26 24 20 22 29 39 22 21 31 20 22 23 32 42 35 41 20 20 29 30 23 21 58 27 40 26 30 25
leaf_count=33 27 22 26 24 20 22 29 39 22 21 31 20 22 23 32 42 35 41 20 20 29 30 23 21 58 27 40 26 30 25
internal_value=0 -0.0103648 0.00246365 -0.00792028 -0.00476474 -0.00110502 -0.0105406 -0.0135047 -0.018145 0.00349794 -0.00324567 0.00517319 0.00417826 0.00224582 0.000657003 0.00205733 0.00486144 0.00606341 0.00508199 0.00325435 0.00446712 0.00650265 0.0072731 0.00399233 0.00892234 0.00442447 0.00189824 -0.00160958 -0.00437208 0.00800175
internal_weight=0 169 711 147 89 69 123 94 61 622 57 42 565 279 212 180 102 286 245 166 146 117 67 44 79 87 60 78 52 67
internal_count=880 169 711 147 89 69 123 94 61 622 57 42 565 279 212 180 102 286 245 166 146 117 67 44 79 87 60 78 52 67
is_linear=0
shrinkage=0.05


Tree=11
num_leaves=31
num_cat=0
split_feature=69 16 68 98 76 6 7 59 68 76 62 64 0 104 0 99 29 43 15 40 28 36 81 109 94 89 101 46 7 76
split_gain=8.11204 2.61117 2.49341 2.20161 1.91893 1.66811 1.48461 1.52726 1.03017 1.2285 0.950854 0.832722 0.743035 0.898355 0.671532 0.634236 0.690065 0.820563 0.537455 0.659191 0.476607 0.602183 0.399745 0.577619 0.657522 0.4444 0.658504 0.373913 0.294891 0.567874
threshold=-1.5531999999999997 -2.3946999999999998 2.8712500000000003 -0.44426499999999997 -1.7836499999999997 0.21451000000000003 0.99637500000000012 -2.7644999999999995 -1.5543999999999998 0.29742500000000005 -1.8423499999999997 -1.0712999999999997 -0.15961499999999998 4.8386500000000003 3.6377000000000002 2.2796500000000006 0.58777000000000013 0.68353000000000008 -0.97239499999999979 -0.37499499999999991 0.22430000000000003 2.3789000000000002 -0.22352999999999998 0.80911000000000011 -1.7154499999999999 0.22565000000000004 -1.12435 1.4965500000000003 -0.49153999999999992 0.83695000000000008
decision_type=2 2 2 2 2 2 2 2 2 2 2 2 2 2 2 2 2 2 2 2 2 2 2 2 2 2 2 2 2 2
left_child=1 -1 3 5 6 10 7 -2 9 -6 -3 -9 18 14 15 16 28 -18 19 -10 21 -16 25 24 -24 26 -20 -28 -14 -30
right_child=4 2 -4 -5 8 -7 -8 11 12 -11 -12 -13 13 -15 20 -17 17 -19 22 -21 -22 -23 23 -25 -26 -27 27 -29 29 -31
leaf_value=-0.02591198927468874 -0.010327577204615981 -0.0024591169719185152 0.0049025122876628306 0.0019224070227490024 -0.013067416138947012 -0.022367204078592551 -0.016521227899938824 -0.0017981932075186212 -0.0056357758208399732 0.0023133844653194821 -0.016349737154616212 0.012298531560227276 0.0068197665780590959 -0.0075636946342208175 0.0085996038383907743 0.0094587118143127091 -0.0089052627980709086 0.0018462575946210161 -0.0013672429646248931 0.005569591433075922 0.01179511097065794 -0.0028472583298571408 -0.00044217744249511854 -0.0012818143703043463 0.0097593944328504476 0.012603048261928748 0.012854757024756365 0.004541898803048147 -0.0053085101112215361 0.0051268264389364056
leaf_weight=22 27 28 32 26 20 39 20 22 21 37 22 20 34 22 27 21 35 36 20 35 30 20 22 30 56 47 31 24 22 32
leaf_count=22 27 28 32 26 20 39 20 22 21 37 22 20 34 22 27 21 35 36 20 35 30 20 22 30 56 47 31 24 22 32
internal_value=0 -0.00984658 -0.00744223 -0.0108773 0.00234047 -0.0146165 -0.0045265 -0.00104977 0.00332304 -0.00308339 -0.00857099 0.00491453 0.00396935 0.00213353 0.00296364 0.00129199 0.000213361 -0.00345379 0.00576024 0.00136758 0.0068714 0.0037286 0.00682976 0.00461429 0.00688203 0.008791 0.00640211 0.00922733 0.00317208 0.000875393
internal_weight=0 169 147 115 711 89 89 69 622 57 50 42 565 279 257 180 159 71 286 56 77 47 230 108 78 122 75 55 88 54
internal_count=880 169 147 115 711 89 89 69 622 57 50 42 565 279 257 180 159 71 286 56 77 47 230 108 78 122 75 55 88 54
is_linear=0
shrinkage=0.05


Tree=12
num_leaves=31
num_cat=0
split_feature=65 16 70 98 44 87 48 24 67 54 40 14 103 103 65 52 60 16 4 1 57 79 51 125 1 16 86 98 128 87
split_gain=7.32112 2.35659 1.95629 2.2101 1.83111 1.50324 1.32124 1.32972 1.17358 1.34071 1.26243 1.17742 1.1021 0.809309 0.605451 0.778584 0.666282 0.735522 0.796829 1.09275 0.843851 0.791167 0.769862 0.638807 0.577181 0.550588 0.46551 0.33278 0.356856 0.343408
threshold=-1.5708499999999999 -2.3946999999999998 2.6037500000000002 -0.63557999999999992 -0.88002499999999995 2.6264000000000003 -1.2084499999999998 -0.95079999999999998 -1.3270999999999997 -0.83205999999999991 -1.3221999999999998 -0.91242499999999993 -3.3966999999999996 -1.1351999999999998 -1.1428999999999998 -0.075738999999999987 -0.61617499999999981 -0.9220799999999999 3.5832500000000005 -0.66583999999999988 1.2073500000000001 -1.1296499999999998 1.9519500000000003 1.7500000000000002 -1.6013999999999997 0.81638000000000011 0.46050000000000008 1.2341500000000003 -0.14999999999999999 -0.68683499999999997
decision_type=2 2 2 2 2 2 2 2 2 2 2 2 2 2 2 2 2 2 2 2 2 2 2 2 2 2 2 2 2 2
left_child=1 -1 3 6 5 8 7 -3 9 10 -2 -11 -6 -8 15 -14 23 18 19 24 -21 -19 27 26 -18 -13 -16 28 -23 -30
right_child=4 2 -4 -5 12 -7 13 -9 -10 11 -12 25 14 -15 16 -17 17 21 -20 20 -22 22 -24 -25 -26 -27 -28 -29 29 -31
leaf_value=-0.024616389941762795 -0.014943529166761907 0.00040195416659116745 0.004087629408064869 0.0011298733123112469 -0.0060022039752867492 -0.012547171405250475 -0.013535268409177662 -0.017187913462874436 0.0072168183069498768 -0.0079074540574635786 -0.00029685334302484992 0.0016198800286899011 0.0037913273260193436 -0.027589095299620003 0.0095515751023776824 -0.0083966056152712555 -0.0025174075693246865 -0.0019336023528514238 0.0091212175806741347 -0.014254989954947851 -0.00039203787708412047 0.0033688750492817752 -0.0011766786621883513 0.012219795139760457 0.0083669432159914677 0.011902338150969666 -0.00098823915786025191 0.013323013860456371 0.005849305963208682 0.012132405741563575
leaf_weight=22 31 22 31 32 27 28 20 21 42 21 28 30 38 21 20 20 21 29 23 21 23 41 25 55 29 23 22 27 43 44
leaf_count=22 31 22 31 32 27 28 20 21 42 21 28 30 38 21 20 20 21 29 23 21 23 41 25 55 29 23 22 27 43 44
internal_value=0 -0.00935425 -0.00707012 -0.0100519 0.00222344 -0.00179055 -0.0143117 -0.00818845 -6.94931e-05 -0.00237043 -0.00799256 0.00211208 0.00382746 -0.0207336 0.00437923 -0.000411408 0.0050361 0.00395366 0.00077942 -0.00126166 -0.00700845 0.00573062 0.00696541 0.00867401 0.00379552 0.00608208 0.00403072 0.00827865 0.00721461 0.00902697
internal_weight=0 169 147 116 711 203 84 43 175 133 59 74 508 41 481 58 423 326 117 94 44 209 180 97 50 53 42 155 128 87
internal_count=880 169 147 116 711 203 84 43 175 133 59 74 508 41 481 58 423 326 117 94 44 209 180 97 50 53 42 155 128 87
is_linear=0
shrinkage=0.05


Tree=13
num_leaves=31
num_cat=0
split_feature=69 13 60 52 13 9 89 22 19 15 59 27 4 127 59 56 98 74 87 98 59 41 25 84 14 106 25 98 68 19
split_gain=6.60731 2.25102 2.59219 2.01028 1.90543 1.87706 1.08299 0.754587 0.884329 0.681723 0.802819 1.54002 0.873907 0.804281 0.718981 1.10635 0.61384 0.597544 0.658987 0.602111 0.585735 0.583567 0.556986 0.698131 0.500856 0.469294 0.498762 0.352833 0.338149 0.260841
threshold=-1.5531999999999997 0.11647500000000001 -1.4467499999999998 -0.10093499999999998 -1.9926999999999999 -2.0578499999999997 0.69739000000000007 -1.2964499999999999 -1.3387499999999999 8.0004500000000025 -1.3200999999999998 -4.2693999999999992 0.057744500000000004 0.22500000000000001 0.62154000000000009 -1.3961499999999998 2.1914500000000001 0.24279000000000003 0.94224500000000011 0.98321000000000003 -4.5510499999999992 1.2554500000000002 -0.47755499999999995 -1.0628999999999997 -0.76273999999999986 1.3329000000000002 0.54526500000000011 0.59856500000000012 -1.1784999999999999 -0.77538499999999988
decision_type=2 2 2 2 2 2 2 2 2 2 2 2 2 2 2 2 2 2 2 2 2 2 2 2 2 2 2 2 2 2
left_child=1 2 3 -1 5 -2 -4 -7 -9 10 11 20 14 -13 24 -16 22 18 -17 -19 -6 -3 -14 -24 -12 26 -25 28 -26 -30
right_child=4 21 6 -5 9 7 -8 8 -10 -11 12 13 16 -15 15 17 -18 19 -20 -21 -22 -23 23 25 27 -27 -28 -29 29 -31
leaf_value=-0.012606935313827283 -0.014883825645471613 -0.0045119580768403561 -0.011653851596983495 0.0053364767244568579 -0.00048778019146993756 -0.0075702790264040231 -0.024823955537096876 -0.0032485179230570798 0.011442239742193903 0.009254515630060009 0.0017352237344973468 -0.014085026785985314 0.0080859933486756158 -0.002128769216151574 -0.0064104273952543742 0.0057687885523068187 -0.0046654836819997351 0.011452143011178743 -0.0051200917863752698 0.0022906322979593073 0.011098023410886526 0.0074219463113695391 -0.0057955039540926621 0.0062863047573376782 0.012960524324327708 0.0071919261752508394 -0.0030458859486005656 0.015654415484856476 0.0018589810595255008 0.0097486112790647894
leaf_weight=37 30 21 27 27 20 20 37 20 21 42 22 22 34 39 25 33 38 47 24 29 24 20 30 22 25 39 41 22 22 20
leaf_count=37 30 21 27 27 20 20 37 20 21 42 22 22 34 39 25 33 38 47 24 29 24 20 30 22 25 39 41 22 22 20
internal_value=0 -0.00888653 -0.0121524 -0.00503706 0.00211227 -0.004644 -0.0192678 0.000391985 0.00427602 0.00310392 0.00265699 -0.00129805 0.00353496 -0.00644086 0.00540655 0.00323991 0.00106702 0.00505389 0.001184 0.0079563 0.00583175 0.00130946 0.00237928 0.000909374 0.00849059 0.0028814 0.000212974 0.0101605 0.00835646 0.00561595
internal_weight=0 169 128 64 711 91 64 61 41 620 578 105 473 61 269 158 204 133 57 76 44 41 166 132 111 102 63 89 67 42
internal_count=880 169 128 64 711 91 64 61 41 620 578 105 473 61 269 158 204 133 57 76 44 41 166 132 111 102 63 89 67 42
is_linear=0
shrinkage=0.05


Tree=14
num_leaves=31
num_cat=0
split_feature=65 13 104 2 81 36 44 49 10 103 14 9 73 43 128 21 92 33 56 63 36 57 88 62 72 97 55 95 15 45
split_gain=6.04648 2.78227 2.3379 1.56833 1.45486 1.42085 1.26992 1.25146 1.1759 1.14105 1.25283 1.44211 0.964254 0.782292 0.732173 0.928883 1.02535 0.66514 0.627713 0.756897 0.464714 0.77337 1.26177 0.474942 0.457329 0.442708 0.43556 0.40188 0.368516 0.363616
threshold=-1.2098999999999998 0.076606000000000007 -2.3638499999999998 -0.67844999999999989 -1.0992499999999998 -0.63407999999999987 -0.88002499999999995 0.66243000000000019 1.9977000000000003 -0.92835999999999985 3.6704000000000003 -1.9948999999999999 0.12325000000000001 0.37876500000000007 1.0000000180025095e-35 -0.83021499999999981 0.075532000000000002 -0.92001499999999992 0.69478000000000006 -0.028747499999999995 0.52834500000000018 -0.10615999999999999 -0.64643999999999979 -0.30193999999999993 1.0000000180025095e-35 -0.88796499999999989 -0.078702999999999981 -0.42172499999999996 -0.96292999999999995 -9.8225499999999979
decision_type=2 2 2 2 2 2 2 2 2 2 2 2 2 2 2 2 2 2 2 2 2 2 2 2 2 2 2 2 2 2
left_child=1 2 5 4 -4 -1 8 17 9 28 11 -11 -13 26 15 16 -8 -5 -17 24 23 29 -23 -16 -20 -25 -3 -27 -2 -22
right_child=6 13 3 7 -6 -7 14 -9 -10 10 -12 12 -14 -15 20 18 -18 -19 19 -21 21 22 -24 25 -26 27 -28 -29 -30 -31
leaf_value=-0.026951210780276194 0.0023362551307813686 0.00056158601131755853 -0.0072724332080476677 -0.023179829381406308 0.0087182996422052374 -0.010231014558424553 -0.010279887922972974 -0.0013611912634223702 -0.012453469559550286 -0.016160280862823128 0.005602637016581315 -0.0090649637881489026 0.0053402023533215895 -0.0040692050337187346 0.012067503347696568 0.0069417138851713385 0.0021954067866317927 -0.010833655608197053 0.0099698707414790991 -0.006643531161535066 0.0035939155124305264 -0.0068342862707195867 0.0086244462036781707 0.00063328342191104235 -0.00036820828833657762 0.012077966402284802 0.010756701332601634 0.0043253804570330045 0.011295263705930363 0.01279215541752902
leaf_weight=27 22 20 33 20 25 24 28 20 20 24 33 21 26 37 44 85 40 24 20 24 21 33 22 29 23 32 22 35 24 22
leaf_count=27 22 20 33 20 25 24 28 20 20 24 33 21 26 37 44 85 40 24 20 24 21 33 22 29 23 32 22 35 24 22
internal_value=0 -0.00654274 -0.010093 -0.00633493 -0.000379876 -0.0190829 0.00262543 -0.0117317 -0.00106508 0.000453368 -0.00244691 -0.00618825 -0.00109615 0.00123188 0.00399527 0.00191595 -0.00294148 -0.0164456 0.00408901 0.000469909 0.00591733 0.00327659 -0.000650793 0.00776585 0.0044402 0.00579425 0.00590188 0.00802811 0.00701052 0.00829999
internal_weight=0 252 173 122 58 51 628 64 170 150 104 71 47 79 458 220 68 44 152 67 238 98 55 140 43 96 42 67 46 43
internal_count=880 252 173 122 58 51 628 64 170 150 104 71 47 79 458 220 68 44 152 67 238 98 55 140 43 96 42 67 46 43
is_linear=0
shrinkage=0.05


Tree=15
num_leaves=31
num_cat=0
split_feature=79 76 48 81 14 17 13 9 52 77 48 112 87 128 97 45 63 99 10 91 29 14 110 20 4 6 38 33 48 52
split_gain=5.15301 3.08434 2.68586 2.51334 1.25509 1.15221 1.00821 2.12417 1.23525 1.33577 0.814273 1.22081 1.01605 1.04149 1.01765 0.973315 1.23411 0.945001 0.781436 0.659109 0.703695 0.615811 0.83671 0.545925 0.517741 0.521847 0.457009 0.399214 0.372279 0.325284
threshold=-2.2275999999999994 -3.3665999999999996 -1.2332999999999996 -0.4744549999999999 -1.2908499999999996 -1.9986999999999997 -1.7256999999999996 -2.0578499999999997 0.14021000000000003 0.84422500000000011 2.4540000000000002 -1.8301999999999998 -0.68683499999999997 0.15000000000000005 1.4322500000000002 0.94248500000000013 -0.44905499999999993 -1.3255499999999998 -0.28217999999999993 1.5755500000000002 -0.45087999999999995 -0.96540499999999996 -0.45349999999999996 -0.11142999999999999 0.10360500000000002 1.6844500000000002 0.56315000000000015 2.7529500000000007 0.34741000000000005 -0.27739499999999995
decision_type=2 2 2 2 2 2 2 2 2 2 2 2 2 2 2 2 2 2 2 2 2 2 2 2 2 2 2 2 2 2
left_child=2 3 -1 4 -2 -3 7 -7 9 -9 11 -8 13 15 19 16 -13 -18 26 20 -14 -15 -23 -20 25 -22 -12 -28 -24 -26
right_child=1 5 -4 -5 -6 6 10 8 -10 -11 18 12 14 21 -16 -17 17 -19 23 -21 24 22 28 -25 29 -27 27 -29 -30 -31
leaf_value=-0.001342334250069183 -0.0075048108867901784 -0.0083649525347237411 -0.023465422699775765 0.0022449926142731019 -0.024411548140620732 -0.015238769988839827 -0.0088747503468766809 -0.012664411259105519 0.009969798221798807 0.0035644989216962134 0.012605456288226628 -0.01522120898231291 0.010202750559144009 -0.003648641154817913 -0.0027202056261318689 0.0057485744224062994 -0.0078828246815613023 0.0062593169111226287 -0.0045296939394851819 0.014573142101012527 0.0084819378396536315 0.011254716038496959 0.005803936563315802 0.0067654522880911828 -0.0042237644349890097 0.00026730425447097115 0.00034001072691310021 0.0089300954328408767 -0.0036215214767831971 0.0037088910855042436
leaf_weight=23 21 26 34 31 23 24 24 21 29 32 44 26 52 23 38 21 27 21 23 21 58 36 20 20 28 29 21 38 22 24
leaf_count=23 21 26 34 31 23 24 24 21 29 32 44 26 52 23 38 21 27 21 23 21 58 36 20 20 28 29 21 38 22 24
internal_value=0 0.00100692 -0.0145386 -0.00865962 -0.0163424 0.00197616 0.00234856 -0.00215561 0.0016736 -0.00286582 0.00312363 0.00211043 0.00270156 6.29749e-06 0.00481465 -0.00375181 -0.00644787 -0.00169564 0.00638527 0.00616524 0.00524081 0.00354115 0.00566122 0.000723862 0.00338455 0.00574373 0.00874878 0.00587261 0.000866792 -0.000562539
internal_weight=0 823 57 75 44 748 722 106 82 53 616 470 446 196 250 95 74 48 146 212 191 101 78 43 139 87 103 59 42 52
internal_count=880 823 57 75 44 748 722 106 82 53 616 470 446 196 250 95 74 48 146 212 191 101 78 43 139 87 103 59 42 52
is_linear=0
shrinkage=0.05


Tree=16
num_leaves=31
num_cat=0
split_feature=69 16 68 55 46 13 9 90 60 12 96 26 4 94 44 25 103 77 26 1 29 85 54 21 55 103 61 13 54 58
split_gain=4.84459 1.80275 1.80682 1.63104 1.77374 1.42557 1.41995 1.27024 0.68319 0.756592 0.621237 0.946642 0.59781 0.723257 0.931491 0.792395 0.600492 0.53537 0.884797 0.542003 0.548514 0.522519 0.489405 0.478091 0.452429 0.711614 0.450784 0.377594 0.322191 0.250781
threshold=-1.5531999999999997 -2.3946999999999998 2.8712500000000003 -2.1039499999999998 -2.0149499999999994 -1.9926999999999999 -2.0578499999999997 1.2982000000000002 -1.0570499999999998 -0.24370499999999998 9.7521500000000021 -3.2082499999999996 -0.54842499999999983 0.95218500000000017 -1.0786999999999998 -0.47755499999999995 -3.1160999999999999 0.67944000000000015 0.93813000000000002 0.43816000000000005 0.8985200000000001 0.17351500000000003 0.10924000000000002 -0.50804999999999989 1.2263000000000002 1.0568500000000001 0.72710000000000019 -0.25101499999999993 -0.19541999999999998 -6.9958999999999998
decision_type=2 2 2 2 2 2 2 2 2 2 2 2 2 2 2 2 2 2 2 2 2 2 2 2 2 2 2 2 2 2
left_child=1 -1 3 -3 -5 6 -2 -6 9 -8 11 -7 17 14 -14 28 -17 19 -19 20 21 22 -13 -15 25 26 -18 -26 -16 -12
right_child=5 2 -4 4 7 10 8 -9 -10 -11 29 12 13 23 15 16 24 18 -20 -21 -22 -23 -24 -25 27 -27 -28 -29 -30 -31
leaf_value=-0.020958149467002266 -0.01294139238772914 0.00065514857243910874 0.0048969431125442499 -0.0032378240837715568 -0.011687430084265512 -0.0054708803807826424 0.0033873674692586064 -0.028066767177951993 0.0076477577998524619 -0.010365742713474901 0.0052159717346512485 0.01103033586696256 -0.0081902952872527149 0.0018714140980474411 0.0023835039976984264 -0.0084875328559428451 -0.002807100689096842 -0.0048285772854631606 0.0071424576645297529 -0.00064853866157742841 0.012078108757586135 -0.00070878068844859414 0.0017458317293362184 0.010802842910273065 0.0076983610895695167 -0.0092271726570881743 0.0060564285681511355 0.00023369284269089501 0.010897781919687988 0.012073191311210395
leaf_weight=22 30 34 32 32 29 38 20 20 21 20 40 40 30 31 20 20 32 33 29 24 44 26 22 29 32 23 26 36 25 20
leaf_count=22 30 34 32 32 29 38 20 20 21 20 40 40 30 31 20 20 32 33 29 24 44 26 22 29 32 23 26 36 25 20
internal_value=0 -0.00760937 -0.00561159 -0.00853571 -0.0123936 0.0018087 -0.00403523 -0.0183729 0.000344843 -0.00348919 0.00266643 0.00214837 0.00270303 0.00127015 6.0781e-05 0.00121747 -0.000352516 0.00470116 0.000770778 0.00626324 0.00751993 0.00524083 0.00773583 0.00618827 0.000739433 -0.001785 0.00116621 0.00374648 0.00711366 0.00750171
internal_weight=0 169 147 115 81 711 91 49 61 40 620 560 522 304 244 214 169 218 62 156 132 88 62 60 149 81 58 68 45 60
internal_count=880 169 147 115 81 711 91 49 61 40 620 560 522 304 244 214 169 218 62 156 132 88 62 60 149 81 58 68 45 60
is_linear=0
shrinkage=0.05


Tree=17
num_leaves=31
num_cat=0
split_feature=69 108 107 13 59 104 53 119 55 51 88 15 59 43 5 25 57 23 61 86 69 10 19 60 25 108 33 43 15 36
split_gain=4.37224 1.64468 1.56385 1.28658 1.39286 1.06388 1.06617 0.873347 0.788614 0.712593 0.890434 0.558735 0.668415 1.38202 0.799466 0.814453 0.906159 0.94604 0.741321 0.531283 0.526927 0.46429 0.422344 0.628679 0.49586 0.426881 0.357173 0.302071 0.301101 0.281361
threshold=-1.5531999999999997 2.3340500000000004 2.2961500000000004 -1.9926999999999999 -2.7644999999999995 -0.37826999999999994 0.7415250000000001 1.0000000180025095e-35 -0.94307499999999989 -0.52130499999999991 -0.82263999999999993 8.0004500000000025 -1.3200999999999998 -3.0564499999999994 -0.18620999999999996 -0.13911499999999996 1.1805000000000001 0.68247500000000005 -10.152499999999998 1.7237500000000001 -0.56777499999999981 2.4631500000000002 0.45707500000000006 2.6974000000000005 0.15758500000000003 -0.65569499999999992 0.56813000000000013 0.86473500000000014 -0.38445499999999994 -0.29699499999999995
decision_type=2 2 2 2 2 2 2 2 2 2 2 2 2 2 2 2 2 2 2 2 2 2 2 2 2 2 2 2 2 2
left_child=1 2 5 4 -2 6 7 8 -1 10 -6 12 13 18 22 29 17 20 -5 -20 -17 26 24 -24 25 -14 -18 -26 -29 -16
right_child=3 -3 -4 11 9 -7 -8 -9 -10 -11 -12 -13 14 -15 15 16 21 -19 19 -21 -22 -23 23 -25 27 -27 -28 28 -30 -31
leaf_value=-0.010525804014410825 -0.013614252610848502 0.0043388357063612109 -0.022299049138091505 0.010423256651583043 0.01148733435664326 0.0033290893770754337 -0.0013374121021479369 -0.0051808712609971953 -0.023505658893422647 -0.0074990951722221713 -0.0027975483719880384 0.0081013324906096043 -0.0026432026251727208 -0.008942600287114964 0.0022591872987422078 -0.0041651929394365883 0.0094692289829254161 -0.010067752232095479 0.0041977111599408095 -0.0068364352744538339 0.0044194507610165711 -0.0031986505200620741 0.0053069997048863261 -0.005313791046765718 0.0113935164627334 0.0056653652837177597 0.0018162057434599245 0.0093796171750269702 0.0014995269773697313 0.009757723779706606
leaf_weight=25 26 26 20 22 20 20 30 26 22 21 24 42 22 39 22 39 30 37 24 20 33 20 38 22 49 52 31 27 22 29
leaf_count=25 26 26 20 22 20 20 30 26 22 21 24 42 22 39 22 39 30 37 24 20 33 20 38 22 49 52 31 27 22 29
internal_value=0 -0.0072289 -0.00933212 0.00171826 -0.00383347 -0.00722368 -0.00927276 -0.0125339 -0.0166015 7.88389e-05 0.00369558 0.00253311 0.0021285 -0.00148032 0.00292961 0.000912759 -0.000593164 -0.00356979 0.00292921 -0.00081781 -0.000230565 0.00341242 0.00502471 0.00141271 0.00628471 0.00319525 0.00557999 0.00861757 0.00584162 0.00652306
internal_weight=0 169 143 711 91 123 103 73 47 65 44 620 578 105 473 241 190 109 66 44 72 81 232 60 172 74 61 98 49 51
internal_count=880 169 143 711 91 123 103 73 47 65 44 620 578 105 473 241 190 109 66 44 72 81 232 60 172 74 61 98 49 51
is_linear=0
shrinkage=0.05


Tree=18
num_leaves=31
num_cat=0
split_feature=69 6 44 13 46 1 13 59 35 84 96 59 76 5 10 112 81 69 6 70 63 46 13 104 15 105 59 11 92 26
split_gain=3.94595 1.55234 1.55184 1.32879 1.92194 1.36444 1.16114 1.25706 0.711575 0.705573 0.534678 1.07965 0.952354 0.682056 0.816437 0.939094 0.673368 0.678275 0.529006 0.434671 0.419093 0.514251 0.368105 0.558547 0.433199 0.351781 0.325862 0.298212 0.27978 0.359093
threshold=-1.5531999999999997 -0.65403499999999992 -1.2138999999999998 -0.56841499999999989 -2.0149499999999994 1.7755000000000003 -1.9926999999999999 -2.7644999999999995 -1.5807499999999999 -0.94477999999999984 9.7521500000000021 -1.3200999999999998 -0.56514999999999993 -0.27472499999999994 1.1508 -0.66454499999999983 -0.88750999999999991 -0.52737499999999982 1.0214000000000003 1.2142500000000003 0.13184000000000004 0.21185000000000001 1.1542500000000002 -1.7937999999999998 -0.48467499999999991 -1.5203499999999999 -4.6065999999999994 0.018291500000000006 -0.76292499999999985 0.24091000000000004
decision_type=2 2 2 2 2 2 2 2 2 2 2 2 2 2 2 2 2 2 2 2 2 2 2 2 2 2 2 2 2 2
left_child=1 2 -1 4 -3 -6 7 -2 -4 -9 11 12 -8 22 20 16 -16 -18 -14 -19 21 -15 23 -13 -24 -25 -12 -23 -27 -30
right_child=6 3 8 -5 5 -7 10 9 -10 -11 26 13 18 14 15 -17 17 19 -20 -21 -22 27 24 25 -26 28 -28 -29 29 -31
leaf_value=-0.011757982901942271 -0.012933540200957886 -0.0038267465738149793 0.0080361977414858919 8.9709274470806131e-06 -0.029010937766482434 -0.011328036654740574 -0.011298299939013445 -0.0053807082525905107 -0.0037216002510500733 0.0050491253386580337 0.0026785388129960319 -0.00043305077555554891 -0.004500603855454496 0.0065188211032364057 -0.0078984358480998461 -0.011366667291371242 -0.0031502597235344553 0.0097907586633388336 0.0053083084678898253 0.00069406321902836985 0.007702497423606668 -0.006320699737407268 -0.0040468795701268717 0.01323073155204342 0.0046141124984604267 0.0025322199942927589 0.010114490394206609 0.0019461223149846774 0.0034609736488034415 0.010559063928905038
leaf_weight=26 26 26 31 20 24 20 26 31 22 34 26 27 28 32 21 21 37 29 27 24 47 20 22 22 42 34 34 24 28 49
leaf_count=26 26 26 31 20 24 20 26 31 22 34 26 27 28 32 21 21 37 29 27 24 47 20 22 22 42 34 34 24 28 49
internal_value=0 -0.00686745 -0.00175267 -0.0113571 -0.0146046 -0.0209733 0.00163235 -0.0036418 0.0031556 7.4897e-05 0.00240646 0.00192584 -0.00341294 0.00282864 0.0010603 -0.00167074 0.000163628 0.00204478 0.00031468 0.0056715 0.00399116 0.00169599 0.00484171 0.00612363 0.0016369 0.00745468 0.00689224 -0.00181152 0.00630988 0.00797794
internal_weight=0 169 79 90 70 44 711 91 53 65 620 560 81 479 255 132 111 90 55 53 123 76 224 160 64 133 60 44 111 77
internal_count=880 169 79 90 70 44 711 91 53 65 620 560 81 479 255 132 111 90 55 53 123 76 224 160 64 133 60 44 111 77
is_linear=0
shrinkage=0.05


Tree=19
num_leaves=31
num_cat=0
split_feature=65 16 25 78 103 46 3 13 44 34 61 49 14 71 30 128 40 20 69 13 46 69 34 78 127 3 36 108 43 3
split_gain=3.87882 2.26013 1.39681 1.01317 0.966901 1.63301 1.55482 1.10376 0.813773 0.93146 0.75008 0.618993 1.19188 0.728554 0.656972 0.596622 0.872544 0.955883 0.861889 0.598061 0.510662 0.485089 0.465399 0.457658 0.454265 0.415432 0.346127 0.270893 0.235206 0.235749
threshold=-1.2098999999999998 -2.3946999999999998 1.2230500000000004 -1.0456999999999999 0.51102500000000017 -2.5982499999999997 0.88498500000000002 0.13010000000000002 -0.88002499999999995 3.6488500000000004 -1.7111999999999998 -0.36343499999999995 0.58604000000000012 -0.88130999999999993 -1.0686999999999998 1.0000000180025095e-35 1.0894000000000001 -0.50034999999999985 0.46475500000000008 1.4800000000000002 0.56568000000000007 -0.49321999999999994 1.7402500000000003 -1.9051999999999998 0.52500000000000013 0.76320500000000002 0.57309000000000021 -0.87102999999999986 0.52346500000000018 -0.70804999999999996
decision_type=2 2 2 2 2 2 2 2 2 2 2 2 2 2 2 2 2 2 2 2 2 2 2 2 2 2 2 2 2 2
left_child=1 -1 3 -3 5 -5 -6 10 9 11 -7 12 14 -13 -2 16 17 18 21 -18 28 -10 24 -19 26 -15 -22 -25 29 -17
right_child=8 2 -4 4 6 7 -8 -9 15 -11 -12 13 -14 25 -16 20 19 23 -20 -21 22 -23 -24 27 -26 -27 -28 -29 -30 -31
leaf_value=-0.019835114246234298 0.0087939673950049018 0.0030737151358819878 0.0054859833944854997 0.0027893564885570891 -0.0080551156634464851 -0.011927245866455553 0.0091540705856113219 -0.0041581122750917882 -0.005162178596531574 -0.0099799468996934603 -0.023338741529732945 -0.002363103225854082 -0.010413232450534044 0.013248019113892779 -0.0027522103195743905 0.010392256136136977 0.010412707043862022 -0.0033899968844794091 -0.012020301841990799 -0.00031888988101854923 0.008672411805653776 0.0047592800110578537 -0.003232915414264426 0.00039544815774120038 -0.00076962999009992932 0.003179001659154892 0.0024672081065976893 0.0072728573375691972 0.011826184674821518 0.003948351561994059
leaf_weight=24 22 30 35 21 35 36 21 26 28 24 24 26 29 21 28 22 37 21 26 20 55 22 24 21 32 20 38 45 27 40
leaf_count=24 22 30 35 21 35 36 21 26 28 24 24 26 29 21 28 22 37 21 26 20 55 22 24 21 32 20 38 45 27 40
internal_value=0 -0.00524032 -0.00370403 -0.00537061 -0.00692478 -0.0097107 -0.00160167 -0.012763 0.0021028 -0.000851467 -0.0164918 0.000649106 -0.00234909 0.00418429 0.00232811 0.00319937 0.00132237 -0.000539703 -0.00463638 0.00664723 0.00493441 -0.000796737 0.00314442 0.003039 0.00436887 0.0083363 0.00613695 0.00508459 0.00793113 0.0062349
internal_weight=0 252 228 193 163 107 56 86 628 170 60 146 79 67 50 458 220 163 76 57 238 50 149 87 125 41 93 66 89 62
internal_count=880 252 228 193 163 107 56 86 628 170 60 146 79 67 50 458 220 163 76 57 238 50 149 87 125 41 93 66 89 62
is_linear=0
shrinkage=0.05


Tree=20
num_leaves=31
num_cat=0
split_feature=65 16 77 41 71 87 76 32 76 102 55 101 0 55 60 10 99 4 52 115 125 78 0 44 34 38 32 103 27 11
split_gain=3.50063 2.03976 1.13021 1.19506 0.999718 1.06258 1.02766 0.846877 0.793438 1.3319 1.4881 0.697402 0.7553 0.592714 0.517563 0.537158 0.481605 0.423419 0.412555 0.409693 0.642201 0.541007 0.565652 0.408046 0.386162 0.352883 0.303489 0.272398 0.243209 0.237944
threshold=-1.2098999999999998 -2.3946999999999998 -0.88334999999999986 -0.66067499999999979 1.2970500000000003 -1.0353499999999998 -2.8778999999999995 -0.17189999999999997 -1.7836499999999997 -0.58131999999999995 -0.58524999999999994 -1.2947999999999997 0.057428000000000007 0.043663500000000008 -0.59707499999999991 2.2612000000000001 1.9716000000000002 1.0000000180025095e-35 -1.2724499999999999 1.0000000180025095e-35 1.7500000000000002 1.2894000000000003 0.51773000000000013 0.61917500000000014 0.13023000000000004 -1.1097999999999997 0.87592000000000014 -0.6941949999999999 0.83575500000000014 1.58945
decision_type=2 2 2 2 2 2 2 2 2 2 2 2 2 2 2 2 2 2 2 2 2 2 2 2 2 2 2 2 2 2
left_child=1 -1 3 7 13 -6 -7 -3 9 -2 -11 12 -10 -4 16 18 17 28 25 21 -21 22 23 -20 -19 -16 -24 -22 -13 -25
right_child=8 2 4 -5 5 6 -8 -9 11 10 -12 14 -14 -15 15 -17 -18 24 19 20 27 -23 26 29 -26 -27 -28 -29 -30 -31
leaf_value=-0.018843358555674664 0.007724892359138244 -0.0095375664856122908 0.00052697259832072902 -0.01505132759662552 -0.013196526654064657 -0.0077455916566153381 0.0047845373473440617 0.0041842369341545489 0.0020223969497772699 -0.016692398423733917 0.00033801887023808628 0.0090300145594443652 -0.0098673625679856006 0.011210489420918748 0.0035043805857877374 -0.0034395340376680624 0.011465243918114695 -0.0022392069568227539 -0.0016080093644559382 -0.0044456308054470683 -0.00023608464925062089 -0.0010399127242572863 0.0069005108960537298 0.0095474187607088919 0.0061493835867504065 -0.0047274885326623918 0.014048412559484994 0.0069670575005667552 0.0024255407229065895 0.002782911578050027
leaf_weight=24 21 23 37 36 24 30 36 22 34 23 29 46 22 20 23 38 29 34 25 34 21 29 33 26 23 30 27 35 20 26
leaf_count=24 21 23 37 36 24 30 36 22 34 23 29 46 22 20 23 38 29 34 25 34 21 29 33 26 23 30 27 35 20 26
internal_value=0 -0.0049783 -0.00351882 -0.00826122 -0.000905669 -0.00418712 -0.000910976 -0.00282913 0.00199766 -0.00290274 -0.00719467 0.00264222 -0.00264858 0.00427557 0.00323598 0.00217022 0.00566899 0.00430239 0.00286009 0.00369138 0.000974864 0.00516419 0.00647746 0.00364141 0.00114566 -0.00115517 0.0101171 0.00426588 0.00702866 0.00616517
internal_weight=0 252 228 81 147 90 66 45 628 73 52 555 56 57 499 347 152 123 309 256 90 166 137 77 57 53 60 56 66 52
internal_count=880 252 228 81 147 90 66 45 628 73 52 555 56 57 499 347 152 123 309 256 90 166 137 77 57 53 60 56 66 52
is_linear=0
shrinkage=0.05


Tree=21
num_leaves=31
num_cat=0
split_feature=65 16 64 103 46 40 86 40 76 102 62 75 7 56 9 20 82 59 40 73 87 51 7 103 128 32 32 27 48 32
split_gain=3.15932 1.84089 1.37592 1.37836 1.49001 1.05465 0.847241 0.765725 0.716077 1.20204 1.02245 0.648127 0.612453 0.581343 1.11037 0.671931 0.73614 0.668374 0.569267 0.544185 0.49878 0.400374 0.323096 0.370946 0.287301 0.509473 0.723526 0.34867 0.362324 0.302247
threshold=-1.2098999999999998 -2.3946999999999998 1.0161000000000002 0.44370500000000007 -2.6089999999999995 -1.3221999999999998 -1.2463499999999998 -0.68980999999999992 -1.7836499999999997 -0.58131999999999995 -0.28656999999999994 -1.1773499999999999 -0.90481999999999985 -0.21948999999999999 -1.4201999999999997 -0.48171499999999995 -1.2421499999999999 0.47618500000000002 0.75308000000000008 -1.0596499999999998 -2.8072999999999992 5.3627000000000011 -0.74269499999999988 -0.092123499999999983 0.55000000000000016 0.43032000000000009 -0.011345999999999998 -1.3170499999999998 4.0837500000000011 -1.0578999999999998
decision_type=2 2 2 2 2 2 2 2 2 2 2 2 2 2 2 2 2 2 2 2 2 2 2 2 2 2 2 2 2 2
left_child=1 -1 3 4 -3 11 -5 -7 9 -2 -11 -6 -8 20 -15 16 -16 -18 -19 -17 -10 22 -21 -24 25 26 29 28 -27 -22
right_child=8 2 -4 6 5 7 12 -9 13 10 -12 -13 -14 14 15 19 17 18 -20 21 24 -23 23 -25 -26 27 -28 -29 -30 -31
leaf_value=-0.017901190579868855 0.0073386478858689479 0.0041942300833761699 0.0060990207207699621 -0.007138912362977862 -0.023409137984272094 0.00086034781151366499 0.010637295707350686 -0.010861033339690615 -0.0021973526169513833 -0.012838931853572528 0.0013523394368927589 -0.010679968409240246 -0.00057469741280736597 -0.0099607960299842747 -0.0072600495820070669 -0.0015416413210914471 0.0094337014807388195 -0.0055940617341548211 0.0052256885390670506 0.012695001640721508 0.00061158631010171537 0.00045181425288319586 0.0092611655655006567 0.00082124065526801605 0.007786074705358784 -0.0005314798959131752 -0.0072410429059527812 0.0091642856105374031 0.0075863326899707319 0.0067891711425469726
leaf_weight=24 21 20 33 25 20 22 21 38 29 30 22 20 29 22 34 32 20 31 20 23 44 25 30 23 59 28 20 52 27 36
leaf_count=24 21 20 33 25 20 22 21 38 29 30 22 20 29 22 34 32 20 31 20 23 44 25 30 23 59 28 20 52 27 36
internal_value=0 -0.00472939 -0.00334288 -0.00494074 -0.00826408 -0.0107557 0.000376589 -0.00656319 0.00189778 -0.0027576 -0.00683493 -0.0170446 0.00413434 0.00251011 0.0007864 0.00177984 -0.00121019 0.00168693 -0.00135102 0.00414039 0.00402931 0.00594063 0.00774616 0.00559856 0.00470816 0.00383088 0.00126499 0.0062289 0.00345363 0.0033915
internal_weight=0 252 228 195 120 100 75 60 628 73 52 40 50 555 260 238 105 71 51 133 295 101 76 53 266 207 100 107 55 80
internal_count=880 252 228 195 120 100 75 60 628 73 52 40 50 555 260 238 105 71 51 133 295 101 76 53 266 207 100 107 55 80
is_linear=0
shrinkage=0.05


Tree=22
num_leaves=31
num_cat=0
split_feature=79 48 76 81 63 17 4 48 16 48 4 125 81 81 124 63 103 40 3 103 2 69 32 128 46 48 36 77 80 92
split_gain=2.65863 1.91883 1.58907 2.14817 0.945338 0.912922 0.648816 0.770178 0.797604 0.677745 0.727781 0.521633 0.603887 0.568826 0.701571 0.544231 0.49071 0.467502 0.458212 0.415309 0.414214 0.412983 0.385638 0.374689 0.557017 0.373621 0.341784 0.590931 0.320837 0.287255
threshold=-2.2275999999999994 -1.2332999999999996 -3.3665999999999996 -0.4744549999999999 -1.1282999999999996 -1.9986999999999997 0.057744500000000004 2.6546000000000007 -2.3946999999999998 -0.23943499999999998 0.59325000000000017 1.7500000000000002 -1.2597999999999998 -1.0000599999999997 7.5000000000000009 -1.6254499999999998 -3.0317999999999996 -0.72115499999999988 -1.1890999999999996 -0.14487499999999998 1.1234000000000004 -0.47966999999999999 -1.1922999999999997 0.55000000000000016 -0.94244499999999987 1.1727500000000004 -1.3849499999999997 0.58217000000000019 0.82337500000000008 -0.57779999999999987
decision_type=2 2 2 2 2 2 2 2 2 2 2 2 2 2 2 2 2 2 2 2 2 2 2 2 2 2 2 2 2 2
left_child=1 -1 3 4 -2 -4 11 8 -8 10 -10 13 17 -7 18 -14 -11 -13 -15 -20 -9 -18 -17 24 -24 -23 -12 28 -28 -26
right_child=2 -3 5 -5 -6 6 7 20 9 16 26 12 15 14 -16 22 21 -19 19 -21 -22 25 23 -25 29 -27 27 -29 -30 -31
leaf_value=0.0007110073190668355 -0.0056480231473133684 -0.017988160361453672 -0.0077859178901864938 0.0038661992597964507 -0.020320937248027846 0.0069204587515236601 -0.010119323238082555 0.00010416212739543088 -0.0050150625783806808 -0.010224247435107829 0.010249197110533716 0.0040843637962825604 -0.0014775500238801424 0.0049221260020056289 -0.0096358880400657654 0.012157100101467222 -0.0055523715361854749 -0.0067265336913987991 -0.0079487076262012134 0.0018070571599916247 0.0076499678239501509 0.0045459061628207566 -0.0019936482518397528 0.0096100945797998744 0.0020556917874741238 -0.004114765611011535 0.010451303272629562 -0.0031247877874053444 0.0017923049058299512 0.0075414388620605073
leaf_weight=23 21 34 26 31 23 27 23 31 26 20 20 20 26 37 20 24 38 20 20 24 44 33 29 41 35 20 23 26 20 75
leaf_count=23 21 34 26 31 23 27 23 31 26 20 20 20 26 37 20 24 38 20 20 24 44 33 29 41 35 20 23 26 20 75
internal_value=0 -0.0104429 0.000723262 -0.00621517 -0.013318 0.00141896 0.00175044 8.92025e-05 -0.0012487 -0.000345936 0.00234412 0.0031028 0.00434913 0.000473816 -0.00124954 0.00533526 -0.00313293 -0.00132108 0.000821159 -0.00262738 0.00453103 -0.0015744 0.00620356 0.00540975 0.0041708 0.00127773 0.00449399 0.00282582 0.00642386 0.00579597
internal_weight=0 57 823 75 44 748 722 324 249 226 115 398 270 128 101 230 111 40 81 44 75 91 204 180 139 53 89 69 43 110
internal_count=880 57 823 75 44 748 722 324 249 226 115 398 270 128 101 230 111 40 81 44 75 91 204 180 139 53 89 69 43 110
is_linear=0
shrinkage=0.05


Tree=23
num_leaves=31
num_cat=0
split_feature=65 13 104 2 1 85 20 74 37 83 44 10 103 40 5 94 128 17 99 61 46 34 100 38 71 127 13 92 91 44
split_gain=2.60315 1.3578 1.4663 0.927029 1.14348 1.11465 0.887439 0.863319 0.836908 0.611829 0.615111 0.868383 0.763713 0.903034 0.910301 0.65566 0.522578 0.773604 0.746441 0.573389 0.448575 0.463783 0.444592 0.44748 0.403068 0.313421 0.296758 0.273955 0.249783 0.343922
threshold=-1.2098999999999998 0.076606000000000007 -2.3638499999999998 -0.67844999999999989 1.9335500000000001 -1.0983499999999997 -0.44204999999999994 0.24279000000000003 -0.85180999999999985 8.5782000000000007 -0.88002499999999995 1.9977000000000003 -0.92835999999999985 0.75308000000000008 0.082146000000000011 0.38158500000000006 1.0000000180025095e-35 0.34042000000000006 -1.27965 1.0310500000000002 0.56568000000000007 1.7402500000000003 -1.1110499999999999 -0.58256999999999992 -0.67069999999999996 0.52500000000000013 -0.8043499999999999 -0.37892499999999996 0.87323000000000006 1.7478000000000002
decision_type=2 2 2 2 2 2 2 2 2 2 2 2 2 2 2 2 2 2 2 2 2 2 2 2 2 2 2 2 2 2
left_child=1 2 7 5 8 -4 -3 -1 -5 10 11 12 26 14 15 -14 17 18 19 -12 -18 25 -20 -24 -8 27 -2 -22 29 -19
right_child=9 6 3 4 -6 -7 24 -9 -10 -11 16 -13 13 -15 -16 -17 20 28 22 -21 21 -23 23 -25 -26 -27 -28 -29 -30 -31
leaf_value=-0.021668059467559772 0.0095705403419940379 0.0075606779006193395 -0.0052515852011062883 -0.020271789790131153 0.00097715541234482902 0.0087451391331851477 0.0017014549833468417 -0.0084499150266249979 -0.0059803458462868424 0.0090857558849233178 -0.013744179285131395 -0.010968403005972505 -0.010271128314252566 -0.011473814043260757 0.0059415140843673336 0.0019867392256855965 0.0068810836004897366 0.010364674478769303 0.0065006167567132614 -0.0017714080074802041 0.0090637846175452754 -0.00419434927424173 -0.0076517017964943083 0.0022158431889558283 -0.0075780924996361135 -0.00076177259907126435 0.0013495591735201223 0.0031287091303719367 0.00091273769392587612 0.0024241220920036238
leaf_weight=21 23 32 33 20 23 25 22 30 21 27 20 20 24 21 37 20 86 25 23 20 29 23 20 27 25 31 21 59 42 30
leaf_count=21 23 32 33 20 23 25 22 30 21 27 20 20 24 21 37 20 86 25 23 20 29 23 20 27 25 31 21 59 42 30
internal_value=0 -0.00429297 -0.00677312 -0.0037969 -0.00794607 0.000781486 0.00113825 -0.0138927 -0.0129518 0.00172266 0.00139187 -0.00119754 0.000140937 -0.00223418 0.000161281 -0.00469937 0.00238001 0.000561216 -0.00230913 -0.00775779 0.00403128 0.00230534 0.000804399 -0.00198311 -0.00323447 0.00356159 0.00564689 0.00508459 0.00381624 0.00603346
internal_weight=0 252 173 122 64 58 79 51 41 628 601 166 146 102 81 44 435 207 110 40 228 142 70 47 47 119 44 88 97 55
internal_count=880 252 173 122 64 58 79 51 41 628 601 166 146 102 81 44 435 207 110 40 228 142 70 47 47 119 44 88 97 55
is_linear=0
shrinkage=0.05


Tree=24
num_leaves=31
num_cat=0
split_feature=65 91 61 77 91 61 35 110 83 48 56 9 8 78 92 40 15 50 36 68 65 6 115 2 100 24 3 11 12 36
split_gain=2.34934 1.10359 1.15724 1.36602 1.058 1.01089 0.945546 0.613843 0.552176 0.611907 0.559109 2.01795 0.517916 0.555924 0.712245 0.509776 0.951876 0.580571 0.554465 0.397428 0.438662 0.54705 0.388528 0.411283 0.396426 0.384626 0.376624 0.323138 0.282388 0.257092
threshold=-1.2098999999999998 2.5826500000000006 -0.33871999999999997 0.91585000000000016 0.99164500000000011 0.53128500000000012 -1.2800999999999998 0.19307500000000002 8.5782000000000007 -1.6323499999999997 -0.21948999999999999 -1.3703999999999998 2.1266500000000002 0.78738500000000011 -0.249885 -1.5154999999999996 0.75811500000000009 -1.9125499999999998 1.2222000000000002 -0.90793999999999986 -0.29086999999999991 0.21451000000000003 1.0000000180025095e-35 0.11766500000000001 -0.70892499999999992 0.45632500000000004 0.13676500000000003 8.5164000000000026 -7.6080499999999995 0.22494000000000003
decision_type=2 2 2 2 2 2 2 2 2 2 2 2 2 2 2 2 2 2 2 2 2 2 2 2 2 2 2 2 2 2
left_child=1 2 3 6 -5 -4 -1 -7 9 -2 15 -12 13 14 -13 16 -11 27 19 -17 -21 -22 24 -24 -16 -15 -8 28 -18 -26
right_child=8 -3 5 4 -6 7 26 -9 -10 10 11 12 -14 25 22 18 17 -19 -20 20 21 -23 23 -25 29 -27 -28 -29 -30 -31
leaf_value=-0.0044074878316476118 -0.0068624354581433263 -0.014776919685325332 0.0079752137227093473 0.0061951258902748427 -0.0084376644875322065 -0.0076153180329129105 -0.010715603027936249 0.0019660406483204234 0.00863146794339021 -0.0058880561080418142 -0.012788790893890629 -0.0068490040703461721 -0.0062353467592038215 0.0026248379403518308 -0.00048586411202060321 0.010557127582641053 0.0098099864912884593 -0.0033889910447652697 -0.00044672595621604062 -0.0018627949070651084 0.011349763324664485 0.0019564720572933796 0.0029995372937992215 -0.0063740947050973775 0.010846189100487645 0.011324194451899909 -0.020185149221548015 6.1540816050882518e-05 0.0036601995499222538 0.0038198757788632065
leaf_weight=36 22 22 34 30 21 32 21 35 27 38 28 26 20 27 28 42 35 27 36 20 31 31 25 22 23 24 21 26 40 30
leaf_count=36 22 22 34 30 21 32 21 35 27 38 28 26 20 27 28 42 35 27 36 20 31 31 25 22 23 24 21 26 40 30
internal_value=0 -0.00407832 -0.00305497 -0.0061932 0.000169859 0.000953253 -0.0103537 -0.00261013 0.00163652 0.00132227 0.00163326 -0.000130447 0.00144481 0.0021941 0.000695706 0.00300203 0.0010609 0.00312387 0.00501597 0.00660191 0.00457607 0.00665312 0.00222822 -0.00138812 0.0043266 0.00671865 -0.0154504 0.00486493 0.0065301 0.00686903
internal_weight=0 252 230 129 51 101 78 67 628 601 579 253 225 205 154 326 166 128 160 124 82 62 128 47 81 51 42 101 75 53
internal_count=880 252 230 129 51 101 78 67 628 601 579 253 225 205 154 326 166 128 160 124 82 62 128 47 81 51 42 101 75 53
is_linear=0
shrinkage=0.05


Tree=25
num_leaves=31
num_cat=0
split_feature=65 16 64 103 84 34 3 94 41 76 102 55 101 5 41 71 16 7 34 51 98 103 115 69 15 125 56 76 93 3
split_gain=2.12028 1.40329 1.09676 1.08205 1.24393 1.16669 1.16251 1.06381 0.931584 0.546397 0.99146 1.25442 0.572414 0.474881 0.393997 0.385137 0.472563 0.923062 0.645356 0.84441 0.64493 0.333642 0.333632 0.576222 0.357934 0.250103 0.234627 0.211911 0.286428 0.264098
threshold=-1.2098999999999998 -2.3946999999999998 1.0161000000000002 0.44370500000000007 -0.61158499999999993 -1.5757999999999999 1.2022000000000002 0.95218500000000017 0.99127500000000013 -1.7836499999999997 -0.58131999999999995 -0.58524999999999994 -1.2947999999999997 -0.11687999999999998 -0.94813999999999987 1.9589000000000001 -0.9220799999999999 3.5570000000000004 0.4060700000000001 -0.67542999999999986 -1.4453999999999996 -3.3966999999999996 1.0000000180025095e-35 -0.53143499999999988 -0.69373499999999988 1.7500000000000002 -0.42268499999999992 1.2319500000000001 -0.87856499999999993 -0.74704999999999988
decision_type=2 2 2 2 2 2 2 2 2 2 2 2 2 2 2 2 2 2 2 2 2 2 2 2 2 2 2 2 2 2
left_child=1 -1 3 4 7 -6 8 -3 -5 10 -2 -12 13 -11 -7 16 17 18 19 20 -14 -18 24 -24 -23 -25 -17 29 -29 -26
right_child=9 2 -4 6 5 14 -8 -9 -10 12 11 -13 15 -15 -16 26 21 -19 -20 -21 -22 22 23 25 27 -27 -28 28 -30 -31
leaf_value=-0.015374593273736538 0.0066574596833171591 -0.0084248668132608558 0.0057659668339924385 -0.0096535478615676004 -0.021041059781881897 -0.0019874237743871554 0.010282750715586273 0.0056108884465949681 0.0036255926638841629 0.00086279289029854629 -0.014935055164539296 0.00070110606993066852 -0.0059577375639822683 -0.0086479162087752717 -0.011460020312148593 0.0098096286013190231 -0.0024150735329991832 0.0073389044677418082 0.0039300572156207641 -0.012857088782703099 0.0049491171401156034 0.0096266650940690715 -0.0044605821407207383 -4.3268264110746056e-05 0.0087051883129862367 0.0056951010074805138 0.0030724822776392103 0.0055798248518258335 -0.0016133489793226604 0.0029433279639369874
leaf_weight=24 21 27 33 28 22 21 22 27 25 35 23 29 33 21 23 28 24 31 29 23 23 35 29 29 37 55 24 25 31 43
leaf_count=24 21 27 33 28 22 21 22 27 25 35 23 29 33 21 23 28 24 31 29 23 23 35 29 29 37 55 24 25 31 43
internal_value=0 -0.0038744 -0.00266386 -0.00409044 -0.00703498 -0.0116397 0.000620813 -0.00140699 -0.0033898 0.0015547 -0.00251188 -0.00621489 0.00208958 -0.00270372 -0.00693901 0.00262751 0.00215373 -0.000266266 -0.00244923 -0.004791 -0.00147814 0.00324587 0.00372426 0.0016161 0.00511737 0.003714 0.00670018 0.00395689 0.00159789 0.00560819
internal_weight=0 252 228 195 120 66 75 54 53 628 73 52 555 56 44 499 447 139 108 79 56 308 284 113 171 84 52 136 56 80
internal_count=880 252 228 195 120 66 75 54 53 628 73 52 555 56 44 499 447 139 108 79 56 308 284 113 171 84 52 136 56 80
is_linear=0
shrinkage=0.05


end of trees

feature_importances:
all_loss_skew=28
top_10%_correlation_best_percentile25_ratio=22
top_10%_loss_kurtosis=19
all_loss_stddev_median_ratio=17
recent_25_loss_best_percentile75_ratio=17
top_30%_correlation_stddev_best_ratio=17
all_correlation_percentile5_percentile25_ratio=16
all_correlation_stddev_median_ratio=16
log10_cardinality=15
top_10%_correlation_kurtosis=14
recent_15%_correlation_kurtosis=13
recent_15%_loss_stddev_median_ratio=13
recent_25_correlation_stddev_best_ratio=13
top_10%_correlation_percentile5_percentile25_ratio=13
recent_15%_loss_kurtosis=12
recent_25_correlation_best_percentile75_ratio=12
all_loss_best_percentile50_ratio=11
top_20%_correlation_best_percentile25_ratio=11
top_30%_correlation_best_percentile50_ratio=11
all_correlation_best_percentile50_ratio=10
all_correlation_kurtosis=10
recent_10_correlation_kurtosis=10
recent_10_loss_best_percentile25_ratio=10
recent_15%_correlation_stddev_median_ratio=10
recent_15%_loss_best_percentile25_ratio=10
recent_15%_loss_skew=10
recent_25_loss_skew=10
top_10%_correlation_stddev_best_ratio=9
top_20%_correlation_stddev_best_ratio=9
top_20%_loss_percentile5_percentile25_ratio=9
secondaryCutoff=9
all_loss_best_percentile75_ratio=8
recent_10_correlation_best_percentile25_ratio=8
recent_10_loss_percentile5_percentile25_ratio=8
recent_15%_loss_best_percentile75_ratio=8
recent_25_correlation_kurtosis=8
recent_25_correlation_stddev_median_ratio=8
recent_25_loss_kurtosis=8
top_10%_loss_percentile5_percentile25_ratio=8
all_loss_kurtosis=7
all_loss_percentile5_percentile25_ratio=7
all_loss_stddev_best_ratio=7
recent_10_loss_stddev_median_ratio=7
recent_25_correlation_percentile5_percentile25_ratio=7
recent_25_correlation_skew=7
recent_25_loss_percentile5_percentile25_ratio=7
top_30%_correlation_stddev_median_ratio=7
all_correlation_best_percentile25_ratio=6
all_correlation_skew=6
all_correlation_stddev_best_ratio=6
recent_10_correlation_best_percentile75_ratio=6
recent_10_loss_best_percentile50_ratio=6
recent_15%_correlation_best_percentile50_ratio=6
recent_15%_correlation_best_percentile75_ratio=6
recent_15%_loss_percentile5_percentile25_ratio=6
recent_25_loss_best_percentile50_ratio=6
top_10%_loss_skew=6
top_20%_correlation_kurtosis=6
top_20%_correlation_skew=6
top_20%_loss_best_percentile75_ratio=6
top_20%_loss_kurtosis=6
top_20%_loss_skew=6
top_30%_correlation_best_percentile75_ratio=6
top_30%_correlation_percentile5_percentile25_ratio=6
all_correlation_best_percentile75_ratio=5
recent_10_correlation_stddev_best_ratio=5
recent_25_correlation_best_percentile25_ratio=5
recent_25_loss_stddev_best_ratio=5
recent_25_loss_stddev_median_ratio=5
top_10%_loss_stddev_best_ratio=5
top_30%_loss_kurtosis=5
top_30%_loss_skew=5
secondaryCorrelationExponent=5
secondaryFixedProbability=5
recent_10_correlation_best_percentile50_ratio=4
recent_10_loss_skew=4
recent_15%_correlation_percentile5_percentile25_ratio=4
recent_15%_loss_stddev_best_ratio=4
recent_25_loss_best_percentile25_ratio=4
top_10%_loss_best_percentile25_ratio=4
top_20%_correlation_percentile5_percentile25_ratio=4
top_20%_loss_stddev_median_ratio=4
top_30%_correlation_skew=4
recent_10_loss_best_percentile75_ratio=3
recent_15%_correlation_best_percentile25_ratio=3
recent_15%_correlation_skew=3
top_10%_loss_best_percentile50_ratio=3
top_20%_correlation_best_percentile50_ratio=3
top_20%_loss_best_percentile25_ratio=3
top_30%_loss_stddev_median_ratio=3
resultFilteringMode_none=3
recent_10_correlation_percentile5_percentile25_ratio=2
recent_10_correlation_skew=2
recent_10_correlation_stddev_median_ratio=2
recent_15%_correlation_stddev_best_ratio=2
top_10%_correlation_best_percentile75_ratio=2
top_10%_correlation_skew=2
top_20%_correlation_best_percentile75_ratio=2
top_20%_correlation_stddev_median_ratio=2
top_20%_loss_best_percentile50_ratio=2
top_20%_loss_stddev_best_ratio=2
top_30%_correlation_best_percentile25_ratio=2
top_30%_correlation_kurtosis=2
all_loss_best_percentile25_ratio=1
recent_10_loss_kurtosis=1
recent_10_loss_stddev_best_ratio=1
recent_25_correlation_best_percentile50_ratio=1
top_10%_correlation_best_percentile50_ratio=1
top_10%_correlation_stddev_median_ratio=1
top_10%_loss_best_percentile75_ratio=1
top_10%_loss_stddev_median_ratio=1
top_30%_loss_best_percentile25_ratio=1
top_30%_loss_best_percentile50_ratio=1
top_30%_loss_best_percentile75_ratio=1
top_30%_loss_percentile5_percentile25_ratio=1
top_30%_loss_stddev_best_ratio=1
secondaryLockingMode_random=1
resultFilteringRandomProbability=1
secondaryTopLockingPercentile=1

parameters:
[boosting: gbdt]
[objective: regression]
[metric: l2]
[tree_learner: serial]
[device_type: cpu]
[data_sample_strategy: bagging]
[data: ]
[valid: ]
[num_iterations: 100]
[learning_rate: 0.05]
[num_leaves: 31]
[num_threads: 0]
[seed: 0]
[deterministic: 0]
[force_col_wise: 0]
[force_row_wise: 0]
[histogram_pool_size: -1]
[max_depth: -1]
[min_data_in_leaf: 20]
[min_sum_hessian_in_leaf: 0.001]
[bagging_fraction: 1]
[pos_bagging_fraction: 1]
[neg_bagging_fraction: 1]
[bagging_freq: 0]
[bagging_seed: 3]
[feature_fraction: 0.7]
[feature_fraction_bynode: 1]
[feature_fraction_seed: 2]
[extra_trees: 0]
[extra_seed: 6]
[early_stopping_round: 5]
[early_stopping_min_delta: 0]
[first_metric_only: 0]
[max_delta_step: 0]
[lambda_l1: 0]
[lambda_l2: 0]
[linear_lambda: 0]
[min_gain_to_split: 0]
[drop_rate: 0.1]
[max_drop: 50]
[skip_drop: 0.5]
[xgboost_dart_mode: 0]
[uniform_drop: 0]
[drop_seed: 4]
[top_rate: 0.2]
[other_rate: 0.1]
[min_data_per_group: 100]
[max_cat_threshold: 32]
[cat_l2: 10]
[cat_smooth: 10]
[max_cat_to_onehot: 4]
[top_k: 20]
[monotone_constraints: ]
[monotone_constraints_method: basic]
[monotone_penalty: 0]
[feature_contri: ]
[forcedsplits_filename: ]
[refit_decay_rate: 0.9]
[cegb_tradeoff: 1]
[cegb_penalty_split: 0]
[cegb_penalty_feature_lazy: ]
[cegb_penalty_feature_coupled: ]
[path_smooth: 0]
[interaction_constraints: ]
[verbosity: -1]
[saved_feature_importance_type: 0]
[use_quantized_grad: 0]
[num_grad_quant_bins: 4]
[quant_train_renew_leaf: 0]
[stochastic_rounding: 1]
[linear_tree: 0]
[max_bin: 255]
[max_bin_by_feature: ]
[min_data_in_bin: 3]
[bin_construct_sample_cnt: 200000]
[data_random_seed: 1]
[is_enable_sparse: 1]
[enable_bundle: 1]
[use_missing: 1]
[zero_as_missing: 0]
[feature_pre_filter: 1]
[pre_partition: 0]
[two_round: 0]
[header: 0]
[label_column: ]
[weight_column: ]
[group_column: ]
[ignore_column: ]
[categorical_feature: ]
[forcedbins_filename: ]
[precise_float_parser: 0]
[parser_config_file: ]
[objective_seed: 5]
[num_class: 1]
[is_unbalance: 0]
[scale_pos_weight: 1]
[sigmoid: 1]
[boost_from_average: 1]
[reg_sqrt: 0]
[alpha: 0.9]
[fair_c: 1]
[poisson_max_delta_step: 0.7]
[tweedie_variance_power: 1.5]
[lambdarank_truncation_level: 30]
[lambdarank_norm: 1]
[label_gain: ]
[lambdarank_position_bias_regularization: 0]
[eval_at: ]
[multi_error_top_k: 1]
[auc_mu_weights: ]
[num_machines: 1]
[local_listen_port: 12400]
[time_out: 120]
[machine_list_filename: ]
[machines: ]
[gpu_platform_id: -1]
[gpu_device_id: -1]
[gpu_use_dp: 0]
[num_gpu: 1]

end of parameters

pandas_categorical:null
