tree
version=v4
num_class=4
num_tree_per_iteration=4
label_index=0
max_feature_idx=112
objective=multiclass num_class:4
feature_names=all_correlation_best_percentile25_ratio all_correlation_best_percentile50_ratio all_correlation_best_percentile75_ratio all_correlation_kurtosis all_correlation_percentile5_percentile25_ratio all_correlation_skew all_correlation_stddev_best_ratio all_correlation_stddev_median_ratio all_loss_best_percentile25_ratio all_loss_best_percentile50_ratio all_loss_best_percentile75_ratio all_loss_kurtosis all_loss_percentile5_percentile25_ratio all_loss_skew all_loss_stddev_best_ratio all_loss_stddev_median_ratio log10_cardinality recent_10_correlation_best_percentile25_ratio recent_10_correlation_best_percentile50_ratio recent_10_correlation_best_percentile75_ratio recent_10_correlation_kurtosis recent_10_correlation_percentile5_percentile25_ratio recent_10_correlation_skew recent_10_correlation_stddev_best_ratio recent_10_correlation_stddev_median_ratio recent_10_loss_best_percentile25_ratio recent_10_loss_best_percentile50_ratio recent_10_loss_best_percentile75_ratio recent_10_loss_kurtosis recent_10_loss_percentile5_percentile25_ratio recent_10_loss_skew recent_10_loss_stddev_best_ratio recent_10_loss_stddev_median_ratio recent_15%_correlation_best_percentile25_ratio recent_15%_correlation_best_percentile50_ratio recent_15%_correlation_best_percentile75_ratio recent_15%_correlation_kurtosis recent_15%_correlation_percentile5_percentile25_ratio recent_15%_correlation_skew recent_15%_correlation_stddev_best_ratio recent_15%_correlation_stddev_median_ratio recent_15%_loss_best_percentile25_ratio recent_15%_loss_best_percentile50_ratio recent_15%_loss_best_percentile75_ratio recent_15%_loss_kurtosis recent_15%_loss_percentile5_percentile25_ratio recent_15%_loss_skew recent_15%_loss_stddev_best_ratio recent_15%_loss_stddev_median_ratio recent_25_correlation_best_percentile25_ratio recent_25_correlation_best_percentile50_ratio recent_25_correlation_best_percentile75_ratio recent_25_correlation_kurtosis recent_25_correlation_percentile5_percentile25_ratio recent_25_correlation_skew recent_25_correlation_stddev_best_ratio recent_25_correlation_stddev_median_ratio recent_25_loss_best_percentile25_ratio recent_25_loss_best_percentile50_ratio recent_25_loss_best_percentile75_ratio recent_25_loss_kurtosis recent_25_loss_percentile5_percentile25_ratio recent_25_loss_skew recent_25_loss_stddev_best_ratio recent_25_loss_stddev_median_ratio top_10%_correlation_best_percentile25_ratio top_10%_correlation_best_percentile50_ratio top_10%_correlation_best_percentile75_ratio top_10%_correlation_kurtosis top_10%_correlation_percentile5_percentile25_ratio top_10%_correlation_skew top_10%_correlation_stddev_best_ratio top_10%_correlation_stddev_median_ratio top_10%_loss_best_percentile25_ratio top_10%_loss_best_percentile50_ratio top_10%_loss_best_percentile75_ratio top_10%_loss_kurtosis top_10%_loss_percentile5_percentile25_ratio top_10%_loss_skew top_10%_loss_stddev_best_ratio top_10%_loss_stddev_median_ratio top_20%_correlation_best_percentile25_ratio top_20%_correlation_best_percentile50_ratio top_20%_correlation_best_percentile75_ratio top_20%_correlation_kurtosis top_20%_correlation_percentile5_percentile25_ratio top_20%_correlation_skew top_20%_correlation_stddev_best_ratio top_20%_correlation_stddev_median_ratio top_20%_loss_best_percentile25_ratio top_20%_loss_best_percentile50_ratio top_20%_loss_best_percentile75_ratio top_20%_loss_kurtosis top_20%_loss_percentile5_percentile25_ratio top_20%_loss_skew top_20%_loss_stddev_best_ratio top_20%_loss_stddev_median_ratio top_30%_correlation_best_percentile25_ratio top_30%_correlation_best_percentile50_ratio top_30%_correlation_best_percentile75_ratio top_30%_correlation_kurtosis top_30%_correlation_percentile5_percentile25_ratio top_30%_correlation_skew top_30%_correlation_stddev_best_ratio top_30%_correlation_stddev_median_ratio top_30%_loss_best_percentile25_ratio top_30%_loss_best_percentile50_ratio top_30%_loss_best_percentile75_ratio top_30%_loss_kurtosis top_30%_loss_percentile5_percentile25_ratio top_30%_loss_skew top_30%_loss_stddev_best_ratio top_30%_loss_stddev_median_ratio
feature_infos=[-2.5491999999999999:16.530999999999999] [-2.8372999999999999:24.245000000000001] [-2.7557:37.680999999999997] [-3.0859000000000001:12.045999999999999] [-2.6465999999999998:14.791] [-6.8095999999999997:5.4836999999999998] [-12.917999999999999:6.5324] [-4.4776999999999996:26.809000000000001] [-13.234:3.1080999999999999] [-7.2653999999999996:3.4115000000000002] [-5.0983000000000001:4.2472000000000003] [-3.3512:14.935] [-15.465:2.7292000000000001] [-9.1888000000000005:9.4795999999999996] [-1.9705999999999999:40.409999999999997] [-2.3418000000000001:12.238] [-2.7728000000000002:6.0151000000000003] [-4.2477999999999998:1479.3] [-3.3382999999999998:121.37] [-2.0943000000000001:155.97] [-2.4792999999999998:16.001000000000001] [-4.8164999999999996:1220.5999999999999] [-7.0229999999999997:6.8475000000000001] [-8.4337999999999997:5.9335000000000004] [-3.2038000000000002:135.58000000000001] [-23.227:2.1471] [-12.186999999999999:2.3593999999999999] [-6.7225999999999999:2.3452999999999999] [-1.7426999999999999:2.0853000000000002] [-28.006:2.1993999999999998] [-4.6769999999999996:1.8864000000000001] [-1.4356:67.701999999999998] [-1.4570000000000001:38.061999999999998] [-4.7081999999999997:5102.1000000000004] [-3.5125000000000002:1025.5999999999999] [-2.3738000000000001:430.55000000000001] [-2.6972:21.355] [-5.6719999999999997:4447.3999999999996] [-9.0085999999999995:7.4705000000000004] [-10.278:7.3643000000000001] [-3.3525999999999998:1138.0999999999999] [-26.516999999999999:2.7372999999999998] [-14.776999999999999:2.8176000000000001] [-8.1395999999999997:2.6063000000000001] [-1.5384:15.026999999999999] [-31.042999999999999:2.6181999999999999] [-4.3291000000000004:6.4221000000000004] [-1.6697:76.346999999999994] [-1.7478:25.27] [-5.3750999999999998:3217.5999999999999] [-3.6646999999999998:254.06999999999999] [-2.4687000000000001:289.89999999999998] [-2.4649000000000001:20.209] [-6.7587999999999999:2912] [-8.6442999999999994:7.1127000000000002] [-7.9272:5.2937000000000003] [-3.3003999999999998:258.97000000000003] [-16.699000000000002:2.3532000000000002] [-9.0013000000000005:2.3439999999999999] [-5.8444000000000003:2.5341999999999998] [-2.0017:4.1548999999999996] [-19.992000000000001:2.2707999999999999] [-5.0614999999999997:3.4578000000000002] [-2.0122:73.070999999999998] [-2.1137000000000001:23.582000000000001] [-2.8805000000000001:3503.6999999999998] [-2.7258:87.317999999999998] [-1.5889:56.759999999999998] [-2.1444999999999999:11.391999999999999] [-3.2263000000000002:2910.9000000000001] [-9.4313000000000002:5.8783000000000003] [-17.606000000000002:6.9325999999999999] [-2.7244000000000002:96.765000000000001] [-63.517000000000003:2.1160999999999999] [-45.344000000000001:2.4826000000000001] [-37.415999999999997:2.7511000000000001] [-3.3729:23.84] [-84.582999999999998:2.0145] [-9.8245000000000005:7.1946000000000003] [-2.4361000000000002:117.3] [-2.5884:41.664999999999999] [-3.0931999999999999:875.48000000000002] [-2.8776999999999999:1446.2] [-1.7749999999999999:283.25] [-2.2311000000000001:11.853999999999999] [-3.5562:743.86000000000001] [-8.5234000000000005:5.7507000000000001] [-18.684000000000001:7.9916] [-2.9138000000000002:1569.2] [-30.933:2.4379] [-24.204000000000001:2.8671000000000002] [-19.971:3.1560000000000001] [-4.2765000000000004:43.893000000000001] [-36.023000000000003:2.4327000000000001] [-13.372999999999999:13.94] [-2.4142999999999999:78.762] [-2.5969000000000002:44.883000000000003] [-3.5562:1173.9000000000001] [-3.7484999999999999:73.188999999999993] [-1.7868999999999999:773.5] [-2.2966000000000002:14.218999999999999] [-4.1436000000000002:1003.3] [-5.2107000000000001:6.3327] [-11.210000000000001:6.5669000000000004] [-3.6204999999999998:70.992999999999995] [-26.581:2.6819999999999999] [-19.111999999999998:3.0676000000000001] [-15.106:3.1271] [-4.3403:37.700000000000003] [-30.247:2.5819999999999999] [-11.513999999999999:10.545999999999999] [-2.3624999999999998:68.021000000000001] [-2.6322999999999999:36.753999999999998]
tree_sizes=3299 3309 3287 3197 3399 3381 3379 3386 3381 3384 3390 3394 3374 3398 3375 3399

Tree=0
num_leaves=31
num_cat=0
split_feature=61 3 100 43 78 91 106 64 63 35 89 39 12 12 70 42 10 52 110 35 20 107 10 37 39 26 2 15 3 8
split_gain=8.08528 7.29826 9.39093 7.54506 7.14904 7.87623 7.87402 6.33189 10.147 7.35725 7.46932 9.74318 7.05359 11.2708 7.31975 10.1377 6.51554 5.65781 4.41687 7.26546 3.54687 3.01122 6.49098 2.54653 2.36875 2.03003 1.62978 1.16191 0.983123 0.134493
threshold=2.0764500000000008 3.1152500000000001 -1.1956999999999998 1.2673000000000003 3.9233500000000006 1.8029000000000004 1.3329000000000002 -0.80140499999999992 -0.64511499999999988 -1.2563499999999999 -0.84400499999999978 -0.75790499999999994 -8.0125499999999992 0.092855500000000021 -0.053176999999999995 -2.2094999999999998 0.43817500000000004 -0.20051499999999997 0.51853000000000005 -1.0523999999999998 -0.38546499999999995 0.51216000000000006 -0.43373499999999993 -0.77189999999999992 -0.5250999999999999 0.32746500000000006 -0.36176999999999998 -0.92727999999999988 -0.099360499999999977 -0.78264499999999992
decision_type=2 2 2 2 2 2 2 2 2 2 2 2 2 2 2 2 2 2 2 2 2 2 2 2 2 2 2 2 2 2
left_child=1 2 3 18 5 6 7 9 -9 28 -11 -12 -10 14 17 -16 26 -14 19 -1 -18 22 24 -7 -3 -21 -15 -23 -4 -20
right_child=-2 21 4 -5 -6 23 -8 8 12 10 11 -13 13 16 15 -17 20 -19 29 25 -22 27 -24 -25 -26 -27 -28 -29 -30 -31
leaf_value=-1.3339242284853166 -1.3122816264852668 -1.3649410970493412 -1.3887775899685633 -1.3416064250336817 -1.3095212510121499 -1.3694194684462859 -1.3104935290128024 -1.2856933945034057 -1.4006136416250046 -1.4052464396218438 -1.2945666893830667 -1.3736344062316457 -1.3870241008342756 -1.4142031824157335 -1.3434678803511702 -1.2693146960439921 -1.3747935141226197 -1.3232577940470094 -1.404350765342455 -1.3763092705954316 -1.3156790116829491 -1.3846459311958981 -1.3255314287562274 -1.4142031824157335 -1.4082320205531405 -1.4142031824157335 -1.3783762112401754 -1.4142031824157335 -1.4142031824157335 -1.4142031824157335
leaf_weight=6.8511106967926017 7.3586003780364981 5.074896812438964 7.8660900592803955 9.6423039436340314 8.119834899902342 5.5823864936828613 9.6423039436340314 5.8361313343048016 7.358600378036491 5.5823864936828622 7.1048555374145499 8.6273245811462402 7.358600378036499 7.358600378036499 9.8960487842559726 8.6273245811462704 5.0748968124389648 6.5973658561706454 5.0748968124389657 6.5973658561706561 5.0748968124389631 5.074896812438964 5.0748968124389675 7.3586003780364972 8.3735797405242902 7.6123452186584473 5.5823864936828631 9.6423039436340314 7.3586003780364972 10.911028146743771
leaf_count=27 29 20 31 38 32 22 38 23 29 22 28 34 29 29 39 34 20 26 20 26 20 20 20 29 33 30 22 38 29 43
internal_value=-1.36382 -1.36558 -1.36166 -1.381 -1.35502 -1.3579 -1.35374 -1.3577 -1.34876 -1.37452 -1.35556 -1.33793 -1.35461 -1.34852 -1.32953 -1.30893 -1.37523 -1.35688 -1.39126 -1.37622 -1.34524 -1.38713 -1.37371 -1.39488 -1.3919 -1.39661 -1.39875 -1.40401 -1.40107 -1.41108
internal_weight=0 215.937 182.696 46.6891 136.007 127.887 114.946 105.304 68.7649 36.5393 21.3146 15.7322 62.9287 55.5701 32.4793 18.5234 23.0908 13.956 37.0467 21.0608 10.1498 33.2406 18.5234 12.941 13.4485 14.2097 12.941 14.7172 15.2247 15.9859
internal_count=880 851 720 184 536 504 453 415 271 144 84 62 248 219 128 73 91 55 146 83 40 131 73 51 53 56 51 58 60 63
is_linear=0
shrinkage=1


Tree=1
num_leaves=31
num_cat=0
split_feature=11 22 18 90 40 61 61 40 3 86 100 97 62 53 76 98 98 35 27 9 36 87 90 13 8 0 0 0 0 18
split_gain=13.2722 12.1102 13.434 11.5536 10.6329 9.7329 8.28996 8.00326 7.67265 6.07516 4.63015 5.57766 6.80347 6.07052 8.55152 6.95715 10.2262 6.39451 7.08845 4.37527 3.37171 3.01269 2.18724 1.20422 0.181914 0.123232 1.77636e-15 1.77636e-15 1.77636e-15 1.77636e-15
threshold=-1.6535499999999999 0.099140500000000006 0.38135500000000006 -7.1859499999999992 0.92715000000000014 -3.1426499999999993 -5.341899999999999 8.6238500000000027 5.594450000000001 -2.0946999999999996 4.6083500000000006 0.931145 -0.73730499999999999 1.1062000000000003 0.15092000000000003 -0.80463999999999991 -0.27666999999999992 -0.59480499999999992 0.98419500000000004 -0.86086999999999991 -1.3976999999999997 -2.0143999999999997 0.022487000000000004 -0.039191499999999997 -1.0000000180025095e-35 -0.12230999999999999 1.3835000000000002 -0.042697999999999993 0.39872500000000005 -1.0000000180025095e-35
decision_type=2 2 2 2 2 2 2 2 2 2 2 2 2 2 2 2 2 2 2 2 2 2 2 2 2 2 2 2 2 2
left_child=1 4 -3 26 9 6 -5 8 10 -1 11 12 19 15 -15 20 -17 18 -18 -7 -14 -22 -11 -13 -21 -19 -2 -23 -26 -25
right_child=3 2 -4 5 -6 7 -8 -9 -10 22 -12 23 13 14 -16 16 17 25 -20 24 21 27 -24 29 28 -27 -28 -29 -30 -31
leaf_value=-1.6069165970636659 -1.6906023412376519 -1.5302046649041787 -1.6325273204962221 -1.6447744337138024 -1.5703040839875471 -1.6304532126125995 -1.5484316735784371 -1.5943637354375679 -1.5874895493089907 -1.6505029221542837 -1.6170867395848101 -1.6659257756478869 -1.6304532126125995 -1.6676883874757271 -1.5800579967375556 -1.581240289192102 -1.5958218961315087 -1.6906023412376519 -1.6785725155126414 -1.6785725155126414 -1.6424830383376099 -1.6906023412376519 -1.6906023412376519 -1.6906023412376519 -1.6906023412376521 -1.6785725155126412 -1.6906023412376519 -1.6906023412376521 -1.6906023412376519 -1.6906023412376519
leaf_weight=4.7797866165637997 7.8970387578010586 6.8579547107219678 6.0266874730587006 4.3641529977321625 4.5719698071479788 4.1563361883163479 4.571969807147978 6.2345042824745169 4.3641529977321616 6.2345042824745196 7.4814051389694205 8.1048555672168749 4.1563361883163479 4.3641529977321607 7.6892219483852386 6.8579547107219652 6.8579547107219678 4.3641529977321625 4.1563361883163452 4.1563361883163514 4.1563361883163514 10.390840470790865 7.4814051389694214 8.3126723766326887 7.8970387578010435 4.1563361883163683 8.3126723766326887 4.5719698071479646 4.9876034259796143 4.3641529977321616
leaf_count=23 38 33 29 21 22 20 22 30 21 30 36 39 20 21 37 33 33 21 20 20 20 50 36 40 38 20 40 22 24 21
internal_value=-1.64412 -1.61689 -1.57807 -1.65079 -1.63858 -1.64585 -1.59548 -1.64954 -1.65252 -1.65546 -1.65508 -1.65782 -1.65201 -1.64362 -1.61179 -1.65134 -1.63377 -1.65221 -1.62705 -1.67645 -1.67127 -1.68014 -1.67238 -1.68098 -1.68767 -1.68473 -1.6906 -1.6906 -1.6906 -1.6906
internal_weight=0 35.9523 12.8846 146.926 23.0677 130.717 8.93612 121.781 115.546 18.4957 111.182 103.701 82.9189 61.7216 12.0534 49.6682 26.3927 19.5348 11.0143 21.1973 23.2755 19.1191 13.7159 20.7817 17.041 8.52049 16.2097 14.9628 12.8846 12.6768
internal_count=880 173 62 707 111 629 43 586 556 89 535 499 399 297 58 239 127 94 53 102 112 92 66 100 82 41 78 72 62 61
is_linear=0
shrinkage=1


Tree=2
num_leaves=31
num_cat=0
split_feature=15 46 38 72 2 36 22 13 18 51 47 85 15 97 98 108 6 82 71 5 110 99 14 9 12 2 6 53 0 2
split_gain=16.6495 8.34394 9.12801 8.26513 7.96303 9.03694 7.00686 5.7014 5.52684 5.39808 5.34046 10.7721 7.97439 7.39073 7.59246 7.16444 5.89298 5.77857 5.21861 5.07471 4.47107 5.37485 5.46537 3.72048 5.58351 2.90777 3.14914 4.7954 0.76332 0.346946
threshold=4.1151000000000009 1.4021500000000002 -0.98445499999999986 -1.7663999999999997 4.828450000000001 -1.8724999999999998 3.1168500000000008 0.87146500000000005 0.73546000000000011 -0.049311499999999987 -1.1270499999999999 -1.1491999999999998 -0.60453499999999993 -1.1430499999999999 -0.82950499999999994 1.0000000180025095e-35 -0.28865499999999994 -1.1119499999999998 1.4748500000000002 -0.21007999999999996 2.6658000000000004 -1.0975999999999997 -0.011042999999999999 0.72828000000000015 1.1092500000000001 -0.32327499999999992 -0.30782999999999994 0.58008500000000007 0.78289000000000009 -0.42393499999999995
decision_type=2 2 2 2 2 2 2 2 2 2 2 2 2 2 2 2 2 2 2 2 2 2 2 2 2 2 2 2 2 2
left_child=3 2 -2 8 5 -5 -3 -4 19 -10 11 -7 16 15 -15 -12 -13 -16 23 20 21 22 -1 29 -25 -21 27 -27 -28 -19
right_child=1 6 7 4 -6 10 -8 -9 9 -11 13 12 -14 14 17 -17 -18 18 -20 25 -22 -23 -24 24 -26 26 28 -29 -30 -31
leaf_value=-1.0110251029006931 -1.0018097698390172 -1.0397270256657047 -1.0908559569070211 -1.0010898219435738 -1.013508923139973 -1.0986027646708567 -0.9797999341783179 -1.0342074251339717 -1.0731693112403224 -1.0144945660920681 -1.0768588837882722 -1.0439478966605593 -1.0772603092814892 -1.1170014331099667 -1.0259280243363722 -1.0185436938952699 -0.99037530326432732 -1.1170014331099667 -1.0452466261974378 -1.1170014331099667 -1.0975204900567914 -1.0924698751911535 -1.0664050949024142 -1.0434067593535268 -1.1004426315147677 -1.0381499969423524 -1.0921632307171683 -1.0971308711957279 -1.1170014331099667 -1.1004426315147677
leaf_weight=7.5488552451133755 6.9449468255043056 9.0586262941360491 11.474259972572328 6.0390841960906974 9.6625347137451154 8.1527636647224409 10.56839734315872 7.246901035308837 10.266443133354189 6.3410384058952323 9.9644889235496539 10.266443133354189 7.5488552451133755 11.474259972572325 6.0390841960906974 11.17230576276779 10.266443133354185 6.6429926156997681 9.0586262941360456 11.17230576276779 10.266443133354185 8.1527636647224444 10.870351552963255 8.1527636647224444 9.0586262941360456 6.3410384058952332 6.0390841960906982 7.5488552451133728 6.3410384058952332 6.0390841960907
leaf_count=25 23 30 38 20 32 27 35 24 34 21 33 34 25 38 20 37 34 22 30 37 34 27 36 27 30 21 20 25 21 20
internal_value=-1.05961 -1.032 -1.05077 -1.06528 -1.05717 -1.06069 -1.00746 -1.06893 -1.07684 -1.05077 -1.06386 -1.04801 -1.03332 -1.07126 -1.0807 -1.04604 -1.01716 -1.07144 -1.07849 -1.08267 -1.0695 -1.05867 -1.04371 -1.08857 -1.07343 -1.09564 -1.08655 -1.0702 -1.10489 -1.10912
internal_weight=0 45.2931 25.6661 220.427 129.538 119.876 19.627 18.7212 90.8882 16.6075 113.837 36.2345 28.0817 77.6022 56.4654 21.1368 20.5329 44.9912 38.9521 74.2807 36.8384 26.572 18.4192 29.8935 17.2114 37.4423 26.27 13.8899 12.3801 12.6821
internal_count=880 150 85 730 429 397 65 62 301 55 377 120 93 257 187 70 68 149 129 246 122 88 61 99 57 124 87 46 41 42
is_linear=0
shrinkage=1


Tree=3
num_leaves=30
num_cat=0
split_feature=59 67 39 44 46 18 6 89 28 71 99 78 77 97 24 97 81 38 46 29 56 78 54 35 5 102 41 76 0
split_gain=6.26738 9.0402 8.8898 7.15662 10.9672 8.10441 7.7779 10.3476 8.33939 7.37524 6.69699 6.26181 6.13556 5.92023 5.71574 5.26995 7.58154 3.89173 3.50554 4.61227 2.86295 4.36726 4.14926 2.37441 2.23232 1.99191 1.84381 0.170612 3.55271e-15
threshold=-0.10087349999999999 -0.87745999999999991 -1.3643499999999997 -1.3255499999999998 -2.0654999999999997 -1.1292499999999996 0.40718500000000007 1.0797000000000001 -0.5014249999999999 -0.12686499999999998 8.4361000000000015 -3.6629999999999998 -0.21486999999999998 3.3967000000000005 12.407500000000001 -1.2984999999999998 -1.0080999999999998 1.0613500000000002 -0.88974999999999993 -5.9218999999999991 -0.022653999999999997 1.5642000000000003 2.0515500000000002 -2.1734499999999994 -1.4445499999999998 -1.5299999999999998 0.82589000000000012 -0.59660499999999994 -0.17723499999999995
decision_type=2 2 2 2 2 2 2 2 2 2 2 2 2 2 2 2 2 2 2 2 2 2 2 2 2 2 2 2 2
left_child=1 3 -3 4 5 -1 7 8 12 -10 11 -2 -5 14 15 16 26 -15 -8 -20 24 22 25 -21 -17 -22 -13 -27 -26
right_child=10 2 -4 6 -6 -7 18 -9 9 -11 -12 13 -14 17 -16 20 -18 -19 19 23 21 -23 -24 -25 28 27 -28 -29 -30
leaf_value=-1.4694820593523068 -1.5439215762008263 -1.5792326290648677 -1.4804571163235627 -1.6149015642214499 -1.6023180937285442 -1.5649650550022347 -1.6341079139211481 -1.6222886217982571 -1.4996634660232608 -1.5764888648220536 -1.5476793402725064 -1.6341079139211481 -1.5439215762008263 -1.5339008720096794 -1.5539422803919731 -1.6037820986058353 -1.5365987539072958 -1.5956952145217518 -1.5572825151223555 -1.5897855684603062 -1.5956952145217518 -1.5658186705444435 -1.5712507694494087 -1.6341079139211481 -1.6341079139211481 -1.6225841041013291 -1.5880126746418726 -1.6341079139211481 -1.6341079139211481
leaf_weight=4.5557850748300543 4.989669367671012 4.5557850748300552 4.5557850748300535 7.8099172711372375 6.2913222461938849 4.3388429284095755 9.7623965889215487 8.4607437103986722 7.8099172711372322 5.2066115140915006 6.9421486854553214 4.3388429284095746 4.9896693676710093 4.9896693676710111 4.989669367671012 8.243801563978197 5.6404958069324485 5.2066115140914917 5.2066115140914944 5.640495806932452 5.2066115140914908 5.8574379533529273 4.7727272212505332 6.5082643926143602 10.630165174603466 4.3388429284095773 4.3388429284095764 12.365702345967307 12.365702345967282
leaf_count=21 23 21 21 36 29 20 45 39 36 24 32 20 23 23 23 38 26 24 24 26 24 27 22 30 49 20 20 57 57
internal_value=-1.58697 -1.57693 -1.52984 -1.58253 -1.55179 -1.51606 -1.59013 -1.5743 -1.55857 -1.53039 -1.59514 -1.59849 -1.58723 -1.60141 -1.60582 -1.60914 -1.58173 -1.56546 -1.61014 -1.59666 -1.61529 -1.60491 -1.6135 -1.61353 -1.62611 -1.6227 -1.61106 -1.63111 -1.63411
internal_weight=0 85.6921 9.11157 76.5806 15.186 8.89463 61.3946 34.2769 25.8161 13.0165 105.217 98.2748 12.7996 93.2851 83.0888 78.0992 14.3182 10.1963 27.1178 17.3554 63.781 32.5413 26.6839 12.1488 31.2397 21.9112 8.67769 16.7045 22.9959
internal_count=880 395 42 353 70 41 283 158 119 60 485 453 59 430 383 360 66 47 125 80 294 150 123 56 144 101 40 77 106
is_linear=0
shrinkage=1


Tree=4
num_leaves=31
num_cat=0
split_feature=61 3 100 43 78 105 12 36 69 36 45 28 28 41 70 105 98 25 83 51 76 111 111 23 28 47 97 72 73 42
split_gain=7.28695 6.71618 8.59529 7.0617 6.3763 7.73258 6.10609 8.86367 6.62572 10.7919 6.24148 6.0635 5.4799 7.74313 6.20256 4.96812 4.74174 4.13763 6.84988 3.87153 5.47737 3.55495 5.5212 3.30951 6.10269 2.59908 2.53822 2.25926 2.02868 1.48428
threshold=2.0764500000000008 3.1152500000000001 -1.1956999999999998 1.3107500000000003 3.9233500000000006 1.6423500000000002 -8.0125499999999992 3.7833500000000004 0.93831500000000012 -0.95751499999999989 0.30402000000000007 -1.0000000180025095e-35 2.0104000000000002 -2.1447499999999997 -1.1081999999999999 0.9693400000000002 -0.31354499999999991 0.80445000000000011 -1.0925499999999999 -0.22417499999999999 1.8892000000000002 0.26861500000000005 3.0065500000000003 -1.8021499999999999 -0.61111499999999996 4.6258500000000007 -0.23477999999999996 -0.10908499999999999 0.43443500000000007 0.41942500000000005
decision_type=2 2 2 2 2 2 2 2 2 2 2 2 2 2 2 2 2 2 2 2 2 2 2 2 2 2 2 2 2 2
left_child=1 2 3 19 5 6 -4 8 12 -10 -11 -9 13 14 -8 17 -17 23 -19 20 28 27 -23 24 -15 -24 -7 -3 -1 -25
right_child=-2 21 4 -5 -6 26 7 11 9 10 -12 -13 -14 15 -16 16 -18 18 -20 -21 -22 22 25 29 -26 -27 -28 -29 -30 -31
leaf_value=-0.0073304246803576577 0.048294082089833511 -0.049855144820782293 -0.031607483484881141 0.023953736025608581 0.050696274565629432 -0.0005011607174391046 0.0014566670311756138 0.023561713861041056 0.08994391251407563 -0.031853129294234638 0.045058948638037145 0.094103473321482209 0.049989145281296526 0.037593084281733968 0.072275087662365303 0.055759059562429825 -0.01204738857770745 -0.023320625776824245 0.050761917412600568 -0.043949366681684539 0.030942782129983928 0.037313446106203768 -0.04987741781709186 -0.025348511292234373 -0.040093575005384713 -7.8599109092064164e-07 -0.044624857743870844 -0.0099126586720327901 -0.043913577420754288 -0.050242543516589938
leaf_weight=7.0161711722612408 7.5467112064361563 12.173257917165754 8.2076498419046384 8.7120100706815702 8.3457148373126966 5.0313290208578119 6.7814630568027496 7.4135656803846359 6.0182348042726543 5.3536302298307401 5.1997242420911789 5.1711527407169324 5.4456884562969199 5.1032488644123077 5.6827842444181353 5.1583021134138107 5.1549477726221067 7.3666658997535706 5.413033574819563 16.698315247893333 5.5433760732412329 5.1166847646236411 5.4696182757616025 15.967810660600685 5.009426936507209 4.999339371919632 9.2542567998170817 4.9920809566974667 8.2403972595930082 9.5802559256553632
leaf_count=28 29 49 33 34 32 20 27 29 23 21 20 20 21 20 22 20 20 29 21 67 22 20 22 63 20 20 37 20 33 38
internal_value=0 -0.00169029 0.00204417 -0.0165973 0.00834765 0.00559322 0.00993773 0.0131601 0.00784359 0.0365124 0.00604208 0.0525478 0.00164655 -0.00204997 0.0337447 -0.00964359 0.0218669 -0.0163523 0.00805815 -0.0260185 -0.0116236 -0.0225422 -0.0052544 -0.0251003 -0.00088987 -0.0260594 -0.0290847 -0.0382389 -0.0270898 -0.0346835
internal_weight=0 215.62 182.869 46.2103 136.659 128.313 114.028 105.82 93.2352 16.5716 10.5534 12.5847 76.6636 71.2179 12.4642 58.7537 10.3132 48.4404 12.7797 37.4983 20.7999 32.751 15.5856 35.6607 10.1127 10.469 14.2856 17.1653 15.2566 25.5481
internal_count=880 851 720 184 536 504 447 414 365 64 41 49 301 280 49 231 40 191 50 150 83 131 62 141 40 42 57 69 61 101
is_linear=0
shrinkage=0.05


Tree=5
num_leaves=31
num_cat=0
split_feature=44 98 36 5 110 71 73 75 31 64 100 103 10 83 52 14 68 4 108 54 11 56 6 19 60 62 36 64 106 83
split_gain=13.4557 12.5789 11.0628 9.13724 8.81008 8.38359 7.12097 6.98293 6.65721 9.79208 6.50564 6.22218 5.3739 4.57444 4.66328 6.15756 6.85581 5.15523 4.39756 3.76904 2.47389 1.68075 6.15244 1.53967 0.795329 0.720076 0.510354 0.503838 0.00044661 0.000210884
threshold=-0.92530499999999993 -1.4438999999999997 -0.044897499999999993 1.8989 -0.81137999999999988 -4.8793499999999996 -4.2983499999999992 1.6028 1.7846500000000003 3.0373000000000006 4.474800000000001 0.86697000000000013 -2.0639999999999996 9.1933500000000006 0.16356500000000004 -0.024601999999999995 0.073492500000000016 -1.9726999999999999 0.56381000000000003 1.0179000000000002 -2.0276499999999995 -0.84031999999999984 -0.33070499999999997 -0.62922499999999981 3.6945000000000006 -0.13907999999999995 -0.96494999999999986 5.8986500000000008 -7.336549999999999 -0.033630499999999994
decision_type=2 2 2 2 2 2 2 2 2 2 2 2 2 2 2 2 2 2 2 2 2 2 2 2 2 2 2 2 2 2
left_child=1 3 5 18 -4 -3 25 20 10 11 13 -10 -11 14 17 16 19 -8 23 -16 -7 22 -19 -1 29 -2 -22 -14 -27 -23
right_child=6 2 4 -5 -6 7 8 -9 9 12 -12 -13 27 -15 15 -17 -18 21 -20 -21 26 24 -24 -25 -26 28 -28 -29 -30 -31
leaf_value=-0.046375397258435785 -0.021995995167471069 0.074219814953005878 0.032345164580825196 0.05542690973043455 0.1142610194841361 0.012540397255687424 0.022533102403130022 0.054093374865161539 0.021132618634916139 0.02692419604471917 0.048423097320440346 0.099479439568989636 -0.046461413030414747 0.02544398737881709 0.02175450636955056 -0.046278910343419327 0.047274121743867137 0.023439793375631908 0.0099901862831708252 -0.038469015966883957 -0.046360485257578354 -0.046413607088963367 -0.0462959748555484 -0.010430482001480487 -0.022397124687015907 -0.045895876952695848 -0.021701390176222426 -0.022057340706325576 -0.046522060421588213 -0.046057264263396319
leaf_weight=10.51224121451378 4.1087921559810665 4.9473447948694256 6.3234292417764664 4.8880895525217047 6.8250780254602414 4.2179513871669796 4.3491159826517096 4.4582015126943579 5.8967293947935122 6.1106351613998404 4.2063570618629447 4.4441067725419998 4.351901710033415 6.2505905628204337 4.3897110670805031 5.9332429319620124 7.9824742525815955 5.0013130307197562 7.9490134418010703 6.3650902807712555 4.3227131366729745 15.697882905602453 8.6040215194225258 4.1573416441679027 4.1500176191329947 8.168912947177887 4.0774495452642414 4.1146677136421204 4.3712203949689838 5.6449311971664526
leaf_count=51 20 23 30 23 32 20 21 21 28 29 20 21 21 30 21 29 38 24 38 31 21 76 42 20 20 41 20 20 21 28
internal_value=0 0.0187655 0.0385739 -0.00656308 0.0748657 0.0169071 -0.00981232 0.000302439 -0.00492995 0.0175889 -0.0120712 0.0548032 -0.00881034 -0.0154929 -0.0192493 -0.00188818 0.0121683 -0.0291074 -0.0199597 -0.013888 -0.0187028 -0.0348517 -0.0206611 -0.0361887 -0.042425 -0.040162 -0.0343909 -0.0346013 -0.0461142 -0.0463194
internal_weight=0 62.6789 35.1722 27.5067 13.1485 22.0237 120.142 17.0763 103.493 24.918 78.5747 10.3408 14.5772 74.3684 68.1178 24.6705 18.7373 43.4473 22.6186 10.7548 12.6181 39.0982 13.6053 14.6696 25.4928 16.6489 8.40016 8.46657 12.5401 21.3428
internal_count=880 299 167 132 62 105 581 82 499 119 380 49 70 360 330 119 90 211 109 52 61 190 66 71 124 82 41 41 62 104
is_linear=0
shrinkage=0.05


Tree=6
num_leaves=31
num_cat=0
split_feature=15 70 55 46 38 20 63 20 28 22 34 78 32 13 7 36 74 29 50 28 104 2 87 24 66 66 10 51 97 97
split_gain=14.981 7.51249 7.9229 7.47792 8.09887 6.87064 6.15302 9.9043 8.7646 6.0867 6.07718 7.75547 5.71766 5.22479 4.552 4.82415 5.72329 8.5858 4.30501 10.2246 4.23442 4.16181 4.15462 3.47522 3.18942 3.03203 2.81701 2.51689 3.66988 2.23643
threshold=4.1151000000000009 2.3037000000000005 1.4198000000000002 1.4021500000000002 -0.98445499999999986 0.15593500000000002 -1.5053999999999996 -0.41373999999999994 -0.59189499999999995 3.1168500000000008 -1.0641499999999997 -0.35477999999999993 -0.092012999999999984 0.87146500000000005 4.121900000000001 -1.0618499999999997 -0.10386999999999998 -0.27373999999999993 -1.1971499999999999 0.44234500000000004 0.50297000000000014 -0.7726249999999999 -0.45963499999999996 -0.48652499999999993 -0.5296249999999999 -2.3433999999999995 -0.021969499999999999 -0.53560999999999992 -1.0876499999999998 -0.12904999999999997
decision_type=2 2 2 2 2 2 2 2 2 2 2 2 2 2 2 2 2 2 2 2 2 2 2 2 2 2 2 2 2 2
left_child=1 2 6 4 -2 10 7 22 -9 -5 -4 -12 -7 -6 15 16 17 -8 19 25 27 -22 -1 -18 -23 -17 -3 -20 -29 -30
right_child=3 26 5 9 13 12 14 8 -10 -11 11 -13 -14 -15 -16 18 23 -19 20 -21 21 24 -24 -25 -26 -27 -28 28 29 -31
leaf_value=0.074404050806152325 0.053702787734413837 -0.048844620141980447 0.0008556101892496648 0.018904116879184554 -0.03028267150368032 -0.036054378367102492 -0.0070715730758492586 -0.0364703531320563 0.035989383978194615 0.074321077051953829 0.07921808943334574 0.014470618457437814 0.022486901510296965 0.0238993020531265 0.028073503993485734 -0.007316475827200488 0.0023179030101325433 0.067208567617571921 -0.048171084798974917 0.036068136742093186 0.025519294083949179 -0.049392915575820082 0.016653499563496179 -0.044039966646641095 -0.0012371175642167643 -0.056960872432233661 -0.0073730038030724171 0.0085133462578550877 -0.056658229151717525 -0.015680107983375755
leaf_weight=6.4105972349643707 7.099799036979678 12.819667696952822 11.161583960056307 9.1196660697460192 11.34777879714966 9.3568488657474536 9.944876581430437 12.04044368863106 6.3870995640754691 10.849939346313475 9.4612332284450549 9.047606408596037 7.5255445241928092 7.3191663324832907 6.3907012045383444 6.0157503187656403 8.4124509096145648 6.389787644147872 23.298520237207413 9.6383158266544324 6.0318022370338467 6.5935415029525766 6.0566119551658648 7.7829571962356559 7.185408711433408 6.2929767370224017 6.0164594650268546 6.0511367917060879 7.4568251371383676 6.0157189965248081
leaf_count=21 23 43 37 30 38 31 33 40 21 35 31 30 25 24 21 20 28 21 78 32 20 22 20 26 24 21 20 20 25 20
internal_value=0 -0.0054049 -0.0025747 0.026048 0.00824943 0.015506 -0.00802632 0.0119304 -0.0113554 0.0490134 0.0299954 0.0475678 -0.00995885 -0.00903833 -0.0130187 -0.0152611 0.00110238 0.0219853 -0.0215546 -0.00249835 -0.028232 -0.00911808 0.0463486 -0.0199601 -0.0242808 -0.0326977 -0.0355981 -0.0370746 -0.0238327 -0.0383608
internal_weight=0 219.784 200.948 45.7363 25.7667 46.5528 154.396 30.8948 18.4275 19.9696 29.6704 18.5088 16.8824 18.6669 123.501 117.11 32.5301 16.3347 84.58 21.947 62.633 19.8108 12.4672 16.1954 13.779 12.3087 18.8361 42.8222 19.5237 13.4725
internal_count=880 730 667 150 85 154 513 102 61 65 98 61 56 62 411 390 108 54 282 73 209 66 41 54 46 41 63 143 65 45
is_linear=0
shrinkage=0.05


Tree=7
num_leaves=31
num_cat=0
split_feature=27 52 32 54 35 88 13 71 100 6 108 109 62 48 93 10 106 103 85 49 78 46 5 35 50 2 7 28 71 92
split_gain=5.88587 8.05505 11.8714 10.1631 8.12195 8.07683 7.26303 5.20595 6.41559 5.51459 6.06389 9.58285 7.9071 8.71259 7.55658 5.38384 7.80954 14.9859 7.42767 4.0749 3.60492 5.63014 3.43443 2.8389 2.15983 1.49007 1.35052 1.30063 0.156973 0.000173168
threshold=-5.4792999999999994 -1.2817499999999997 2.5881500000000006 -1.1815499999999999 -1.2454999999999998 -1.4701499999999998 0.63456000000000012 -2.1142999999999996 4.474800000000001 1.7816000000000003 2.3799000000000006 -1.3587499999999999 -1.8930499999999999 -0.88202499999999995 0.87647000000000019 2.0444500000000008 0.82613000000000014 0.70076000000000016 5.5057500000000008 -0.5184249999999998 1.5642000000000003 -0.80283499999999985 -1.1449499999999999 -0.19148499999999996 -1.2553999999999998 1.9092500000000003 -0.12393999999999998 -0.75113999999999981 1.5361500000000003 -0.55271499999999996
decision_type=2 2 2 2 2 2 2 2 2 2 2 2 2 2 2 2 2 2 2 2 2 2 2 2 2 2 2 2 2 2
left_child=-1 2 3 5 -5 -2 -6 20 9 10 12 -12 27 14 -14 16 18 -18 23 29 25 -22 -7 24 -15 -3 -10 -9 -26 -11
right_child=1 7 -4 4 6 22 -8 8 26 19 11 -13 13 15 -16 -17 17 -19 -20 -21 21 -23 -24 -25 28 -27 -28 -29 -30 -31
leaf_value=0.044845819079089862 0.047373986093069254 -0.047010721693769117 -0.040205197556935975 0.11012437285272253 0.0022108264421319261 0.010655303912463526 0.080509225324777806 -0.04699570675836065 -0.012821590984132963 -0.047218977846283164 -0.011726417612821928 0.073698408984695415 0.086560442646167954 -0.0019378262064844187 0.009949927095548608 -0.047131487385778 0.11240688907122187 -0.011140796137442066 0.043278351760079325 0.0017330640569828805 -0.03238089854876449 0.038990563415506801 -0.046962800448868414 0.010436411082982763 -0.047100320147721642 -0.014189829609602656 -0.046993061830705368 -0.013056224609995998 -0.035165768832488918 -0.046780265850004735
leaf_weight=7.0451927185058585 6.337256371974946 14.39287175238133 7.3201075792312613 5.0764792561531094 7.105133503675459 4.3268900364637375 5.0789211541414261 7.9475432485342026 4.3588549047708502 4.3480414152145386 5.6410368233919144 7.8536044061183912 5.9672299921512515 4.398570209741588 6.9882689863443375 5.6297879666090003 4.3822215944528562 5.5794233977794647 5.5110540241003028 8.1942076534032804 6.8577117025852203 4.6279135644435865 6.4291499257087708 5.207346916198758 7.7809749096631986 4.5518223196268073 8.5888236016035062 4.377710595726958 4.2656283378601074 4.6599912643432635
leaf_count=32 29 67 34 23 33 20 23 37 20 20 26 36 27 20 32 26 20 26 25 38 32 21 30 24 36 21 40 20 20 22
internal_value=0 -0.00172324 0.0176067 0.0299252 0.0569885 0.00259719 0.0348495 -0.00739174 -0.00239633 0.00194343 0.00737129 0.0379891 0.00129837 0.00931588 0.0452363 -0.00156862 0.00534068 0.043209 -0.0085467 -0.0237821 -0.0257251 -0.00362313 -0.0237845 -0.0217373 -0.0319251 -0.0391249 -0.0354892 -0.034941 -0.0428744 -0.046992
internal_weight=0 183.785 41.6739 34.3538 17.2605 17.0933 12.1841 142.111 111.68 98.7326 81.5304 13.4946 68.0358 55.7105 12.9555 42.755 37.1252 9.96164 27.1636 17.2022 30.4303 11.4856 10.756 21.6525 16.4452 18.9447 12.9477 12.3253 12.0466 9.00803
internal_count=880 848 192 158 79 79 56 656 515 455 375 62 313 256 59 197 171 46 125 80 141 53 50 100 76 88 60 57 56 42
is_linear=0
shrinkage=0.05


Tree=8
num_leaves=31
num_cat=0
split_feature=61 3 100 43 78 105 12 36 69 36 45 20 41 28 10 104 31 49 1 51 76 62 42 29 45 17 97 76 44 77
split_gain=6.61506 6.19468 7.92185 6.58916 5.72029 7.19231 5.55075 7.984 5.97977 9.34809 5.67826 5.3622 6.75049 5.21368 4.02037 7.67349 5.38703 6.43174 4.70939 3.67905 5.07471 3.53054 3.52028 4.77146 3.427 3.55898 2.42101 2.19943 1.86959 1.79692
threshold=2.0764500000000008 3.1152500000000001 -1.1956999999999998 1.3107500000000003 3.9233500000000006 1.6423500000000002 -8.0125499999999992 3.7833500000000004 0.93831500000000012 -0.95751499999999989 0.30402000000000007 2.8024500000000008 -4.4077499999999992 -1.0000000180025095e-35 1.47645 -1.0141499999999997 0.40757000000000004 -0.89129999999999987 -0.26442499999999997 -0.22417499999999999 1.8892000000000002 -0.33362999999999993 0.41942500000000005 -0.21685499999999996 1.2204500000000003 -0.67311999999999983 -0.23477999999999996 -0.24052499999999996 -1.0370999999999999 0.58217000000000019
decision_type=2 2 2 2 2 2 2 2 2 2 2 2 2 2 2 2 2 2 2 2 2 2 2 2 2 2 2 2 2 2
left_child=1 2 3 19 5 6 -4 8 11 -10 -11 12 -8 -9 16 -16 22 -18 -19 20 29 -17 23 28 25 -3 -7 -27 -14 -1
right_child=-2 24 4 -5 -6 26 7 13 9 10 -12 -13 14 -15 15 21 17 18 -20 -21 -22 -23 -24 -25 -26 27 -28 -29 -30 -31
leaf_value=-0.0085485811144452792 0.045506965802372963 0.01633947824401211 -0.030653610751333271 0.022773485209032426 0.047557304947561205 -0.00065337661968839977 0.050731364254481826 0.022404623563788566 0.082692627807500294 -0.031118390405101559 0.042112414103799574 0.041492212516754792 -0.010552856828057669 0.086870372536868523 0.064284807981013811 0.019012323495860732 0.045988009199143989 0.013677812442429488 -0.050971404097577638 -0.043148478482548144 0.029098362004149687 -0.040205352241298703 -0.049981423191758467 0.017133842761286478 -0.049188504693708564 -0.0019048669926888758 -0.043910749902976387 -0.039689048462478629 -0.050394775756166833 -0.043110596300312776
leaf_weight=7.2374670654535311 7.7109108269214621 7.5180437713861492 8.0200838595628721 8.8128991127014142 8.5470322668552381 5.0392312407493582 5.4110596477985302 7.4966499805450439 6.2791522145271328 5.2660152167081815 5.3226301074028015 7.5487818568944922 5.0343230962753207 5.3923473358154279 5.1972113251686087 5.0460438132286063 6.7057382911443737 6.1851437687873849 5.1728440374135944 16.249639585614204 5.63867463171482 5.0218970179557791 10.957243263721464 7.3802234232425894 8.4463162273168546 6.23576292395592 9.0319758355617505 10.073187872767447 7.0930278450250626 7.8286251723766327
leaf_count=29 29 30 33 34 32 20 21 29 23 21 20 29 20 20 20 20 26 24 20 67 22 20 44 29 35 25 37 41 28 32
internal_value=0 -0.00162645 0.00193696 -0.0160756 0.00794785 0.00531536 0.00945999 0.0124805 0.00740116 0.0343565 0.00569279 0.0014773 -0.00288748 0.049375 -0.0074355 0.0149446 -0.0144754 0.00715886 -0.0157658 -0.0253404 -0.0113641 -0.0105255 -0.0273031 -0.0145649 -0.0218228 -0.0121221 -0.0284193 -0.0252422 -0.0338555 -0.0265077
internal_weight=0 215.189 182.916 45.7673 137.149 128.602 114.53 106.51 93.6213 16.8678 10.5886 76.7535 69.2048 12.889 63.7937 15.2652 48.5285 18.0637 11.358 36.9544 20.7048 10.0679 30.4648 19.5076 32.2733 23.827 14.0712 16.309 12.1274 15.0661
internal_count=880 851 720 184 536 504 447 414 365 64 41 301 272 49 251 60 191 70 44 150 83 40 121 77 131 96 57 66 48 61
is_linear=0
shrinkage=0.05


Tree=9
num_leaves=31
num_cat=0
split_feature=44 103 42 52 102 40 11 0 85 21 40 29 74 23 61 50 35 61 29 84 39 3 103 103 16 43 70 101 52 10
split_gain=12.0455 10.1297 7.0256 6.75544 7.85845 6.41264 6.727 6.40291 5.9177 6.46578 7.2304 5.76784 5.51248 8.07982 6.9053 9.09214 5.42777 5.31949 5.13167 4.21877 3.98427 3.64586 3.07619 5.75012 1.39754 1.00645 2.40567 0.693936 0.54134 0.000514051
threshold=-0.92530499999999993 -3.2713499999999995 -5.9981999999999989 -0.14297999999999997 2.4273000000000002 1.8517000000000003 -1.0831499999999998 -2.0360499999999995 -0.031368999999999994 -1.6831499999999997 -1.8866999999999998 1.9426000000000003 0.53890000000000005 0.68247500000000005 1.0000000180025095e-35 -0.44171999999999995 -1.0268499999999998 -1.3615999999999997 -1.9262499999999998 -0.78206999999999993 1.7409500000000002 -0.31017499999999992 1.5565500000000003 2.3194500000000002 -1.0141749999999998 0.89353500000000008 -0.51978499999999983 -1.0498499999999997 -1.0815999999999997 -3.68885
decision_type=2 2 2 2 2 2 2 2 2 2 2 2 2 2 2 2 2 2 2 2 2 2 2 2 2 2 2 2 2 2
left_child=1 16 29 7 12 8 -7 -4 9 -3 -11 18 14 21 15 -5 -1 -12 -9 -19 24 -14 25 -24 -10 -20 -27 -16 -25 -2
right_child=2 5 3 4 -6 6 -8 11 20 10 17 -13 13 -15 27 -17 -18 19 22 -21 -22 -23 23 28 -26 26 -28 -29 -30 -31
leaf_value=0.10073086813068535 -0.045365602222727827 -0.035891886852985389 0.035010978898909514 -0.034269967740275527 0.05440014121471879 0.083861595475831455 -0.00033119630691255371 0.020653289078622791 -0.011365248877626032 0.080797242743047462 0.044617034538613654 0.033533839161465559 -0.036697056761358558 0.063226776167070287 -0.021702287461140061 0.069780080939858394 0.024008513362341572 -0.0466462545870725 -0.046097139272162357 0.0220762087931103 0.015096281848720673 0.023209247907448168 0.0371629301864011 -0.046339488678648288 -0.046234686788914597 0.0028651342715071536 -0.046005633495970255 -0.046384340864585261 -0.021087711402987382 -0.046050111138227948
leaf_weight=5.0596653521060944 7.8287241458892822 4.7425835728645316 5.5012243986129752 4.1206727921962738 7.8937954604625693 5.3252526521682739 4.2788698077201825 5.2050170004367819 4.2310109734535226 5.0647488385438946 7.0878639072179821 4.3686568886041632 5.1510033607482919 6.8097320795059195 4.0727907270193091 4.2804737389087695 4.2345676869153959 4.6132487505674389 21.793187007308006 4.3286335617303804 5.6625739634037009 5.0100557804107675 4.1750224679708472 4.5131386518478385 8.956230521202091 4.0721690803766251 6.5984457433223707 9.4673362076282483 4.0065582990646353 4.2218797504901868
leaf_count=23 41 23 26 20 37 24 20 25 20 23 33 21 25 32 20 20 20 22 108 20 27 24 20 22 44 20 33 46 20 21
internal_value=0 0.017542 -0.00941102 -0.00533621 0.0089131 0.00928481 0.0463517 -0.016409 0.00131839 0.0168597 0.0287196 -0.0215773 -0.000314508 0.0210839 -0.0168654 0.0187446 0.0657752 0.0122652 -0.0263578 -0.0133787 -0.0199838 -0.0071594 -0.0317763 -0.0109077 -0.0350471 -0.0399368 -0.0273553 -0.0389601 -0.0344643 -0.0456054
internal_weight=0 63.5852 119.09 107.039 46.8059 54.291 9.60412 60.2334 44.6869 25.8371 21.0945 54.7322 38.9121 16.9708 21.9413 8.40115 9.29423 16.0297 50.3635 8.94188 18.8498 10.1611 45.1585 12.6947 13.1872 32.4638 10.6706 13.5401 8.5197 12.0506
internal_count=880 299 581 519 224 256 44 295 212 121 98 269 187 81 106 40 43 75 248 42 91 49 223 62 64 161 53 66 42 62
is_linear=0
shrinkage=0.05


Tree=10
num_leaves=31
num_cat=0
split_feature=15 72 46 38 2 36 48 28 44 26 58 54 54 13 11 86 24 85 13 39 7 78 63 11 18 85 2 56 28 72
split_gain=13.5098 7.04478 6.67016 7.18299 6.59637 7.81581 6.32937 5.89365 9.04785 7.80601 7.35795 5.96665 9.09483 5.7358 6.70842 5.62906 5.228 5.24217 4.84017 3.79689 3.51687 4.25025 4.7787 4.47938 6.53718 4.41423 3.47508 2.49656 2.13811 1.35182
threshold=4.1151000000000009 -1.7663999999999997 1.4021500000000002 -0.98445499999999986 4.828450000000001 -1.8724999999999998 4.120750000000001 -0.59189499999999995 0.61917500000000014 0.95612000000000008 1.1762000000000004 -0.27054499999999998 1.0893000000000004 1.8667000000000002 0.018291500000000006 -0.74519999999999997 0.45632500000000004 0.21594000000000002 0.87146500000000005 -1.3824999999999996 1.0573500000000002 1.4417500000000001 -0.26936999999999994 -0.31647999999999993 -1.7341499999999999 0.31767000000000006 -0.67844999999999989 -1.2627999999999997 0.70669500000000007 0.86245000000000016
decision_type=2 2 2 2 2 2 2 2 2 2 2 2 2 2 2 2 2 2 2 2 2 2 2 2 2 2 2 2 2 2
left_child=1 16 3 -2 5 -3 -4 9 11 19 -11 15 -13 14 -10 -9 20 -18 -5 -7 21 22 -1 24 -23 -24 -26 -21 -22 -15
right_child=2 4 6 18 -6 7 -8 8 13 10 -12 12 -14 29 -16 -17 17 -19 -20 27 28 23 25 -25 26 -27 -28 -29 -30 -31
leaf_value=0.036154991814615942 0.050064071423298918 0.053768090144421882 0.074351163420914898 -0.02935286287357608 0.041504910562081082 -0.0030800677272275218 0.018463888046283804 0.017189977585766927 -0.023603013800515025 0.052386114779958519 -0.023726910731538719 -0.024121668596018254 0.051183278068046428 -0.022962914238860169 0.03503172266060528 0.077172745112128752 -0.012081040754782127 0.044898905824120747 0.022808461126374927 -0.013314246109716113 -0.056009841120165819 0.025813406157311848 -0.047398523288842496 -0.051811832496348277 -0.050890950706368544 0.010561554990748149 -0.0035500196091241103 -0.048476528730691026 -0.01995305028335349 -0.056306003245523088
leaf_weight=6.9362242519855526 7.2298446595668819 6.1898880004882804 10.022181510925295 11.217357695102693 9.9117186665534955 10.184072405099867 10.244707524776457 7.9419424831867218 10.474732339382177 6.7508168220520002 5.9950225949287415 10.728039354085928 6.402230739593505 5.948454409837721 9.1298972368240339 7.7068560719489998 11.102539241313936 6.3424101173877707 7.3689613044261923 6.8773071765899649 10.313167452812197 7.222751945257186 5.8807588219642621 11.516868680715559 9.4542562067508715 7.4423101246356964 6.5704061686992672 18.979395240545276 6.8371954858303061 6.2167633771896362
leaf_count=23 23 20 32 38 32 34 33 26 35 22 20 36 21 20 30 25 37 21 24 23 35 24 20 39 32 25 22 64 23 21
internal_value=0 -0.00515272 0.0246313 0.00777686 0.00230827 -0.000942134 0.0461007 -0.00393017 0.00598238 -0.0170453 0.0165863 0.0244116 0.00402264 -0.0130323 0.00370325 0.0467308 -0.0159287 0.00863499 -0.00867234 -0.0289391 -0.0218659 -0.0157039 0.0024997 -0.0263123 -0.0136797 -0.0150218 -0.0314803 -0.0391241 -0.0416354 -0.0400022
internal_weight=0 219.056 46.0831 25.8162 129.437 119.525 20.2669 113.336 64.5489 48.7866 12.7458 32.7791 17.1303 31.7698 19.6046 15.6488 89.6189 17.4449 18.5863 36.0408 72.1739 55.0236 20.2593 34.7643 23.2474 13.3231 16.0247 25.8567 17.1504 12.1652
internal_count=880 730 150 85 429 397 65 377 214 163 42 108 57 106 65 51 301 58 62 121 243 185 68 117 78 45 54 87 58 41
is_linear=0
shrinkage=0.05


Tree=11
num_leaves=31
num_cat=0
split_feature=59 67 44 46 6 105 28 51 63 52 63 82 54 108 25 26 18 47 1 112 90 13 7 99 46 29 35 34 70 19
split_gain=5.56777 7.77641 6.27435 9.09123 6.98615 8.80947 8.15567 8.25624 7.84118 6.16572 7.7821 8.92821 8.16206 9.45951 12.1904 6.04377 5.99775 5.6537 5.08049 3.64594 4.57964 6.42149 5.90665 5.4738 3.40192 4.30853 2.22684 1.85932 1.43882 1.24686
threshold=-0.10087349999999999 -0.87745999999999991 -1.3255499999999998 -2.0654999999999997 0.40718500000000007 1.2347500000000002 -0.5014249999999999 -0.96736499999999992 3.7401500000000003 -0.73057499999999986 1.1576000000000002 -1.7040999999999997 -1.1815499999999999 -0.88622499999999993 0.29765500000000006 -0.083412499999999987 -1.1292499999999996 -0.85419499999999993 4.0661500000000013 -0.53211999999999993 1.1623000000000003 -0.011032599999999998 0.37393000000000004 -0.51742999999999995 -0.88974999999999993 -5.9218999999999991 -2.1734499999999994 -1.7802999999999998 2.0952000000000006 -0.6232899999999999
decision_type=2 2 2 2 2 2 2 2 2 2 2 2 2 2 2 2 2 2 2 2 2 2 2 2 2 2 2 2 2 2
left_child=1 2 3 16 5 6 17 8 -8 10 11 -2 29 -14 -15 -3 -1 -4 19 20 21 -11 -23 -24 -6 -26 -27 -19 -22 -13
right_child=9 15 4 -5 24 -7 7 -9 -10 18 -12 12 13 14 -16 -17 -18 27 -20 -21 28 22 23 -25 25 26 -28 -29 -30 -31
leaf_value=0.10081210020437839 0.0709406353211358 0.0134713544124868 0.043161348441845125 -0.014628904449982123 -0.046584800531024803 -0.039443241253585781 0.12372306599708514 -0.0042326346507239624 0.033235922765405317 0.054238586900632713 -0.035575509013276448 -0.046738193264021309 -0.036458244758015991 0.10183970728192247 0.0067628143529637492 0.093282690513378397 0.020785745576632222 -0.046831730315932657 0.024482992959038941 -0.041276640181798087 -0.046802389648548638 -0.04126769864604847 0.05592050352445016 -0.023659333950756464 0.028461938495157581 -0.0031597757487659452 -0.046478169127177962 -0.0020134760332847158 -0.012060319524236212 -0.010797845251012385
leaf_weight=5.0072834044694892 6.3118088394403449 4.9056498408317566 4.4114188402891115 6.1916167438030234 9.3965754508972186 6.7806591838598242 4.6470826864242536 4.6253741383552578 4.9382786452770233 4.4206841588020316 8.7666126340627653 5.6980455368757248 4.7318622767925289 5.6720895320177105 8.3117742985486966 4.5927466601133329 4.397560626268386 4.8827110975980705 6.2802149355411521 18.188447043299675 9.7453784346580488 9.0857362002134376 4.3587855100631714 4.2851984947919828 5.2723900675773647 5.6666122972965267 6.2268541455268815 4.3989565521478724 4.2928933799266806 4.1860280781984311
leaf_count=21 28 22 20 29 45 32 20 21 22 20 41 27 22 25 38 20 20 23 29 86 46 43 20 20 24 26 30 20 20 20
internal_value=0 0.00938215 0.00410656 0.0324192 -0.00310322 0.0116747 0.0240964 0.0506309 0.077105 -0.00778244 0.00654125 0.0171171 0.00523861 0.0246498 0.0453276 0.0520624 0.063393 -0.00344117 -0.0180967 -0.0230143 -0.0138357 0.000324363 -0.0131185 0.0164693 -0.0223998 -0.00916095 -0.0258392 -0.0255906 -0.0361783 -0.031517
internal_weight=0 86.3418 76.8434 15.5965 61.2469 34.6845 27.9038 14.2107 9.58536 104.336 43.6782 34.9116 28.5998 18.7157 13.9839 9.4984 9.40484 13.6931 60.6573 54.3771 36.1887 22.1504 17.7297 8.64398 26.5624 17.1659 11.8935 9.28167 14.0383 9.88407
internal_count=880 395 353 70 283 158 126 63 42 485 201 160 132 85 63 42 41 63 284 255 169 103 83 40 125 80 56 43 66 47
is_linear=0
shrinkage=0.05


Tree=12
num_leaves=31
num_cat=0
split_feature=15 66 15 12 101 96 81 43 6 60 1 1 75 41 92 28 70 78 37 84 12 39 57 59 3 38 63 34 107 94
split_gain=6.34417 8.49445 8.19998 8.39078 9.66654 8.06943 7.89893 7.28733 6.48606 6.30678 6.2262 6.96672 6.24259 6.34171 5.75031 5.45116 5.40201 7.42233 5.28774 5.00206 6.04923 4.91667 7.14121 5.53243 3.28351 3.20564 2.50561 1.77333 1.6092 1.0544
threshold=-0.39641499999999996 5.7123500000000016 4.0280500000000012 0.031771500000000008 -1.1838 -0.30155999999999994 -0.53508999999999995 -0.50805499999999992 1.3115500000000002 -0.93552999999999986 1.7755000000000003 1.3057500000000004 1.9808000000000001 1.2131500000000002 -0.60507499999999992 -0.59934999999999994 0.20575000000000002 0.04234050000000001 0.16369000000000003 1.2141500000000003 1.4352500000000001 -1.3643499999999997 0.029570500000000003 -0.33110999999999996 -1.2850999999999997 -1.2223999999999997 -1.4353999999999998 0.11708000000000002 -1.5594999999999997 0.17757500000000004
decision_type=2 2 2 2 2 2 2 2 2 2 2 2 2 2 2 2 2 2 2 2 2 2 2 2 2 2 2 2 2 2
left_child=1 10 3 4 -2 9 14 15 25 -5 11 12 13 19 -6 -8 24 -18 -10 20 21 -1 23 28 -11 -4 -12 -26 -23 -27
right_child=2 -3 8 5 6 -7 7 -9 18 16 26 -13 -14 -15 -16 -17 17 -19 -20 -21 -22 22 -24 -25 27 29 -28 -29 -30 -31
leaf_value=-0.049693007145320427 -0.021229115856017208 0.0524378303706503 0.0073381984818176385 0.051869818325903441 0.038493195343496683 -0.049698535731919076 0.038680065294317195 0.062731387927208448 -0.022059035665560646 0.014141845285477071 -0.01188416619171262 0.047949325757698585 0.031350911429987437 -0.046239229822030277 0.10770302735381439 -0.024719175280672301 -0.021357707743231563 0.057155994035382601 0.04185238929888524 0.030533112939105014 0.036408659659872791 0.01002944826255414 -0.04422056162186639 0.05338223625899137 -0.049511538079918559 -0.049654912601918982 -0.049554094066884914 -0.010344125517520317 -0.030110264442972448 -0.026035545602414487
leaf_weight=10.816414922475806 6.9503343254327765 5.271525725722312 5.3000204712152508 7.2719767093658438 5.5462578535079956 6.6479586511850348 6.0796825736761066 8.2669100463390368 5.4117363244295111 5.3868747502565411 6.5174573957920101 5.5202730596065512 7.9161555469036093 13.39375728368759 6.5403096973896009 7.6650904268026361 5.0972436368465406 7.3516577780246735 8.0509833395481092 7.3835790008306494 5.1438399106264105 4.9887730032205493 9.0988811403512937 5.2386829406023194 6.8321964293718356 8.5555241703987139 13.67966543138027 5.0082851946353912 4.9988556951284409 10.553805723786352
leaf_count=44 28 20 22 28 21 27 23 31 22 21 26 21 31 54 24 30 20 28 31 29 20 20 37 20 28 35 56 20 20 43
internal_value=0 -0.00933619 0.00763762 0.01629 0.0325136 0.00101453 0.0434681 0.0256356 -0.0117007 0.0101391 -0.012775 -0.00609951 -0.0104249 -0.0158408 0.0759442 0.00332401 -8.66911e-05 0.0250083 0.0161613 -0.00729957 -0.0142336 -0.0216463 -0.00917515 0.0117672 -0.0182209 -0.0270677 -0.0373983 -0.0329445 -0.0100607 -0.0366103
internal_weight=0 99.9679 122.517 84.6448 41.0486 43.5962 34.0983 22.0117 37.8721 36.9482 94.6963 74.4992 68.9789 61.0628 12.0866 13.7448 29.6763 12.4489 13.4627 47.669 40.2854 35.1416 24.3252 15.2263 17.2274 24.4094 20.1971 11.8405 9.98763 19.1093
internal_count=880 398 482 329 157 172 129 84 153 145 378 296 275 244 45 53 117 48 53 190 161 141 97 60 69 100 82 48 40 78
is_linear=0
shrinkage=0.05


Tree=13
num_leaves=31
num_cat=0
split_feature=9 44 55 30 82 36 92 39 65 31 64 46 54 10 52 103 14 72 0 61 47 29 99 76 92 85 30 39 44 93
split_gain=11.1009 10.4663 8.62947 6.90311 8.03693 9.45694 8.26026 6.46463 6.10542 5.98014 7.09577 5.96766 5.81151 4.85792 4.66064 7.66303 5.73604 8.35017 5.59029 3.56329 2.8646 2.20688 2.15437 2.73565 0.532337 0.228503 0.195639 0.139588 0.000904377 0.000519875
threshold=-5.567099999999999 -0.92530499999999993 -3.6215999999999995 -0.22056999999999996 -2.4359999999999995 -0.044897499999999993 -1.2324999999999997 -1.5909499999999996 -0.28187999999999996 1.7846500000000003 3.0373000000000006 -1.1234499999999998 -0.49079999999999996 -2.0639999999999996 0.071523000000000017 -1.8545499999999999 -0.102225 -1.3245999999999998 -2.0360499999999995 1.6410500000000001 -0.77118999999999993 -1.2906999999999997 1.0491500000000002 -1.0000000180025095e-35 -1.0000000180025095e-35 -1.2727999999999999 -1.7665499999999998 0.68672500000000014 0.23433000000000001 0.49489000000000005
decision_type=2 2 2 2 2 2 2 2 2 2 2 2 2 2 2 2 2 2 2 2 2 2 2 2 2 2 2 2 2 2
left_child=26 2 -2 4 8 6 -6 -7 -4 14 12 27 -11 -12 18 -16 17 -17 -3 21 -19 -20 25 -24 -15 -23 -1 -5 -28 -18
right_child=1 9 3 11 5 7 -8 -9 -10 10 13 -13 -14 24 15 16 29 20 19 -21 -22 22 23 -25 -26 -27 28 -29 -30 -31
leaf_value=-0.03210300716443712 0.0746429329388308 0.031398779567371221 -0.039583995164048841 -0.046733277705386586 0.048771931403500522 0.0312602962157544 -0.030032937922918425 0.10586256906784092 0.030228074173070513 0.0022161015396571148 0.024364494001172132 0.022021751567531566 0.072249867820524463 -0.020830686421635075 0.044172147834895502 0.062879112927923489 -0.045508980635326664 -0.046238291844422713 0.0026464421632580496 0.012060523517003797 0.0059564365450680209 -0.03259889387919495 0.015087247659495113 -0.037617756916281921 -0.046243668149647754 -0.045783572342514928 -0.045881985734681628 -0.034193307103162332 -0.044949483686719111 -0.046308809639161203
leaf_weight=3.7749717831611624 6.5246596485376349 4.4709272384643546 6.7940614074468613 4.8322475105524045 7.2618706226348833 5.0707353055477142 6.134159833192828 6.7955016642808967 5.8099908381700462 5.0892042815685272 6.2834291607141486 6.4894723743200293 7.0875211507082003 3.9817977845668784 8.2051355987787264 4.5421875715255764 4.0517829507589322 4.8893912732601175 4.0841000229120246 5.1271866858005515 5.6855968087911579 3.862037286162372 4.0715308636426926 6.2282736748456937 4.2711680382490149 22.039429664611824 4.3603219389915449 4.1038844585418701 6.4408244490623474 4.07480688393116
leaf_count=20 29 21 32 23 33 23 30 29 27 24 29 30 32 20 38 21 21 24 20 25 27 20 20 32 21 112 22 20 35 20
internal_value=0 0.00358785 0.0203675 0.0137225 0.0252081 0.0414789 0.0126865 0.0739832 -0.00740327 -0.00570178 0.0148236 -0.0144722 0.0429796 -0.00876183 -0.0124432 0.00263106 -0.0120331 0.00617824 -0.0219468 -0.0271987 -0.018176 -0.0321953 -0.036126 -0.0167834 -0.0339827 -0.0438177 -0.0419014 -0.0409743 -0.0453259 -0.04591
internal_weight=0 167.862 59.8166 53.2919 37.8663 25.2623 13.396 11.8662 12.6041 108.046 26.7131 15.4256 12.1767 14.5364 81.3324 31.4489 23.2438 15.1172 49.8835 45.4126 10.575 40.2854 36.2013 10.2998 8.25297 25.9015 14.5761 8.93613 10.8011 8.12659
internal_count=880 803 276 247 174 115 63 52 59 527 126 73 56 70 401 151 113 72 250 229 51 204 184 52 41 132 77 43 57 41
is_linear=0
shrinkage=0.05


Tree=14
num_leaves=31
num_cat=0
split_feature=15 70 55 40 16 32 20 6 46 3 20 48 71 20 86 108 54 88 82 80 87 33 8 76 71 82 86 88 73 87
split_gain=12.2014 6.572 6.98204 8.01479 7.01992 7.73867 8.78629 6.03997 5.95179 5.8601 5.75907 5.66173 5.53999 5.51483 5.31597 6.40548 5.30094 8.54108 6.36491 5.09884 4.7021 4.58801 5.06593 7.37795 8.51281 4.50343 4.4557 3.33567 3.65071 2.72291
threshold=4.1151000000000009 2.3037000000000005 1.4198000000000002 6.6048000000000009 2.0278000000000005 -1.1448499999999997 0.16836500000000001 1.3995000000000002 1.4021500000000002 -0.89235999999999993 0.15593500000000002 4.120750000000001 -0.54247999999999996 1.4822000000000002 -0.2741599999999999 -0.40607499999999991 -1.1815499999999999 0.51365500000000008 -1.5357499999999997 1.0000000180025095e-35 0.36831000000000008 -0.3102899999999999 1.1430000000000002 -2.2464 0.74048000000000014 -0.61910499999999991 -1.7027499999999998 -1.1645999999999999 -0.87846499999999994 -0.18628999999999998
decision_type=2 2 2 2 2 2 2 2 2 2 2 2 2 2 2 2 2 2 2 2 2 2 2 2 2 2 2 2 2 2
left_child=1 2 3 4 16 6 -6 26 9 -2 14 -10 -11 -12 15 -4 17 18 19 -1 -16 22 23 -18 25 -25 -7 28 -23 -3
right_child=8 29 10 -5 5 7 -8 -9 11 12 13 -13 -14 -15 20 -17 21 -19 -20 -21 -22 27 -24 24 -26 -27 -28 -29 -30 -31
leaf_value=-0.018815750916265722 0.043809692983719235 -0.011442794860823308 -0.028139408093017449 -0.050796114990652785 0.085495477644627352 0.014661573161221304 0.0081657591493833094 0.038610851073770963 0.069825932041948008 0.023092471332144128 -0.047745572596610261 0.017299852160353214 -0.03264625583240937 0.012363197253721273 0.021430099534513698 0.035136613659792204 -0.046785108595919174 0.040766149852463331 -0.039468462699754327 0.037925412567099845 0.080233013951277965 0.013398368604990416 -0.048067130506828475 0.019081308906413824 0.058852894977802397 -0.039747583476276799 -0.038012859008794114 -0.047621119253766525 -0.035397687941160501 -0.050377089719583171
leaf_weight=7.9944720566272718 7.7292165458202389 7.8957306146621731 6.8925246894359633 9.9693461060523969 6.5303671956062308 6.2739648222923305 8.3958466947078687 6.1443500816822043 10.210126280784609 7.9414445459842726 5.9067943692207363 10.311418533325194 10.162909537553784 10.779940426349638 6.7958849072456342 9.5290443897247314 5.8146049380302456 11.036197900772093 11.595555841922762 7.844024658203125 6.8027171790599823 6.334026753902438 5.9404117166995993 7.2018242180347469 7.6514564752578726 5.9332338869571677 11.149050682783129 17.675334334373474 9.7078594565391523 10.412963211536406
leaf_count=27 25 27 23 34 21 21 28 20 32 26 20 33 34 36 22 31 20 36 39 26 22 21 20 24 25 20 38 60 33 36
internal_value=0 -0.00491428 -0.00228821 -0.00744796 -0.00443061 0.0138281 0.0419983 -0.00401328 0.0233316 0.00736334 0.014635 0.0434333 -0.00819656 -0.00891419 0.0277249 0.00857816 -0.0111417 0.00362125 -0.0113214 0.00928534 0.0508463 -0.0197131 -0.00632043 0.0030022 0.0169292 -0.00749228 -0.019045 -0.0326388 -0.0161309 -0.0335864
internal_weight=0 218.208 199.899 153.192 143.223 38.4936 14.9262 23.5674 46.3551 25.8336 46.7069 20.5215 18.1044 16.6867 30.0202 16.4216 104.729 38.4703 27.4341 15.8385 13.5986 66.2588 32.5415 26.6011 20.7865 13.1351 17.423 33.7172 16.0419 18.3087
internal_count=880 730 667 513 479 128 49 79 150 85 154 65 60 56 98 54 351 128 92 53 44 223 109 89 69 44 59 114 54 63
is_linear=0
shrinkage=0.05


Tree=15
num_leaves=31
num_cat=0
split_feature=5 49 71 44 54 11 30 22 88 78 87 81 35 74 95 65 1 33 78 2 40 55 29 104 24 38 44 97 6 58
split_gain=5.73658 6.2562 8.85025 6.85107 13.09 12.891 9.13126 7.98443 7.34513 5.94831 5.59061 7.27923 5.36021 16.1035 4.98449 5.70985 5.78289 6.96746 7.47874 5.7136 3.8317 4.0941 3.94736 2.79173 1.40489 1.25466 0.77958 0.186154 0.000789336 0.000710547
threshold=3.8249000000000009 -0.72238499999999994 -2.0763999999999996 -1.3198999999999999 -1.1815499999999999 0.64105500000000015 0.058855500000000005 -1.0000000180025095e-35 -1.5786499999999999 -3.3326999999999996 -0.99974999999999992 -0.20816999999999999 1.3874500000000001 0.33222000000000002 21.422500000000003 -1.3102499999999997 1.2213500000000004 3.5649000000000002 -0.75855499999999998 0.41183500000000006 -1.0645499999999999 0.8172600000000001 -0.42008999999999996 2.1344500000000006 3.4087500000000004 1.4237500000000003 4.0093000000000005 -1.1174499999999996 1.7816000000000003 -0.38494999999999996
decision_type=2 2 2 2 2 2 2 2 2 2 2 2 2 2 2 2 2 2 2 2 2 2 2 2 2 2 2 2 2 2
left_child=1 3 25 8 10 6 7 -6 -1 -4 11 -5 14 -14 15 19 23 18 -18 -11 21 22 -12 24 26 27 28 -3 29 -17
right_child=-2 2 9 4 5 -7 -8 -9 -10 12 20 -13 13 -15 -16 16 17 -19 -20 -21 -22 -23 -24 -25 -26 -27 -28 -29 -30 -31
leaf_value=0.090906415300902918 0.049506580767352842 -0.034361889060839916 0.051139396167400125 0.058006467596633748 0.079965791671864919 0.081948655175598739 -0.039127743270828561 -0.012535765085296547 0.0093095193618241423 0.047758628151283407 -0.024721751923413464 -0.026566596106232451 0.096805385239980141 -0.020328877788519162 0.040606830577395461 -0.047560930321821335 -0.025087784229350707 -0.039241502149732627 0.056984323093144176 -0.020451890496801867 -0.046487979961242085 -0.046721902405989446 0.039325116555481938 0.001298719733796241 -0.01203154079194751 -0.018487340059909967 -0.023408125945376407 -0.046617454395030879 -0.046296183055954204 -0.046819993925940516
leaf_weight=4.9988423883914948 5.6733597368001929 4.1163462549448058 5.0267871022224417 5.1870149821043015 5.0631489008665111 8.4125235080718976 6.6809948235750189 4.3260865509510067 6.1524407267570478 6.7789138257503492 4.4859994798898652 4.9936955720186216 4.8230648636817914 7.4923943728208542 4.5140235722064963 4.4210610538721111 4.5342763513326654 6.5560232400894156 7.1569998115301141 5.6113548576831818 13.054791465401651 4.8348169177770606 5.1879458874464062 5.1547751277685157 4.2827932834625235 7.1035672277212134 4.2500755637884131 12.53020803630352 4.9053381979465476 12.06849768757821
leaf_count=21 26 20 22 23 22 36 32 20 28 30 21 24 21 35 20 20 21 31 32 26 63 23 24 24 20 34 20 60 24 57
internal_value=0 -0.00153757 -0.00900843 0.00979691 0.00332938 0.0318032 0.00555285 0.0373457 0.0458874 -0.00166688 -0.0151401 0.0165229 -0.00488247 0.025544 -0.0102177 -0.0137086 -0.0208124 0.00201748 0.025154 0.0168672 -0.026835 -0.00915151 0.00962532 -0.0326868 -0.0385405 -0.0360797 -0.0429675 -0.0435869 -0.046853 -0.0470186
internal_weight=0 184.705 111.327 73.3783 62.227 24.4828 16.0702 9.38924 11.1513 87.5764 37.7443 10.1807 82.5496 12.3155 70.2341 65.7201 53.3298 18.2473 11.6913 12.3903 27.5636 14.5088 9.67395 35.0825 29.9278 23.7501 25.645 16.6466 21.3949 16.4896
internal_count=880 854 517 337 288 110 74 42 49 403 178 47 381 56 325 305 249 84 53 56 131 68 45 165 141 114 121 80 101 77
is_linear=0
shrinkage=0.05


end of trees

feature_importances:
recent_10_loss_kurtosis=12
recent_15%_correlation_kurtosis=11
top_10%_loss_skew=11
recent_15%_loss_kurtosis=10
recent_15%_loss_skew=10
all_correlation_best_percentile75_ratio=9
all_correlation_stddev_best_ratio=9
recent_15%_correlation_best_percentile75_ratio=9
recent_25_correlation_skew=9
top_30%_correlation_best_percentile25_ratio=9
all_correlation_best_percentile25_ratio=8
all_correlation_kurtosis=8
all_loss_best_percentile75_ratio=8
all_loss_stddev_median_ratio=8
recent_10_loss_percentile5_percentile25_ratio=8
recent_15%_correlation_stddev_best_ratio=8
recent_25_loss_percentile5_percentile25_ratio=8
top_10%_correlation_stddev_best_ratio=8
all_loss_percentile5_percentile25_ratio=7
all_loss_skew=7
recent_10_correlation_kurtosis=7
recent_25_correlation_kurtosis=7
top_10%_correlation_skew=7
top_10%_loss_kurtosis=7
all_loss_kurtosis=6
recent_10_correlation_best_percentile50_ratio=6
recent_15%_correlation_skew=6
recent_15%_correlation_stddev_median_ratio=6
recent_25_loss_stddev_best_ratio=6
top_20%_correlation_percentile5_percentile25_ratio=6
top_30%_correlation_kurtosis=6
top_30%_correlation_stddev_best_ratio=6
all_correlation_best_percentile50_ratio=5
all_correlation_skew=5
recent_15%_loss_best_percentile75_ratio=5
recent_25_correlation_best_percentile75_ratio=5
top_10%_correlation_stddev_median_ratio=5
top_20%_correlation_best_percentile50_ratio=5
top_20%_correlation_stddev_best_ratio=5
top_30%_correlation_best_percentile50_ratio=5
top_30%_loss_kurtosis=5
all_correlation_stddev_median_ratio=4
recent_10_correlation_skew=4
recent_10_correlation_stddev_median_ratio=4
recent_15%_loss_best_percentile25_ratio=4
recent_15%_loss_best_percentile50_ratio=4
recent_15%_loss_stddev_best_ratio=4
recent_25_correlation_stddev_best_ratio=4
recent_25_loss_skew=4
recent_25_loss_stddev_median_ratio=4
top_20%_correlation_skew=4
top_20%_correlation_stddev_median_ratio=4
top_20%_loss_kurtosis=4
top_30%_correlation_best_percentile75_ratio=4
top_30%_loss_best_percentile25_ratio=4
all_loss_best_percentile25_ratio=3
all_loss_best_percentile50_ratio=3
all_loss_stddev_best_ratio=3
recent_10_loss_best_percentile50_ratio=3
recent_10_loss_skew=3
recent_10_loss_stddev_best_ratio=3
recent_10_loss_stddev_median_ratio=3
recent_15%_correlation_best_percentile50_ratio=3
recent_15%_loss_percentile5_percentile25_ratio=3
recent_15%_loss_stddev_median_ratio=3
recent_25_correlation_best_percentile25_ratio=3
recent_25_correlation_best_percentile50_ratio=3
recent_25_correlation_stddev_median_ratio=3
recent_25_loss_best_percentile75_ratio=3
top_10%_correlation_best_percentile50_ratio=3
top_10%_loss_best_percentile25_ratio=3
top_10%_loss_best_percentile50_ratio=3
top_20%_correlation_best_percentile25_ratio=3
top_20%_correlation_best_percentile75_ratio=3
top_20%_loss_best_percentile50_ratio=3
top_30%_correlation_stddev_median_ratio=3
top_30%_loss_best_percentile50_ratio=3
top_30%_loss_skew=3
log10_cardinality=2
recent_10_correlation_best_percentile75_ratio=2
recent_10_correlation_stddev_best_ratio=2
recent_10_loss_best_percentile25_ratio=2
recent_10_loss_best_percentile75_ratio=2
recent_15%_correlation_best_percentile25_ratio=2
recent_15%_correlation_percentile5_percentile25_ratio=2
recent_25_correlation_percentile5_percentile25_ratio=2
recent_25_loss_best_percentile50_ratio=2
recent_25_loss_kurtosis=2
top_10%_correlation_best_percentile25_ratio=2
top_10%_correlation_best_percentile75_ratio=2
top_10%_correlation_percentile5_percentile25_ratio=2
top_10%_loss_best_percentile75_ratio=2
top_10%_loss_percentile5_percentile25_ratio=2
top_20%_correlation_kurtosis=2
top_20%_loss_best_percentile25_ratio=2
top_20%_loss_percentile5_percentile25_ratio=2
top_30%_correlation_percentile5_percentile25_ratio=2
top_30%_correlation_skew=2
top_30%_loss_best_percentile75_ratio=2
top_30%_loss_stddev_best_ratio=2
all_correlation_percentile5_percentile25_ratio=1
recent_10_correlation_best_percentile25_ratio=1
recent_10_correlation_percentile5_percentile25_ratio=1
recent_25_loss_best_percentile25_ratio=1
top_10%_correlation_kurtosis=1
top_10%_loss_stddev_median_ratio=1
top_20%_loss_best_percentile75_ratio=1
top_20%_loss_skew=1
top_20%_loss_stddev_best_ratio=1
top_20%_loss_stddev_median_ratio=1
top_30%_loss_percentile5_percentile25_ratio=1
top_30%_loss_stddev_median_ratio=1

parameters:
[boosting: gbdt]
[objective: multiclass]
[metric: multi_error]
[tree_learner: serial]
[device_type: cpu]
[data_sample_strategy: bagging]
[data: ]
[valid: ]
[num_iterations: 100]
[learning_rate: 0.05]
[num_leaves: 31]
[num_threads: 0]
[seed: 0]
[deterministic: 0]
[force_col_wise: 0]
[force_row_wise: 0]
[histogram_pool_size: -1]
[max_depth: -1]
[min_data_in_leaf: 20]
[min_sum_hessian_in_leaf: 0.001]
[bagging_fraction: 1]
[pos_bagging_fraction: 1]
[neg_bagging_fraction: 1]
[bagging_freq: 0]
[bagging_seed: 3]
[feature_fraction: 0.85]
[feature_fraction_bynode: 1]
[feature_fraction_seed: 2]
[extra_trees: 0]
[extra_seed: 6]
[early_stopping_round: 5]
[early_stopping_min_delta: 0]
[first_metric_only: 0]
[max_delta_step: 0]
[lambda_l1: 0]
[lambda_l2: 0]
[linear_lambda: 0]
[min_gain_to_split: 0]
[drop_rate: 0.1]
[max_drop: 50]
[skip_drop: 0.5]
[xgboost_dart_mode: 0]
[uniform_drop: 0]
[drop_seed: 4]
[top_rate: 0.2]
[other_rate: 0.1]
[min_data_per_group: 100]
[max_cat_threshold: 32]
[cat_l2: 10]
[cat_smooth: 10]
[max_cat_to_onehot: 4]
[top_k: 20]
[monotone_constraints: ]
[monotone_constraints_method: basic]
[monotone_penalty: 0]
[feature_contri: ]
[forcedsplits_filename: ]
[refit_decay_rate: 0.9]
[cegb_tradeoff: 1]
[cegb_penalty_split: 0]
[cegb_penalty_feature_lazy: ]
[cegb_penalty_feature_coupled: ]
[path_smooth: 0]
[interaction_constraints: ]
[verbosity: -1]
[saved_feature_importance_type: 0]
[use_quantized_grad: 0]
[num_grad_quant_bins: 4]
[quant_train_renew_leaf: 0]
[stochastic_rounding: 1]
[linear_tree: 0]
[max_bin: 255]
[max_bin_by_feature: ]
[min_data_in_bin: 3]
[bin_construct_sample_cnt: 200000]
[data_random_seed: 1]
[is_enable_sparse: 1]
[enable_bundle: 1]
[use_missing: 1]
[zero_as_missing: 0]
[feature_pre_filter: 1]
[pre_partition: 0]
[two_round: 0]
[header: 0]
[label_column: ]
[weight_column: ]
[group_column: ]
[ignore_column: ]
[categorical_feature: ]
[forcedbins_filename: ]
[precise_float_parser: 0]
[parser_config_file: ]
[objective_seed: 5]
[num_class: 4]
[is_unbalance: 0]
[scale_pos_weight: 1]
[sigmoid: 1]
[boost_from_average: 1]
[reg_sqrt: 0]
[alpha: 0.9]
[fair_c: 1]
[poisson_max_delta_step: 0.7]
[tweedie_variance_power: 1.5]
[lambdarank_truncation_level: 30]
[lambdarank_norm: 1]
[label_gain: ]
[lambdarank_position_bias_regularization: 0]
[eval_at: ]
[multi_error_top_k: 1]
[auc_mu_weights: ]
[num_machines: 1]
[local_listen_port: 12400]
[time_out: 120]
[machine_list_filename: ]
[machines: ]
[gpu_platform_id: -1]
[gpu_device_id: -1]
[gpu_use_dp: 0]
[num_gpu: 1]

end of parameters

pandas_categorical:null
